%YAML:1.0
opencv_ml_ann_mlp:
   format: 3
   layer_sizes: [ 275, 100, 100, 9 ]
   activation_function: SIGMOID_SYM
   f_param1: 6.6666666666666663e-01
   f_param2: 1.7159000000000000e+00
   min_val: -9.4999999999999996e-01
   max_val: 9.4999999999999996e-01
   min_val1: -9.7999999999999998e-01
   max_val1: 9.7999999999999998e-01
   training_params:
      train_method: BACKPROP
      dw_scale: 1.0000000000000000e-03
      moment_scale: 0.
      term_criteria:
         iterations: 300
   input_scale:
      - 6.2091002751169926e+00
      - -3.5885213903164406e+00
      - 5.2711647838162445e+00
      - -3.5946269980824206e+00
      - 5.6406665387982597e+00
      - -4.0872630969362582e+00
      - 6.0254306731014866e+00
      - -4.4450300515617664e+00
      - 7.0322168286472060e+00
      - -5.3633066207807065e+00
      - 7.3921533761199898e+00
      - -5.7777590806075239e+00
      - 8.2790868887446205e+00
      - -6.7269916284905840e+00
      - 9.3405388251968891e+00
      - -7.7982527722191985e+00
      - 9.3829174057391178e+00
      - -8.1137896868137034e+00
      - 1.0106215606819626e+01
      - -8.8458883041836263e+00
      - 9.6684332068099366e+00
      - -8.3216729719608917e+00
      - 1.0649311790530216e+01
      - -9.1529374026322490e+00
      - 9.7204090852321734e+00
      - -8.0484746764006818e+00
      - 9.7120221961258579e+00
      - -8.4628460412810096e+00
      - 9.5273032723041560e+00
      - -8.3499424083907918e+00
      - 8.4380451954743823e+00
      - -7.2403144518953733e+00
      - 8.7454625600206821e+00
      - -7.5267663745428299e+00
      - 9.3259319257148423e+00
      - -7.9839727674234657e+00
      - 7.2345829872659415e+00
      - -5.8846635146560722e+00
      - 8.0651214821577053e+00
      - -6.5158674521421478e+00
      - 7.6693571323693810e+00
      - -6.0523806770319766e+00
      - 6.2209725835353122e+00
      - -4.5911518838177496e+00
      - 5.0691703119912850e+00
      - -3.7758656892240721e+00
      - 5.0724685604477422e+00
      - -3.4481082749446363e+00
      - 4.3051634981049176e+00
      - -1.3524060934322386e+00
      - 4.7455748282589241e+00
      - -2.1886791801734589e+00
      - 4.0146161407274024e+00
      - -2.3285699286411519e+00
      - 4.4169561050560500e+00
      - -2.9855409096453154e+00
      - 4.8433474589239243e+00
      - -3.6184335511788266e+00
      - 6.8255982963959054e+00
      - -5.4213910122854987e+00
      - 6.4762403319571229e+00
      - -4.8726693648276216e+00
      - 6.8509303712674399e+00
      - -5.1781854619041159e+00
      - 6.8195244902449907e+00
      - -5.3133384209116272e+00
      - 8.1065557314882568e+00
      - -6.6723470280914663e+00
      - 8.4069453895118613e+00
      - -6.7649483860772310e+00
      - 8.2749391238863250e+00
      - -6.6555097769136013e+00
      - 8.4621895779656224e+00
      - -6.5121364356684799e+00
      - 6.9899683396765937e+00
      - -5.1444954960718778e+00
      - 7.0897333345501306e+00
      - -5.6519452342978456e+00
      - 7.2469449386634084e+00
      - -5.8322353691222748e+00
      - 6.5972067664184113e+00
      - -5.2381295015241918e+00
      - 7.4905235784820379e+00
      - -5.9603847862395760e+00
      - 7.0666583853390286e+00
      - -5.4923894391840209e+00
      - 6.3936458732300583e+00
      - -4.9949741674257693e+00
      - 6.4491773600958942e+00
      - -5.1736903215722823e+00
      - 6.2486362362757317e+00
      - -4.9884690557383164e+00
      - 5.4400415025833002e+00
      - -3.9784949198873667e+00
      - 4.8112631270429231e+00
      - -3.0910792724913345e+00
      - 3.7993637854087670e+00
      - -2.0677576041252115e+00
      - 3.0697845899862322e+00
      - -5.9955724024515611e-01
      - 9.4335232390291082e-02
      - -2.1686260319607145e-01
      - 4.9290985667295069e-02
      - -4.0112664198212533e-01
      - 3.0194670482057939e-02
      - -3.7135974041151715e-01
      - 2.5662294408461940e-02
      - -4.6605086396976853e-01
      - 1.7402423978429331e-02
      - -5.7788049280094633e-01
      - 1.3661366325881562e-02
      - -6.3109231337606897e-01
      - 1.1353348226199812e-02
      - -6.6906455581294755e-01
      - 1.1905572254308076e-02
      - -6.8162822297366121e-01
      - 1.2521490123089909e-02
      - -7.0336232450046421e-01
      - 1.1549410833300845e-02
      - -6.7716718000767362e-01
      - 1.2168410819307925e-02
      - -5.9443386186274338e-01
      - 1.4513717914714236e-02
      - -4.6577356802163383e-01
      - 1.8083448741266828e-02
      - -3.4358552608406973e-01
      - 3.1942751684555154e-02
      - -2.5040180056168526e-01
      - 1.1927324330683514e-01
      - -1.7274055927196813e-01
      - 2.2285273259172074e-02
      - -3.8883959548762304e-01
      - 1.2630937300851503e-02
      - -5.3412894631991581e-01
      - 1.2036638210643286e-02
      - -6.7045458354916510e-01
      - 1.0725686302109691e-02
      - -8.3845278782354027e-01
      - 9.6559982712816281e-03
      - -8.7614310751146185e-01
      - 1.0152621480212527e-02
      - -8.6834087855472886e-01
      - 1.0210239606275102e-02
      - -8.7045226620393601e-01
      - 9.7469213427803115e-03
      - -8.6221042131077330e-01
      - 1.0147688924060682e-02
      - -8.5065626808246619e-01
      - 1.0179224422175549e-02
      - -9.4175376292058610e-01
      - 1.0539720484202819e-02
      - -9.7825566563146860e-01
      - 1.1549943523557963e-02
      - -8.9054047305777939e-01
      - 1.4157745994758279e-02
      - -7.0658543803724649e-01
      - 1.6492359644671148e-02
      - -4.0036624792580994e-01
      - 2.5585143573863618e-02
      - -2.6790880225045693e-01
      - 1.2983683199978235e-02
      - -5.5665676248182550e-01
      - 1.1485623017033661e-02
      - -8.3000128629989223e-01
      - 1.2467502321265323e-02
      - -1.0894017545547010e+00
      - 1.1623924442619352e-02
      - -1.2555174481298166e+00
      - 1.2075578708147796e-02
      - -1.1487067745819675e+00
      - 1.4369645467636680e-02
      - -1.4270544464411599e+00
      - 1.4541892519807208e-02
      - -1.7184505401854933e+00
      - 1.2747880980168517e-02
      - -1.5757553110428992e+00
      - 1.3127643721557555e-02
      - -1.6187742740789592e+00
      - 1.4184798781118417e-02
      - -1.6299475105154118e+00
      - 1.2774968165823028e-02
      - -1.4676529519241515e+00
      - 1.2974786454273210e-02
      - -1.7888800404483582e+00
      - 1.2409667668234559e-02
      - -1.3211303671630861e+00
      - 1.2927006164460320e-02
      - -7.2406093148753026e-01
      - 1.4284194595202160e-02
      - -4.6579609271940842e-01
      - 1.1807893064736105e-02
      - -6.6639948215924449e-01
      - 1.1227589174461022e-02
      - -8.9975576694646264e-01
      - 1.3387086758050563e-02
      - -1.2186865186639133e+00
      - 1.3289791220811843e-02
      - -1.1294794975480777e+00
      - 1.2371578081333172e-02
      - -8.7169854756979703e-01
      - 1.2821379584478728e-02
      - -1.2597373872198181e+00
      - 1.2905894375986670e-02
      - -1.2493499130409165e+00
      - 1.3646631875838465e-02
      - -9.6734228480799800e-01
      - 1.4058290002879321e-02
      - -1.1076962985027325e+00
      - 1.3360990953289166e-02
      - -1.1782243976279825e+00
      - 1.2768257738221010e-02
      - -1.0001801894939790e+00
      - 1.4271531033891369e-02
      - -1.3630132340299241e+00
      - 1.3752310000444246e-02
      - -1.3485167426872398e+00
      - 9.9715946040162644e-03
      - -9.1933517607832715e-01
      - 1.2311597840008738e-02
      - -6.5095804671310575e-01
      - 1.1528142018233116e-02
      - -7.0997453946773603e-01
      - 9.5582411061700089e-03
      - -1.0706328687313418e+00
      - 1.1135396884753752e-02
      - -1.2410207838456595e+00
      - 1.0550498598884985e-02
      - -1.0601432040396843e+00
      - 9.9264181504783375e-03
      - -9.6925197917601691e-01
      - 1.0638937217069941e-02
      - -1.3631291167664210e+00
      - 1.0189112563149829e-02
      - -1.0415146899320855e+00
      - 9.1334792979434858e-03
      - -9.7990684789660343e-01
      - 1.0160652143635563e-02
      - -1.2091176050926320e+00
      - 1.0572606856757608e-02
      - -1.3982576378603797e+00
      - 1.0564678212847723e-02
      - -1.0309668738744502e+00
      - 1.3855514640034157e-02
      - -9.2370097600227719e-01
      - 1.2962638272709650e-02
      - -8.7639354390894442e-01
      - 9.8009710630046210e-03
      - -9.2309375735930876e-01
      - 1.0722269438601972e-02
      - -7.2245912010442259e-01
      - 1.4234192219506198e-02
      - -6.1697860758342382e-01
      - 1.0853176362926252e-02
      - -9.5433102501592904e-01
      - 1.2498316611668349e-02
      - -1.0873535452151464e+00
      - 1.3660658310236084e-02
      - -1.2704412228519559e+00
      - 1.1288481937410038e-02
      - -1.3765460330342885e+00
      - 1.2954222370796024e-02
      - -1.7513513048885383e+00
      - 1.1654274103357891e-02
      - -1.4819682115568775e+00
      - 1.1142808811038881e-02
      - -1.7363570005891276e+00
      - 1.2320387624268719e-02
      - -2.0607618472225102e+00
      - 1.3734760894995873e-02
      - -2.2157168869111157e+00
      - 1.0863597339848274e-02
      - -1.2374511452631769e+00
      - 1.2490842590734245e-02
      - -1.0485129131049677e+00
      - 1.3059999788910787e-02
      - -9.6388803039765691e-01
      - 1.0710619340651945e-02
      - -7.9751025389360120e-01
      - 1.1373546441109515e-02
      - -7.0607499228083326e-01
      - 1.2344932152284842e-02
      - -5.6914394095189080e-01
      - 1.0267787619764575e-02
      - -7.2653448950885891e-01
      - 1.2765111354684005e-02
      - -8.1373916750663777e-01
      - 1.4247891353760535e-02
      - -9.0989982024705207e-01
      - 1.1360191093602621e-02
      - -8.8674778984661384e-01
      - 1.1930944863913601e-02
      - -1.1132805793706968e+00
      - 1.3248106550917885e-02
      - -1.6092642532195427e+00
      - 1.0959173951507398e-02
      - -1.5113582651745490e+00
      - 1.2764143577723845e-02
      - -1.5005937989995342e+00
      - 1.2899155393870411e-02
      - -1.3277234086449372e+00
      - 1.1899125695007354e-02
      - -1.0646298208038762e+00
      - 1.2836362552197302e-02
      - -1.5763643391686892e+00
      - 1.1824527187342910e-02
      - -1.4916573089780281e+00
      - 1.0875516259415826e-02
      - -1.0751760384739715e+00
      - 1.2828508023241359e-02
      - -6.7887874642532431e-01
      - 1.0958064649775496e-02
      - -6.3821279977485557e-01
      - 1.0319019598891987e-02
      - -7.3573423645893099e-01
      - 1.0946971235950424e-02
      - -6.3945411288620757e-01
      - 1.2266012492168471e-02
      - -7.5851893342375143e-01
      - 1.0982931212653649e-02
      - -7.6640661370138286e-01
      - 1.0935930971033321e-02
      - -1.1832174509234099e+00
      - 9.9542035682597656e-03
      - -1.2775705407263049e+00
      - 9.5179731756599335e-03
      - -1.0773908026884946e+00
      - 1.0409061400894638e-02
      - -9.8778403362972567e-01
      - 1.1792136280175272e-02
      - -7.6526898204447802e-01
      - 1.0656389662442339e-02
      - -9.0579312130759881e-01
      - 1.0427946104327552e-02
      - -1.2218676159484489e+00
      - 9.8903493153422502e-03
      - -1.1947996701637591e+00
      - 9.2658267616793129e-03
      - -1.0470384240697623e+00
      - 1.1440952115494797e-02
      - -6.7041349292864916e-01
      - 1.0076383850620154e-02
      - -7.4206196932095769e-01
      - 1.1560576088332521e-02
      - -7.9395910491708988e-01
      - 1.3114335561954328e-02
      - -8.3253419895027303e-01
      - 1.4601619079014047e-02
      - -1.0202671538083492e+00
      - 1.1316939914530054e-02
      - -1.3040496855536068e+00
      - 1.2160314352054570e-02
      - -1.9397797997449808e+00
      - 1.2939066368625837e-02
      - -1.5492672915169581e+00
      - 1.2806289406329356e-02
      - -1.2143895126691631e+00
      - 1.2354634105414816e-02
      - -1.3502052997044145e+00
      - 1.3468444698637928e-02
      - -1.6366482454482780e+00
      - 1.0788470820521088e-02
      - -1.2617550643540467e+00
      - 1.2623741480560531e-02
      - -1.2430757846432421e+00
      - 1.2090569316109547e-02
      - -1.0174144593475631e+00
      - 1.0646756114549035e-02
      - -9.3887256219333559e-01
      - 1.0256970516382418e-02
      - -1.0007030545178617e+00
      - 1.0452632959650342e-02
      - -8.3092424768898576e-01
      - 1.3538652441135054e-02
      - -8.5526935421239370e-01
      - 1.3973704992792426e-02
      - -9.1744601056126840e-01
      - 1.3351553944991892e-02
      - -1.2777590591494539e+00
      - 1.2286109987373528e-02
      - -1.7009907448036108e+00
      - 1.2901901133335622e-02
      - -1.8684029009068450e+00
      - 1.3255617859879464e-02
      - -1.2181455722958197e+00
      - 1.1156758770820082e-02
      - -9.7166392191383633e-01
      - 1.1631417897266049e-02
      - -1.3826680907301778e+00
      - 1.2774714760414679e-02
      - -1.8778830697809579e+00
      - 1.1508650363772157e-02
      - -1.3455861091987400e+00
      - 1.4273477348008134e-02
      - -1.0052137438074236e+00
      - 1.5688248119374974e-02
      - -7.9414993928422284e-01
      - 1.2955920099877382e-02
      - -7.6067632034682375e-01
      - 9.1603893414189085e-03
      - -1.0849270318848325e+00
      - 9.9001675273200154e-03
      - -8.2546914072619992e-01
      - 9.9370153433759340e-03
      - -8.8279530562014474e-01
      - 1.1059335834248779e-02
      - -9.3788252626537338e-01
      - 1.0473144685244719e-02
      - -9.0598720576036507e-01
      - 9.8683735658238337e-03
      - -9.9103425108738896e-01
      - 1.0998375253556784e-02
      - -1.2641810636272166e+00
      - 9.8842454642794047e-03
      - -9.5502261347968587e-01
      - 9.5552541756074739e-03
      - -9.1807321441267675e-01
      - 1.0422564392707419e-02
      - -1.1869743448614380e+00
      - 1.0057394312064379e-02
      - -1.3370554323372024e+00
      - 1.0350047087560189e-02
      - -1.1515914460641681e+00
      - 1.2745482399243384e-02
      - -7.8553191522693122e-01
      - 1.1287782427985229e-02
      - -6.9231732224976072e-01
      - 1.0666213573671184e-02
      - -8.5930449353863592e-01
      - 9.2561415113035228e-03
      - -9.6710719928447153e-01
      - 1.1518463068482728e-02
      - -7.3532809060175941e-01
      - 1.1121740718503302e-02
      - -9.7359973921978327e-01
      - 1.2444055117026530e-02
      - -1.4493748333428715e+00
      - 1.2608093200446155e-02
      - -1.1953052036468952e+00
      - 1.2339512189823132e-02
      - -1.0587868792762032e+00
      - 1.1826270209461550e-02
      - -1.2694889366225450e+00
      - 1.3075767193724025e-02
      - -1.2579789817410356e+00
      - 1.1445535419489339e-02
      - -1.1324502171375199e+00
      - 1.2010194913121070e-02
      - -1.3879367776611407e+00
      - 1.4105437662672315e-02
      - -1.4927444202324598e+00
      - 1.2821985282010435e-02
      - -1.0247271685726271e+00
      - 1.1721538663933247e-02
      - -9.8568709040615665e-01
      - 1.1513165531814399e-02
      - -1.2510973211238314e+00
      - 1.0870811977129729e-02
      - -1.0717121187108241e+00
      - 1.2743451805755864e-02
      - -7.9522068797067336e-01
      - 1.3823607100380520e-02
      - -5.6279559022468739e-01
      - 1.2591615856442102e-02
      - -7.1786683503394044e-01
      - 1.1466211638138058e-02
      - -1.2210856416936680e+00
      - 1.2508537048163576e-02
      - -1.2471155213306995e+00
      - 1.2201772481507394e-02
      - -1.1027877818631338e+00
      - 1.3830048559077905e-02
      - -1.3283205259730457e+00
      - 1.2913214292669816e-02
      - -1.3627151772528918e+00
      - 1.1840928667331089e-02
      - -1.3543572548116283e+00
      - 1.3218901328293920e-02
      - -1.6282039842988234e+00
      - 1.3051267829108617e-02
      - -1.3432304843889489e+00
      - 1.2116797268197654e-02
      - -1.1672514701697072e+00
      - 1.2215355964294360e-02
      - -1.2159193408136686e+00
      - 1.1495913978474296e-02
      - -1.1847398244942591e+00
      - 1.1197638280870918e-02
      - -8.1266538052205717e-01
      - 1.4603865736872621e-02
      - -5.2724991125881504e-01
      - 1.6951730463826149e-02
      - -3.7235352777438818e-01
      - 1.6734714483917328e-02
      - -4.8703789739400771e-01
      - 1.2752836751679529e-02
      - -7.7293917461616279e-01
      - 1.0842660691856588e-02
      - -9.0791704758822123e-01
      - 1.0620756425353612e-02
      - -9.2998761434877941e-01
      - 1.0526289670340193e-02
      - -8.2141356979240876e-01
      - 1.0806023935555940e-02
      - -8.0212991466460071e-01
      - 1.0233463447502290e-02
      - -8.2279398638251167e-01
      - 1.0972000555392717e-02
      - -7.6463493525685111e-01
      - 1.0737217560673954e-02
      - -7.2371314684818466e-01
      - 1.0225865333786631e-02
      - -7.8985994302351903e-01
      - 1.0532796333549400e-02
      - -6.6792456749646023e-01
      - 1.3313661604388259e-02
      - -6.0844963837985877e-01
      - 1.4913728620836220e-02
      - -4.7106811781675784e-01
      - 1.9717402654778941e-02
      - -3.8596249104699470e-01
      - 3.3040586904348496e-02
      - -2.1989080250135376e-01
      - 2.3574244188174848e-02
      - -3.3735556338250211e-01
      - 1.5106560039600529e-02
      - -4.2246276524538029e-01
      - 1.3547127693049549e-02
      - -5.3363225981702078e-01
      - 1.1876962331338741e-02
      - -6.3917169695779286e-01
      - 1.2100135102991079e-02
      - -6.7858113985624680e-01
      - 1.2352237037358221e-02
      - -6.6517506344854327e-01
      - 1.1777991338987763e-02
      - -6.6945019737120104e-01
      - 1.2232883864707889e-02
      - -6.5270168850544852e-01
      - 1.2179631201478967e-02
      - -6.2102119551449075e-01
      - 1.2635258412095536e-02
      - -5.8165758552232905e-01
      - 1.4205143585222516e-02
      - -5.0371112598174095e-01
      - 1.4624679969888671e-02
      - -4.1184443593364645e-01
      - 1.9348048222881088e-02
      - -3.4070356180981415e-01
      - 2.6692735700951185e-02
      - -2.1446232476971125e-01
   output_scale:
      - 5.2631578947368418e-01
      - 4.9999999999999994e-01
      - 5.2631578947368418e-01
      - 4.9999999999999994e-01
      - 5.2631578947368418e-01
      - 4.9999999999999994e-01
      - 5.2631578947368418e-01
      - 4.9999999999999994e-01
      - 5.2631578947368418e-01
      - 4.9999999999999994e-01
      - 5.2631578947368418e-01
      - 4.9999999999999994e-01
      - 5.2631578947368418e-01
      - 4.9999999999999994e-01
      - 5.2631578947368418e-01
      - 4.9999999999999994e-01
      - 5.2631578947368418e-01
      - 4.9999999999999994e-01
   inv_output_scale:
      - 1.8999999999999999e+00
      - -9.4999999999999996e-01
      - 1.8999999999999999e+00
      - -9.4999999999999996e-01
      - 1.8999999999999999e+00
      - -9.4999999999999996e-01
      - 1.8999999999999999e+00
      - -9.4999999999999996e-01
      - 1.8999999999999999e+00
      - -9.4999999999999996e-01
      - 1.8999999999999999e+00
      - -9.4999999999999996e-01
      - 1.8999999999999999e+00
      - -9.4999999999999996e-01
      - 1.8999999999999999e+00
      - -9.4999999999999996e-01
      - 1.8999999999999999e+00
      - -9.4999999999999996e-01
   weights:
      -
         - -2.1437839398788190e-02
         - 1.5066306066878234e-02
         - -1.2315509851883708e-02
         - -9.7403403748970614e-03
         - 2.5462954667810404e-02
         - 2.1201815683228133e-02
         - 1.5900726451882837e-02
         - -1.1561206277080571e-02
         - 4.5519316489176604e-03
         - -1.9149558991702741e-03
         - -4.0838133733305214e-03
         - 3.4863177676361704e-03
         - -4.8925749532026160e-03
         - 9.7637020511231552e-03
         - -2.1253873652023702e-02
         - -9.7290590060641110e-03
         - 1.1040557036259495e-02
         - 8.7197166241390241e-04
         - -8.0812817093175258e-03
         - -3.3282216391092787e-03
         - 1.5776297173708230e-02
         - 8.7575738093050963e-03
         - 1.2047025734422160e-02
         - -2.0692924409641485e-02
         - 1.1234145851524744e-02
         - 3.3440990626924950e-03
         - 1.2147177867705685e-02
         - 3.7232750138877103e-03
         - -1.7903195705983834e-02
         - -6.6347557518065909e-03
         - -1.2169223608454408e-02
         - -9.3494891007932773e-03
         - 5.3657489532339666e-03
         - -1.2869835529502612e-02
         - 5.0279145946477057e-03
         - 2.3508346449176865e-02
         - -3.7885958253495050e-03
         - -4.4387215550133353e-03
         - 1.2764749772615602e-02
         - -1.9271960439882930e-02
         - 2.0444207681580419e-03
         - 2.8641973167621913e-03
         - 4.2356916452598627e-03
         - -1.5023125281611982e-02
         - 3.2094518069407320e-03
         - 3.3449590740817965e-03
         - -1.2339238656235670e-03
         - -8.6064311845936020e-03
         - 4.2137730230783080e-03
         - -9.6097963063785843e-03
         - 1.3582404479707263e-02
         - -3.0657524212351177e-03
         - 4.3604566031952936e-03
         - 1.8056087011576662e-02
         - 1.1236220998272855e-02
         - 1.1418348428399012e-02
         - 1.6784492298858120e-02
         - -1.2900569745919218e-02
         - 1.4205273950357002e-02
         - 2.0615254956872671e-02
         - -1.2330462746431717e-03
         - 1.7487071803794767e-02
         - -1.2743453830834979e-02
         - 2.1984437661345658e-02
         - -1.6806036923459607e-02
         - -1.3790585515680853e-02
         - -7.4303782603200917e-04
         - 1.7057899518635525e-02
         - -3.5559584393896207e-03
         - -2.0682951075408483e-02
         - 1.4986226405392227e-02
         - 1.7444500873682031e-02
         - -1.2143427261427546e-02
         - 9.8247283207363294e-03
         - 2.8082100172222989e-03
         - -1.9720712545394099e-02
         - -1.7831504662940728e-02
         - 9.1593540127634931e-03
         - 3.6672199567774166e-03
         - -2.6558561883967251e-03
         - 8.8726547765344588e-07
         - -1.5285502835616055e-02
         - -8.5385614042420253e-03
         - -6.6750319293082229e-03
         - 1.5498107435709455e-02
         - -2.7387500333533499e-03
         - 3.6913837640000554e-03
         - -3.7163977581610732e-04
         - 1.3534499880456111e-02
         - -1.3398312182015502e-03
         - -7.4827568364873578e-03
         - 2.8311010618967086e-03
         - -4.3100360549259637e-03
         - 2.0932732091391008e-02
         - 4.4103692104253784e-03
         - 7.6421703322292435e-03
         - -1.2110062516994469e-02
         - 3.2220334569518561e-03
         - -4.2550989249067177e-03
         - -1.1583768713235985e-02
         - 1.7319229143148179e-02
         - 6.6160834361848166e-03
         - 3.9086235095569730e-03
         - 2.9347556863772097e-03
         - -1.4984988003731162e-02
         - -2.0863775820175408e-02
         - -1.2669913742498312e-02
         - 1.6178505279568552e-03
         - 9.4203383405424158e-03
         - 7.4925990347295742e-03
         - -1.1645332596682675e-02
         - 5.0602964449583789e-03
         - 2.3492060364894091e-03
         - -1.6779512297146452e-04
         - 2.9242037737349649e-02
         - 8.2687372252745507e-03
         - -1.3059687284006681e-02
         - -1.1349813749472217e-02
         - -5.9335407122178760e-03
         - -1.7333752546633649e-02
         - -9.4085498001337895e-03
         - -9.1522926269719685e-03
         - -5.8618140142837900e-04
         - 4.6560344869840137e-03
         - 6.2380316630541791e-03
         - 7.6526906047143144e-03
         - -1.3040626425140898e-02
         - 3.8420980293484342e-03
         - 9.7389519983155180e-03
         - -1.5770696551912606e-03
         - 1.5989671955728271e-02
         - 5.0517312898607112e-03
         - 8.1962387432254983e-03
         - 1.3822095748778383e-02
         - -4.9997208380276603e-03
         - -1.9435526371102983e-02
         - -1.3374995492475650e-03
         - -6.8368806059564613e-04
         - -5.4491891397671268e-03
         - 1.3060850996519746e-02
         - -4.0484458315316798e-03
         - -1.0100122730660105e-02
         - -1.0434884406331958e-02
         - -7.4627804430664390e-03
         - -2.8228428230536035e-03
         - 8.4060205665063975e-03
         - 5.1000176168536230e-03
         - 1.8639254056412279e-02
         - -2.7338739602495712e-03
         - 2.0521253367282461e-03
         - -1.3416632030901066e-02
         - -2.2579549934284683e-03
         - -4.6694113361475647e-03
         - -1.1910044147783346e-02
         - -5.5876979676611760e-03
         - -2.0612008792404574e-02
         - -7.2805824706513155e-03
         - 8.5599265166234253e-03
         - -4.0864505287575639e-03
         - -1.8443710642984446e-02
         - 2.6758730287450884e-03
         - -7.3482009312105263e-03
         - 1.7111095998362282e-02
         - -1.4412599531018229e-02
         - 5.5291983074633949e-03
         - 4.4167235526134793e-03
         - -1.1459483597803872e-02
         - -1.1602901243671400e-02
         - 2.4561895580535969e-03
         - 1.1545383118648009e-02
         - -8.4399650071191133e-03
         - -1.7018380528996607e-02
         - 1.5176293105768353e-02
         - -9.4790124701646574e-03
         - -2.2667758264327217e-03
         - 1.2980507078513673e-02
         - 1.1807213025471422e-02
         - -1.4729547994952243e-02
         - -7.4986484101246583e-03
         - -6.9907303092678350e-03
         - 1.1058788997951248e-02
         - 1.1385215504679766e-02
         - 1.0721511827530282e-02
         - 4.1486914467585463e-03
         - -3.7081390713859384e-03
         - -4.2448495900994810e-04
         - -4.5662810916117591e-03
         - 1.1212293277693821e-02
         - -1.0433178136779653e-02
         - -6.0238473447896297e-03
         - 1.0908525559128615e-02
         - -1.0914311905481937e-02
         - -1.1752609219891403e-02
         - -1.3943571283316395e-02
         - 4.4818773235740759e-03
         - 4.4487300868336372e-03
         - 3.0337504977471161e-03
         - -2.4540308808141090e-03
         - 7.1596840602743978e-03
         - 7.5589520991653607e-03
         - 1.9606247636359077e-02
         - 1.0901803461943407e-02
         - -1.2564143486590285e-02
         - -2.5760259958859887e-03
         - -1.0033400974416740e-02
         - -1.2871521001941378e-02
         - -1.6328381403728467e-02
         - -1.0722982905729426e-02
         - -1.9265707640251368e-03
         - 6.9949234902622005e-04
         - 3.8638703683400056e-04
         - 2.3444338281916732e-03
         - 6.7183793199022696e-03
         - 6.2918705679751042e-03
         - 2.3245616961481023e-02
         - 1.3771880500014331e-02
         - -7.9429054907894821e-03
         - 4.5707787394553721e-03
         - 5.0293690177316474e-03
         - -1.0620742385185657e-02
         - -3.8399406269758662e-03
         - -1.0924386182274180e-02
         - 5.3989678540751762e-03
         - -3.3025175267387707e-03
         - 5.7897639194093679e-03
         - -5.6487679352509889e-04
         - -2.7169709732163799e-03
         - -1.0403628998050066e-02
         - -3.7863394672381632e-03
         - 1.2245078541833416e-02
         - 1.3546761343591838e-02
         - 1.5964420844110091e-02
         - 8.5771316113922632e-03
         - 5.2304519199690563e-03
         - 4.7107139948598187e-03
         - -1.7156591226847331e-02
         - 8.4999241762758280e-03
         - 2.3349580444589307e-03
         - -1.1853361631401922e-02
         - 7.9503709791137623e-03
         - 3.7949555621158968e-03
         - -2.7252473622858269e-03
         - -1.0177413765791430e-03
         - -1.7007436452457392e-02
         - -4.5052354943377641e-03
         - 1.3989548176050599e-02
         - 9.6659589827651014e-04
         - 1.7044242022249901e-02
         - 1.3141800816380075e-02
         - 1.2975967678965663e-02
         - -1.4910367212592307e-02
         - -1.8586052404496898e-03
         - -1.0344348389291635e-02
         - 5.4592684893640196e-05
         - -2.3549944372629320e-03
         - -2.6483249223226177e-03
         - -6.4242820605457411e-03
         - 4.0507880948751325e-03
         - -8.3892263589186826e-03
         - -1.2728406426920292e-02
         - 8.3179735009125556e-03
         - 8.5725721931096018e-03
         - 1.1872441819727192e-02
         - -1.2598867823147127e-02
         - -6.4306750790917014e-03
         - 1.0102214925741064e-02
         - 1.2482000773371181e-03
         - -4.3486735619203357e-03
         - 2.3704529183816037e-02
         - -4.0684408330934219e-03
         - -4.0446519350466536e-03
         - -1.6948791063613806e-02
         - 1.8750200112722951e-02
         - 5.5397047368880258e-03
         - 6.1289383270667830e-03
         - -9.2338930095897526e-03
         - 7.6902889139746494e-03
         - -1.9690880009374381e-02
         - -1.1267404028929302e-04
         - -7.8452202432914529e-03
         - 7.8689622693680072e-03
         - 2.8381586997129533e-03
         - 2.7360792691150937e-02
         - 1.2729145446333459e-02
         - 9.7045141138826767e-03
         - -2.7592076871825626e-02
         - 2.5160107357113325e-03
         - 9.0444270238830404e-03
         - -1.7156393182084988e-02
         - 1.9789432900682712e-02
         - 7.5107897803649267e-03
         - -1.5977937666615687e-02
         - -1.6437574607146101e-02
         - -2.1653481713899306e-02
         - 1.2835940517260693e-02
         - -5.6565466835862667e-03
         - -1.0206890573997462e-02
         - -1.9786620107917128e-02
         - 7.4713190822978774e-03
         - 6.0497890359540452e-03
         - -2.6424551720157234e-03
         - -4.7247560773608522e-03
         - -1.1627759257902099e-02
         - 4.1795285955023298e-03
         - -1.5838437830736966e-02
         - 4.7238822942759712e-03
         - -1.7263860090158721e-03
         - -1.3580595507472365e-02
         - -9.5065476456557066e-03
         - -1.2519365616105247e-03
         - 5.2329333937741404e-03
         - -3.8319045220167628e-03
         - 2.2742127992706916e-03
         - 1.2699261277177935e-02
         - -5.6990471245362093e-04
         - 3.5404129195200614e-03
         - -2.7082482157751211e-05
         - -1.6134037797913814e-03
         - -9.8092881668247530e-03
         - -1.8280702258407656e-02
         - 2.9395489665905990e-03
         - 1.5292046440289916e-02
         - 7.8642227699688479e-03
         - 1.8134727742052010e-02
         - -1.2748759491479760e-02
         - -9.1135533868680740e-03
         - 1.2118864526999930e-02
         - -9.7681820024001680e-04
         - -1.2721690244894474e-02
         - 9.8971375238028148e-04
         - -3.0488191593788906e-03
         - 6.0724973707844479e-03
         - -1.5413863888440175e-02
         - 1.8036493023246235e-02
         - 1.8032170015283885e-02
         - 9.4367711355876870e-03
         - 1.7804567958533916e-02
         - -3.7836955907253292e-02
         - -2.5788853312670276e-03
         - -1.2104121429228039e-02
         - 1.5868481036590869e-02
         - -6.9459229303314284e-03
         - 1.4805957732161939e-02
         - -2.7190035623462800e-03
         - -2.7347696241135366e-03
         - 5.8140828100457483e-03
         - -2.9459182659145474e-03
         - 1.4339509213767308e-02
         - 1.1458668911875919e-02
         - 1.2437977204984340e-02
         - 1.0061683436435263e-02
         - -2.9852977116281510e-03
         - -1.7959372380704823e-02
         - -1.4923528983045857e-02
         - 1.6609423081540387e-02
         - 7.3850543840012972e-03
         - -1.0833683400573771e-02
         - -7.1797747996103761e-03
         - -4.8808150420330343e-03
         - -1.0773895192151835e-02
         - -2.1441392227966234e-03
         - 1.6179134450609822e-02
         - 1.6733078896176673e-02
         - 6.5837964140262016e-03
         - 3.8023838293780501e-03
         - 1.2846094906928254e-02
         - 2.0436139511913448e-02
         - 5.1580765930224004e-03
         - 3.7967434098240388e-03
         - 8.7475373255773564e-03
         - 5.9933715328519674e-03
         - 8.2809178099791363e-03
         - 1.1567861518552221e-02
         - -2.4739441256094396e-03
         - 1.0396729716555927e-03
         - -2.0687108092416358e-02
         - 8.0218903189889796e-03
         - -7.3197754100751151e-03
         - -1.1364709461009235e-02
         - -9.1834393681731012e-03
         - 1.5905945007500611e-03
         - -7.2228459885082530e-03
         - -2.9663370607613984e-03
         - -1.1879741590189875e-02
         - -3.5862911784508501e-03
         - -7.5280956653139787e-03
         - 3.2439135161999983e-03
         - -7.3514958598579943e-03
         - 1.8637455547317255e-02
         - 2.2976094749252361e-02
         - 6.1332241017375199e-03
         - -5.0155929799364915e-03
         - -1.0570905657202921e-02
         - -2.4221403729768932e-02
         - 9.6036251723345852e-03
         - -3.9105634341238373e-03
         - 2.9807824462007243e-03
         - 2.6065548441718297e-03
         - -1.9736401964336519e-03
         - 1.5936546086803244e-02
         - 1.2106818944621719e-02
         - 1.5585520389253298e-02
         - 1.3095301208171829e-02
         - -1.3183183648936839e-02
         - 1.5591245852570569e-03
         - -3.4569859981344151e-03
         - 1.3688932678302740e-02
         - 2.2651125613318820e-02
         - -1.4244532366259868e-03
         - 6.6655309900582622e-03
         - 1.6535682764307898e-02
         - -1.1472238757813280e-02
         - -1.1374617660749939e-02
         - -7.9096650141050415e-03
         - 1.3153156513623679e-02
         - 1.8644756184508421e-02
         - -8.2917074458698052e-03
         - 3.0377412194828222e-03
         - -1.6428865464257234e-02
         - 9.7335842781078926e-03
         - -5.6246834652425720e-03
         - -1.8693684301428991e-02
         - 1.6836238739124012e-02
         - -1.1312276124469963e-02
         - -3.2916181426043477e-03
         - -1.4422833280428144e-02
         - -1.8389811871227530e-02
         - -5.7728451932404033e-03
         - 1.9076926976585122e-03
         - -8.8275479303431879e-04
         - 1.4419092718335962e-02
         - 2.9197423573868130e-02
         - 1.5094006779468965e-02
         - -1.3751915795821848e-02
         - 4.4925600972923568e-04
         - 1.3129351296872590e-02
         - -1.8404677412006045e-02
         - 1.6902050258138283e-02
         - 2.1265208161080813e-02
         - 1.8322302169828306e-02
         - -1.7204673515346592e-02
         - 1.7937039678015564e-03
         - -1.3537979867227457e-02
         - -7.1734565242107615e-03
         - 9.1350093541193514e-03
         - 1.7379683125580734e-04
         - 7.4612688661917607e-03
         - -1.0454404831109725e-02
         - 2.8592411473466360e-03
         - -7.9285077890556071e-04
         - -1.7818839804273911e-02
         - -1.0606301056165154e-02
         - 7.5567345424253042e-04
         - 2.9168283958807811e-02
         - -1.1227832378563128e-03
         - -9.7289679988779333e-03
         - 9.2134512626033706e-03
         - 6.7568976955435572e-03
         - -2.2648308304730742e-03
         - -1.8622854365149551e-02
         - -4.6609162985499089e-03
         - -1.5058270734185591e-02
         - 3.0932503657373319e-04
         - -2.1547333072320169e-02
         - -1.3795862371878175e-03
         - 4.1713910795137948e-03
         - -2.3552770418480730e-02
         - -2.0820905832315617e-04
         - -3.9245486760511473e-03
         - 1.9052297876662649e-03
         - -4.9891648267456241e-03
         - -1.0260504174107184e-02
         - -3.2204507258577898e-03
         - 1.6641048420602999e-02
         - 7.8159693840312221e-04
         - 3.1436594294412624e-02
         - 4.1321355338340511e-03
         - -1.7207967100297327e-04
         - -6.1882716975579406e-03
         - 2.5930469042048862e-02
         - -8.0266006430762819e-04
         - 1.6545173812923402e-02
         - -6.2895404786974677e-03
         - -2.7738566049385757e-03
         - -3.1439958741910786e-03
         - 3.5786914742786413e-03
         - -2.2666249463467198e-02
         - 1.1618792383142715e-02
         - -2.3286970461935227e-02
         - -2.1502724435385832e-02
         - -7.4268380837558771e-03
         - -6.8067233797114513e-03
         - -3.3413932764093492e-03
         - 3.0758690397241668e-02
         - -1.0351462464792547e-02
         - 3.3544216777455851e-02
         - -8.9035932005747283e-03
         - -3.5916151331098459e-03
         - 1.1790536645741997e-02
         - -1.7995532035376155e-03
         - -4.3132847363117429e-04
         - -9.4642941295420367e-03
         - 1.2981904277599578e-02
         - -2.9963316182636027e-03
         - -1.7133232165577463e-02
         - -9.5012769385308272e-03
         - 1.4172019711927563e-03
         - 1.7412579651353892e-02
         - 9.7638708291249154e-03
         - 2.3477045082485747e-03
         - -3.3641166179199326e-03
         - 8.9855268061618824e-04
         - -4.4058647822160655e-04
         - -1.0892918305278197e-02
         - 1.1621724803081758e-03
         - 2.2825112050015354e-03
         - 1.3737101649718129e-03
         - -3.6029975150592957e-03
         - -7.9706927831480600e-03
         - -1.3065369665505347e-02
         - -1.2814307128547454e-03
         - -3.2045674106401822e-03
         - 2.4468193148644716e-03
         - 9.8522705773200457e-03
         - -4.0662462446796055e-03
         - 7.9177783125092933e-04
         - -5.6906374635572058e-03
         - 3.6392838273771778e-04
         - 1.5045126070814882e-02
         - -1.0054717865678929e-02
         - 5.8914037626423338e-03
         - -1.3348162642699928e-03
         - -7.6490204510808197e-03
         - 5.9875826854460627e-03
         - 9.8248776592497258e-05
         - -4.9578517009013483e-03
         - -3.4167739881873146e-03
         - -1.0369442216876546e-02
         - 4.8417368855358826e-03
         - 9.1180230671303788e-03
         - 2.9054955746079456e-03
         - 6.6491884290808111e-03
         - -3.0777120763335118e-03
         - 1.4230899688339583e-02
         - -7.3498756968920255e-03
         - 3.9363424408055451e-04
         - -9.6953914134319404e-04
         - 1.5540260620395605e-02
         - -8.8623417814572680e-03
         - 2.4394247786787627e-04
         - 8.4367838807373387e-03
         - -2.0716925109302625e-03
         - -5.4729304892321322e-03
         - -1.0889051187521578e-02
         - -8.0004444118336356e-03
         - -2.4200507224732198e-02
         - -1.1208745160312044e-02
         - 1.0310005835695499e-02
         - -5.6862148482258587e-03
         - -1.7116892542759256e-02
         - -6.9226325924735702e-04
         - -1.1561238602120489e-02
         - 7.2826020650815461e-03
         - -9.6973320634698539e-03
         - 1.1861285943856017e-02
         - -6.4274677493265898e-04
         - 1.2759049514335233e-03
         - -4.3413508080063327e-03
         - -5.5372240436891351e-03
         - 2.2971584949377157e-02
         - -1.4015799273668366e-02
         - -2.2249387953682167e-03
         - 3.6986893067561289e-04
         - 1.0214953422672162e-03
         - -7.2033665711303410e-03
         - 1.8495052428735281e-02
         - 1.9020366411374143e-02
         - -6.9448534982354069e-03
         - 3.8611987909451463e-03
         - -1.0034422510609771e-02
         - 1.2644238256735016e-02
         - 1.2950237339517119e-02
         - 5.0603923607557754e-03
         - -2.5655698654984968e-03
         - -2.4686171639261414e-02
         - 9.6484870903071097e-03
         - -9.9634639861730448e-03
         - -6.9032586209437970e-04
         - 4.9947410489551806e-03
         - -3.8917293327140885e-03
         - 3.3880291368454654e-03
         - 1.8802496560903402e-02
         - -3.0618308024405539e-03
         - -1.3678670328242234e-02
         - -2.4632834335512606e-03
         - -9.8274325351561196e-03
         - 1.6621986074471833e-02
         - 6.0722322902061069e-03
         - 5.4766831729120653e-03
         - 9.9848198996916777e-03
         - 1.4224304419634817e-02
         - -1.9517091578701747e-03
         - -1.9474372073177565e-02
         - -2.1326676369574571e-04
         - -6.6995891509105876e-03
         - 1.1202836465698803e-02
         - -4.8263892035778780e-03
         - -2.1138707782042604e-02
         - -1.1468833354149206e-02
         - 6.5641005112399191e-03
         - 1.2251565932788491e-02
         - -4.6630898646354436e-03
         - -4.2946377126652016e-03
         - 1.8186435270219334e-02
         - -1.2019495115569948e-03
         - 2.0654772795640354e-02
         - 1.1618121282222613e-03
         - 1.4752916623132191e-03
         - -4.4769149503841215e-03
         - -9.7353724694483924e-03
         - -4.5633008420083113e-03
         - 1.7235359268717720e-02
         - 5.4716090259919288e-03
         - 9.7379874788554831e-03
         - -6.2898897602388293e-03
         - -1.3699427979824806e-02
         - 1.0770041167401760e-02
         - -8.5020711096930456e-04
         - -1.5490314489641903e-02
         - 8.7755010587904948e-03
         - 3.4223253531055482e-03
         - 7.3267857419282026e-03
         - -3.6195729110506084e-03
         - 2.1369858913420359e-02
         - 2.0381448434176296e-02
         - 1.1409342317032813e-02
         - 2.9601759893246151e-03
         - -1.1562208581681355e-02
         - -5.3837395539773850e-03
         - -1.4739857702439522e-02
         - 6.2061636805421129e-03
         - -8.6561921752793883e-03
         - 9.3005484219188441e-03
         - -1.3132778494098440e-02
         - -5.8083955141419250e-04
         - 1.6936120169474506e-02
         - -2.4201594407667303e-04
         - -3.1720691355905544e-03
         - 1.6861945732751047e-02
         - 5.8750082367507045e-04
         - 8.2484967177715741e-03
         - -5.7655949660443719e-03
         - -2.6230753581122666e-02
         - -2.3928574739443304e-03
         - 9.8908114441090579e-03
         - 1.9752214776013598e-02
         - -1.2974777488590607e-02
         - -4.7159746066443775e-03
         - -8.3116762256191003e-03
         - -1.9415624797485195e-02
         - 3.4041154515871220e-03
         - 2.2098288737927206e-02
         - 7.8412019040145393e-03
         - -5.3156842325104052e-03
         - -4.7106699381858335e-03
         - 1.8365955355450776e-02
         - 7.6563309121789143e-03
         - -4.3057132032036363e-03
         - 1.2008263762534152e-02
         - -1.3988556381981545e-02
         - 2.3328122183734214e-03
         - 6.2259743894057902e-03
         - 1.1837958526560307e-02
         - 9.7581941158705904e-03
         - 1.4147759634414810e-02
         - -2.1917388260566474e-02
         - 3.3510827968621826e-03
         - -4.4359290913251756e-03
         - -7.9469645593216402e-03
         - -4.7905441184111133e-03
         - 8.1474117602010031e-03
         - -4.4763471858628350e-03
         - 7.3088256692007761e-03
         - -1.6272497119965090e-02
         - 1.9506708280115960e-03
         - -2.3938946006248549e-02
         - 5.3121435727586982e-03
         - 9.4751487060176585e-03
         - 5.0878795406597297e-03
         - 2.4761518321796964e-02
         - 2.3498221242615538e-03
         - -1.0102665049054889e-02
         - -4.2577959411475089e-03
         - -9.0875855129230500e-03
         - 5.5762217997033263e-03
         - 7.0057083773243847e-03
         - -1.0323021680807509e-02
         - -1.7721039636827782e-02
         - -5.1898104050993607e-03
         - 7.8833725701253968e-04
         - -1.0296071096182880e-02
         - -7.2792041803516590e-03
         - -2.3015786940041017e-02
         - 1.3346268577283859e-02
         - 1.4093145567352475e-02
         - 2.5968920904043038e-02
         - 1.3328406562531068e-02
         - -3.1188605164632205e-03
         - -1.2230092472806117e-02
         - 2.1502363076572094e-03
         - 1.4096069212103374e-02
         - -1.2177706051330764e-02
         - -5.8111871382720225e-04
         - 7.6320109135519119e-03
         - -1.9475539509108266e-02
         - 7.7831699030980828e-03
         - 1.2275309949257688e-02
         - -3.6634816205078054e-03
         - -1.6829178092776714e-02
         - 5.3256398180040413e-03
         - 1.7515520623730015e-03
         - 2.5093012716430170e-02
         - 1.5516543255396122e-02
         - 5.3043822692183220e-03
         - 5.1251554661225270e-03
         - -1.2840039221846606e-03
         - 8.2503102045229110e-03
         - -5.9076038912623911e-04
         - -1.4697137113539078e-02
         - -7.4325241514610072e-03
         - -3.9652437273200872e-03
         - 7.7001773626643091e-03
         - -4.1816993220743070e-03
         - 1.8744317703069523e-02
         - 3.0375621153686447e-02
         - 4.3994161893681070e-02
         - 5.8154026818521077e-04
         - -1.6430328599508836e-02
         - 1.0491018318477808e-02
         - -2.6311346444362636e-02
         - -9.1823513270818165e-03
         - -2.9340125631225462e-03
         - 2.8049595690467728e-02
         - -4.3268200308283220e-03
         - 1.0332527062892055e-02
         - 1.9420812818837885e-02
         - 9.0947214872933650e-04
         - -1.0307483402677821e-02
         - 9.5838146251994473e-03
         - -1.9459722100450442e-02
         - 2.8738807372131098e-02
         - 2.2880106134476291e-03
         - -1.6629192468570159e-02
         - 1.5673523490227993e-03
         - 1.8057626821582875e-02
         - 2.3343484237133578e-02
         - 2.4667444116842929e-03
         - -4.5823728409142951e-03
         - 8.3291416394705043e-03
         - 8.4498804549934265e-03
         - -9.1132669706239823e-03
         - 1.9562922154221282e-02
         - -1.1055423587686204e-02
         - 2.1092933153610882e-02
         - -6.7599101834537956e-03
         - 2.0070784225076705e-02
         - 2.1355255229992584e-02
         - 1.3255714564400218e-02
         - -3.9426820951811358e-03
         - -3.7027859009044072e-03
         - 1.4050774019701411e-02
         - 2.7673420797722548e-02
         - 2.3594250183591120e-03
         - 1.9449604247143093e-02
         - 2.6278838897480644e-02
         - -3.9767518960616810e-02
         - -1.5365389687610288e-02
         - 3.2654685958006325e-03
         - -3.5962188692323523e-04
         - 5.2902463673036200e-03
         - -1.5770049404294909e-03
         - -1.8201586486621461e-02
         - -1.0320058319122093e-02
         - -3.4876135619959489e-02
         - -7.3688465199136452e-03
         - -3.0167481359232571e-03
         - 8.9846788363602548e-03
         - -1.0624673821865001e-02
         - 2.7565757124677018e-02
         - -1.4730394405979329e-03
         - 3.3787181217966073e-03
         - 3.6864665600039497e-03
         - 9.8310785395040578e-03
         - 1.5962223105580309e-02
         - 1.0336728674031214e-02
         - 1.6576509561165057e-03
         - -2.1900767178865427e-02
         - -9.9395714922724844e-03
         - 1.1392840335327259e-02
         - -1.4930932260815797e-02
         - 5.7084548178356681e-03
         - 1.5382568144501866e-02
         - 8.4117107092460189e-03
         - -4.0848177608360714e-03
         - 8.2944334164265221e-03
         - -1.6015422032661007e-02
         - 8.0988681501433738e-03
         - 1.6386152484149617e-02
         - 2.0229151271062354e-02
         - 4.1381658052055906e-03
         - -4.1644897163989232e-03
         - 5.3284622426439618e-06
         - -1.4564033910213605e-02
         - -1.1447671600158405e-03
         - -7.5891000568023906e-04
         - 6.6485244734754605e-03
         - -6.3341823460914947e-03
         - -2.3405207526609488e-03
         - -3.4821559009369433e-03
         - -1.2764252703962621e-03
         - -2.3312666006309103e-03
         - -6.8052456002792670e-03
         - -1.4058484813984624e-03
         - -1.7786459847529457e-02
         - 1.6494849684850772e-02
         - 1.2930985437285497e-03
         - -3.3299925781178196e-03
         - -4.7370491071441808e-03
         - -1.8936285160377317e-03
         - -5.6550715580329066e-03
         - 1.5767447928063647e-02
         - 8.9177242027628110e-04
         - 9.0385014916944135e-03
         - -1.1234263591880853e-02
         - -1.0554204441539004e-02
         - -6.2437663664003298e-03
         - -2.3588674537335678e-03
         - -6.0610687214881163e-05
         - 5.0828885210133104e-03
         - -9.8322749358262566e-04
         - -5.1127032160682342e-03
         - 1.0128782238842133e-03
         - -1.5325726712528017e-02
         - -8.4065262765792136e-03
         - 6.2746826180767861e-03
         - 6.1169208034379818e-04
         - 1.6538833129290038e-03
         - 3.9599034831421057e-04
         - 4.5518111759612172e-03
         - -3.2665396005156903e-03
         - -1.4048015097526373e-02
         - -8.3838391440875758e-03
         - 6.8656632171375086e-03
         - 2.4698228684073273e-02
         - 3.3462623719391255e-04
         - -1.3309724095411203e-02
         - 1.6667827521813585e-02
         - -8.3814425270810049e-03
         - 1.9590997236498132e-02
         - 9.8803598804876307e-03
         - -1.0826713487726049e-02
         - 8.0056371737738923e-03
         - -1.0984606502553595e-02
         - -6.1080356581480139e-03
         - -1.1892164570773306e-02
         - 1.1847730560073668e-03
         - -7.0920146450761667e-03
         - -2.6022703656597454e-03
         - 1.0180704877233285e-02
         - 3.9672599591859111e-03
         - 1.3345784814316364e-02
         - 3.5564890986836653e-03
         - 2.1476022029169434e-03
         - -4.2405805323718332e-04
         - 1.7523074784934155e-03
         - 1.0815232471212136e-02
         - 1.9565048008335154e-03
         - 3.8372217689320938e-03
         - 1.0217527550476578e-02
         - 1.6787532695304998e-02
         - 7.1013235214327656e-03
         - 1.2323897885883870e-02
         - 2.3913477428484493e-02
         - 5.2392726290006013e-03
         - 9.1217368334278962e-03
         - 3.5303545452395049e-03
         - -1.8790079113321136e-04
         - -4.9293785051115696e-03
         - -1.4725203130145382e-02
         - -1.1012527945818088e-02
         - -2.2117200443588239e-02
         - -2.5600912837482471e-03
         - -6.2499977176784152e-03
         - 3.0029831576880210e-02
         - -1.6223864120437702e-04
         - -9.5829145862745702e-03
         - -1.2933554290294346e-02
         - 2.1483367084663501e-03
         - 1.6940757567822297e-02
         - -5.7451561385192572e-03
         - 1.7734762078570273e-02
         - -8.9314719971415304e-04
         - 1.5582380789427384e-02
         - -1.4347578964505493e-02
         - -6.1291124084363316e-03
         - -2.5035918883268928e-02
         - 7.8292687237141514e-03
         - 1.3858053067970298e-02
         - 5.5610565497223553e-03
         - -6.6980795858243378e-03
         - -4.9102740512426627e-04
         - -6.4037934194794404e-03
         - -6.1205651939170080e-03
         - 3.4866643800788135e-03
         - 9.4224754629021260e-03
         - -8.0818749877367858e-03
         - -1.7173755516069692e-03
         - 2.1412271978461408e-03
         - 1.6260885460216328e-03
         - -7.4210586786753480e-03
         - -1.2133974732970553e-02
         - -1.6957887952371475e-02
         - -3.0699186663871209e-03
         - 1.9389020333328413e-02
         - -1.0174722654074046e-02
         - 2.0299410165451576e-03
         - -1.9618203585138959e-02
         - -2.0676492302057069e-03
         - 6.2810852426393778e-03
         - 4.7174945549077673e-03
         - 1.1218600467264811e-02
         - 1.0647916623638761e-02
         - -3.7124953059838582e-03
         - -7.1793825918245804e-04
         - -6.4655586821892709e-03
         - -1.4787875230090635e-02
         - 8.8465481124459517e-04
         - -5.4144688094637941e-03
         - 1.0585949614587984e-03
         - 2.6599815277597260e-02
         - -1.7851520595954431e-03
         - -5.9159769574466279e-03
         - -7.7851762542237709e-03
         - -2.0855187879066698e-03
         - -1.5329765199018098e-02
         - -9.9339789444014368e-03
         - 1.1984158800916642e-03
         - 5.0133278135791031e-03
         - -1.1301381200660432e-02
         - 1.8426464201366684e-02
         - -1.8179670128638595e-02
         - -4.7920808154013799e-03
         - -4.9980665172881288e-03
         - -4.8256916010102607e-03
         - -3.7541500234219002e-03
         - -1.7492104743654244e-02
         - -7.8558151943053604e-03
         - 6.0058076881775351e-03
         - -1.7544436657703121e-02
         - -2.5709721835894667e-02
         - 4.5561557789390705e-03
         - -2.2727666284709583e-02
         - 1.5877879556660406e-02
         - -1.3942519708651275e-02
         - 1.7932984969967460e-02
         - 6.6390334492770833e-03
         - -5.8375734988958677e-03
         - -7.9429769061890275e-03
         - -1.3139017181166810e-02
         - 9.5521350466363786e-03
         - -1.2921636376270017e-02
         - -2.5289138263913654e-02
         - 3.3190385146446093e-03
         - -2.5062107446938782e-04
         - -1.5362854328186596e-02
         - 3.4385701055256589e-02
         - 1.5858699845395983e-02
         - -3.5753425250587834e-03
         - -1.1119524632154572e-02
         - 6.1298106443425093e-03
         - 1.5868745884413049e-03
         - 3.3638217122131442e-02
         - -6.9276056709727737e-03
         - 1.1869849708414317e-02
         - -1.2475300893468706e-03
         - 2.1756508650005384e-02
         - -1.4969677305993951e-02
         - 1.1228769805579922e-02
         - -1.1681524670113512e-02
         - -7.0785164531663152e-03
         - 8.9206160658754918e-03
         - 1.2003201945886973e-02
         - -1.0260303294471855e-02
         - -8.8867558343895762e-03
         - -9.4064305054109513e-03
         - 7.3782993053627208e-03
         - 2.0408648775958976e-02
         - 7.1278721909852809e-03
         - 6.8509038699970468e-03
         - 1.5687286119804276e-02
         - 1.8314074259179969e-02
         - 2.4161682432610885e-02
         - 5.7825946386218250e-03
         - -1.6655339892698358e-02
         - 7.7473128052268454e-03
         - -4.8327150527819520e-03
         - 1.1594734969938045e-02
         - 9.8582230211260286e-04
         - 1.4280781015462152e-02
         - 8.0401497447268946e-03
         - 6.4862562126354380e-03
         - 5.6634050211217309e-03
         - -1.7718879717050738e-02
         - 4.7687281633772786e-03
         - -5.0619826087320687e-03
         - 1.5147474235469010e-02
         - 5.2637662075618475e-03
         - 7.1463929110192328e-03
         - 3.8293039764969177e-03
         - -7.4041308875515679e-03
         - -3.4066861391329386e-03
         - -9.0442288519265506e-04
         - 1.4409059848610319e-02
         - -2.4459676418721169e-03
         - -1.2685996163081417e-03
         - -1.1037788806046896e-02
         - -3.1345916990017544e-03
         - -1.6021355947954403e-02
         - -1.8285773396597833e-02
         - 5.7451900677796784e-03
         - 8.2929979577196708e-03
         - 1.3277812675469588e-02
         - 7.9172188466148617e-03
         - -1.4577386100202682e-02
         - 1.1958858260076964e-02
         - 2.4493218518320263e-03
         - 1.6674137433152912e-03
         - 9.5450765447377874e-03
         - 2.5128216368604482e-03
         - -1.0197299074537138e-03
         - 4.8084845245851427e-03
         - -6.8155733124837803e-03
         - -4.6464557652928628e-03
         - -1.6638005799938984e-02
         - 1.0621431476533338e-02
         - 2.4994809000675696e-03
         - 1.8022128961832654e-02
         - 1.4126246112869450e-03
         - 2.2292938343751781e-03
         - 1.9003501764754023e-03
         - -5.7113174767071629e-03
         - -1.0057808996725650e-02
         - -8.5250797146097790e-03
         - 2.1695279285789751e-02
         - 3.1125486155469968e-03
         - 9.4240963892826806e-03
         - 1.9722225179398443e-02
         - -1.8153357039208784e-02
         - 2.3685353574467425e-03
         - -3.7545735147285990e-05
         - -1.2058103147527890e-02
         - 1.5307800707790937e-02
         - -1.5907434216717153e-02
         - 3.2171670430224757e-03
         - -2.4901853779263010e-02
         - -4.5927856206991651e-03
         - -3.9382343725028277e-03
         - -2.3352010531591002e-03
         - 2.0509867266366834e-03
         - -2.3783811404116017e-02
         - 2.0887307081872714e-02
         - -9.5700248623784741e-03
         - -2.7964478832526191e-03
         - 1.5583416763623516e-02
         - 2.3949723673444235e-03
         - -1.4595827898108604e-03
         - -1.7334948875644320e-03
         - -5.8369963479108378e-03
         - -8.2108049134517833e-03
         - 8.5396760165976689e-03
         - -7.4704037429538716e-03
         - 9.1204258319920357e-03
         - 1.4052245984245097e-02
         - -4.3794500650719791e-04
         - 1.8493495180599156e-02
         - -6.5943084075710491e-03
         - -4.5376721719354611e-03
         - 2.8774702535540051e-03
         - -1.1408403049862778e-02
         - 8.4811538296684329e-03
         - -2.4671619870524093e-02
         - -2.3804099892677410e-02
         - -6.3979602990482968e-03
         - 1.6338644220793005e-02
         - 1.8115273193060124e-04
         - 9.3966158980076028e-03
         - -8.0659005455716894e-03
         - -5.0861647657094410e-03
         - 5.1995470956136772e-03
         - -6.9365243608159573e-03
         - 6.3769104095447154e-03
         - 2.9951247238372016e-03
         - 3.1714056942008994e-03
         - -1.1120347182137240e-02
         - 7.7265864008009989e-03
         - -9.3626817622666746e-03
         - -7.1225977498022659e-03
         - -6.2219678194014938e-03
         - 1.0677403310843396e-03
         - -1.2033146882737065e-04
         - -1.3132978885756037e-04
         - -3.2064300091760216e-03
         - -7.8908069940028470e-04
         - 9.5781761872429164e-03
         - 7.1912875398698391e-03
         - 3.1653305275173467e-03
         - -1.8800886691353880e-03
         - -1.3409840905890234e-04
         - -7.2157116102242866e-03
         - -1.9592952744095196e-03
         - 7.1505862612775781e-03
         - -3.0757787236692989e-03
         - -1.8267515941753289e-03
         - -1.6003579949704324e-03
         - 4.1790123841512006e-03
         - 6.9575045073511773e-03
         - 3.2498199325692086e-03
         - -4.5066016456391553e-04
         - 7.6430405210996810e-03
         - 8.8542056371683307e-03
         - 5.0469384024423745e-03
         - 1.1538530116245746e-02
         - 3.2595173463749257e-03
         - -1.2150301746246366e-02
         - 8.6765339117121231e-04
         - -1.0193778970724463e-02
         - -8.5371432168242795e-03
         - 4.6156940044563867e-03
         - -3.3157824004386655e-03
         - 1.3578286321632152e-03
         - 4.3370351734569237e-03
         - -1.3045856070647696e-03
         - -3.7956474597119843e-04
         - -4.4129858968705374e-03
         - 8.3299186855460370e-03
         - -7.1382092083229947e-03
         - 7.4208430188258644e-03
         - -6.9396927440981736e-04
         - -4.6235239026501542e-04
         - -6.3099270114448042e-03
         - -4.6726330646405393e-03
         - 2.0207235747699745e-03
         - -1.5771923095283292e-03
         - 1.1543194150408283e-03
         - 1.2289278925426757e-03
         - -2.0172775959825190e-03
         - -5.2463750649360270e-04
         - -9.1979789909702788e-03
         - -1.2647864186668896e-02
         - -1.2823213618722124e-02
         - 1.7436873162010273e-05
         - 2.9836834279114256e-04
         - 6.2536151688836715e-03
         - -1.0935614784269257e-02
         - -2.2358802289018055e-03
         - -1.5822931830355657e-03
         - -1.3816462128472368e-02
         - -1.7178473936008219e-03
         - 1.1602396911826625e-03
         - -4.4157734319742424e-03
         - -2.3375991156508796e-03
         - -9.0863946227672035e-03
         - -5.8792287664285207e-03
         - 2.3908992286696146e-03
         - -8.7343929346845228e-04
         - -2.6310152812554239e-03
         - 3.6427098731235236e-03
         - -1.7899471889605414e-02
         - 2.2827953142687571e-03
         - -2.6122003668261609e-03
         - -6.1863802870993994e-04
         - -4.1316976914151995e-03
         - 8.2381051035868551e-03
         - 1.1315470161022573e-02
         - 1.5085414653410560e-02
         - -7.0190564452552104e-03
         - 9.0245564694741102e-03
         - 6.0278744947153988e-03
         - -1.2812661382506035e-02
         - 4.8383264244963630e-03
         - -2.9509623619458191e-04
         - -1.5074985694034334e-02
         - -7.7771046241262255e-03
         - -1.1298023669153411e-02
         - 8.3561900256697089e-03
         - 1.2594134633573652e-02
         - -3.0021156304898991e-03
         - 2.2197638950432986e-03
         - -1.2180346775654766e-02
         - 8.7867980014031018e-03
         - 1.7185088329800209e-02
         - 2.0901674729537485e-02
         - 1.0062116857292445e-02
         - -9.3697691258593542e-03
         - -2.9571018447638133e-03
         - -6.7423934049309746e-04
         - 1.6435937032995500e-02
         - 1.6782698948788265e-02
         - 6.2215128878332043e-04
         - -1.6809083790630614e-03
         - 1.2085752019030883e-02
         - -6.0785432708981169e-03
         - -1.6784346574204939e-02
         - -8.2805717108198184e-03
         - 1.0202061151058483e-03
         - 2.1415461118161994e-02
         - -1.0867603573145080e-02
         - 8.4159962873017000e-03
         - 1.0305669955843566e-02
         - 9.3160659061356958e-05
         - -1.0879163282043806e-02
         - -5.5384587097703913e-03
         - 6.8832659567516340e-03
         - -3.4938982858159731e-05
         - 8.8958821731246508e-03
         - -2.2545577607266183e-03
         - -1.4024198551851223e-02
         - -8.0754803841812869e-03
         - -4.4435810093134782e-03
         - 3.4693524462898863e-03
         - 1.1155214217798430e-02
         - 1.7635689607468717e-02
         - 9.9278989152740294e-03
         - -1.1536835789774704e-02
         - 4.9772643825160279e-03
         - -9.6625487103366874e-04
         - -5.5326231882909830e-03
         - 2.8900818265338033e-03
         - 2.8232341459300211e-03
         - 8.0862239000579917e-03
         - -1.8018643478641908e-02
         - -8.8541637824143000e-03
         - 5.5685106320236457e-03
         - -1.0191214859101912e-02
         - -2.5247406295996243e-03
         - -7.2143879375806382e-03
         - 1.2740718890980674e-02
         - -1.3293823722325634e-03
         - 2.5685289068374449e-04
         - 1.0715712113229706e-02
         - -2.0755611767086554e-02
         - -1.7087039715316939e-02
         - 7.8189159044607685e-04
         - 3.4287543280499454e-02
         - 8.4771486791706332e-03
         - 6.7494443260688432e-03
         - 4.8528276427763813e-03
         - -7.6128548455426928e-03
         - 1.1290614803721634e-02
         - -4.5365247376057466e-03
         - -1.0389057691977014e-02
         - 6.2423646540339939e-03
         - -2.8161247481964858e-03
         - -1.3763717057432078e-02
         - -8.9829153031323050e-03
         - 1.7253705469584501e-02
         - -4.7992527343818968e-03
         - -2.2251218986915444e-03
         - -3.8785670855370760e-03
         - -4.7665512845665422e-03
         - 1.3022084336109277e-02
         - -8.8692102439289367e-03
         - 1.7422122475362818e-03
         - 4.0537257612010061e-03
         - 6.9527794454166012e-03
         - 3.6004582859107343e-03
         - 4.2619913723158480e-03
         - 1.3821874428456126e-02
         - 5.4696481650172279e-03
         - 2.2150109334567802e-02
         - -3.6323896507635752e-03
         - 1.9441986666345754e-02
         - 1.6126899563233692e-02
         - 8.6889069526389982e-04
         - -7.0622382201081550e-03
         - -4.5233805617659346e-03
         - -6.0218138808489866e-04
         - -5.3608806951420422e-03
         - -2.0983047522440786e-02
         - 8.8870120775947118e-04
         - -2.3319255506769419e-02
         - -1.5178624691201631e-02
         - -5.5366359640696521e-03
         - 2.8025053043592592e-02
         - -1.0388603840095765e-03
         - 3.6551264005577548e-03
         - -1.1080565525097650e-02
         - -1.2917459626560105e-02
         - 1.7050076228677411e-02
         - -3.8098055473756022e-03
         - -1.8499673007696952e-02
         - -1.2379206149827930e-02
         - 2.0128715607929167e-02
         - -8.0397820199491488e-03
         - 2.2214504403983183e-02
         - 1.2025500890534642e-02
         - 1.3630771912151620e-02
         - 2.0350523047648755e-03
         - -9.5307595223098254e-03
         - -1.6878798780832425e-04
         - 3.9486861543844030e-02
         - 1.3016320853035002e-03
         - -8.5242632071496280e-03
         - 2.7727003985829560e-02
         - -2.4840527873907961e-02
         - 7.0797152964943808e-04
         - 1.6295999416599760e-02
         - 1.2068422115396056e-02
         - -1.0385303253915384e-02
         - 3.3007776638851179e-03
         - -2.9384731529657733e-03
         - 1.3511448751707169e-02
         - 5.0648059294737275e-03
         - 3.0963319859160104e-02
         - -2.5311172148368564e-02
         - -9.6126214553499071e-03
         - -1.4608911854848469e-02
         - -1.9797479900540557e-03
         - -1.6575972067919213e-02
         - 2.3363266417352289e-02
         - -1.3658102814087622e-02
         - 1.0470130383066741e-02
         - -1.0629556109189735e-02
         - -1.3441642069888616e-02
         - 6.2805052655230918e-03
         - 1.1615832307266099e-02
         - -1.1691673275790867e-02
         - -8.7064685641483862e-03
         - -1.8146659868455416e-04
         - -9.8567441802633726e-04
         - -2.4773249438437735e-02
         - -8.1936090965726398e-03
         - 1.7666170023635672e-02
         - 6.9816351968879763e-03
         - -9.3176411818967440e-03
         - -4.0035342488053769e-03
         - 1.2896386065816673e-02
         - 1.2156372244403583e-03
         - -4.1234591719527675e-03
         - -2.1359290863062642e-03
         - 1.4610797643632191e-02
         - 1.6266194473291706e-02
         - -9.3530807225004932e-03
         - -2.5105456565324730e-02
         - 4.0098963947945735e-03
         - 1.4504728581334253e-02
         - 8.1487661841411936e-03
         - -1.1396310890600930e-02
         - -9.1970573261965696e-03
         - -1.9250629332805694e-02
         - -4.5586392618949777e-03
         - -1.5743832699461826e-04
         - -6.5537212144177199e-03
         - 5.0206025574930256e-03
         - 1.8978248163573418e-02
         - -9.4089079431520836e-03
         - -4.0093112061775020e-04
         - 4.8515149849156086e-03
         - -3.6538351546791324e-02
         - -1.7688758993751490e-02
         - 1.0054815950520804e-02
         - -2.0918581237646299e-03
         - -3.0820047829987120e-02
         - 1.5713698796337106e-02
         - 1.0265374286254597e-03
         - 6.7742611185642732e-03
         - 1.7611845243905952e-02
         - -9.8820742543797614e-04
         - -1.8400828022271287e-02
         - -8.2903568938545930e-04
         - -1.1939614143519260e-02
         - 2.5825349341840539e-03
         - -3.3614693891951763e-02
         - -3.3726926500600510e-03
         - -5.8594295807958578e-03
         - 1.5322710707586293e-02
         - -1.3127990295021612e-02
         - 1.6476463908593690e-02
         - 2.5277397263909610e-02
         - 1.1573672090663404e-02
         - 2.0624970535867048e-02
         - 1.1083314753458988e-02
         - 6.1489678143959768e-03
         - 6.0149532325470328e-03
         - -4.2954994631178561e-03
         - 2.4635184184375665e-02
         - 2.0670270670234012e-02
         - 7.5409460138949093e-03
         - -1.6275537724095717e-02
         - 2.4252014450778002e-03
         - 5.3514071162077187e-03
         - 1.0740500974606207e-02
         - 8.9068447411411490e-03
         - -5.9548411765107416e-03
         - 1.4166459949166033e-02
         - 5.1475096848574145e-03
         - 8.5348674419538336e-04
         - -6.5904837523350353e-04
         - 1.4872174475248207e-02
         - 5.0741068716993827e-04
         - -7.6575898481459521e-03
         - 1.0208561332273011e-02
         - -3.7727020243709941e-03
         - 5.5622592961335430e-03
         - -1.0450319232794917e-02
         - -7.9555720476718055e-04
         - -2.1273741096659092e-03
         - 1.3869150894111329e-02
         - 2.5885623077661599e-02
         - 1.3123560789301185e-02
         - 2.1669182950627809e-03
         - 7.7584432494299579e-03
         - -6.5296961724179911e-03
         - -5.9447445001667197e-03
         - 1.0310053420602877e-02
         - -6.0584247061293171e-03
         - 1.1533360843614943e-02
         - -1.4739098256005303e-02
         - -1.2925426538818594e-02
         - 1.4407617511346543e-02
         - 5.1305074327050535e-03
         - -1.6534221545304330e-03
         - 2.9976641009674430e-04
         - -2.0089686156478243e-02
         - -3.2700075288090080e-03
         - -7.5760588927966735e-03
         - -1.9706183140560879e-03
         - 9.1783758114918502e-03
         - -5.5412537922395668e-03
         - -1.3023364513796437e-02
         - 3.3636541702934597e-03
         - -9.3829583642400429e-03
         - 7.1656883576134874e-03
         - -1.1963418356982319e-02
         - -2.5967654725231803e-03
         - -7.4148234603448595e-03
         - 8.8041831147175325e-03
         - -9.6812029632305854e-03
         - 2.3878374940394663e-03
         - 1.1636638636964923e-02
         - -1.3997366335052497e-02
         - 2.1593844521476037e-05
         - 3.1513751321066699e-03
         - 2.0004817108451596e-02
         - 5.4550926957799631e-03
         - 1.6376581976287548e-02
         - 1.3613566482814421e-02
         - -1.1595129827543247e-02
         - 9.3752985500692356e-03
         - 1.4469540954489978e-02
         - -1.7060193917208911e-02
         - 1.1334180006937922e-02
         - -9.9017033722411749e-03
         - 9.3317730822688773e-03
         - -1.1912390179643980e-02
         - 6.1734924569167740e-04
         - 7.7386717773676936e-03
         - 5.5075556300001301e-03
         - 2.1047347042253291e-03
         - -7.7643427239164559e-03
         - 1.3295765905021902e-02
         - -1.6585958862570905e-02
         - 9.1207125288529807e-04
         - -3.5398277371269425e-03
         - -6.5192415861470175e-03
         - -7.1083261132815576e-03
         - -9.4308050308791521e-03
         - 8.9058863725076220e-03
         - 3.9598278492171948e-03
         - 1.3595281795023083e-02
         - -1.8531350470907881e-02
         - 1.3126387726638069e-02
         - 1.2791104684209565e-02
         - 4.1125367200031560e-03
         - 1.5783374544060317e-02
         - -1.1858277413483195e-03
         - 3.9578379702260493e-03
         - -7.0733484146710841e-03
         - -1.4475745456722521e-02
         - 6.8325667579463342e-03
         - -2.8594176837309894e-02
         - -1.8096940823608753e-02
         - 1.0817915260697085e-02
         - 2.0147979937799695e-02
         - 3.7630985836599388e-03
         - -1.9433164111603098e-02
         - -1.4680673264613859e-02
         - -4.1740237720551462e-03
         - 1.8528267328974844e-03
         - -9.7540125212153342e-03
         - -9.4302228695839381e-03
         - 6.7696944710530513e-03
         - -4.4008090864192766e-03
         - -1.5141606371142997e-02
         - 3.3157102384817230e-03
         - 9.7666826747562271e-03
         - 2.0204200103328566e-02
         - 8.0447462365990947e-03
         - 3.4406289791610377e-03
         - 7.7224712922734833e-04
         - 1.0973290435528171e-02
         - -1.6888540385933833e-03
         - -4.1535413649341386e-03
         - 1.7815016282752533e-02
         - -1.9103552661729483e-02
         - -5.0886041807758379e-03
         - -3.7495556578118782e-03
         - 4.8619322254252082e-03
         - 9.8260490949542961e-03
         - 7.7886435737294449e-04
         - -7.8052931490608744e-03
         - 8.4315193788344952e-03
         - -5.5563846490287736e-03
         - 5.9166162513703408e-03
         - -7.0483455839358052e-03
         - -1.8105965194200482e-03
         - 7.3315844406165391e-04
         - -7.7162911577548388e-03
         - -1.5170705471201912e-02
         - 4.8905260580112443e-03
         - 4.3073556291851759e-03
         - 6.8549743437011307e-03
         - -1.3104542300155149e-02
         - -7.2534203338461148e-03
         - 3.6161494917756614e-03
         - 5.5031442961590120e-03
         - -9.0014836523983118e-03
         - -5.0232786586323812e-03
         - 1.2996659765183729e-03
         - -3.6929831021561090e-03
         - 2.7212252963656394e-03
         - 3.8914629515429014e-03
         - 2.8442543198767974e-03
         - -5.1142123072974461e-03
         - -7.3995913634259539e-03
         - -1.0402336329355440e-02
         - 5.6268160269654409e-03
         - -4.2189001146730794e-03
         - -1.5975618377009676e-03
         - 1.4209626301137946e-02
         - -2.4813823130632783e-03
         - -1.6845933308794357e-03
         - 5.2006472485226383e-03
         - 1.1564092329617684e-02
         - 3.7349584773342481e-03
         - 7.3720220707589436e-03
         - 1.4040352518782648e-02
         - -1.6012084913784842e-02
         - -5.2476298412987288e-03
         - -1.3124753153318968e-02
         - -6.6973729814974745e-03
         - -2.3391552173719398e-03
         - 5.3827341515698020e-03
         - 2.3648680932715355e-03
         - -5.6646521821186527e-03
         - -7.1060859117304228e-03
         - 6.8960220340086448e-03
         - -7.0721132208597867e-03
         - -1.5498331837424602e-02
         - -1.4502411356724733e-02
         - 6.0584415305595905e-03
         - -1.2931660541734996e-02
         - -1.3189541732017616e-02
         - 1.1781923482870028e-02
         - -3.9412131590875260e-03
         - 4.1502230271587420e-03
         - 5.2512082155741265e-03
         - 4.5259154137330766e-03
         - -7.8876330237739444e-03
         - 1.0744030268726100e-02
         - -1.1386561144754464e-02
         - 1.1392284681662436e-02
         - -5.7123168740314022e-03
         - -4.6252405847642154e-03
         - 2.4158592330652136e-03
         - 2.6197832674451616e-03
         - -1.0825786827086277e-02
         - -1.7151635627709924e-04
         - -1.0386788980566561e-03
         - 1.5159927774936893e-02
         - -1.6496451955126949e-02
         - 8.5985079965488261e-03
         - -5.0967989646871284e-03
         - 8.6482202448588535e-03
         - 8.9181598522351576e-03
         - 6.0037179635220534e-03
         - -7.0480156499679763e-04
         - 4.9174168544660795e-03
         - 1.0091192929446031e-02
         - 9.3936543072020914e-03
         - 1.0731467854700912e-03
         - -2.6298795553605400e-03
         - -6.5608839559213906e-03
         - 1.2998583199736242e-02
         - -1.8675796211849020e-03
         - -5.2557569145624235e-03
         - -6.4297927137830389e-03
         - 3.9396015036504192e-03
         - 6.9221649636553228e-03
         - 4.2889618280696727e-04
         - 7.3977447788080362e-04
         - -6.0785815025812774e-03
         - 7.1057127514314762e-03
         - -2.1614729871804253e-02
         - -5.4288763715585600e-03
         - 2.3416971472773303e-06
         - 9.6684673807646035e-04
         - -1.3816047090120975e-03
         - 5.8016665365387401e-03
         - 9.4447707578060088e-03
         - -4.1977812091032463e-03
         - 1.4062129102455406e-03
         - -5.9075413782318387e-03
         - -4.3281164517086799e-03
         - 7.3768078734025378e-03
         - -1.1540689442391222e-02
         - -1.2028911044982805e-03
         - -1.1236853018503622e-02
         - -7.9047508662406021e-03
         - -1.3830592023645208e-02
         - 2.3690273612881024e-03
         - 4.7265590447640856e-03
         - 1.4097852822862798e-02
         - -6.1086107820747804e-03
         - -1.9543512446360991e-03
         - 1.3753552012592324e-02
         - -6.0380292343568441e-03
         - 1.8676704534862004e-02
         - 3.8892908313692290e-04
         - 6.9713857917070377e-03
         - -9.5591687586717260e-03
         - -4.4131282449940403e-03
         - 1.4105207472224851e-02
         - 1.2501611874606751e-02
         - -5.2559835423978607e-03
         - 7.4059624644757529e-04
         - 6.9176936090511940e-03
         - -1.1416866293350768e-02
         - -6.5407979261376684e-03
         - -3.8729955230008867e-03
         - -8.0579304721547125e-03
         - -4.7640755674229369e-04
         - 7.6516899460465707e-03
         - 1.9031957901508363e-02
         - -2.0141015122567335e-03
         - 6.1232485155237066e-03
         - -1.0535269042904511e-03
         - 9.4243967844196141e-03
         - 2.0166322791364093e-03
         - -3.3790322945829810e-03
         - -7.8408008321770271e-03
         - -1.8145851976186203e-03
         - 1.8170627668114691e-03
         - -9.6681735523820725e-04
         - -1.0911996714440461e-03
         - 1.5841919179615488e-05
         - -1.8382980547633433e-03
         - -6.8628628826076059e-03
         - 8.6498817246239666e-03
         - 2.3565080161708648e-03
         - -4.2562158046329313e-03
         - -5.9052998290676263e-03
         - 1.0466749690582694e-02
         - -7.5024414840703848e-03
         - 2.0597773598399066e-03
         - -7.4758569644950180e-03
         - -1.3007658762282494e-02
         - 1.1332807044045398e-02
         - 1.1486914989361543e-02
         - 5.6158740260307304e-03
         - -7.8418917146045007e-03
         - -3.1579058583458119e-03
         - -5.1750781953098322e-03
         - -6.7657347968763963e-04
         - -7.9483848712594753e-03
         - 3.2775228704542245e-03
         - -6.0952118968343990e-03
         - -5.3997962488336179e-03
         - -9.6161779365686196e-03
         - -1.3359190679251610e-02
         - -8.6165668474613780e-03
         - -7.0684322701255759e-03
         - 7.7254006227821101e-03
         - 2.0595690912071286e-02
         - 3.7686207499147799e-03
         - -1.3466035678972438e-02
         - -1.4241138975748415e-05
         - -1.1407034272146625e-02
         - 1.0595580536572414e-02
         - -1.0118882624632371e-02
         - 2.7294111628068937e-02
         - -6.8145501562484933e-03
         - 6.6805093379674841e-03
         - 1.8378128144504444e-02
         - -6.8833051461163830e-03
         - -6.1518360866750889e-03
         - -3.9869784706541588e-02
         - -2.1970520992814845e-02
         - -3.5179401397977738e-03
         - 1.5011006433281572e-02
         - -1.7663623541784249e-02
         - -5.1729133907688248e-03
         - 1.1271820716660649e-02
         - -1.0318420520821414e-02
         - 3.0079769038483316e-02
         - 2.4761294133577198e-02
         - -5.4311377943486909e-03
         - -1.3788578747965914e-02
         - -3.7466006201460917e-03
         - 4.7857963479787987e-03
         - 1.6238872405178958e-02
         - -3.9808249774597980e-03
         - -6.0121796656261890e-03
         - 4.4219643614510570e-03
         - 1.3979370818476314e-02
         - 3.3260813413433783e-03
         - -6.9670819228441830e-04
         - 1.2774314219991154e-02
         - 2.5482258891868316e-02
         - 7.1999887542574109e-03
         - 1.1632476263100150e-02
         - 4.5041804250472413e-03
         - 1.6932201756189660e-02
         - 3.0187658999936775e-02
         - -1.9852095715212098e-02
         - -2.6388984212662340e-02
         - 1.7884675386614004e-02
         - 9.3809694990459949e-03
         - -2.3303407402315259e-02
         - 1.4906533224836351e-02
         - -9.6849920459410824e-03
         - -1.9062992629947387e-02
         - 8.2966678276766154e-03
         - 5.8343769907556273e-03
         - 1.0544192086294252e-02
         - -6.5280674403185351e-04
         - 1.1359035617454541e-03
         - 1.4887358409859006e-02
         - 1.8013999325949871e-02
         - -2.2234618667422087e-02
         - 6.7155205880747538e-03
         - 1.0249939007062652e-02
         - -2.2293944926538869e-02
         - -5.9442556312965340e-03
         - -1.7454166359617513e-02
         - -2.8981749780599047e-03
         - -2.0149023779527910e-02
         - 2.7259295521001592e-02
         - 4.6893205211789362e-03
         - -7.6653623556421462e-03
         - 1.1189833406609530e-02
         - 5.0051702149021314e-03
         - 4.2126505675820491e-03
         - -5.0445211806118273e-03
         - 1.7860795377952962e-03
         - 6.7877119908603201e-03
         - 5.2433481048277195e-03
         - -3.0374946989391214e-03
         - 2.5497795698340178e-02
         - 3.1031168598959935e-02
         - -1.1624402762967709e-02
         - 4.0082891964856055e-03
         - 1.6608984936727519e-02
         - -1.0793096010845727e-02
         - 1.6414813215335916e-03
         - -2.3494220421365314e-02
         - 8.6752019108347778e-03
         - -1.2014142655207808e-02
         - -2.8660760996900149e-03
         - -1.7183295840039109e-02
         - 1.9390800961761784e-02
         - -7.4060156028272778e-03
         - 2.5275655770328455e-02
         - 1.2427195493459862e-02
         - 1.6558702256638722e-02
         - -1.5438518016248782e-02
         - 2.0444430595798403e-02
         - -6.2644525546083163e-04
         - -1.3346244816312728e-02
         - -5.5812982762240267e-04
         - 2.7836506325554674e-02
         - -2.0042724985663802e-02
         - 4.3512591281137658e-03
         - -2.0873978005109838e-03
         - -4.1425685092656463e-03
         - -1.8337655251987831e-02
         - 1.1120582431905246e-02
         - -2.5126059877475567e-02
         - -6.4906375855385747e-03
         - -2.3983063160262666e-03
         - -1.1915934128099565e-02
         - -1.5262328594021502e-02
         - 5.2967784105153945e-03
         - 1.0598486554634228e-02
         - 6.5638479828406147e-03
         - -4.7528699054743932e-03
         - -2.1592257691296891e-03
         - -4.6111522466902189e-03
         - 3.7368908440641824e-03
         - -2.9419187212666909e-03
         - 2.8018567772822955e-03
         - -1.2769873242220574e-02
         - -7.6747740910358487e-03
         - -5.3349295776111321e-03
         - 8.5774296908606301e-04
         - 1.1016737858743381e-02
         - 1.7441674301356968e-02
         - -9.8085667344766925e-03
         - -3.0484757628956843e-02
         - -2.0981726759508636e-03
         - 6.2820711658937173e-03
         - 3.5844750932233589e-03
         - -9.5413843698603621e-04
         - 4.4574243399049520e-03
         - -8.6797181826410563e-03
         - -2.4723472651984484e-03
         - -1.1111326330392917e-02
         - 2.4305889718283773e-02
         - 8.7854856866617162e-03
         - -1.4208879648155936e-02
         - 9.1826213828441364e-04
         - -1.8104379036655925e-03
         - 7.2263453198116619e-03
         - 1.0757115515947246e-02
         - 7.0548978691210270e-03
         - 2.1501994716373162e-02
         - 7.1893367973724955e-03
         - -9.0078963672398371e-03
         - 1.8792223300938743e-02
         - 7.9611444796380201e-03
         - -2.2549902096029244e-02
         - -3.3488222134609052e-03
         - -1.2355184077723671e-02
         - 9.5949845332735199e-03
         - 4.6334797573157329e-03
         - -1.0054566201541930e-04
         - -6.7048314592938665e-03
         - 7.9168613119047302e-03
         - -2.3360468704854061e-04
         - -2.5612612331265799e-02
         - 2.6404740660072132e-02
         - 5.1788090891252874e-03
         - -5.9549068532312281e-03
         - -1.7872736141498795e-02
         - 1.8906087652748474e-03
         - -1.2919746215318537e-02
         - -1.1269167310280008e-02
         - -1.1261874357173262e-03
         - 6.7401373371692892e-03
         - 1.0994608095432862e-02
         - 5.4075246360952784e-03
         - -3.1178109409314928e-03
         - -1.6480878846586599e-04
         - -4.7713934194575276e-04
         - 1.1600561663958472e-02
         - -6.6753553456753963e-03
         - 8.1736664607931896e-03
         - 1.2150575861987345e-02
         - -1.0728345468933241e-02
         - 2.4513154122493427e-02
         - -1.2603891693440804e-02
         - 2.3974949081993723e-02
         - -5.0036012714047501e-03
         - 9.1391186067733363e-03
         - 2.7099695508999789e-03
         - -4.9023648065687373e-03
         - 8.3704456943580405e-03
         - -2.2087502233905524e-03
         - 3.2259342141157154e-03
         - -6.2548100700073684e-03
         - 1.0357796925529872e-02
         - -1.4979941319273162e-02
         - -2.0678237217326374e-02
         - -2.4133141250797560e-02
         - -2.3888707941523805e-02
         - 1.5398152378472599e-02
         - -1.4132905982802422e-02
         - -6.1728521662463990e-03
         - 2.6235399462326874e-02
         - -1.8898130662809615e-02
         - 2.1699212327171050e-02
         - 1.0442819143194055e-02
         - 1.1551642401767488e-02
         - 1.3077901617220796e-03
         - -8.0414706539356558e-03
         - 4.7502436363153358e-03
         - 5.1739716365467869e-03
         - 1.6533530109227278e-02
         - -4.2424394324220155e-03
         - -3.6153802118515374e-04
         - 2.7167679662964328e-03
         - 1.0547229323591450e-02
         - 3.8325441016730466e-02
         - -6.0132410197616024e-04
         - 1.8555183837766630e-02
         - -1.6406221484603693e-02
         - 7.8805924669896332e-03
         - 2.0891410420856179e-02
         - 1.3144710075980023e-02
         - 8.8981983204669147e-03
         - -8.3256598774146748e-03
         - 1.0394077481453717e-02
         - -4.5568848255210575e-03
         - -1.0775353217209932e-02
         - -1.0432147963628203e-02
         - 2.6127579686235441e-03
         - 2.9794885671046048e-03
         - 5.5220827727108981e-03
         - 1.1608664960614511e-02
         - 5.9263940819013986e-03
         - 5.6709328999433864e-03
         - -9.6961601366310473e-03
         - -1.3701473422126793e-04
         - 4.8149501544208882e-04
         - -6.3045094308632364e-03
         - -5.3951134443734642e-03
         - -1.5880966411140517e-02
         - 1.1887786929018575e-02
         - -5.1627683682542542e-03
         - 1.2788649446199179e-02
         - 1.5440337709735108e-02
         - 3.3859053041051823e-03
         - 1.3204995150426382e-02
         - -1.8673146535426465e-02
         - -1.9821887636254167e-02
         - -1.2223465234715805e-02
         - 6.9752897992251981e-03
         - 5.8294586120997104e-03
         - 4.4117205079717298e-03
         - 3.9649240255216871e-03
         - -2.4775763070603359e-02
         - -1.1504526988181194e-02
         - -5.2766688003575641e-03
         - 3.6369050439802471e-03
         - 2.4447600828934198e-03
         - -8.6779275523452357e-03
         - 1.2993134037955763e-02
         - 5.5864365115916833e-03
         - -4.4974748497688694e-03
         - -1.0570530516754255e-03
         - 6.5522213446927383e-05
         - -1.5874971607181445e-03
         - 7.3924722989833986e-03
         - 1.2679014791535152e-02
         - -9.0755824101601927e-03
         - -6.9996013406721535e-04
         - 1.8996998349834208e-02
         - 2.3048836728935523e-03
         - 1.5735028869525575e-02
         - 1.5088196447621450e-02
         - -1.1937083276022761e-02
         - -1.1897718739666460e-02
         - -1.1035438420533597e-02
         - 7.4977155709830458e-03
         - 9.5366894664105275e-03
         - -2.0597336021595816e-02
         - 6.4037043129805647e-03
         - 6.3285911639884111e-03
         - -1.5480546989430509e-02
         - 1.5341816907148663e-02
         - 5.6075210739336247e-03
         - -5.6070703738476356e-03
         - -1.2252552264071117e-02
         - -4.5591263711846700e-03
         - -1.0289442731890820e-02
         - 2.1648703730963444e-02
         - 4.3639638836174589e-03
         - 5.8587207487488663e-03
         - -6.1043799902341612e-03
         - 2.2001059925219193e-02
         - -3.7998504379324191e-03
         - 1.3410648461008647e-02
         - 4.8613695292698865e-03
         - 1.0857342875829859e-02
         - -6.4175801974703144e-03
         - 1.8081145222188743e-02
         - -2.9626178678079369e-03
         - 1.3967228803648472e-03
         - -1.3809211074687305e-02
         - -1.1237265988753468e-02
         - -1.6098891156267593e-02
         - -2.2514562521287634e-03
         - 1.5959644443012427e-02
         - 3.8240250453027889e-02
         - -3.0097514258377828e-03
         - -1.3127413307021543e-02
         - 5.9810431633526328e-03
         - 5.1913728394338476e-03
         - 8.0648655820357035e-03
         - -1.3909653254260178e-02
         - -1.2568296170490810e-03
         - -2.1767322955196653e-02
         - 1.5685013029217709e-02
         - 2.2680482967697067e-02
         - 1.3451533582598794e-02
         - -5.8354493975857971e-03
         - 8.1291306745015206e-03
         - 2.1466541309473793e-02
         - 1.3107794239239858e-02
         - -1.1108545045920607e-02
         - -2.8961044691190384e-03
         - -3.4731142937773360e-03
         - 6.0489841250510401e-03
         - -2.2746240636661405e-02
         - -3.5143482426761574e-02
         - -1.2488810703791582e-02
         - 6.2260619515931434e-03
         - -2.1929398825818259e-03
         - 1.4977418480441190e-02
         - 1.8125794721838152e-02
         - -6.5774123753128723e-03
         - 9.8465903242743163e-03
         - 2.5481099747674020e-03
         - 8.6005056586691084e-03
         - -3.5641459733957087e-04
         - -3.8839305453298649e-03
         - -1.0850071479803741e-02
         - -1.1858623086045872e-03
         - -1.0225131888567364e-02
         - 4.8147334909771937e-03
         - -7.7269131518930669e-03
         - -2.7528826938695594e-03
         - 4.2247542345614040e-03
         - -3.0187442938829604e-03
         - -6.1725296266570253e-03
         - 1.2284419807680871e-02
         - -5.6115415313104265e-03
         - 4.8158572207363899e-03
         - 7.1684762267318286e-03
         - -9.7222219294824594e-03
         - -2.2963108885706299e-02
         - -2.6098105374406516e-03
         - 1.1866282456353417e-02
         - 2.4998215736543976e-02
         - -7.1270337793758872e-03
         - -1.2223358818440375e-02
         - 3.0112346316165713e-03
         - -9.7287077780184358e-03
         - -2.3559049731077690e-02
         - 2.5469397980974334e-03
         - 7.8166753585583275e-03
         - 5.6284993149764047e-03
         - 1.5397875829015155e-02
         - 1.4855127200466662e-02
         - -5.9767776177168230e-03
         - 2.2049845410138842e-02
         - 1.7678311801402620e-02
         - 9.7247167353639221e-03
         - 1.7138026987736241e-02
         - 1.2333560174213854e-02
         - -1.8132057320571753e-02
         - -1.0596822580656397e-02
         - -1.0359527772079482e-02
         - 5.1655428748403117e-03
         - 2.1107678681475429e-02
         - -1.6907419815732266e-02
         - 1.8680732315365493e-02
         - -4.2895560307516350e-04
         - -5.8421587833428351e-03
         - 1.7302657012089408e-02
         - -4.0649382855887511e-03
         - 2.7339549690891781e-03
         - -1.6184037956583172e-02
         - -5.4297210464061014e-03
         - -6.6504651249826192e-03
         - 3.5960211526813854e-03
         - -8.0854736032687884e-03
         - 2.5009151602717262e-02
         - 6.8652661065038450e-05
         - 1.3856410648842302e-02
         - -1.6799828494260430e-02
         - 7.4672540687259056e-03
         - -1.0798323996176988e-02
         - -1.2614461385708512e-02
         - -2.1340103508351856e-02
         - 1.9475686193149183e-02
         - 4.2534942330160508e-04
         - -7.3433166655002095e-03
         - 7.0729047468483545e-03
         - -6.6004530873020476e-03
         - -1.1571071022344932e-02
         - 2.0394939725048661e-02
         - 1.3269618604500032e-02
         - 3.6787696453985788e-02
         - -5.0099714524713167e-03
         - -2.3758066763763540e-02
         - 1.1012927175396972e-02
         - 4.0658517245805801e-03
         - -3.1002698419133278e-03
         - -2.3541456969301489e-02
         - 2.0622799249299568e-02
         - 1.6773336135227926e-02
         - 3.1310259467988891e-02
         - -8.2683520750623744e-03
         - 5.9197877228375751e-04
         - -2.5381847256388618e-02
         - -1.8087085442784159e-02
         - -5.6619931795005391e-03
         - 1.3293440155455631e-02
         - 1.1079132687363404e-02
         - -1.6815957398236409e-02
         - -1.2144664940751447e-03
         - -4.4233738939820104e-03
         - -9.2662010557060257e-04
         - 4.8153370353088525e-02
         - 1.5190294476632891e-02
         - 8.8574422751906082e-03
         - -9.8200804095937462e-03
         - -2.1247334009030915e-02
         - -1.7983135999494970e-02
         - 1.7434064418302649e-02
         - -1.7349112270285530e-02
         - -2.7848961290356088e-03
         - 3.4034200159428658e-03
         - 1.0823307104983139e-02
         - 7.2237352864206981e-03
         - -1.0519066068733072e-02
         - 2.2480064430758159e-02
         - 3.2863510222330666e-02
         - 7.0864608225768306e-03
         - 3.1234818338284356e-02
         - 8.6073891349418858e-03
         - 1.2926669218260974e-02
         - 7.6819726157205540e-03
         - -2.0848682404583492e-02
         - -2.9665642462520760e-02
         - 1.7909811438873668e-02
         - 5.4852242272489240e-03
         - -7.1527918673861286e-03
         - 1.5492764655970463e-02
         - -7.9054373374670868e-03
         - -1.0297336263432951e-02
         - -2.7298536427739866e-02
         - -3.4410671643195310e-03
         - 2.0639573738354355e-02
         - -2.2735761697511843e-03
         - 5.0526917718934387e-03
         - 2.6695644166682922e-02
         - 1.8844719550691447e-02
         - -2.2066254976673170e-02
         - -8.9429797417139006e-03
         - -2.5344506983954736e-03
         - -1.4407637994727959e-02
         - -8.2995110543577413e-03
         - -1.7560888191925961e-02
         - -4.1969778740343591e-02
         - -1.4856594934866435e-02
         - 1.0928555064232983e-02
         - -8.3136558243858676e-04
         - -8.2548890422469955e-03
         - 1.1941756280904220e-02
         - -3.7921117308823060e-03
         - -1.7449472131864754e-03
         - -1.8400178097929071e-02
         - -8.5586657703194604e-04
         - -1.4958204210803279e-04
         - -1.1023998372055876e-02
         - 8.3089538704650377e-03
         - 1.0340236200888460e-02
         - 3.3992968485903413e-02
         - -1.6010712643574902e-02
         - 5.4396506238573788e-03
         - -2.7798583425197331e-03
         - -1.6148208283674372e-03
         - -1.0579454514507432e-02
         - 1.7096840767361038e-02
         - 2.7479040922184991e-02
         - -2.4084490734129965e-02
         - -1.1347967294748596e-02
         - -6.4467840319070548e-03
         - 2.9192303088058157e-02
         - 9.2575937653584794e-03
         - 2.9881863135123646e-02
         - 1.8767746642439836e-02
         - 1.4450461008991613e-02
         - -8.3042454294387363e-03
         - 1.3445518050208135e-03
         - 9.5133738963501628e-03
         - -2.4567226249584507e-02
         - -1.6453430536588459e-02
         - 1.7808991291813091e-02
         - -1.3381715529958583e-02
         - -1.2203061429649236e-02
         - -1.4853750221226314e-02
         - -1.6628907111142680e-02
         - 1.4708358462369655e-03
         - 1.7078935161698418e-02
         - 1.2525207647174248e-02
         - -9.3191166708590234e-03
         - 1.9409334002406700e-02
         - 2.6406213083389916e-03
         - 1.1360109166573470e-03
         - 4.7068523620014872e-04
         - -9.5198547906127605e-03
         - -4.4802132116042413e-03
         - -1.2295719605100704e-02
         - -5.9109601654632670e-03
         - -1.0319180200231018e-02
         - 7.2931582400988845e-03
         - 1.6221320068959010e-03
         - -5.3299348660033842e-03
         - 7.7566467440372058e-03
         - -9.2198359374846776e-03
         - 1.5502373153829725e-02
         - 1.9228771191870043e-02
         - 1.6633079201045741e-03
         - -1.0920002327957753e-02
         - -1.3271123084226675e-03
         - 4.9195887098561451e-03
         - -1.1254565794274118e-02
         - -1.1437433038656144e-04
         - -1.5717762883644376e-02
         - 1.4378574379637799e-03
         - -1.4370243322190113e-03
         - 3.4590720196109905e-03
         - 4.9134435754158933e-04
         - 1.1378438936784302e-02
         - -5.8468310884097494e-03
         - -2.1158960294165086e-03
         - 1.1827674636321575e-02
         - 5.4410659453621810e-03
         - 6.4559790924811151e-04
         - -1.1402008315219685e-02
         - -1.6283040419720843e-04
         - 3.5900653972823376e-03
         - -2.5952371616626314e-02
         - -7.0714260783082984e-04
         - -6.1788984302638857e-03
         - -1.3645620115509485e-02
         - 1.4830640029970424e-03
         - 1.7081195907476469e-02
         - 6.8651743935763971e-03
         - -1.3996448792841296e-02
         - -1.0993562358415873e-03
         - 8.4169709913049632e-04
         - 2.2685852593188364e-03
         - -2.8269169643997884e-03
         - 5.4248118211141791e-03
         - 2.8447930443638364e-03
         - 1.1469017234457775e-03
         - -4.5681940735883154e-03
         - -2.4352375815029003e-03
         - -1.2146596223317526e-03
         - -2.4084450689897158e-03
         - 5.5185048202363420e-03
         - -5.3695017398887159e-03
         - -7.2587627717609470e-03
         - -1.6648400465174812e-03
         - -7.4050076625728689e-03
         - -8.7094478373828266e-03
         - 1.3484737598908466e-02
         - 6.4624237486930079e-03
         - 1.1862751500147843e-02
         - -4.0820219728942694e-03
         - -5.8555863067466749e-05
         - 6.1888418105230962e-03
         - -1.1035125763749218e-02
         - -9.1281148655283900e-03
         - 1.0246559040094775e-02
         - 3.2148251358558321e-05
         - 4.0444096705776035e-03
         - -9.6757742270603461e-03
         - -7.7203732045716091e-05
         - 4.0649987582800700e-03
         - -5.7385752768942611e-04
         - 1.4540698383355167e-02
         - 1.6703760119433097e-02
         - -1.1947042471485553e-02
         - -1.0699480892878447e-02
         - -7.2952296853494173e-04
         - 5.4156236611103033e-03
         - 6.8373077056711725e-03
         - 1.8442192657481489e-02
         - 1.9305139361544300e-02
         - 1.7898849190068060e-02
         - -2.4482930319678245e-03
         - 7.7514150154298639e-05
         - 3.9026637294103834e-03
         - -8.1650894740224419e-04
         - 1.2729238573877019e-02
         - -8.0814245915210401e-04
         - -8.3251867137562902e-03
         - -7.5429830904603550e-03
         - -2.1612196287700718e-02
         - 6.4563703969129412e-03
         - -2.4787978271658992e-03
         - -3.8097463312516647e-03
         - 4.7987717605669413e-03
         - 3.1605388912853741e-03
         - 1.2414583316693846e-02
         - -5.8183964774575240e-03
         - 4.0425254367948381e-03
         - 1.1611629118630703e-02
         - -2.3411641318958061e-03
         - 1.3269826576787960e-02
         - -9.6354174980520636e-04
         - 1.1054705062161690e-02
         - 1.1389091358878148e-02
         - 9.8945193699944509e-03
         - -2.9643987096854597e-03
         - -6.1622463430768409e-03
         - 4.0053856225760482e-03
         - -7.8511669123420315e-03
         - -4.4692063385783605e-03
         - -1.5292712439965514e-02
         - -7.4948068817820663e-03
         - 2.9662332272079677e-03
         - 1.0030713185772521e-04
         - 9.2452812215279203e-03
         - 4.8413858422977126e-03
         - 2.2966966236321732e-03
         - 2.0729210024960790e-03
         - -3.0218221202302268e-03
         - -7.5406950403357001e-03
         - 5.9071436397215675e-03
         - 4.6970528770313262e-03
         - 3.0755476161227809e-03
         - -2.3321362248059888e-03
         - -1.2179909795482757e-02
         - 1.5253815240678248e-04
         - 8.8891564285742506e-04
         - 5.1034407927395388e-03
         - -3.6312746951196245e-03
         - -1.5139207862270163e-02
         - 4.0600312060413224e-03
         - -3.3413895044831390e-03
         - -3.2658997913250884e-03
         - 2.8082521248502888e-03
         - -9.1698158817631980e-04
         - -1.0805183437581167e-02
         - 2.5579565149974073e-03
         - 4.5486190242667278e-03
         - 6.3246109115684410e-03
         - 5.3845760771887817e-03
         - 1.9116021425380292e-03
         - -4.3231897425136580e-03
         - 7.0668377345556154e-03
