%YAML:1.0
opencv_ml_ann_mlp:
   format: 3
   layer_sizes: [ 275, 100, 100, 9 ]
   activation_function: SIGMOID_SYM
   f_param1: 6.6666666666666663e-01
   f_param2: 1.7159000000000000e+00
   min_val: -9.4999999999999996e-01
   max_val: 9.4999999999999996e-01
   min_val1: -9.7999999999999998e-01
   max_val1: 9.7999999999999998e-01
   training_params:
      train_method: BACKPROP
      dw_scale: 1.0000000000000000e-03
      moment_scale: 0.
      term_criteria:
         iterations: 300
   input_scale:
      - 5.8679185837611776e+00
      - -3.4487060117244877e+00
      - 5.3625707449084850e+00
      - -3.7526434288615014e+00
      - 5.3852440959808847e+00
      - -3.7998582759396506e+00
      - 6.7746115716656572e+00
      - -5.0079264855282073e+00
      - 7.1564961258928266e+00
      - -5.4788525026924271e+00
      - 7.1789311637061335e+00
      - -5.6788454170737612e+00
      - 7.9644511873318589e+00
      - -6.5364593221516802e+00
      - 8.7982298499304967e+00
      - -7.3616444553954468e+00
      - 1.0134949887382257e+01
      - -8.7668560758616820e+00
      - 9.7320881614166943e+00
      - -8.4780373863192615e+00
      - 9.6821153162553859e+00
      - -8.3685944841264082e+00
      - 1.0432285590833684e+01
      - -8.9068667725715507e+00
      - 1.0056918745206145e+01
      - -8.3107446407551393e+00
      - 9.7002539965709911e+00
      - -8.4010162368392276e+00
      - 1.0170117531892030e+01
      - -8.9418182987394790e+00
      - 8.7855225798790837e+00
      - -7.6181485681259042e+00
      - 9.2326135238812945e+00
      - -7.9884459650568163e+00
      - 8.7136803824919511e+00
      - -7.4260389320777227e+00
      - 8.1284902203689118e+00
      - -6.6096397261297097e+00
      - 8.5681655872240636e+00
      - -6.9309195546425952e+00
      - 7.5146076456748343e+00
      - -5.9666801234076630e+00
      - 6.1292896802495154e+00
      - -4.5620887439786237e+00
      - 5.1446050724094716e+00
      - -3.8720321671866915e+00
      - 4.9724635072551884e+00
      - -3.4397458171017639e+00
      - 4.2240600169319782e+00
      - -1.3502028583341408e+00
      - 4.7652776845569145e+00
      - -2.2743281827676252e+00
      - 4.1663917364220726e+00
      - -2.4473274583663063e+00
      - 4.5110006631761683e+00
      - -3.0552983257948148e+00
      - 5.3068544760338954e+00
      - -4.0092011819221947e+00
      - 6.2035051145040123e+00
      - -4.8350221110179241e+00
      - 6.3453507127861943e+00
      - -4.7467056256879081e+00
      - 6.7332523794028614e+00
      - -5.1126568065212927e+00
      - 7.0713770419895807e+00
      - -5.5582369080007386e+00
      - 8.4641861821248146e+00
      - -7.0229070953541983e+00
      - 8.3798832402684358e+00
      - -6.7601000648715326e+00
      - 8.2764412208972544e+00
      - -6.7175055827053569e+00
      - 8.8602988145946320e+00
      - -6.8067853339611046e+00
      - 7.6168087020959847e+00
      - -5.5458606319966819e+00
      - 8.0940747605930827e+00
      - -6.4801655853207105e+00
      - 7.1456337678027300e+00
      - -5.7220683439246347e+00
      - 7.0804966551935884e+00
      - -5.6570509938374478e+00
      - 7.8014745781597066e+00
      - -6.2107097287549609e+00
      - 6.7918337100471762e+00
      - -5.2542910349281824e+00
      - 6.1920729169707709e+00
      - -4.8470770958549148e+00
      - 6.2153435601755538e+00
      - -4.9162109492016679e+00
      - 6.0808970513232863e+00
      - -4.7399786565009965e+00
      - 5.3147272477941998e+00
      - -3.8797378057915304e+00
      - 4.6917881955744418e+00
      - -3.0564266642653704e+00
      - 3.7774860630364588e+00
      - -2.1468462956386594e+00
      - 3.0165133906122197e+00
      - -6.3504760646845093e-01
      - 1.2335435860447058e-01
      - -2.3549468460853476e-01
      - 4.9652256238729514e-02
      - -4.1477187787302328e-01
      - 3.2335020228430177e-02
      - -4.4452487404942898e-01
      - 2.7441387573076893e-02
      - -5.6795356704277322e-01
      - 1.6087586340296629e-02
      - -6.1262828790826562e-01
      - 1.2300786243830337e-02
      - -6.4585340298414240e-01
      - 1.0565973061613082e-02
      - -6.7995772096501961e-01
      - 1.1213674200439564e-02
      - -6.9909896126376758e-01
      - 1.1497380201135884e-02
      - -7.5441395744018891e-01
      - 1.0711104630684361e-02
      - -7.4609876296160971e-01
      - 1.1682018297372676e-02
      - -6.5667102853413073e-01
      - 1.4275661971210909e-02
      - -5.1623100865590965e-01
      - 1.6155594693215636e-02
      - -3.7794300312613549e-01
      - 2.5811198043128734e-02
      - -2.7323369241615064e-01
      - 3.7667480705381770e-02
      - -1.4344081036291845e-01
      - 2.1203630862271148e-02
      - -4.2942706948337023e-01
      - 1.1776586462266259e-02
      - -5.5599762752154036e-01
      - 1.0695346833630260e-02
      - -6.9843855837797597e-01
      - 1.0176260270226526e-02
      - -8.9345509362433295e-01
      - 9.4861746332134053e-03
      - -9.3204061269966454e-01
      - 1.0228509142741218e-02
      - -8.6095117865113713e-01
      - 1.0395874995246199e-02
      - -8.4595120163336746e-01
      - 9.9630144906235913e-03
      - -8.3890594741250768e-01
      - 9.8798471901640709e-03
      - -8.1014746959345385e-01
      - 1.0092287304771826e-02
      - -8.0728104208573825e-01
      - 1.0348852544142190e-02
      - -9.0254538248609772e-01
      - 1.0791303694102338e-02
      - -8.8510490905162620e-01
      - 1.3224819414632959e-02
      - -7.2242245852863674e-01
      - 1.4783330711298049e-02
      - -4.4768106537850055e-01
      - 2.1696140447206032e-02
      - -3.0155443692278283e-01
      - 1.2032734138168041e-02
      - -6.1281864166306321e-01
      - 1.1379359055624589e-02
      - -8.2276214262788683e-01
      - 1.3267884454485132e-02
      - -1.0984200099894963e+00
      - 1.1653528852326735e-02
      - -1.2114961509913813e+00
      - 1.1909852365790164e-02
      - -1.0254503188484381e+00
      - 1.3394247585794744e-02
      - -1.2880124951188481e+00
      - 1.3833066618975595e-02
      - -1.5984876981927354e+00
      - 1.2762311033824277e-02
      - -1.5813663581002262e+00
      - 1.2726429054827909e-02
      - -1.5517244961699765e+00
      - 1.3058042012049569e-02
      - -1.4822856174890207e+00
      - 1.2043218145001183e-02
      - -1.4075967389475623e+00
      - 1.3026653638853941e-02
      - -1.6971492791306884e+00
      - 1.3494954025753644e-02
      - -1.4092003506893047e+00
      - 1.2454689983552423e-02
      - -7.2790743681650827e-01
      - 1.4717249789920377e-02
      - -4.8239874311405684e-01
      - 1.1413161083151904e-02
      - -7.4197075486025910e-01
      - 1.0990993382434167e-02
      - -9.2468670588175939e-01
      - 1.3172403858626974e-02
      - -1.1197873825677234e+00
      - 1.4115459123895757e-02
      - -1.1081348314234123e+00
      - 1.3037587475997895e-02
      - -8.7378174649743467e-01
      - 1.3101262013386298e-02
      - -1.2753218386161995e+00
      - 1.3125629813134301e-02
      - -1.2970508733524531e+00
      - 1.4033732662563955e-02
      - -1.0392049914066299e+00
      - 1.4843575013149769e-02
      - -1.1270621552913820e+00
      - 1.3282970358132954e-02
      - -1.1949306465609302e+00
      - 1.3442851236233094e-02
      - -1.0274955081270285e+00
      - 1.4161756044444808e-02
      - -1.2757024283268565e+00
      - 1.2965769898447202e-02
      - -1.2991963372989521e+00
      - 9.7889754774313081e-03
      - -9.9096072964461190e-01
      - 1.1812512513048113e-02
      - -6.9431323548916135e-01
      - 1.1440552513497817e-02
      - -8.0754122186184596e-01
      - 9.4279495037171406e-03
      - -1.0100286104689293e+00
      - 1.0705095156099872e-02
      - -1.1092208698108332e+00
      - 1.0563727743697373e-02
      - -9.9363063383141348e-01
      - 9.9317883985379132e-03
      - -9.3439067822204169e-01
      - 1.0825752086580138e-02
      - -1.4424494522634204e+00
      - 1.0027219086134666e-02
      - -1.0449577708247610e+00
      - 9.2332589005084294e-03
      - -9.5960606896294165e-01
      - 9.9847998530495415e-03
      - -1.2573787855350367e+00
      - 1.1358081911298459e-02
      - -1.5885252741801865e+00
      - 1.0430207842385174e-02
      - -1.0773667211740483e+00
      - 1.3455994593652662e-02
      - -9.7753043553080765e-01
      - 1.2916704210070754e-02
      - -8.5824323529136781e-01
      - 9.8871132296888663e-03
      - -9.7842473041678613e-01
      - 1.0062193323393578e-02
      - -7.7804131202603877e-01
      - 1.3335688486400583e-02
      - -6.5802866925320047e-01
      - 1.0645263201758846e-02
      - -9.4452517135605774e-01
      - 1.2869604340392264e-02
      - -1.1612542987143850e+00
      - 1.3516323332823973e-02
      - -1.3198211884687814e+00
      - 1.1737946247253035e-02
      - -1.4336893537553910e+00
      - 1.2982972057598997e-02
      - -1.7988629062028831e+00
      - 1.1780829493247810e-02
      - -1.4438061034502594e+00
      - 1.1558666244407092e-02
      - -1.7494450000625847e+00
      - 1.2602102735243145e-02
      - -2.1363746485412696e+00
      - 1.3706871902154838e-02
      - -2.0841367953852199e+00
      - 1.1082217341631213e-02
      - -1.2187080828115051e+00
      - 1.2435409894580297e-02
      - -1.0447000413457004e+00
      - 1.3387563843463032e-02
      - -9.4767724661604968e-01
      - 1.0214835524781970e-02
      - -8.2513171405738794e-01
      - 1.0684674875105368e-02
      - -7.7426118741420114e-01
      - 1.3611740073510899e-02
      - -5.8805466964046582e-01
      - 1.0348243520407132e-02
      - -7.6378399397590824e-01
      - 1.2896562523624443e-02
      - -8.1000834113027054e-01
      - 1.4613860299737449e-02
      - -9.0797833034025299e-01
      - 1.1235786666211375e-02
      - -9.4301163039949809e-01
      - 1.2638832914241931e-02
      - -1.1351969926610026e+00
      - 1.3362362901256289e-02
      - -1.5555680044139266e+00
      - 1.1223824400021395e-02
      - -1.5712220440393587e+00
      - 1.2614209288349505e-02
      - -1.4440084228774237e+00
      - 1.3057735107141833e-02
      - -1.2908692272080515e+00
      - 1.1437482079101311e-02
      - -1.1083959905747269e+00
      - 1.2914069101137212e-02
      - -1.5063805048478034e+00
      - 1.1916145737956622e-02
      - -1.4296967583378664e+00
      - 1.0362022338702103e-02
      - -1.1019330422409670e+00
      - 1.2924717253361631e-02
      - -7.3200898625857236e-01
      - 1.1435714246055433e-02
      - -5.9742943515756264e-01
      - 1.0442695895498583e-02
      - -6.6506260223352087e-01
      - 1.1725998766608558e-02
      - -6.5547148661021970e-01
      - 1.1913698309123760e-02
      - -7.4394427219195036e-01
      - 1.0636688396323828e-02
      - -7.8765214781262616e-01
      - 1.0969032498010010e-02
      - -1.1827719385480491e+00
      - 9.7971151181046202e-03
      - -1.2998495664273149e+00
      - 9.5803490722676451e-03
      - -1.1129656028297998e+00
      - 1.0780802672618691e-02
      - -9.9510075578171298e-01
      - 1.1598001018548763e-02
      - -7.8901552383763562e-01
      - 1.0357504230162344e-02
      - -8.3519147746854538e-01
      - 1.0615540105308276e-02
      - -1.2263629513576844e+00
      - 1.0053662944412768e-02
      - -1.2901185257153516e+00
      - 9.4362906900144500e-03
      - -1.0547676037949485e+00
      - 1.1603190470866359e-02
      - -6.5153672553076858e-01
      - 1.0633996720974939e-02
      - -6.9002823167215155e-01
      - 1.1362392688987632e-02
      - -7.8354600896685411e-01
      - 1.2069409051198039e-02
      - -8.9081991855660669e-01
      - 1.3309919391757213e-02
      - -1.1449219549515599e+00
      - 1.1347702982890423e-02
      - -1.2986815635974596e+00
      - 1.2135558500967305e-02
      - -1.7986368675221542e+00
      - 1.3220164790073900e-02
      - -1.5340732637208987e+00
      - 1.2905394626827804e-02
      - -1.1266800581785121e+00
      - 1.2653023057824017e-02
      - -1.3138694649942515e+00
      - 1.4166827165405977e-02
      - -1.7200531568503015e+00
      - 1.1415255846047898e-02
      - -1.2703219561202999e+00
      - 1.2190938838643016e-02
      - -1.2552972779911808e+00
      - 1.1824201893489841e-02
      - -1.0406492030098684e+00
      - 1.0900422857325304e-02
      - -8.9614688520980468e-01
      - 1.0687891755538644e-02
      - -9.3492063235317835e-01
      - 1.0165049413562428e-02
      - -8.2377971156577134e-01
      - 1.3706639373278831e-02
      - -8.5867249891995256e-01
      - 1.3741452421357705e-02
      - -9.2067731223096627e-01
      - 1.3843095150456638e-02
      - -1.2766409972087789e+00
      - 1.2044259621534681e-02
      - -1.6010349153474384e+00
      - 1.2545266820182926e-02
      - -1.7066631670123602e+00
      - 1.3305527890348390e-02
      - -1.2289469396903603e+00
      - 1.1361287825773642e-02
      - -9.8728443601142057e-01
      - 1.1667741087062792e-02
      - -1.4352500096792997e+00
      - 1.3322002496009412e-02
      - -2.0283085214378773e+00
      - 1.1646972902233092e-02
      - -1.3271666798999142e+00
      - 1.3333031877720313e-02
      - -1.0209870168181585e+00
      - 1.4199048192845584e-02
      - -8.5767988073956147e-01
      - 1.2656735130175130e-02
      - -8.2895222812177316e-01
      - 9.1147938370750546e-03
      - -1.0308003212110335e+00
      - 9.9824777508288210e-03
      - -8.3399064118288058e-01
      - 1.0160320253637643e-02
      - -8.1487821024124130e-01
      - 1.1007500565877857e-02
      - -9.5353863487846968e-01
      - 1.1122360614424046e-02
      - -8.9563089715341915e-01
      - 1.0040912708363641e-02
      - -1.0591641556913283e+00
      - 1.1222894025275895e-02
      - -1.2891590995498734e+00
      - 1.0266801365730858e-02
      - -1.0012723958195093e+00
      - 9.8700863609570456e-03
      - -8.9827755668912102e-01
      - 1.0439738846900802e-02
      - -1.1194774504919083e+00
      - 1.0458786353543732e-02
      - -1.3091442474051913e+00
      - 1.0370639298455336e-02
      - -1.0697471567255141e+00
      - 1.3072426721812589e-02
      - -7.6242618072470592e-01
      - 1.1325087658890124e-02
      - -7.7674086064509040e-01
      - 1.0633371410789806e-02
      - -9.5174044516170175e-01
      - 9.2405063426948975e-03
      - -9.2106380393649756e-01
      - 1.0811756157777564e-02
      - -7.7462410532440673e-01
      - 1.0892486680192314e-02
      - -9.5006689377232967e-01
      - 1.2901290366531815e-02
      - -1.3193198350582636e+00
      - 1.3031971800604681e-02
      - -1.0574326209520950e+00
      - 1.2667090844752029e-02
      - -1.0419002095839975e+00
      - 1.1751969823287724e-02
      - -1.2859503949058173e+00
      - 1.2623624000399280e-02
      - -1.2005193935733254e+00
      - 1.1452486738880462e-02
      - -1.1045287210386934e+00
      - 1.2425221147081026e-02
      - -1.4900224793752115e+00
      - 1.3489981861878770e-02
      - -1.4960253622380506e+00
      - 1.2547577496458472e-02
      - -1.0133119402442978e+00
      - 1.2170349185311388e-02
      - -9.9612464089472907e-01
      - 1.2153511909859338e-02
      - -1.2493564717842269e+00
      - 1.1105808069334760e-02
      - -1.0809653187485833e+00
      - 1.1804659437330700e-02
      - -7.8363860426401366e-01
      - 1.3851011526816131e-02
      - -5.7474702375919862e-01
      - 1.1524356916824444e-02
      - -7.4547456257922973e-01
      - 1.1587290082161215e-02
      - -1.2061315585522356e+00
      - 1.2460875450186404e-02
      - -1.1340655333957526e+00
      - 1.2781908328451273e-02
      - -1.0083505459111559e+00
      - 1.3540341858594943e-02
      - -1.2647226380447216e+00
      - 1.2526042116561650e-02
      - -1.2431147858102851e+00
      - 1.1987248738841522e-02
      - -1.2845729481855526e+00
      - 1.3512872759479891e-02
      - -1.6463865780287519e+00
      - 1.3354209279935884e-02
      - -1.3178850976259959e+00
      - 1.2557443096531088e-02
      - -1.0993470638144944e+00
      - 1.2760829215919704e-02
      - -1.2225905566969533e+00
      - 1.1439386816492774e-02
      - -1.1123937058825852e+00
      - 1.1065578363321834e-02
      - -8.5540273954042412e-01
      - 1.4039984549249174e-02
      - -5.6528665063946670e-01
      - 1.7856821580657184e-02
      - -3.8617631317360640e-01
      - 1.4776923613427433e-02
      - -4.4181508985601214e-01
      - 1.2749438510233352e-02
      - -8.1480502479036787e-01
      - 1.0394945554276381e-02
      - -9.4699003993958264e-01
      - 1.0204877855951726e-02
      - -9.5647536995329363e-01
      - 1.0524460246150317e-02
      - -8.4950466491906251e-01
      - 1.0690797362519686e-02
      - -7.9835419092028326e-01
      - 1.0260110802333060e-02
      - -8.2422890112075586e-01
      - 1.0376773491247158e-02
      - -8.2028918527778039e-01
      - 1.0726079785488892e-02
      - -7.2178932859522216e-01
      - 9.7352821206109080e-03
      - -8.0724172654641357e-01
      - 1.0336404556592294e-02
      - -7.7074079229054859e-01
      - 1.1981426439956632e-02
      - -6.5147493460895511e-01
      - 1.3064704293431094e-02
      - -4.8141455820643064e-01
      - 1.9199220137522573e-02
      - -4.0880763686765237e-01
      - 2.8157069472383462e-02
      - -2.4345910574101257e-01
      - 2.1990904705138332e-02
      - -3.1831279234811344e-01
      - 1.5463322933378921e-02
      - -4.2375752644704057e-01
      - 1.3671274009404421e-02
      - -5.5292708215813435e-01
      - 1.1385026253616185e-02
      - -6.7194654949373100e-01
      - 1.2343009418518958e-02
      - -6.9943720038274093e-01
      - 1.1903648978094225e-02
      - -6.8488065231540107e-01
      - 1.1602857678247768e-02
      - -7.0742271662528811e-01
      - 1.1990962242433924e-02
      - -7.2551377608261824e-01
      - 1.1736846456082153e-02
      - -6.8690190269232321e-01
      - 1.2387102886306366e-02
      - -6.3587128149706018e-01
      - 1.2727740929011362e-02
      - -5.4819280122529745e-01
      - 1.4188454792886867e-02
      - -4.5130751659394691e-01
      - 1.9844821327221592e-02
      - -3.4538007218992733e-01
      - 2.8456416561689003e-02
      - -2.0810551101679634e-01
   output_scale:
      - 5.2631578947368418e-01
      - 4.9999999999999994e-01
      - 5.2631578947368418e-01
      - 4.9999999999999994e-01
      - 5.2631578947368418e-01
      - 4.9999999999999994e-01
      - 5.2631578947368418e-01
      - 4.9999999999999994e-01
      - 5.2631578947368418e-01
      - 4.9999999999999994e-01
      - 5.2631578947368418e-01
      - 4.9999999999999994e-01
      - 5.2631578947368418e-01
      - 4.9999999999999994e-01
      - 5.2631578947368418e-01
      - 4.9999999999999994e-01
      - 5.2631578947368418e-01
      - 4.9999999999999994e-01
   inv_output_scale:
      - 1.8999999999999999e+00
      - -9.4999999999999996e-01
      - 1.8999999999999999e+00
      - -9.4999999999999996e-01
      - 1.8999999999999999e+00
      - -9.4999999999999996e-01
      - 1.8999999999999999e+00
      - -9.4999999999999996e-01
      - 1.8999999999999999e+00
      - -9.4999999999999996e-01
      - 1.8999999999999999e+00
      - -9.4999999999999996e-01
      - 1.8999999999999999e+00
      - -9.4999999999999996e-01
      - 1.8999999999999999e+00
      - -9.4999999999999996e-01
      - 1.8999999999999999e+00
      - -9.4999999999999996e-01
   weights:
      -
         - -1.1788257180112489e-02
         - 9.2520822212595749e-03
         - 1.2685931142530798e-03
         - -1.1919918191374855e-02
         - 1.5528322091023724e-02
         - 3.4577408175265850e-03
         - 1.5444273334483111e-02
         - -2.2819987044061870e-03
         - 5.9315810731415735e-03
         - -3.1796536230625423e-03
         - 3.6137629320462990e-03
         - -2.8052007802041980e-03
         - -5.5996398645978074e-03
         - 3.6215748652182545e-03
         - -1.1150318702345162e-02
         - -7.3089897542419451e-03
         - 8.6080592250932578e-03
         - -3.2897538350668944e-03
         - -9.5348823499195028e-03
         - -2.9422995736934155e-03
         - 6.2017446948897377e-04
         - -6.8019750698672544e-03
         - 1.1964494921805610e-02
         - -1.2198999449304056e-03
         - -5.7217633806003077e-03
         - -3.4313381694783679e-03
         - -6.4641063420284670e-03
         - 5.7105960094226355e-03
         - -1.0650105429507568e-02
         - 3.8466897407426572e-03
         - -5.2577650822365173e-03
         - 3.2479172142342149e-03
         - -2.0211532693282606e-03
         - -1.3639186538971303e-02
         - -1.8502660226776279e-03
         - 1.3919036543177374e-02
         - -8.6955228362825127e-03
         - -2.0321744608115507e-03
         - 1.3029294911257538e-02
         - 1.4985833188761494e-03
         - -1.0477589764005583e-02
         - -3.1129479580145345e-03
         - 1.0467651925572742e-03
         - -7.2303106463992971e-03
         - -6.1706492537526979e-03
         - -4.2006175012213876e-03
         - 2.3837035630694587e-03
         - -2.6166358280741266e-03
         - -2.3730722521471690e-03
         - 4.9282324945857155e-03
         - 6.5824901340315583e-03
         - -4.6007213229160432e-03
         - 3.5545585292152920e-03
         - 5.9537162414128250e-03
         - 2.3333268304085212e-03
         - -9.9011853881349307e-04
         - 1.1795101557839808e-02
         - -1.2871351014736327e-03
         - 3.6687541324494571e-04
         - -5.8234281991193246e-03
         - 5.5592167895877551e-03
         - -7.7026984729498468e-03
         - 1.0536941831849147e-03
         - 3.0157375716998577e-03
         - 3.0604923894765961e-03
         - -8.7655044742454783e-03
         - -8.4612430454740831e-03
         - 6.2484290488118007e-03
         - -1.0665826140506101e-02
         - -1.1225805517556331e-02
         - 2.9550430354242842e-03
         - -4.6915938694409197e-04
         - -1.2977775900045918e-02
         - 1.0471367177079378e-02
         - -5.1703360001819475e-03
         - 1.2411402982541887e-02
         - -1.2075589870230040e-03
         - 8.9497775640358049e-03
         - -4.1946027642944259e-03
         - 1.4653479913492755e-03
         - -2.5749701304815390e-04
         - 3.5003271800055307e-04
         - -1.3600303193707872e-02
         - 1.0626661013900223e-03
         - 7.0881982985015277e-03
         - 1.0658607013665099e-02
         - -1.2325070399363968e-02
         - 1.0666648359562721e-02
         - 1.8251962321744108e-03
         - -7.0839541993102228e-03
         - 3.4899112439335184e-03
         - 7.7455689648450897e-03
         - -6.3366170925194245e-03
         - 1.8583993499191900e-02
         - 1.0643196841979019e-03
         - 1.9085427778104749e-02
         - 8.8241275148928881e-03
         - 1.7788473572272095e-03
         - -4.4331823844422644e-03
         - 1.4126294477025738e-04
         - 1.2043848664995995e-02
         - 8.7153032681100556e-03
         - -1.0633320658300836e-02
         - 1.3847399751554190e-02
         - -7.6719965235010320e-03
         - -1.1070161946832584e-03
         - -1.3943975545430741e-02
         - -5.9274335636536569e-03
         - 5.9662260344948590e-04
         - 1.0928778182730622e-02
         - -5.1817974169767545e-03
         - -1.6289910574503348e-03
         - 5.8703890538111441e-03
         - -1.9902702381218180e-03
         - 2.8226250535349832e-02
         - 1.7229978401659653e-02
         - -1.0124427981455946e-02
         - -1.3756257361714520e-02
         - -1.6596069213863328e-02
         - -1.0188119903676131e-02
         - 1.5524409893002960e-03
         - 4.8029605802921349e-03
         - 7.0269860428022425e-03
         - -1.1020698527397245e-02
         - 1.6396121650737765e-02
         - 7.4772143949016837e-03
         - -8.4118439327989514e-03
         - 6.0683163395590563e-04
         - 1.0544397947438651e-02
         - -2.0569776771306399e-02
         - 6.7781768136797706e-03
         - 3.6158239033253002e-03
         - 1.7606134688985541e-02
         - 2.1481540699301454e-02
         - 2.9758743490561660e-04
         - 4.0261476826678917e-03
         - -5.3594325008665712e-03
         - 5.4617024191041938e-03
         - -1.4555201771917689e-04
         - 8.0502826645482417e-03
         - -5.5145121914400418e-03
         - -6.9601830313024927e-03
         - -4.8945208609427653e-03
         - -9.4065441496325938e-03
         - 8.2148930448893744e-03
         - 1.9666239558036661e-02
         - -3.6470146600002681e-03
         - 1.1127769304179559e-02
         - 2.8127174194559688e-03
         - -1.7468016905929359e-02
         - -7.7704277287225943e-03
         - 3.1272528306449054e-03
         - -1.0496660736488280e-02
         - -4.2826222983122350e-03
         - 6.7891110210250856e-04
         - -9.0154336959988261e-03
         - -1.1120110218827183e-02
         - 5.7059941950342715e-03
         - -1.0463961038111394e-03
         - -8.3981073285817071e-03
         - 1.0986990940254631e-03
         - 5.6740647502021577e-03
         - 7.2923551275687701e-03
         - -4.3664143546924177e-03
         - -5.1414541472594591e-03
         - 1.0433213697195687e-02
         - -1.1837860918302008e-02
         - -6.0920053457417765e-03
         - 5.1612215668852632e-03
         - 4.8780528587878697e-03
         - -2.4531724042048423e-03
         - 2.9789133977253633e-04
         - 1.7003025251063172e-02
         - -4.1376078843785346e-03
         - 1.0320596250515219e-02
         - -1.4839254759898149e-02
         - -4.2459842347673813e-03
         - -1.0443911546112386e-02
         - 2.4697407189593454e-03
         - -7.0707051319355745e-03
         - 7.5565858398819671e-03
         - -4.7919952746544618e-03
         - 3.9439431832214858e-03
         - -8.0080766206603211e-03
         - -2.9432419698217256e-03
         - -1.0484883835719886e-02
         - 7.5695700892759099e-03
         - 5.3776289936309039e-03
         - -1.8532288792131864e-03
         - -1.4998057944435865e-02
         - 1.8501576195866960e-02
         - -1.6466182661369032e-02
         - -1.3607152999607335e-02
         - -2.7159851883811585e-03
         - 6.5912148908926146e-03
         - 1.2093625296905554e-02
         - -1.3492989186138855e-02
         - -8.3661909123498961e-03
         - 8.0153226475068538e-03
         - -3.1398512260630063e-03
         - 5.2657620636106864e-03
         - 1.0792965565864315e-02
         - -7.1275948241593008e-03
         - -4.7233478223103415e-03
         - -1.9115105032832338e-04
         - -7.7410487740577931e-03
         - 1.1985749051584735e-02
         - 1.1332624070950771e-02
         - 5.3593442300942807e-03
         - -1.1135740174957271e-02
         - 3.8258578054357014e-03
         - 3.2092680304550785e-03
         - -1.9429611634213403e-03
         - 5.7487062326258302e-03
         - -2.4074359780654479e-03
         - 5.4898841815874452e-03
         - -7.0829058244013888e-03
         - 1.0480972359542508e-02
         - 4.1137586195391772e-03
         - -4.5492042500189771e-03
         - -1.2889648202085845e-02
         - -9.7151976027433987e-03
         - 1.3189218104240385e-02
         - -7.9118433050339564e-03
         - -6.5866365961829800e-04
         - -3.8438265249822884e-03
         - -7.1735258751135589e-03
         - -1.2116596220466350e-02
         - -2.0040599691486399e-02
         - 6.0820666021383961e-03
         - 1.1098270601339489e-02
         - 1.3237595597801573e-02
         - 3.8262134848612494e-03
         - -7.9138412097309770e-03
         - 1.2217884965059655e-02
         - 8.0238426332513071e-03
         - 3.1139140355659766e-03
         - -5.4708254465600688e-03
         - 9.0600982692035838e-03
         - -1.1206771862376857e-03
         - -6.6295871631247196e-03
         - 4.6804699589530945e-03
         - -5.3062662620905032e-05
         - -1.0313678077871161e-02
         - -1.0949792665733878e-02
         - 8.9831665069294696e-03
         - -1.9415584844748319e-03
         - 4.1765221334793042e-03
         - -2.0932085564516452e-03
         - 2.0747579838328086e-02
         - -1.3584865542070064e-02
         - -5.3897950530228190e-03
         - 7.1930172399484711e-03
         - 1.6838880689056878e-02
         - 9.9337637609956519e-03
         - -1.5086588940083241e-03
         - 9.7920395587589686e-03
         - -6.8322641805501410e-03
         - -1.8119660020816046e-03
         - 5.2868447197739919e-04
         - -4.5056106151961511e-03
         - 4.6606140588463015e-03
         - -3.0009372758399639e-04
         - -7.4091309971772391e-03
         - -2.2105806971754794e-03
         - 2.9014277760028967e-03
         - 8.6664956361826410e-03
         - 3.6696582147274412e-03
         - 3.8858772746471833e-03
         - -4.0929001273082525e-03
         - 3.9635233500422487e-03
         - -7.9816671061118637e-03
         - 1.2017441131170042e-02
         - 9.0913948086203279e-03
         - 2.5649489406842263e-03
         - 3.8838278388151569e-03
         - 1.4720346790532408e-03
         - -5.8013231376431685e-04
         - 2.8245569158866423e-03
         - 5.9440936476480577e-03
         - -5.3237542017832229e-03
         - 7.5316854728072844e-03
         - 9.4867971259978753e-03
         - -4.6365668406582366e-03
         - -9.6394811365590489e-03
         - -1.0035970142894337e-02
         - -1.4794962917909297e-02
         - 4.9416743903792592e-04
         - -8.1365924134209934e-03
         - 8.2016470338875172e-03
         - -1.2434842212485194e-02
         - -8.1581651732109451e-04
         - -6.1386245540680498e-03
         - 5.4909437574393602e-03
         - 8.5101026663333031e-03
         - -8.8186046256648817e-03
         - -1.1358132548591211e-02
         - -7.0533578369812713e-03
         - 2.1835531245579989e-02
         - -3.7197619119377157e-03
         - 4.0763957776693402e-04
         - 9.5990009443241847e-03
         - -2.5040348009748976e-02
         - -1.0860338446600070e-02
         - -3.0825177733425337e-02
         - -1.1407558663502286e-03
         - 1.1581227324641142e-02
         - -1.3185455134628375e-03
         - -6.5126495080671367e-03
         - -1.2782564301297150e-02
         - -3.7978676908011720e-04
         - -5.0355618938980736e-03
         - 1.9894819848254247e-03
         - 6.9650188724497686e-03
         - 7.4936408662712017e-03
         - -4.4693185572785626e-03
         - -1.8142255794135378e-02
         - -3.7651024924252458e-03
         - -1.0208199322423553e-02
         - -2.6680053044302869e-02
         - -1.5219914268501741e-02
         - -9.9925358878112051e-04
         - 1.0960778127239760e-02
         - 5.2381279354606798e-03
         - -1.3563205820474046e-02
         - -1.2418916334178607e-02
         - 1.2715393623210020e-02
         - -1.7531671006468953e-02
         - -2.3859154681940029e-02
         - -1.4474707315964423e-02
         - 1.4744151910783974e-03
         - 1.3441663081039798e-02
         - -2.3722579060153504e-02
         - 6.3781096183660535e-03
         - 2.5407260852412142e-02
         - 5.9802236742788470e-03
         - 6.1229205406498769e-03
         - -3.4391135001987025e-02
         - 4.8169998597982090e-03
         - -8.1595196852476959e-03
         - 3.0216428007952507e-02
         - 5.1253883964142849e-03
         - 3.6178985175822288e-03
         - -7.8105421244769914e-03
         - -9.1872424573053411e-03
         - 8.9716415816138914e-03
         - -5.1867386873703852e-03
         - 1.1958327438848204e-02
         - 9.7301133433468838e-04
         - 3.6653546300480358e-02
         - -1.2185556888142671e-02
         - -1.4637191938415636e-02
         - 2.2371927795122584e-03
         - 6.9263693311534943e-03
         - 2.4384780732585033e-02
         - -5.8994387015190520e-03
         - -4.9247722492711133e-03
         - -2.0492416836915692e-02
         - -1.3558406139309245e-02
         - -2.0280801774976025e-02
         - 1.9303322774503909e-03
         - 1.0800923935375642e-02
         - 2.3220546261948864e-02
         - -5.7673898467638200e-03
         - -1.0309716118810574e-02
         - 1.7569550588511708e-02
         - 7.2423161012554913e-03
         - -6.5120587466358454e-03
         - 8.5240609207217592e-03
         - -3.0922633014532556e-03
         - 1.2471080856288020e-02
         - -7.6424399667754652e-03
         - 2.4160628088127311e-02
         - -3.3377875365502140e-03
         - -2.5663779185143070e-03
         - 2.8470791993386452e-03
         - 5.7767168782694219e-03
         - -4.8020096477586708e-03
         - -1.1709253694068612e-03
         - -1.8048764137886806e-03
         - 4.5521382989172294e-03
         - 4.3165594333202202e-03
         - 2.7836628564974143e-03
         - -8.2789114627256719e-03
         - -3.4378492193235912e-03
         - -8.6268021550550324e-03
         - -3.7847097257872452e-03
         - -5.6702506184212196e-03
         - 3.1239219745976734e-03
         - 1.5134382587393519e-02
         - -1.1950198399478449e-02
         - -7.8191151612511788e-03
         - -2.1299265699788173e-02
         - -3.3494209954710488e-02
         - 1.1304159691517658e-02
         - 3.5446611847160660e-03
         - -5.9194031918146390e-03
         - 8.3696184266289237e-03
         - 1.7237761951834300e-02
         - 2.8042151844282822e-02
         - 2.4290306553579402e-03
         - 2.6318602382362045e-02
         - 1.6664641713362054e-02
         - -2.2796052643020780e-02
         - 1.4397887650336359e-02
         - 5.0526735218888973e-03
         - 2.7119932376667429e-02
         - 4.3886636201737120e-03
         - 6.6041412300289612e-03
         - 1.2652931191194879e-02
         - 2.5379794332335576e-02
         - 4.8713103787766734e-03
         - -2.9064892837988982e-02
         - 1.7695662685397844e-02
         - 1.0057329504772996e-02
         - 1.0688178837994602e-02
         - 1.1823168765827230e-02
         - 1.2845981413231407e-02
         - -3.0151034401313337e-02
         - -2.5018369694345070e-03
         - 5.9087922924044665e-03
         - -9.7136532361274883e-03
         - 2.2137804344919684e-02
         - -1.7339734926513892e-02
         - -2.7564129115094436e-03
         - -7.5802442745119027e-03
         - -1.8896176016459964e-03
         - 3.8646534175192961e-04
         - 4.5181174399595256e-04
         - 1.7887505709218758e-02
         - 1.7053928305510301e-02
         - 2.6284663092825043e-02
         - 1.5014113747267356e-02
         - -2.1554910387190533e-02
         - 8.7040325241259930e-03
         - 8.5872524352411210e-03
         - -1.1062302602241735e-02
         - 7.0804996635914523e-03
         - 2.2403179486685305e-02
         - -3.1435633782333686e-04
         - -8.5945694526486822e-03
         - 4.2295834602489746e-03
         - -1.9934257967371034e-02
         - -2.3132419905847457e-02
         - 1.5688984802660288e-02
         - 9.8848799973044604e-03
         - 9.0272717853242673e-03
         - -1.3915620494564151e-03
         - 1.6691309293445769e-02
         - -1.8353925325911909e-02
         - 3.8706008794083067e-03
         - -4.7715611812824766e-03
         - -1.2854981756945903e-02
         - 1.6104425612002163e-02
         - 1.0343405020312738e-02
         - -1.9205232205054854e-02
         - 1.2807525428636462e-02
         - -9.8065380023573106e-03
         - 5.9564504367530238e-03
         - -7.9040452871119386e-03
         - -1.1229180218333251e-02
         - 9.8977115014083333e-03
         - -1.2503018973900715e-02
         - -1.0456003417601761e-02
         - -8.4612963158020773e-03
         - -8.4279982016404967e-03
         - -1.9928054212275385e-02
         - 1.5475997386077483e-02
         - -1.1438513807981406e-03
         - -9.7796165984398043e-03
         - 2.8237738970931475e-03
         - -2.4718480724448595e-04
         - -1.7002942595861065e-02
         - 2.2083103064803877e-02
         - 1.0422017641711174e-02
         - 2.7405571923072438e-02
         - 1.0863760238799888e-02
         - -1.8680334369962182e-02
         - -1.4298183334512621e-02
         - 1.2360612456216714e-02
         - 1.3615971751107667e-02
         - 4.7955509291115290e-03
         - -3.1722193476351221e-03
         - 6.9076231672138657e-04
         - 1.4032023147835273e-02
         - -1.2368097997111705e-02
         - -1.9438103978943543e-02
         - 2.0649830101702175e-02
         - -3.6136615845757019e-03
         - -1.3325223251509180e-02
         - -8.9534294994822287e-03
         - -1.0609780735069751e-02
         - -1.4282640303838073e-03
         - 2.4718150317053374e-02
         - -1.2871533431189665e-02
         - 4.1110409154064602e-02
         - -4.4139633639571733e-03
         - 8.6038086878614771e-03
         - -7.9767273212607681e-04
         - 1.2045783013172467e-02
         - -7.1930616538804426e-04
         - 9.9751669299662452e-03
         - -5.4239886046813313e-03
         - -8.5539744066493468e-03
         - -1.1972748460157506e-02
         - 7.3902287486154765e-03
         - 1.2483234845306310e-02
         - 1.4036120578669261e-02
         - 6.8435725459250838e-03
         - -3.9884622062451465e-04
         - -1.7330326602633861e-03
         - 5.4747486623186884e-03
         - -6.4030232915913499e-03
         - 1.9691679972699445e-04
         - -6.6608507755638695e-03
         - 8.3147111871858335e-03
         - -8.6473568111596327e-04
         - 5.9458508758086313e-03
         - -7.8924525668574060e-03
         - -1.6087786852496750e-02
         - 2.9202826703511012e-03
         - 1.0516689941781074e-02
         - 8.6446411459992507e-03
         - -8.1895560888803846e-03
         - 7.0939392914520097e-03
         - -6.4960566797302275e-04
         - 8.2974452940438384e-03
         - -1.0184513526046149e-02
         - -1.8685264691228364e-03
         - -1.7956146169672359e-02
         - 5.3808655672731385e-03
         - -4.8624411698665597e-04
         - -3.0500686435873765e-03
         - 4.6250471941401599e-03
         - 1.7743361327698121e-02
         - 1.3085962364019528e-02
         - -2.3372461171892391e-03
         - -1.2363942888510808e-02
         - 7.9982177882661001e-03
         - -8.9459793920550149e-03
         - 1.3299924835558736e-02
         - 9.6038571254812473e-03
         - 9.0830135014592259e-04
         - -4.0607627059778355e-04
         - 3.1871958198125970e-04
         - 1.1041649270319564e-02
         - 1.0290361986742113e-03
         - 7.0188643158807457e-03
         - -2.2690487007561324e-03
         - -4.7715841586625285e-05
         - 1.0137052795012173e-02
         - -6.8200820158175503e-03
         - -4.5888020786368222e-03
         - 1.0223302707334724e-02
         - 9.1130779595212548e-03
         - -9.5249589718153487e-03
         - -7.6493589316288940e-03
         - -6.2971230490308436e-03
         - 2.5330151660435036e-03
         - -5.8849473032691500e-03
         - -9.3718644229931255e-03
         - 1.5041749049153737e-02
         - -4.3052665980836558e-03
         - -7.6859749309914278e-04
         - -1.0986066143643213e-02
         - 4.8640687239910503e-03
         - 4.5732823464342100e-03
         - 3.4543917370720048e-03
         - 4.3696930503525260e-03
         - 2.8432974670173339e-03
         - 1.7481751964779073e-03
         - 7.1835056514435707e-03
         - 3.5027192126358192e-03
         - 7.7000969570030463e-03
         - 5.0938993248424323e-03
         - -2.8087600033844563e-03
         - 2.2463272833107258e-03
         - -2.2253825825249351e-03
         - 9.6226505562075001e-03
         - -4.8618281492693975e-03
         - 1.0829771141112656e-02
         - 8.2509055913569194e-03
         - 1.2681472849405993e-02
         - -1.5523215902602314e-02
         - -1.4966480862976460e-02
         - -1.0138245094754387e-02
         - -1.4187341396395335e-03
         - -8.1371468471205469e-03
         - 6.9796226515429979e-03
         - 4.9991525761949838e-03
         - -1.2984207311739847e-02
         - 5.6343208657763265e-03
         - -6.0656249933735357e-03
         - -4.7618511736135594e-03
         - 5.3395239484994843e-03
         - -8.7105368116137134e-03
         - -5.5246756256294768e-03
         - 1.6000118209734710e-04
         - 1.6260893009608184e-02
         - 2.6430313181905426e-03
         - 3.0738318222050826e-03
         - -1.3155588462428130e-02
         - 5.9208468454578986e-03
         - -4.1682930581385044e-03
         - -1.2436221351041317e-03
         - 3.3234373444751665e-05
         - 1.3978201934780493e-02
         - -9.1304177244113630e-04
         - -7.4372466851341671e-03
         - 3.8379788441915206e-03
         - 2.3371255848020172e-02
         - -1.3917364409812951e-02
         - -1.4302509060384327e-02
         - 1.6417550270806588e-02
         - -8.2214403803224333e-03
         - 1.2661230099669572e-02
         - 8.0995401126844439e-03
         - -7.6130014069004607e-03
         - -1.9312995419455182e-02
         - -1.2770562071520331e-02
         - -1.2181623068119797e-02
         - 2.4883756306453200e-03
         - 5.8523232950295524e-03
         - 3.1347262761723019e-02
         - -3.0187159414924013e-02
         - -1.9696751311206021e-02
         - -1.3858625352902177e-02
         - 1.2659836452958741e-02
         - -4.7435957519801697e-03
         - 1.6928319914774486e-02
         - 5.9003094738645390e-03
         - 7.7698940126176763e-03
         - -1.6256180551392569e-02
         - 1.4045140933542116e-02
         - 1.7483359411523722e-02
         - 1.8580277908459439e-02
         - 7.3009783497119415e-04
         - -1.9682783445489759e-02
         - 1.8629382739957637e-02
         - 6.5218775398959489e-05
         - -1.8308198525978311e-02
         - -7.7009154074123157e-03
         - -4.4324754859436811e-03
         - 3.9471743514876085e-03
         - -7.6332281783125025e-03
         - 6.2413806642861273e-03
         - -2.4176525011661942e-03
         - 6.9521732967931752e-04
         - 8.8040380057391834e-04
         - 2.0870536910885507e-03
         - 1.4868421073291015e-02
         - -4.6808083854109565e-03
         - -2.0088316161071932e-02
         - -2.2999313508048146e-02
         - 7.5949756832043528e-03
         - -7.2355186589022763e-03
         - -1.2342775826929116e-02
         - -7.2232424656558868e-04
         - -1.8345097565600300e-02
         - -3.4250578697171463e-02
         - 6.2383795399199886e-03
         - -6.6595098947717654e-03
         - 7.8949220962212813e-03
         - -1.4160178209913096e-02
         - 2.4100659958429655e-02
         - 9.2034134845799098e-03
         - 2.6523639851297829e-03
         - -2.4724893451574430e-03
         - -2.0369472394046892e-02
         - 2.4180086955221890e-03
         - -1.0634025088007022e-02
         - 6.6634844502417318e-03
         - -3.5351027215855140e-03
         - 1.2463863798310300e-02
         - -3.0828472073481604e-03
         - 2.3896914930846225e-02
         - 2.3180420775424555e-02
         - 3.1721799156903490e-04
         - -1.7675968526927686e-02
         - -2.9954570420265328e-03
         - 2.1300882332489961e-03
         - 3.6876826459478090e-03
         - -2.0911997820043757e-02
         - -2.0222900732727592e-02
         - -2.4166181320890150e-02
         - 1.5534828159128137e-02
         - -2.4553197267346980e-02
         - 1.7347200066663199e-02
         - 1.3081054654215860e-02
         - -6.0097116927475280e-04
         - 1.2190400750907703e-02
         - 1.7716565709525279e-02
         - 1.4237255346728672e-03
         - 7.7222980214541621e-04
         - -1.0151433621242038e-02
         - 2.5259673892114521e-02
         - 1.1650993568929697e-02
         - 4.6907228467052524e-03
         - -6.3188427293819202e-03
         - 1.0943123557086326e-02
         - 5.6568689767198628e-03
         - 1.0487350484245261e-02
         - -1.5535103220157154e-02
         - -5.7388214290416146e-03
         - 4.1031817392057305e-03
         - 3.5418383116319983e-03
         - 1.3322495860498863e-02
         - -6.2138876952315923e-04
         - -2.4424069060726378e-03
         - 3.3014975339904747e-03
         - 5.4174390798643092e-03
         - -9.3897546698777060e-04
         - -6.8326883423751178e-03
         - 8.0111265781057216e-03
         - 6.1995615931726674e-03
         - 5.5815642905132894e-03
         - 6.2558746553062075e-03
         - 4.6674183304163980e-04
         - -1.5727901251057632e-02
         - -9.1591449385331064e-03
         - -1.3549245489502656e-03
         - 6.7031268686820441e-03
         - 9.2847183750651169e-03
         - 1.8581370945102925e-03
         - 9.4342486167160785e-03
         - 5.5842194684236927e-03
         - 6.2498901365759339e-03
         - -2.0343587051953839e-03
         - -6.1284499357350730e-03
         - 3.7867354047763529e-03
         - 1.3744791990701190e-02
         - 1.3755514410681126e-02
         - 1.2129728838084577e-03
         - 1.2258957286450092e-02
         - 2.3442874095638513e-02
         - 1.1021758000845379e-02
         - 2.0315213527278288e-03
         - -1.1873738853650411e-02
         - 3.1720173393328449e-03
         - -1.4078886797426022e-02
         - 6.6156229291110919e-04
         - -1.5627478108374616e-03
         - 8.2052099476155986e-03
         - -1.5387700860237542e-02
         - 1.0354992773389879e-02
         - 1.8408566554458355e-02
         - 8.7013028001643837e-03
         - 3.6846372897531223e-03
         - 1.1676413010902144e-02
         - -9.2839905556948137e-03
         - 1.6299800634012575e-02
         - -4.9769837715171626e-03
         - -1.3861008688476907e-02
         - 7.3596591741686187e-04
         - 1.3747079943876897e-02
         - -1.9373782775718093e-03
         - -6.3133689151817507e-04
         - -3.3936168964659513e-03
         - 1.2913297207614910e-03
         - -2.0084886431357336e-03
         - -3.7663943922595115e-03
         - 1.6055293993572320e-02
         - -5.2943212242757016e-03
         - 6.9464639323075601e-03
         - -1.0000516596193340e-02
         - 1.7054759531970550e-02
         - 9.8601742593031703e-03
         - 5.8611925250476897e-03
         - 1.0096775274848075e-02
         - -1.3211949794749926e-03
         - 1.0175214707510599e-02
         - 1.0328496409170855e-02
         - 6.0652789645262101e-03
         - 1.4003179574813432e-02
         - 1.8234007561751694e-02
         - -1.1179918811219722e-02
         - -2.4353706934886056e-03
         - -1.2056947345151144e-02
         - -1.9796911926901195e-03
         - 2.0880304799211933e-03
         - 1.4041940727297544e-02
         - -2.8940347053443630e-03
         - 1.3381187589088000e-02
         - -1.7905597779785988e-02
         - 4.3818397221008030e-03
         - -1.2050477588393910e-02
         - 5.3288133522798667e-03
         - -1.4282878111184052e-03
         - 9.7754077144565441e-03
         - 1.4997496017089336e-03
         - -4.3089749985590481e-03
         - -4.9484895284431247e-03
         - -1.2010083334736267e-03
         - -2.3283656839299824e-04
         - 4.7340294575799391e-03
         - 6.0525052505310106e-03
         - -1.4146146049057605e-02
         - -5.6283944276076794e-03
         - 1.3342658278063257e-02
         - 3.3858477370518067e-03
         - -9.0875113587021445e-04
         - 9.5257967867757500e-03
         - 6.7617805781645572e-03
         - 2.0785945499561345e-03
         - 1.2042425507496504e-02
         - -8.8731385592276269e-03
         - 7.1380642253859967e-03
         - 1.8467630223278481e-02
         - 1.6127257770234635e-02
         - 2.7801454035410911e-03
         - 4.2686262890466523e-03
         - -7.2668096177590513e-03
         - -9.6015306857360899e-03
         - -7.3965762018979612e-03
         - -2.1750986035318472e-03
         - 6.8489077110640301e-03
         - -5.1254531249425020e-03
         - -2.6113393833147899e-03
         - -9.4683234331376324e-03
         - 1.3285444829156366e-02
         - -8.5307840626775901e-03
         - -7.9096272705062726e-03
         - 2.6779563657902549e-03
         - -1.6240467625973764e-02
         - 9.0443957232123375e-03
         - -1.5179091094059398e-03
         - -8.9985934415580254e-03
         - -4.8475724980150021e-03
         - 2.7780047192840205e-03
         - -1.3375105590485006e-02
         - 5.9780069003946609e-03
         - 5.2498287087434196e-03
         - 6.9087026002516210e-03
         - -1.2803713287110920e-02
         - -1.4977116270961406e-02
         - 6.9051902267455237e-03
         - -1.4910860799351671e-02
         - 1.1570089404027191e-02
         - 1.0527723353701399e-02
         - 1.0396695365557328e-02
         - -1.4094447890178229e-02
         - 5.2910043033096632e-03
         - -1.3919702308864048e-02
         - -2.8683191666919978e-04
         - 4.6255131386132731e-03
         - 2.1706040306762307e-04
         - -3.0715791260449922e-03
         - -6.3106827228780020e-03
         - -3.1156745538380125e-03
         - -1.1411786756546081e-02
         - -1.5577242221858299e-02
         - -3.7618173099773734e-03
         - 9.0631641874892432e-03
         - 2.0773021161672157e-02
         - -2.7596217334403960e-03
         - -1.4056531858235721e-02
         - 1.7006520285186854e-02
         - -3.9813345049591903e-03
         - 1.1855046230410768e-02
         - 3.1370780738074482e-03
         - -9.1158508608442119e-03
         - -3.6648333601784393e-03
         - -1.1384649835990315e-02
         - -8.0172709588707987e-03
         - -1.9434791362549532e-03
         - 1.4971134859819099e-03
         - -1.6418060157717969e-02
         - -7.1003159598986530e-03
         - 3.7637492468975227e-03
         - -3.0459028825494778e-04
         - 9.5610391163739577e-03
         - 3.5738846770414366e-03
         - 5.5970611822350465e-04
         - 1.8288290954304144e-03
         - 5.1567224156573608e-03
         - 1.5701464117473762e-02
         - -4.5857114200018373e-03
         - 9.2604745539824028e-03
         - 1.3854877660818523e-02
         - 1.9838061989292742e-02
         - 2.0155882537673960e-03
         - 6.1965063763028570e-03
         - 1.0581662407104359e-02
         - 3.9573505494098701e-03
         - 3.7109414815604870e-03
         - 1.0720758411257535e-02
         - -5.3482444565400222e-03
         - -2.2449087351482364e-03
         - -1.5190387375818034e-02
         - -2.2596223875206246e-02
         - -1.3090381023213438e-02
         - -1.0994383333913368e-03
         - -4.3100960007069634e-03
         - 3.9332331602833441e-02
         - -3.2006106513366894e-03
         - 1.3656383022521009e-03
         - -8.1578350733209244e-03
         - -1.3584063183330959e-03
         - 1.3457471706829852e-02
         - -6.5951676578458029e-03
         - -4.3126304967355082e-03
         - 1.3914587894018265e-02
         - -1.9090809615329378e-02
         - -1.6503582756920688e-03
         - 1.3073523397944594e-02
         - 1.4167807566369294e-02
         - 8.3046275861043770e-03
         - -4.7378899277475068e-03
         - -5.3567010066123064e-03
         - -3.6481303370645701e-03
         - -8.4084210581385939e-03
         - 3.6216717997467681e-04
         - -3.5365880041190105e-03
         - 1.3592938314139387e-02
         - 1.0284374908597921e-03
         - 5.1002377123890658e-04
         - 1.0879413585888341e-02
         - 1.2075241338284316e-02
         - -2.0621620853958744e-02
         - -4.6161455659423428e-03
         - 2.2287233190116173e-02
         - 1.7433571995283243e-02
         - 5.8298472921892303e-03
         - -2.7748577910776902e-02
         - 2.3751126701667635e-02
         - 1.4270040723250469e-02
         - 1.3633547327747084e-02
         - 8.5789831312004438e-04
         - 5.7649742784006298e-03
         - -2.9436254695733688e-02
         - -2.8067304457823844e-03
         - -1.1481909735923891e-02
         - 1.9674763329127376e-02
         - 8.4700015751809077e-03
         - 7.4421489898248948e-03
         - 2.4244245184043962e-02
         - 9.0806315691507548e-03
         - 1.3586489552769119e-03
         - 1.3138185052070008e-02
         - -9.0240451718487499e-04
         - 1.0085703759498523e-02
         - 1.0551161307235339e-02
         - -1.0486176147431513e-02
         - -1.3982832082567807e-02
         - 1.3070027441840127e-02
         - 1.5863529926344953e-02
         - -1.4136518507313024e-02
         - -8.1186051341854883e-03
         - 1.2088163897087895e-03
         - -3.1850382640569969e-02
         - 1.1247118154912189e-02
         - 5.2625911321717185e-03
         - -5.9323425671304244e-03
         - 6.0444964720247074e-03
         - 1.8583144430415685e-02
         - -2.4954494883574754e-03
         - -1.2700651770135003e-02
         - -8.3010062563819882e-03
         - 4.0148086534037980e-03
         - 1.9750699154725649e-02
         - -5.8346793699553135e-03
         - 2.7497140561219734e-02
         - -1.9704938821842218e-02
         - 2.0047927171667607e-02
         - -9.7527649232586212e-03
         - -1.9208621718516986e-03
         - -1.8484942392791377e-03
         - 1.8835748941678342e-02
         - 1.1856791116320918e-03
         - -5.6646947000370575e-03
         - -1.5692732641861458e-03
         - 2.5632719631928473e-02
         - 3.0923543045128831e-03
         - 1.4236716921388556e-03
         - 1.2852023045827367e-02
         - -2.4245538445395367e-02
         - -2.9177997069351921e-02
         - -2.3751491396706188e-03
         - 1.0532356078427450e-02
         - -9.8998347897360939e-03
         - 9.5370133182370830e-03
         - -1.3663024676597085e-02
         - -5.8171941466945709e-03
         - -1.4306549177044173e-02
         - 8.6015757617838098e-03
         - -9.2006015719808681e-03
         - 1.1216619885697499e-02
         - -1.0152234671486479e-02
         - 1.6077837702079927e-02
         - -1.4597671837763436e-02
         - 7.8172619799964163e-03
         - 1.6063507637931885e-03
         - -6.2750525072159851e-03
         - 9.0206630491772508e-03
         - -1.1743548827959254e-02
         - 9.2268594610678788e-03
         - -1.1239437760405851e-02
         - 3.0826947694263620e-03
         - 7.7534037722310637e-03
         - -3.8591368446216478e-03
         - 2.3689763508184278e-02
         - 1.4107565780228950e-02
         - 5.7152782228728624e-03
         - -8.6580812937415118e-03
         - -1.2262320362653402e-02
         - -1.4612897003798940e-02
         - -6.7881588807585703e-04
         - -3.0504894577814035e-03
         - 1.4866480354678987e-02
         - 8.6275134131564620e-03
         - 1.3290762602077625e-03
         - 3.6314035514492175e-03
         - -8.2876719137727362e-03
         - -2.3009135492305533e-03
         - 1.3175460369329425e-02
         - 1.3549419126836501e-02
         - 2.0593487592006693e-03
         - -5.9108179398171526e-03
         - -6.3730521082785716e-03
         - -1.7084835251349968e-02
         - -3.9876960184852730e-03
         - -9.2222985714681092e-03
         - 1.2346137793161136e-02
         - 3.9586359653042058e-03
         - -7.5475781731867232e-05
         - -5.3273099275019586e-03
         - -5.1921426057049136e-03
         - -9.3306126917255192e-03
         - -1.7235295989153116e-03
         - -9.4798046864092908e-04
         - 1.0949962982477891e-02
         - 1.2496638427753124e-02
         - 4.3592300801474316e-03
         - -1.2967278841422515e-03
         - 8.9059160625230092e-03
         - -8.8856828889364026e-03
         - 6.0676892430883483e-03
         - -9.7222041780763786e-04
         - 8.0004249632194410e-04
         - 8.4813804463506580e-03
         - 1.0382132437837541e-02
         - -4.5541891736208999e-03
         - -1.1327565162485143e-02
         - -1.1823602052616847e-02
         - 8.4152874319627508e-03
         - 8.7498765735925209e-03
         - 7.1626382498951018e-03
         - 1.4922463947035476e-02
         - 5.3061171054404272e-03
         - -9.0116073130445647e-04
         - -3.0254479390049824e-03
         - -8.2464690390368547e-03
         - -1.3083141035014937e-02
         - 5.1529516033744088e-03
         - -2.2741829689110712e-03
         - -1.0974229781393018e-02
         - 5.3313336069049939e-03
         - -8.8348732315123440e-03
         - -3.8016754161685940e-03
         - -7.6951395359880076e-03
         - -4.1594273589183814e-03
         - 7.2915727000866359e-03
         - 8.8691544574059900e-05
         - -4.3740997895588777e-03
         - -1.5857904699226558e-02
         - 5.7459936325260960e-04
         - -5.3375170919890474e-03
         - -6.4846193626215843e-03
         - 8.8387514325113450e-03
         - -2.7619211222786556e-03
         - 9.2537455077294252e-03
         - -1.0262843985525974e-02
         - 1.0028759949101497e-02
         - 7.5012174617666580e-03
         - 1.6026949132022749e-03
         - 4.5806387756059464e-03
         - 8.9927239216285766e-03
         - -1.9443004359450723e-02
         - -4.9234007177099007e-03
         - -5.2417863266722908e-03
         - 7.5837826492721324e-03
         - 4.8398065038700814e-03
         - 2.1152383092122050e-02
         - -8.8984418397263616e-04
         - 9.2372274849048721e-03
         - -8.1034548378720993e-03
         - -5.2137570051138211e-03
         - 4.8317793465085202e-03
         - -8.9331761951332890e-03
         - 3.3003521862970033e-03
         - -9.6348278982206041e-03
         - -2.1045582830188727e-02
         - -9.0130679899655397e-03
         - -9.6706670471553118e-03
         - -4.7144439222663965e-03
         - 4.0416530045780281e-03
         - 2.1680077782996634e-03
         - -2.6757200927673874e-03
         - 4.8083322631461934e-04
         - 5.9168811068336909e-03
         - -1.4236920212710454e-02
         - -4.3315168274217488e-03
         - 1.7754266649572595e-03
         - -3.3795830659042957e-03
         - 5.4524615115264206e-03
         - -1.1039052687475471e-02
         - -1.2308097457501576e-03
         - 1.9374668817734843e-02
         - 9.8483878474173447e-03
         - -1.7154085555517996e-02
         - -3.2268917308043953e-02
         - 3.9518147502259392e-03
         - 1.2509491624709422e-02
         - -5.8210910992816250e-03
         - -1.1518111856691606e-02
         - -1.6010923621237703e-02
         - -9.0087819789132582e-03
         - 2.0653952664449124e-03
         - 3.3713096419767732e-03
         - 5.5268992114302267e-03
         - 7.7250218856033653e-03
         - -1.0259813190658941e-02
         - -7.4562437934873865e-03
         - -1.9730410691833563e-02
         - 1.7213763195522022e-02
         - 1.7833738844467782e-02
         - 1.0654258543694981e-02
         - 4.5609292606762566e-03
         - 5.6072662388616844e-03
         - -1.3912584138448557e-02
         - -9.2593482481483601e-04
         - -1.4101495193339716e-02
         - 5.7043016497696532e-03
         - -2.0803080155759459e-02
         - -7.0047262266340789e-03
         - -3.3641629091130158e-04
         - -4.1070433337560101e-03
         - 5.1783739269404072e-03
         - 1.4344300590582641e-02
         - -7.6228958931562245e-03
         - 6.8535324777873911e-03
         - 1.7993415243438997e-02
         - -8.9089477086938054e-03
         - 1.5288216858651178e-02
         - 4.0582300197708667e-03
         - -1.3178930579816291e-02
         - -3.5402884775852469e-03
         - -1.4103819799296672e-02
         - -2.4550626205791536e-02
         - -7.8219731707892294e-03
         - -9.0292252777324274e-03
         - -1.7069692982755443e-03
         - 3.4287597750077413e-02
         - 1.3770550297311663e-02
         - 4.0255407757438594e-04
         - -1.1303588463288590e-02
         - 1.3125597077755584e-02
         - -6.0175013499259231e-03
         - 7.5059068360270285e-03
         - 2.5150333811283166e-02
         - -8.0911001945932585e-03
         - -4.4807313224250328e-03
         - -5.1375532029294393e-03
         - 4.7827990623791426e-03
         - 2.7941127696144777e-03
         - -2.1034805845654675e-02
         - -5.7026439694827097e-03
         - 6.3628610470258754e-03
         - -5.2984227227644053e-03
         - 1.2215433548182941e-02
         - -3.6139253427803692e-03
         - 6.6370961753791464e-03
         - -2.8277291883528621e-03
         - -1.5489806070803807e-02
         - -1.2074540830459043e-02
         - 1.0105114432108144e-03
         - -2.0562102712703704e-02
         - -1.1456805513324622e-03
         - 1.9968444173669310e-02
         - -2.3759278587421951e-05
         - -8.4331373225935546e-03
         - -1.3360977014785428e-02
         - 8.8197757416062662e-03
         - -1.8536648661940753e-03
         - -6.8315110117860133e-03
         - 1.0830101648674881e-02
         - 2.2777427582121893e-03
         - -1.7694941608447239e-02
         - -8.6809762447966309e-03
         - -5.6355501221701026e-03
         - -2.2877507086721295e-02
         - 5.4987154492813425e-03
         - 9.5673708975437532e-03
         - 5.6886052327828921e-03
         - -3.1452203303290625e-03
         - -2.0466289595494680e-02
         - -8.1494815172419265e-03
         - 1.0846370712891356e-02
         - -1.5846512829416259e-04
         - -1.2526034947842893e-02
         - 7.6281414475791367e-03
         - 1.7803830487111330e-02
         - 1.0333568735915373e-02
         - -2.5205746993438474e-03
         - 8.1707480118098225e-03
         - 1.0086360373850569e-02
         - 1.6783836357096661e-02
         - 1.0737702186168216e-02
         - -2.2760892221455912e-03
         - 1.4085274955753901e-03
         - 1.8511994589187907e-02
         - -6.2271322264693084e-03
         - -1.7629093323765135e-02
         - -6.8674445928314370e-03
         - -1.6015360355827052e-03
         - 2.5804873159237737e-02
         - -2.4614397554177303e-03
         - 1.0863275043782658e-02
         - 7.8248328713478009e-04
         - 7.4151418203133798e-03
         - -3.0728251708129223e-03
         - 3.8705735579197091e-03
         - 9.9938683525875732e-03
         - -3.2623491102300559e-03
         - 1.0999776081978000e-02
         - -7.4422511959421273e-04
         - -1.3090500022743975e-02
         - -2.1204042133603344e-03
         - 6.6166973772390609e-04
         - 1.4024114664929728e-03
         - 2.6117996786501874e-03
         - 1.3328707372549037e-02
         - 1.4382492610038086e-02
         - -7.0264969719033019e-03
         - 3.5300908844399319e-03
         - 1.3109677239329732e-02
         - -5.9126124186665747e-03
         - 7.6957427652391691e-03
         - 5.4407049778014260e-03
         - 7.8516776662916083e-03
         - -2.5037815911756425e-02
         - -7.2848477182464264e-03
         - 8.9157193076196354e-03
         - -6.6588892017115202e-03
         - 3.2150112557729903e-03
         - -4.5174704587971721e-03
         - 8.3173636052130996e-03
         - -4.6856000468518226e-03
         - 2.0687171770472777e-03
         - -7.9431511897008478e-03
         - -7.7441431017044654e-03
         - -1.0286228882933792e-02
         - -3.7799761065874290e-03
         - 2.6358755084704002e-02
         - 1.2077337921520133e-02
         - 1.0965774164284556e-02
         - 1.4294294617402919e-03
         - -5.9789845047564273e-03
         - 1.1576288831297384e-02
         - 1.8449579459297483e-03
         - -1.1137946686010276e-02
         - 1.1372530559739412e-02
         - -1.2970204228460132e-02
         - -7.7764644744497671e-03
         - -3.3055228018135830e-03
         - 1.4887038303693034e-02
         - -4.1003014217841759e-03
         - 2.4222784595857192e-03
         - -8.0042428133361397e-03
         - -5.5346168280150541e-03
         - 1.1641749628962963e-02
         - 6.2690351396580456e-03
         - -3.7309061268102836e-03
         - 7.5611293949321883e-03
         - 1.3307441168482958e-02
         - -5.0861075777707595e-03
         - -2.0181109749917293e-03
         - 1.7471304707523658e-02
         - 7.2477240536921927e-03
         - 1.8673746830830926e-02
         - -4.6123366002020286e-03
         - 5.8558498238380557e-03
         - 6.2586643491903231e-03
         - -6.2938673738171021e-03
         - -8.6425277070401908e-03
         - -6.5995373016722999e-03
         - 6.3416736184104274e-04
         - -8.5322822439466289e-03
         - -9.2452562928350725e-03
         - -6.0943895600856475e-03
         - -1.4458359613382082e-02
         - -1.2971863873505931e-02
         - -2.0505122530314404e-03
         - 3.8699118609174084e-02
         - -3.6246214619304593e-03
         - 1.2290224896064579e-02
         - -7.6152498446204458e-03
         - -1.3474674476231683e-02
         - 1.1400889702713857e-02
         - -8.0100731273534554e-03
         - 1.4998637478469171e-03
         - -1.7727455907175470e-02
         - 1.5207635645459685e-02
         - 4.4216738253258902e-03
         - 5.6944504210454458e-05
         - 3.9247367808064215e-04
         - -1.4867683516336863e-02
         - -5.4231241002091896e-03
         - -1.0831140601635687e-02
         - 4.4809169349255612e-03
         - 2.2420392788433656e-02
         - -5.0703163870716352e-03
         - 7.8300699071048412e-03
         - 7.6390046657389904e-03
         - -4.7215718225115744e-03
         - 1.2523649137588237e-02
         - 5.9989551040534183e-04
         - -3.8748468584919372e-03
         - 4.2838342262140928e-03
         - 1.2896115126756634e-03
         - -2.6449922379855580e-03
         - 7.5570091546014583e-03
         - -2.2222709884964702e-03
         - 3.1683714592169544e-02
         - -1.3762836309965568e-02
         - -1.0062708260420616e-02
         - -1.7334467952258167e-02
         - -3.0527409072292834e-03
         - -5.4754319265069452e-03
         - 1.4513387528463154e-02
         - -1.2558985949123179e-02
         - 9.2462685539366242e-03
         - -6.8814514356418093e-03
         - 3.9785622843757328e-03
         - -3.1297466934764643e-03
         - -8.6890095558935943e-03
         - -5.3224615066633238e-03
         - -3.9920520995810754e-03
         - -1.4343283600488407e-02
         - 1.0514489553440172e-02
         - -1.2456488458895578e-02
         - -1.5300331560833583e-02
         - 2.4969343986876651e-02
         - 1.2114922928402222e-02
         - -1.2619908641316275e-02
         - -4.8055902394009923e-03
         - 1.2414746120610698e-02
         - 7.0425333601347251e-03
         - 2.9126997600622084e-03
         - 4.4828657307523162e-03
         - -1.0463211439075202e-03
         - 1.2016249822365193e-02
         - -1.2504384229864524e-02
         - -2.0621963108816969e-02
         - -1.0232074556642138e-02
         - 1.6099951208120526e-02
         - -4.8761951571400287e-04
         - 5.2244841081437411e-03
         - -7.6366877732156188e-03
         - -2.3081283892022256e-02
         - 5.7020289985795789e-03
         - -6.0458396655497394e-03
         - 1.4565235072584259e-02
         - -3.1052523340394326e-03
         - 1.5493541033703082e-02
         - 4.4182864809821903e-03
         - -7.3620356541125151e-04
         - -9.0445362955586250e-03
         - -1.5593512675374371e-02
         - -3.3471819904284489e-04
         - 1.8067894805203696e-03
         - -1.4224877605664583e-02
         - -7.1583172944063023e-03
         - 5.8503530104149857e-03
         - 1.5592526689058641e-04
         - -6.1632069992059758e-03
         - 1.6568667992607054e-02
         - -4.1560874852449121e-03
         - -9.1499830146573452e-03
         - -3.4768308368186684e-03
         - -1.0641405977242892e-02
         - 3.6207714519726785e-03
         - -7.1429117866554969e-03
         - 3.2202463514753596e-03
         - -2.7749523837935154e-03
         - 4.7247763875744560e-03
         - 2.2991545351552616e-04
         - 9.5331279053904039e-03
         - 1.8374627725750296e-03
         - 1.5464650700637102e-02
         - 2.3916328357927279e-02
         - -1.9775110569984419e-03
         - 3.4884294824782309e-03
         - -9.4786494036566658e-03
         - 3.5138219440739582e-03
         - 5.0445695712289847e-03
         - 1.7239636746225452e-02
         - -9.6523824539052096e-03
         - -1.3096047779342430e-02
         - -3.5404281683304186e-03
         - 7.3388287501858348e-03
         - 4.5313570384305441e-03
         - 9.3022215338323458e-03
         - -4.5479753993582020e-03
         - 8.8145123033883371e-03
         - 1.0322735052269599e-03
         - 3.9958649956375412e-03
         - 9.0024784514492503e-04
         - 1.3784088707154959e-02
         - -1.5038466480505361e-03
         - -3.8157948663250772e-03
         - 9.8037640065872945e-03
         - -3.6206273229506870e-03
         - 7.2016752102674131e-03
         - -1.2902395354870267e-02
         - 3.9084925072849384e-03
         - -4.9633510707526654e-03
         - 1.2411831694891830e-02
         - 2.5698555292826667e-02
         - 1.0206438768195696e-02
         - -3.7848932069054039e-03
         - 1.0404017197858207e-02
         - -6.4034557368137773e-03
         - 4.6829894761558051e-03
         - 6.4581303531361014e-03
         - -7.8883299383296791e-03
         - 9.9433536874937826e-03
         - -1.3385629818831634e-02
         - -1.7816572189343884e-02
         - 1.8939999740553704e-02
         - 4.5841996893988572e-03
         - -4.8019009340215463e-04
         - -5.5680069611194318e-03
         - -1.0498379362927831e-02
         - 2.1050540517411590e-03
         - -3.9235620304464789e-03
         - 4.3122393829603462e-04
         - -3.2520913230553415e-03
         - -9.0717401283789932e-03
         - -1.4145848180215716e-02
         - 2.0387153113201480e-03
         - -1.3664193331099844e-02
         - 1.3592597089043434e-02
         - -1.2047218426482289e-02
         - -6.9688746278398443e-03
         - -9.6846636200925429e-03
         - 8.5354187578690465e-03
         - -8.1485155550602845e-03
         - 4.8906946859144642e-03
         - 2.2557468324763404e-02
         - -8.0234414375592710e-03
         - -1.7260813596228642e-03
         - 1.3542456798177891e-03
         - 1.6871046180263794e-02
         - 1.2485316019446647e-02
         - 1.9025450242059014e-02
         - 8.4392404821240427e-03
         - -1.1423965667854665e-02
         - 4.0367759471604692e-03
         - 8.7247756688032981e-03
         - -1.6894562547246035e-02
         - 9.7698021324566942e-03
         - -2.6617190824029906e-03
         - 2.5801103035415543e-03
         - -4.4752791374204305e-03
         - 9.1721254716882732e-03
         - 1.4903812279043794e-02
         - 3.3986414964753031e-03
         - -2.5314573480343518e-03
         - 4.1593104624113215e-04
         - 1.1059828161133487e-02
         - -1.5453889851797804e-02
         - 8.2687568639039088e-03
         - -3.5125382119452395e-03
         - -4.5491144498569476e-03
         - -6.1688890696427381e-03
         - -4.3304807157530222e-03
         - 1.3049814884418521e-02
         - 1.7354754298390108e-04
         - 1.3287744040573830e-02
         - -1.6875531108203345e-02
         - 1.8720198490099517e-02
         - 9.4245969918739462e-03
         - -6.4156817739729546e-03
         - 5.9338251576906047e-03
         - -1.8943998443119048e-03
         - -2.6877796086134686e-03
         - -1.0587032319264698e-02
         - -9.0394203428537413e-03
         - 1.2772312489404700e-02
         - -2.8039071786738402e-02
         - -1.5288534924740761e-02
         - 1.0423574278280228e-02
         - 1.5129821027487183e-02
         - 6.2337456423385267e-03
         - -2.1495784252807609e-02
         - -7.7343224133890219e-03
         - -4.0754301642368304e-03
         - 5.8042928517643136e-03
         - -7.8348636880655499e-03
         - -1.0278026858807455e-02
         - -5.0711655058986310e-03
         - -1.4086201348270679e-03
         - -1.0737362704411554e-02
         - -1.5133993748777172e-02
         - -4.5266183501724106e-03
         - 3.6599161645380399e-03
         - 2.0026108932286496e-03
         - 6.4562325757455989e-03
         - 8.2382826297907252e-04
         - -1.3338854303681470e-02
         - 4.5208712840465000e-03
         - 7.4063036047152505e-03
         - 1.4999484461827972e-02
         - -6.3258653024841419e-03
         - -1.5891391396540125e-02
         - -4.0191296104227208e-03
         - -7.3716511246271783e-03
         - 7.7156919427230838e-03
         - -1.8066677794712306e-02
         - 3.8144769313703118e-03
         - 1.2063027428444542e-04
         - -1.9487174693004868e-02
         - 9.2826328666353337e-03
         - 1.2789192354857241e-03
         - 1.1429044728607604e-02
         - 9.7978942137812372e-03
         - 6.5757736166569434e-03
         - 1.7568498888726619e-03
         - 5.0351810199617576e-03
         - 9.2179526594978120e-03
         - -1.0705194602768484e-02
         - -1.6223255631202100e-02
         - 4.3762095532067190e-03
         - -1.6000446073421767e-03
         - -1.9869900834503181e-02
         - 9.9051465502003940e-03
         - -2.0736621665434888e-02
         - -4.0780522451955856e-03
         - -7.9455920087484824e-03
         - 1.5681891099494662e-02
         - 7.7711092177424213e-03
         - -1.0516256393171502e-02
         - 2.0450122426111869e-03
         - -7.4337056390752568e-03
         - -8.9109391984226287e-03
         - -3.6239098854210054e-03
         - 1.2726541108812248e-02
         - 1.1049576005723895e-03
         - 8.7940657485381553e-03
         - 5.8398910397014017e-03
         - -3.0193914628316921e-04
         - 6.8533239777231175e-03
         - -1.2192413135596545e-02
         - -4.9414151095686174e-03
         - -1.5598113327407338e-02
         - 1.3884250542521204e-03
         - -8.1409122880413166e-03
         - 1.2189127468400379e-03
         - -2.4936383340479090e-03
         - 1.8166908962691450e-03
         - -1.8078763548516311e-03
         - 1.6955546578834146e-02
         - 3.6078572909695526e-03
         - -2.2196204241536495e-04
         - -1.4635708123180638e-02
         - 1.4639570592603035e-02
         - -4.6078251041332292e-03
         - -6.3207609410478585e-03
         - 1.0228018640038129e-02
         - -6.3517790680062518e-03
         - -9.1910967813756701e-03
         - -4.4839221274817652e-03
         - -4.7655642921120758e-03
         - -1.3620732211128693e-02
         - 5.1525240408992626e-03
         - 1.6555805619893144e-02
         - -1.3232131384051438e-02
         - -7.9079886154072056e-03
         - -1.3343842882485390e-02
         - 7.1446524659985536e-03
         - 2.5958397920956174e-03
         - 8.4690526964453332e-03
         - -1.5917518044980372e-03
         - -2.4098651035328743e-03
         - 4.4055060642247366e-03
         - -4.5373405137525673e-03
         - -4.0750934562166540e-03
         - 7.8485703760218187e-03
         - 1.9342459418623059e-02
         - -7.1546770311813057e-03
         - 1.8890768319778220e-02
         - -9.4450857142840247e-04
         - -2.4667842559702630e-02
         - 2.2154215909725326e-03
         - -1.8537378767342527e-02
         - 7.7560568155084835e-03
         - 1.5158114660895113e-02
         - 1.0631743831100641e-03
         - 1.9099485332616756e-02
         - -6.0842963450336053e-03
         - 1.5265056682722707e-02
         - -1.5868626479440980e-02
         - 7.8784255634845013e-04
         - 1.1290183598455038e-02
         - 5.3934245844257664e-03
         - 1.1018621401725993e-03
         - -9.0820618508384836e-03
         - 8.0194189310528428e-03
         - 4.8896544352566738e-03
         - 3.3483599460305538e-03
         - 3.8309035631561412e-03
         - -5.4168566039220609e-05
         - -5.6102701413853285e-03
         - -4.9001954614848208e-04
         - 5.4782915661724294e-04
         - 7.2979329975350685e-03
         - 1.1272229453776759e-02
         - -5.1835531099172780e-03
         - 6.5388121865504103e-03
         - 6.8721270147076383e-03
         - 6.8016339757074398e-03
         - -1.1503153669114459e-03
         - -2.6511911610848371e-02
         - 1.8619271953580888e-02
         - -3.9912045221520732e-03
         - 1.4969432139603410e-02
         - -1.3368576616987999e-02
         - -9.7044640231505521e-03
         - -1.8328785515630452e-02
         - 1.0941755336710398e-03
         - 3.3747665901498500e-03
         - 2.0979348959514189e-02
         - -1.4708730366176070e-02
         - 1.5618150533393031e-03
         - 1.6374993354990396e-02
         - -8.7574361230218049e-03
         - 2.8909944081538602e-02
         - -5.7542632606268251e-05
         - -3.1623138554175115e-03
         - 2.3918511230268452e-03
         - 2.8970471906830039e-03
         - 5.2564142758084144e-03
         - -4.7251789552654223e-03
         - 8.3122113161162234e-03
         - 1.2177260516083092e-02
         - 7.3051826498133311e-03
         - -1.2236821110398239e-02
         - 2.2142193260905343e-03
         - -1.9606412561768177e-02
         - -3.0196949486582391e-03
         - 2.5189547554527059e-03
         - 5.9341188862595054e-03
         - 2.4389992573019968e-02
         - 1.0543878313061989e-02
         - 5.2490759044261743e-03
         - 1.8620643152313719e-03
         - -5.9092853690445200e-03
         - 4.5081675562995919e-03
         - 7.5277484843840302e-03
         - -8.3024117100733326e-03
         - 2.1502054136325825e-02
         - -1.5576402310641139e-02
         - 5.9235529178973800e-03
         - -1.7537738002190714e-02
         - -6.0316759977290749e-03
         - -9.7475227992460875e-03
         - -2.3807032074644991e-04
         - 1.6064131138338465e-02
         - -1.7040188551289682e-02
         - 5.1012542303789316e-03
         - 5.0800056449816396e-03
         - 4.2696920561241039e-03
         - -1.8898985753298360e-03
         - 1.2349065954879029e-02
         - -1.7600189962736813e-02
         - -2.4491525151834580e-02
         - 2.0834912688793223e-03
         - 1.5218215190850532e-02
         - 1.2323248367475301e-03
         - 1.0326334120534936e-03
         - -1.4176182201986043e-02
         - -7.7389798273312421e-04
         - 2.5466490052643972e-03
         - 1.3566472483008197e-02
         - -1.8978955071578131e-02
         - 2.1676053521931114e-03
         - -2.2713770411181390e-03
         - -4.1302034100024060e-03
         - -1.2178332186870798e-02
         - -1.4663888246169536e-02
         - -1.8062695526054332e-02
         - 8.7187795447470618e-05
         - 2.1048104426762030e-02
         - 3.3082135170817463e-03
         - 3.0154436973507028e-03
         - -9.4727755870902194e-03
         - -7.0151252581516490e-03
         - 8.0379310914623671e-03
         - -3.0182035029766218e-03
         - 1.0753083730404478e-02
         - -9.6948444174047004e-03
         - 2.2759905314633528e-02
         - 1.3490445987860466e-02
         - 1.8950134275031269e-02
         - 4.7481049829737566e-03
         - -1.4804945889302082e-02
         - -9.2676838044049616e-03
         - -4.6200093387520347e-03
         - 1.6701314305355795e-02
         - 9.6444698352860583e-03
         - -1.4529749266522143e-02
         - -2.2596531649412038e-03
         - -4.2456315394173135e-03
         - 6.3158671976995305e-03
         - 2.1516573330160708e-02
         - 3.9956452105312052e-03
         - -1.3240729473381112e-02
         - -9.1351888861060521e-03
         - 1.9977000444260949e-02
         - 9.6655624239673082e-03
         - -1.4079030835031955e-03
         - 3.0414277620841920e-03
         - 1.4892920725472074e-02
         - -4.7465983379259115e-03
         - -6.0758096448195985e-03
         - -1.6854917578931608e-02
         - 1.4093812328164135e-02
         - 1.7702854814890843e-02
         - 1.6287590129776260e-02
         - 3.9982784346632820e-03
         - 1.1778220538199793e-02
         - 8.7793323246730982e-03
         - 1.6150095923498337e-02
         - -1.7180586786645895e-02
         - -2.2427177685707019e-04
         - 4.2019806725960215e-03
         - 1.3501530634183901e-02
         - -5.3744683649277489e-03
         - 1.6826449580219345e-02
         - -3.0639590683051485e-02
         - -1.9953947466755988e-02
         - 1.1859989780191919e-02
         - 1.0702657784235608e-02
         - 9.3500086245493132e-03
         - -8.5832328163722733e-03
         - 4.6482140005999423e-03
         - 3.5144470651454385e-03
         - 8.2750531571102164e-03
         - -2.3495891360381584e-02
         - 9.2351809177158798e-03
         - 1.4668462673782148e-02
         - -2.1389921962201103e-02
         - -4.4926222894988788e-03
         - -1.2624510958470616e-02
         - 1.6312395884039176e-03
         - -6.7925642859905586e-03
         - 1.8524548649750176e-02
         - -2.5202220076315750e-03
         - -1.4402857263740168e-02
         - 5.1688869002742737e-03
         - -6.7071673130085782e-03
         - -7.1881974424603907e-03
         - -2.7831679327468815e-03
         - 1.4197260108421567e-02
         - 1.1233256028614883e-03
         - 1.7012758301276105e-03
         - 9.3663154469876076e-04
         - -6.5213815940676385e-03
         - 2.0235992924770529e-02
         - -6.6061736942681724e-03
         - 6.9966720136354641e-03
         - -5.5337451984133548e-03
         - 3.0440028961917828e-03
         - -2.7969441625331740e-03
         - -5.8579214673168409e-03
         - 1.2408649023559789e-02
         - 3.6157967323349350e-03
         - -1.0559498668776014e-02
         - -7.5364334700175678e-04
         - -1.6532681767601472e-04
         - -1.9301293652301326e-03
         - -1.0108862079137877e-02
         - 4.2040368118326822e-03
         - 5.2896954067837287e-03
         - 1.0505321829160539e-02
         - 1.6738477945580281e-03
         - 6.3675700589033686e-03
         - -2.5815069553068565e-03
         - -1.3485486949203524e-02
         - 2.6022108889948731e-02
         - -5.5952019429531437e-03
         - 6.1902568580114534e-03
         - 2.5339759776541990e-02
         - -9.2139791155185433e-03
         - 6.2881002688989079e-03
         - 1.3110287373071959e-02
         - -1.3763451116347055e-02
         - -7.9441781311179582e-03
         - -3.8907632891595051e-03
         - 3.0788284398665672e-03
         - 1.0475908747628288e-02
         - 4.6141689674469924e-03
         - -8.8716353771652810e-05
         - 2.0921771989365984e-02
         - -2.8389240561853091e-03
         - -3.7834883013619456e-03
         - -1.1138477097293313e-02
         - 1.4395003734877902e-02
         - 1.0774222158169916e-03
         - -2.9961964527671424e-03
         - 7.7127598416719045e-03
         - -1.5397157903529791e-02
         - 1.2230280550326996e-04
         - -7.9166718166623837e-03
         - 1.8115230311615476e-02
         - 1.8221761016246570e-02
         - 1.3835222470275672e-02
         - 1.7000480272614769e-03
         - 8.4304205746016329e-03
         - 1.3855470597808523e-02
         - 1.3839774832179234e-02
         - -3.7878284302400025e-03
         - -1.7709098833586678e-02
         - 1.1019615099514097e-02
         - -6.4052639354444192e-04
         - 4.1333751484977956e-03
         - 1.1411028261855232e-02
         - -1.2113996505428147e-02
         - 6.8453516684748219e-03
         - 7.9670958433202196e-03
         - 1.4581696925414541e-03
         - 2.7843054893311923e-02
         - -1.4124062009473798e-03
         - 2.9598402852458695e-03
         - 1.0157037080681124e-02
         - 1.0412654892711853e-02
         - 9.5141105119539385e-03
         - -2.0770330533051618e-03
         - -8.4863914956870637e-03
         - -1.1830598029643888e-02
         - -1.0700638288039336e-02
         - -1.3501800008333432e-03
         - -1.0226222283206928e-02
         - 1.0154527719932185e-02
         - -5.1062045736009823e-03
         - 1.3855968239544868e-02
         - -1.3238098272057349e-03
         - 1.0408929853192087e-02
         - -1.9039444116741223e-02
         - 1.6183393751595502e-02
         - 2.5307935454038514e-04
         - -7.4019546034957097e-03
         - 1.5552318130043779e-02
         - 1.0139053491646413e-03
         - 1.5998283287171997e-02
         - 8.2787625633400051e-03
         - -5.7374559912618025e-03
         - 2.8202130897994990e-02
         - 3.3048320177678267e-02
         - -1.0530123517028863e-02
         - 2.3410136778283935e-02
         - -1.6591406933596429e-02
         - 8.5458696210728297e-03
         - -1.3901514727455178e-02
         - -1.2213942023106300e-02
         - 1.4292637915128649e-02
         - 1.4782060648596166e-02
         - 1.4583847603729917e-02
         - 2.7199370626641958e-03
         - 6.8439459085020962e-03
         - 1.4759628101424874e-02
         - -8.1254502931664956e-03
         - 9.3858829803708226e-03
         - 1.1701716402175650e-02
         - -2.8448432343427928e-02
         - -7.3250206568709854e-03
         - 3.6310579805361358e-03
         - 3.8842704967398268e-03
         - 1.0149505907272644e-02
         - 5.0338748493842017e-03
         - -4.0220658512104650e-03
         - 1.1968404203949132e-02
         - -1.5405705101148732e-02
         - 6.1164817536539951e-03
         - -1.6711964380277826e-02
         - 5.6953765230275521e-03
         - -1.0855946500374299e-02
         - 7.7031531338550892e-03
         - 8.2548849199119961e-03
         - -1.2049392102609436e-02
         - -1.8678600020047776e-02
         - 1.4571425361842080e-02
         - 2.7078510714100331e-02
         - 3.3662390163203327e-03
         - -1.5850880045870038e-02
         - -8.8408070671555771e-03
         - -3.4642125840032398e-03
         - -1.0321593431215418e-03
         - -2.1964236814627197e-02
         - 1.4216803673474257e-03
         - -2.9453470558891653e-03
         - 4.8380920519856999e-02
         - 8.6164739886635915e-03
         - 2.4412774877513775e-02
         - -1.1769340243127112e-02
         - 1.3678380790714010e-03
         - 1.3762573767450105e-02
         - 5.0458647892828220e-03
         - 1.6466389354395084e-02
         - 1.2435888495553823e-02
         - -4.5482090367476456e-04
         - -3.5470451817404950e-03
         - -7.6397807404464373e-03
         - -1.5940808836511670e-02
         - 1.2360341562724786e-02
         - 1.0246725881294966e-02
         - -9.3750258154474736e-04
         - 9.0909387377640476e-03
         - 1.5968325530186313e-02
         - 2.1802229630913453e-03
         - -4.3929679144240046e-03
         - 8.1953140737129975e-04
         - 2.5327769054969518e-02
         - -2.2156463907510762e-02
         - -1.3503297590708391e-02
         - -2.7635434420473923e-02
         - 1.9982051652868947e-02
         - 2.3009091696856825e-03
         - 2.9352174941856692e-02
         - 4.7784457522966053e-03
         - 9.1922214247041386e-03
         - 4.6979764756767484e-03
         - -7.7922491699920398e-03
         - -2.0765161939587422e-02
         - -3.6010562552334395e-03
         - 4.4852059812957971e-03
         - 2.7103174885923726e-03
         - 1.8141493823801793e-03
         - 1.4310271199033484e-02
         - -4.1232214175928442e-02
         - -2.2230897735852816e-02
         - 7.8727504585420424e-03
         - 1.1457566771742832e-02
         - -3.0999909876077217e-04
         - -1.4044662470455497e-02
         - 1.4457775667385464e-02
         - 5.5251859273102383e-03
         - -2.7300493509318363e-04
         - -6.7206153112093535e-03
         - 1.0510928924798843e-02
         - 4.5501433313546941e-03
         - -8.1302607894095727e-03
         - -7.2890585887349776e-03
         - -1.3772713980212474e-02
         - 6.1309076405612018e-03
         - 1.1489965088768518e-02
         - 1.1673508483990050e-02
         - 4.9251442294066007e-03
         - -3.1350870614214317e-03
         - -7.9810739264196198e-03
         - -2.3914379029004507e-02
         - -2.9332878932202431e-03
         - 2.2543495220595203e-03
         - 2.9907777802586202e-02
         - -1.4072524113482603e-02
         - 6.5075823070868538e-03
         - 2.3195532650074008e-03
         - -2.8567489819154263e-02
         - 1.8064324097589415e-02
         - -3.1574774454455161e-03
         - -7.5238146004463664e-03
         - -1.6317054012628066e-02
         - 1.9177893725572980e-03
         - -7.2532303429104928e-03
         - 2.1757430699352268e-02
         - 1.4555885018377500e-02
         - 8.7510142770414641e-03
         - -1.7729772544911048e-02
         - 2.1669143834915913e-02
         - -1.0465417645493847e-02
         - 1.1414219536462180e-02
         - -1.3561562724808357e-02
         - 8.2439786045592732e-03
         - -1.2728743329163413e-02
         - 2.7064915155665264e-02
         - -9.2111502740486323e-03
         - 8.7768858942417274e-03
         - -8.8663519586680284e-03
         - -1.1775671151317748e-02
         - 4.6253028856381596e-03
         - -1.5386774766964050e-05
         - 1.9910980740888894e-02
         - 4.3126642560836335e-02
         - -1.9478805118288399e-03
         - -1.7476781004590138e-03
         - 1.9760501228244593e-02
         - -1.0175205747446447e-03
         - -4.8573766580990354e-03
         - -1.2172752126201117e-02
         - 5.2014804131687107e-03
         - -6.0495619173181530e-03
         - 2.5775780522935356e-02
         - 9.0459708497970821e-03
         - 9.8819406377875577e-03
         - -1.7918765965089387e-02
         - 1.1821590955590469e-02
         - 2.1018238442986305e-02
         - 1.5122475642628445e-02
         - -7.9710351354006972e-03
         - -2.1941078089777707e-04
         - -2.9728979951523698e-03
         - -1.4230433889182502e-03
         - -6.4095819177333651e-03
         - -1.5898578447823813e-02
         - -7.6584587202120349e-03
         - 8.2965878120520500e-03
         - -4.8173281107914811e-03
         - -3.5230689445533859e-03
         - -5.3449470002639833e-03
         - -4.7213632436565916e-03
         - -3.3402163344789198e-03
         - 4.5888792474323530e-03
         - 1.6796860000634271e-02
         - -2.2667049711919528e-03
         - 1.1340380100662820e-03
         - -1.5225359565951750e-02
         - 8.2296751134323578e-03
         - 2.4395267474259332e-03
         - 1.2092761835744970e-02
         - 4.3020920599950076e-03
         - 3.6486300789338351e-03
         - 8.7249258999527667e-05
         - -1.9424072509851046e-03
         - 6.8629689333722329e-04
         - -2.8884032346826630e-03
         - -1.7143060110489058e-04
         - -9.3694130683252101e-03
         - 1.3681203014252569e-02
         - -2.4718149228349119e-03
         - -2.6021748412753263e-02
         - -3.6014991742871817e-03
         - -8.5044266862394826e-03
         - 1.3849989925604727e-02
         - -7.8554868766492127e-04
         - -6.0607173085590509e-03
         - 1.9493980971200468e-03
         - 5.4880642531644026e-03
         - -1.4309614886841219e-02
         - 3.9778711540800203e-04
         - 1.0766355715480862e-02
         - -1.3872020418841729e-03
         - 6.4777428720552612e-03
         - -1.6707706333595910e-04
         - -5.9790085797997586e-04
         - -7.6245095362612262e-03
         - 3.5781190151762299e-03
         - 5.7167634602968351e-03
         - 9.3200313224736549e-03
         - -3.8914917976550375e-03
         - -9.8733165704248550e-03
         - -1.0476681496156751e-02
         - -6.0667229354199699e-03
         - -5.7927246523161524e-03
         - 2.3675134712125175e-02
         - -1.2700459365690024e-02
         - 1.0700858207112394e-02
         - 1.5332230425840322e-03
         - -9.0592250094023198e-03
         - 2.4154570131885215e-02
         - -9.6917656276696174e-03
         - 2.1388897981159615e-03
         - -1.4629153807943353e-02
         - -1.1695314205683867e-03
         - -1.2793549987674915e-02
         - 2.2722831617142437e-02
         - 1.1776285936892625e-02
         - 5.8624546009381096e-03
         - -1.0724345488460463e-02
         - 4.1290446294362151e-03
         - 5.3181684399046622e-04
         - 1.1222601579957733e-02
         - -4.2812972049425637e-03
         - -8.9085032435583765e-03
         - -1.6217413530948792e-02
         - 2.0204211458570123e-02
         - -8.4023455143058482e-03
         - 5.0775327276688957e-03
         - 4.3174310355485277e-03
         - -1.0908484102533256e-02
         - -3.3868366448562481e-03
         - 1.8409599589135659e-02
         - 4.8979621303042896e-03
         - 2.1490823764338515e-02
         - -1.2541069448504480e-02
         - -9.1577992602230283e-03
         - 1.3874177962488620e-02
         - 1.5627136154106651e-02
         - -3.8963982283647487e-03
         - -5.7114593086129712e-04
         - 7.8939662489450665e-03
         - 8.2922142587338044e-03
         - 2.0838897050012680e-02
         - 9.0604644384298123e-03
         - 4.8813280534210340e-03
         - -6.9446618711578338e-03
         - -4.1591636645950027e-03
         - 1.3535509293508542e-02
         - 6.9989306741298496e-03
         - 9.9890207843004818e-05
         - -9.8804215926631602e-03
         - -7.7388588684754976e-03
         - -1.6175615691900100e-03
         - -1.0404257553397517e-02
         - 1.7543578181294990e-02
         - 1.6211514720772532e-02
         - 6.5965385868508647e-03
         - -9.3779546700152854e-03
         - -1.5004847998325523e-02
         - 9.5792374721803729e-04
         - 7.9831879251551028e-03
         - -3.1017836794084495e-03
         - 5.8383431948960951e-03
         - 2.4568819044643400e-03
         - 7.6264829912019542e-03
         - -1.2365643814080075e-03
         - -1.6001165356818250e-02
         - 1.6910835755750982e-02
         - 1.7169333008964897e-02
         - -9.7482829296889877e-03
         - 1.8634218662698047e-02
         - 4.8895257068981776e-03
         - 1.1371897604258430e-02
         - 1.1592661804790251e-02
         - -9.8643984031516734e-03
         - 1.0402618344446389e-02
         - 1.1458687447975948e-02
         - -2.6225437811763803e-03
         - 8.0566737385022406e-03
         - 8.6025449691665441e-03
         - -2.0780597165606658e-02
         - -6.0607663619223736e-03
         - -8.4476050807614639e-03
         - 8.8438233583019218e-03
         - 1.5217285585010424e-02
         - -2.5834195175386725e-03
         - -2.0058643991193964e-03
         - 5.5786729229872611e-03
         - 6.0310466213861378e-03
         - -1.9821032695303310e-02
         - -5.6063244645620141e-03
         - -3.9840385846039283e-03
         - -4.2319472036704605e-03
         - 7.9987164647697083e-03
         - -1.1722570330704073e-02
         - -1.9083270207767025e-02
         - -8.0475415129618189e-03
         - 1.1358659309284543e-02
         - 5.9093599723978570e-03
         - 2.7830993361786932e-03
         - -3.0021801613563277e-03
         - -6.6663745939402972e-03
         - -6.7174751435643510e-03
         - -5.3510045463476584e-03
         - 4.5064164033042919e-03
         - 4.9312940543790413e-03
         - 8.4630224868635032e-04
         - 1.5518278264779039e-02
         - -3.2854106783062643e-03
         - 3.4602165186290577e-02
         - -1.0663739037239961e-02
         - 1.7786237683038726e-02
         - -1.0908594673066021e-03
         - -2.7495700110665669e-04
         - -4.4426719364340740e-03
         - 3.7413699067423835e-03
         - 8.7726875016893146e-03
         - 3.6414674016553733e-03
         - -3.4064585508461172e-03
         - 8.4037493432598930e-03
         - 8.7649676182381727e-03
         - 3.6298445203886785e-03
         - 9.9848272829367764e-03
         - -1.0310473381530906e-02
         - -1.2065223590864720e-02
         - 6.8320157670450719e-03
         - -4.0153270123689947e-03
         - -7.5616673923304739e-03
         - -1.3143382165533180e-02
         - -2.1746369720884815e-02
         - 8.9191174714139572e-03
         - -3.3462404885880579e-03
         - 1.3731018565838928e-03
         - 1.2558824357318457e-02
         - -1.4680648753817927e-02
         - -8.7848180546957772e-03
         - 6.1474813973590187e-03
         - 3.8778994935182742e-03
         - 2.9686521832881655e-03
         - -5.1388915167458775e-03
         - -3.4105837598987455e-03
         - 5.6318058000919911e-03
         - -9.3648862492544671e-03
         - -1.0883332046211636e-02
         - 4.7318057114311756e-03
         - -1.0438268517743653e-03
         - 8.3927257138619992e-03
         - -6.6431786571901292e-03
         - 9.6328059891219869e-03
         - -3.1645538390542185e-03
         - -3.0250180638833192e-03
         - 1.0224195048743676e-02
         - -1.3271191958669791e-02
         - 1.4848980825086549e-02
         - 3.2978529877651028e-03
         - -1.3250496132015215e-03
         - -9.6940930791414963e-03
         - 6.2507318816241589e-03
         - 7.6351068730966731e-03
         - -2.3753994133929417e-03
         - -2.1297162176519354e-03
         - -6.7695245664673599e-03
         - 8.2547612807737907e-03
         - -1.8068635992488240e-02
         - 6.6757617658971353e-03
         - -1.4173135417845898e-03
         - 2.0181435239123843e-02
         - -1.5214701293583642e-02
         - -1.9036396239923852e-02
         - 3.5769747322285292e-03
         - 2.3141264214548676e-03
         - 1.0512607529337703e-03
         - -7.2488571980138155e-03
         - -1.0042264460210825e-02
         - 9.1997312308982927e-03
         - -7.5986923806201766e-03
         - -7.2935871903703139e-03
         - -5.1340819922254279e-04
         - -7.6572533762876063e-03
         - -1.0234306656295315e-02
         - 1.9475313260131230e-02
         - 1.2885800823700593e-02
         - -9.6304544145546858e-03
         - -6.0562610057869901e-03
         - 1.2892478121914778e-03
         - 3.3573364214374121e-03
         - -2.9401032466502943e-03
         - -6.8263031472232576e-03
         - -1.2510151891916065e-03
         - 2.0400373924063372e-03
         - -5.0967373119969826e-03
         - -1.2640790404553480e-03
         - 8.4342041881259270e-03
         - 1.9590841582323930e-02
         - 1.4931745863281257e-02
         - 7.3063511160351181e-03
         - 7.3551622567328799e-03
         - -1.3339560848221778e-02
         - -4.0406156477172076e-04
         - 5.5904043592413001e-03
         - 3.2568660644867078e-03
         - 1.6785542579032638e-02
         - -1.2002217900105660e-04
         - 2.7497764364643913e-03
         - -1.1986489251198319e-02
         - 9.2982310874995932e-04
         - -9.4380969028070964e-03
         - -4.0050012658558636e-03
         - 9.7988798687424789e-03
         - -1.3608867614805377e-02
         - 1.5125539235647498e-02
         - -5.3389662054087288e-03
         - -1.3314966099808579e-03
         - 6.8999799081274106e-03
         - 8.5477287995344362e-03
         - 4.9865215390802135e-03
         - 4.4554894409144259e-04
         - -4.7836772205467419e-04
         - -3.4979816072001958e-03
         - 7.0384670473920691e-03
         - -1.1208638331164698e-03
         - 4.0529920173738221e-03
         - 1.3446709947631136e-02
         - 1.0610593815613805e-02
         - 1.8178803862257033e-02
         - -7.7267885544883147e-03
         - 1.3639123680314893e-03
         - -2.0853823555740864e-03
         - 1.4735033825527045e-03
         - 1.1475163646373417e-02
         - -1.7282420440374077e-02
         - -1.2034775731272552e-02
         - -4.5345151549958081e-03
         - -1.7157723442332619e-03
         - 9.6763649853440579e-03
         - -3.2181071746857953e-03
         - -1.3369400340356217e-02
         - 5.1490659486893853e-03
         - 1.1974153430201154e-02
         - 2.1845870472524103e-03
         - -8.5979135231278158e-03
         - -9.8995116332743424e-03
         - 1.1216537567662777e-02
         - 7.4753660477530791e-03
         - 1.0051307082910145e-02
         - -1.5485918467468111e-03
         - -1.7810368498593580e-04
         - 7.4683157745418444e-03
         - 1.4871934529347428e-03
         - -2.3240014512901244e-04
         - -2.8827380248809269e-03
         - -4.7602091357306555e-03
         - 1.0725506697908044e-03
         - -9.3971642505877202e-03
         - -1.0031323064610286e-02
         - -2.8264981324167952e-03
         - 4.5135660084162990e-03
         - -7.5647813622323990e-03
         - 9.1852444671170180e-04
         - 9.8266158910861826e-03
         - 2.4219845207254205e-03
         - 2.1807233665299781e-03
         - -5.9403546627974178e-03
         - 3.2699642199121005e-03
         - -5.0340359651682696e-04
         - 4.1404712706651896e-03
         - -3.2861171007249851e-03
         - 5.9719982147977092e-03
         - -5.2872105768701381e-04
         - -5.0682755023683133e-03
         - -7.1562300076742575e-03
         - 3.3031529315484106e-03
         - -8.2456754472564411e-03
         - -4.3319334061922392e-03
         - 1.1970796321755553e-04
         - -5.9908312137973605e-04
         - -4.8983111858039302e-03
         - 4.9652660233713919e-03
         - -2.1553672519781042e-03
         - -4.3797910636910354e-04
         - -5.4625197704327964e-03
         - 2.6256965843256970e-03
         - 7.8401362394533835e-03
         - 1.6110206277539525e-02
         - 2.2086789592515453e-03
         - -5.6848368616950464e-03
         - 8.5403736572329701e-04
         - -1.8364818227101555e-03
