%YAML:1.0
opencv_ml_ann_mlp:
   format: 3
   layer_sizes: [ 275, 100, 100, 9 ]
   activation_function: SIGMOID_SYM
   f_param1: 6.6666666666666663e-01
   f_param2: 1.7159000000000000e+00
   min_val: -9.4999999999999996e-01
   max_val: 9.4999999999999996e-01
   min_val1: -9.7999999999999998e-01
   max_val1: 9.7999999999999998e-01
   training_params:
      train_method: BACKPROP
      dw_scale: 1.0000000000000000e-03
      moment_scale: 0.
      term_criteria:
         iterations: 300
   input_scale:
      - 5.6420669438400166e+00
      - -3.6902495920779055e+00
      - 5.2516903620120940e+00
      - -4.0472668677167238e+00
      - 5.3347855501643799e+00
      - -4.1123879350214958e+00
      - 6.6767953846076438e+00
      - -4.8965136849096353e+00
      - 7.1221843469776189e+00
      - -5.0988064291806996e+00
      - 7.2671544309893861e+00
      - -5.3530171692252262e+00
      - 7.0069630392471112e+00
      - -5.5066510970262463e+00
      - 6.8042746127100555e+00
      - -5.4646215794759812e+00
      - 7.6243718197946135e+00
      - -6.2652615828154117e+00
      - 8.0771596232256631e+00
      - -6.7484415698391320e+00
      - 9.2114705358475018e+00
      - -7.6178397611418234e+00
      - 9.7843314882638523e+00
      - -8.1647214755818727e+00
      - 9.8304205827205458e+00
      - -8.1581385238993516e+00
      - 1.0139046282803363e+01
      - -8.5919881451804230e+00
      - 9.1989802839220776e+00
      - -7.8543561488267244e+00
      - 7.4532473460805182e+00
      - -6.1847366481500128e+00
      - 7.6298370536299691e+00
      - -6.3342448150650643e+00
      - 8.3526152846922752e+00
      - -7.0260719655310480e+00
      - 8.4334731047021148e+00
      - -6.8629026575332164e+00
      - 8.2090642289766222e+00
      - -6.3428873949838751e+00
      - 8.2484164876235884e+00
      - -6.2282980955032938e+00
      - 7.9675004715292985e+00
      - -6.2552525368882117e+00
      - 6.0039365593236820e+00
      - -4.8019943867371273e+00
      - 5.6293034130449104e+00
      - -4.3470883393577955e+00
      - 4.4691787679631014e+00
      - -1.8420687658901462e+00
      - 6.3994911898490487e+00
      - -2.5589540343059496e+00
      - 4.3962732440763874e+00
      - -2.3861135057147718e+00
      - 3.8723059414134604e+00
      - -2.6491264862139743e+00
      - 4.5407907710990596e+00
      - -3.3467662460489711e+00
      - 6.0738655706391791e+00
      - -4.6558871087720650e+00
      - 6.7096046568292840e+00
      - -5.5031402366678304e+00
      - 5.7487851640360939e+00
      - -4.3465294400545078e+00
      - 5.4497729635877654e+00
      - -3.9180797718369340e+00
      - 7.2700145427782399e+00
      - -5.7571453186337713e+00
      - 7.3877091744598138e+00
      - -6.1296109065866098e+00
      - 7.3642068028341656e+00
      - -5.9597695255540728e+00
      - 7.2662916135443396e+00
      - -5.5051452147864506e+00
      - 6.8914786559655683e+00
      - -4.8966752908090614e+00
      - 6.7853152324036925e+00
      - -5.3239273073859872e+00
      - 6.8942167157654737e+00
      - -5.5361447903154977e+00
      - 6.4179889264842593e+00
      - -4.9967711920814430e+00
      - 6.8819064618944052e+00
      - -5.2335781058008441e+00
      - 6.2065505079856083e+00
      - -4.6679586126439050e+00
      - 5.6594254295345072e+00
      - -4.4005852511691117e+00
      - 5.9022273447834568e+00
      - -4.5859636642674468e+00
      - 6.1763597383158215e+00
      - -4.6007687398055008e+00
      - 4.8091255388273941e+00
      - -3.4830862202123756e+00
      - 4.8033539444882054e+00
      - -3.1926587302346174e+00
      - 4.9454560818904811e+00
      - -2.5670114381172970e+00
      - 5.1731535096228631e+00
      - -3.6658333617980970e-01
      - 7.2262323631635109e-02
      - -1.7912806439342954e-01
      - 3.4559002474598713e-02
      - -2.6905608163363587e-01
      - 2.7780621050202094e-02
      - -3.3621599408431690e-01
      - 2.4832614992249081e-02
      - -3.9824059413045543e-01
      - 2.0525915736989954e-02
      - -4.5883883730457353e-01
      - 1.7672905836642560e-02
      - -5.3782799802442138e-01
      - 1.5255995419184987e-02
      - -5.9012964098756471e-01
      - 1.3790835401251946e-02
      - -6.0434764523710427e-01
      - 1.3214645389741361e-02
      - -5.9996725104586834e-01
      - 1.3143876998581317e-02
      - -5.6207441871100272e-01
      - 1.4078785707006299e-02
      - -5.0229714206888965e-01
      - 1.6169925519571842e-02
      - -4.3698112675248851e-01
      - 2.2121511652780496e-02
      - -3.7674384168916131e-01
      - 2.8570258287387955e-02
      - -2.5230014559496722e-01
      - 7.5751446095984304e-02
      - -1.6751799707484058e-01
      - 1.8353453862531323e-02
      - -3.6481854802435415e-01
      - 1.1615420275598276e-02
      - -5.1571974885378302e-01
      - 1.0390037802045563e-02
      - -6.8606100560758565e-01
      - 9.2083242018474940e-03
      - -9.2586487643459636e-01
      - 8.7981765174014910e-03
      - -1.0516983073618160e+00
      - 8.8397988163301366e-03
      - -1.0813148408330771e+00
      - 8.8200008908706357e-03
      - -1.0619989656189330e+00
      - 8.8868872889641664e-03
      - -1.0516776236781591e+00
      - 9.1175551777965026e-03
      - -1.0638240014955840e+00
      - 9.0477171793572446e-03
      - -1.0784381540274464e+00
      - 9.0210467391765529e-03
      - -1.0538032061870217e+00
      - 9.4163927827878458e-03
      - -9.7129195703134807e-01
      - 1.0498113443730174e-02
      - -7.3233774035797217e-01
      - 1.2154366127710264e-02
      - -4.7840150398022380e-01
      - 1.8642735396635409e-02
      - -3.2153791832082806e-01
      - 1.2861317514834880e-02
      - -6.6851660131021218e-01
      - 1.0937749070871514e-02
      - -1.0765820605032339e+00
      - 1.0919824416242428e-02
      - -1.2459450400003964e+00
      - 1.2101642222857121e-02
      - -1.2963596401478805e+00
      - 1.3068606964031103e-02
      - -1.1481862570914176e+00
      - 1.4382892598440186e-02
      - -1.1101586170749529e+00
      - 1.4308752935190990e-02
      - -1.1750571768247171e+00
      - 1.2982454387509713e-02
      - -1.1498804129757414e+00
      - 1.3654917323546942e-02
      - -1.1684192310667592e+00
      - 1.4002286160281695e-02
      - -1.2353983214394835e+00
      - 1.3790241735635698e-02
      - -1.3348691606489391e+00
      - 1.3140262123105800e-02
      - -1.4807102984387719e+00
      - 1.1435189020290679e-02
      - -1.4348623753557548e+00
      - 1.1620658267038356e-02
      - -1.0085896064201387e+00
      - 1.4677339384285625e-02
      - -5.3283706815488496e-01
      - 1.1297297434054849e-02
      - -1.0586738028847382e+00
      - 1.0652189411117686e-02
      - -1.4276073256973927e+00
      - 1.2986788148776627e-02
      - -1.1273245974643118e+00
      - 1.4218811642621100e-02
      - -8.4424569889469825e-01
      - 1.4175987929604443e-02
      - -9.9305342928853790e-01
      - 1.3431301881157567e-02
      - -1.4784938584486915e+00
      - 1.3067920803180913e-02
      - -1.7289577543836430e+00
      - 1.2743506708806532e-02
      - -1.6076216602843252e+00
      - 1.2894777753866701e-02
      - -1.5861121870987707e+00
      - 1.4058201927946962e-02
      - -1.5604455533235420e+00
      - 1.3648955019962520e-02
      - -1.1467430708103816e+00
      - 1.3387170077834442e-02
      - -9.7863609591188250e-01
      - 1.3066824583641327e-02
      - -1.3742956785934397e+00
      - 1.0842627794789769e-02
      - -1.5777513443124529e+00
      - 1.2326563435181242e-02
      - -8.6717243464560967e-01
      - 1.0381210256224675e-02
      - -1.1393323387230596e+00
      - 1.0175989044684620e-02
      - -1.0463089623545754e+00
      - 1.4303238858746186e-02
      - -6.0300398748891693e-01
      - 1.4908703733228517e-02
      - -6.6156190836518669e-01
      - 9.1356396311178725e-03
      - -1.0818876404589168e+00
      - 9.8070062655307814e-03
      - -1.2535344435681302e+00
      - 1.1498062292300755e-02
      - -8.4291978650459798e-01
      - 1.1592281005338708e-02
      - -6.8216774977399630e-01
      - 1.1163024617237631e-02
      - -9.4521081909656612e-01
      - 9.5466951614515717e-03
      - -1.2001487548368164e+00
      - 9.4458018643570028e-03
      - -9.2879391503237219e-01
      - 1.4819936015597434e-02
      - -6.3124154525632459e-01
      - 1.4350422294836429e-02
      - -6.5500727723968521e-01
      - 9.6249132457096858e-03
      - -1.1975589732272862e+00
      - 1.1337762443722929e-02
      - -9.8618158845850035e-01
      - 1.1087593078855013e-02
      - -1.1158970924362652e+00
      - 1.0325774331431579e-02
      - -1.1385967207554146e+00
      - 1.3300454838342421e-02
      - -8.3468086933179120e-01
      - 1.2293684283846201e-02
      - -1.1763210507454445e+00
      - 1.1128042857048395e-02
      - -1.6480443259147326e+00
      - 1.1786928290060908e-02
      - -1.4945227003554185e+00
      - 1.1141007911222906e-02
      - -1.2584392614816435e+00
      - 1.0992408929461786e-02
      - -1.4458387508193142e+00
      - 1.2583465259383865e-02
      - -1.8828109657555481e+00
      - 1.2173605113691820e-02
      - -1.7532307694498954e+00
      - 1.0910382543283175e-02
      - -1.4935344915144058e+00
      - 1.1934445402425119e-02
      - -1.0718418772044827e+00
      - 1.1586119874610029e-02
      - -9.0984109222519016e-01
      - 1.0849515303854982e-02
      - -1.1568611085622114e+00
      - 1.1230484589658436e-02
      - -8.9829630859437049e-01
      - 1.1001873363801864e-02
      - -8.2846665004628928e-01
      - 1.1088643293275103e-02
      - -9.6700940212326580e-01
      - 1.2792246793819797e-02
      - -8.5503864378437588e-01
      - 1.3953068768470137e-02
      - -9.8587428071174688e-01
      - 1.1563621933614840e-02
      - -9.4540554713492486e-01
      - 1.3527750355460633e-02
      - -1.1825627601961184e+00
      - 1.3185127750140278e-02
      - -1.5299347653331377e+00
      - 1.2401580053542969e-02
      - -1.7627941491117998e+00
      - 1.3505103849077764e-02
      - -1.6994731317226357e+00
      - 1.3280947115347077e-02
      - -1.2193201045054169e+00
      - 1.2219637062829657e-02
      - -9.7509086955484692e-01
      - 1.2576721652568795e-02
      - -1.3209413178409968e+00
      - 1.1351766648490517e-02
      - -1.4692857967665163e+00
      - 1.0468732749673020e-02
      - -1.3403961792509458e+00
      - 1.2328879215950725e-02
      - -8.1020024758774700e-01
      - 1.0814055628696927e-02
      - -8.0314367902852923e-01
      - 9.1224249511322759e-03
      - -8.8127832331821099e-01
      - 1.1057564458426743e-02
      - -6.2006520020150302e-01
      - 1.4853859029965147e-02
      - -5.6284506425806624e-01
      - 1.1754214626811556e-02
      - -6.1695959099334152e-01
      - 1.0344027175840964e-02
      - -1.0233479485832770e+00
      - 9.6614552008915978e-03
      - -1.1841308264399317e+00
      - 9.1460907386002946e-03
      - -9.8206391010021366e-01
      - 1.0212756328338315e-02
      - -8.9566736657567481e-01
      - 1.1734063820829210e-02
      - -7.1174663435835184e-01
      - 1.2513094144579292e-02
      - -6.3767838860044723e-01
      - 1.0623823875260594e-02
      - -9.1069529547199501e-01
      - 9.9500293469521328e-03
      - -1.1235539480973793e+00
      - 9.0857586886591186e-03
      - -1.2137555542064440e+00
      - 1.0987351585686110e-02
      - -9.2267039885675506e-01
      - 1.0777875147672169e-02
      - -8.9726380259505467e-01
      - 1.0436670427511053e-02
      - -9.9023702702125749e-01
      - 1.0625238766870604e-02
      - -8.4871621794905949e-01
      - 1.2302228115331278e-02
      - -1.0262997258285720e+00
      - 1.1174242177284984e-02
      - -1.2773127400453372e+00
      - 1.2517577685833323e-02
      - -1.6229449665146181e+00
      - 1.2190301372153337e-02
      - -1.4819849890125441e+00
      - 1.1706716341512805e-02
      - -1.2428548016143293e+00
      - 1.2066445468891249e-02
      - -1.3431254840108335e+00
      - 1.2966639350431210e-02
      - -1.4479733766809755e+00
      - 1.0743507245424916e-02
      - -1.3310819346799923e+00
      - 1.3808015033131279e-02
      - -1.1923936195418188e+00
      - 1.2462979759474272e-02
      - -7.8275681015767851e-01
      - 1.1995602219892884e-02
      - -9.3759706526543318e-01
      - 1.0099314195990300e-02
      - -1.3510128035817934e+00
      - 1.0265856892229778e-02
      - -1.2198572655978324e+00
      - 1.1138703838708804e-02
      - -1.0487925655658659e+00
      - 1.1684456657283172e-02
      - -8.8832749180598625e-01
      - 1.1218463836395791e-02
      - -1.2257891273245782e+00
      - 1.0806211827980099e-02
      - -1.6397455489123247e+00
      - 1.1833573777950936e-02
      - -1.3468133065017371e+00
      - 1.1702393365302195e-02
      - -1.0261366089272541e+00
      - 1.0510651805014060e-02
      - -9.9738974829207949e-01
      - 1.1915943758111662e-02
      - -1.2208174091291566e+00
      - 1.1596084876340567e-02
      - -1.3342974998673860e+00
      - 9.8244230063392161e-03
      - -1.3862094698341989e+00
      - 1.3003791658175050e-02
      - -1.0612248663788904e+00
      - 1.5674441146947427e-02
      - -5.3039591496293237e-01
      - 1.3849336940254951e-02
      - -7.2530412265438793e-01
      - 9.8793022512691456e-03
      - -1.5166817603108553e+00
      - 9.9504321240372947e-03
      - -1.1792524278247285e+00
      - 9.9199088827638462e-03
      - -8.7794339460942949e-01
      - 1.1710999433798016e-02
      - -6.5563027591266043e-01
      - 1.1862003869859130e-02
      - -8.3118039167161961e-01
      - 8.8854914751907328e-03
      - -1.0659678034121787e+00
      - 9.8308840667176746e-03
      - -1.1199413794779038e+00
      - 1.1243621897060673e-02
      - -8.7331802299389438e-01
      - 1.0695822045313183e-02
      - -7.4957813333840173e-01
      - 1.0743747678276511e-02
      - -9.5488748524504308e-01
      - 9.8870017480272177e-03
      - -1.0939037261723221e+00
      - 8.9539661858382257e-03
      - -9.5356900355016683e-01
      - 1.4074575342945454e-02
      - -7.8049917810879332e-01
      - 1.3345123482743032e-02
      - -5.9208052610381379e-01
      - 1.0456454227921661e-02
      - -9.1805678520981959e-01
      - 9.5395442787554914e-03
      - -1.3442286801761782e+00
      - 1.0473784767369812e-02
      - -9.2905570949714900e-01
      - 1.0821706934135828e-02
      - -1.2094687428459967e+00
      - 1.3099213219112574e-02
      - -1.1262277039781206e+00
      - 1.3363069977695086e-02
      - -8.4783452437765228e-01
      - 1.3119885105320066e-02
      - -9.1925182299241515e-01
      - 1.2485140826470386e-02
      - -1.1734448638088106e+00
      - 1.2118134524933500e-02
      - -1.2737491611910809e+00
      - 1.1486377946355169e-02
      - -1.4941155025717152e+00
      - 1.2647662407419241e-02
      - -1.6989981935226530e+00
      - 1.3087080492098118e-02
      - -1.3997919159751120e+00
      - 1.2485701374079550e-02
      - -9.6496257807791119e-01
      - 1.3097123661043613e-02
      - -9.7188687513911265e-01
      - 1.2167757564879566e-02
      - -1.2506422529661045e+00
      - 1.0501112414999009e-02
      - -1.3551208248264628e+00
      - 1.1037551416125231e-02
      - -9.7378972382793649e-01
      - 1.4601790655474236e-02
      - -5.9777816966723696e-01
      - 1.0380295066482253e-02
      - -8.6880655684347974e-01
      - 1.1290160634820585e-02
      - -1.2248511479404194e+00
      - 1.2158670038853077e-02
      - -1.1831953979246685e+00
      - 1.2905175662939599e-02
      - -9.8524058850827023e-01
      - 1.4827394376236577e-02
      - -1.0166953103688814e+00
      - 1.4134020795494195e-02
      - -1.1062187100405816e+00
      - 1.2266374635409586e-02
      - -1.1715425102366719e+00
      - 1.4107726343346231e-02
      - -1.2736025847510093e+00
      - 1.3606990022883243e-02
      - -1.0502841484999066e+00
      - 1.3208127034259557e-02
      - -1.0074198710676152e+00
      - 1.2018159405678311e-02
      - -1.2288885596941530e+00
      - 1.1276748697436171e-02
      - -1.2587402523316833e+00
      - 1.0846756760500714e-02
      - -8.6572253958228951e-01
      - 1.3751683647440104e-02
      - -5.5944349383904057e-01
      - 2.1756204298206194e-02
      - -2.7602321774531791e-01
      - 1.5257560125960868e-02
      - -3.9016452114917477e-01
      - 1.1321288742226631e-02
      - -6.7545968065540518e-01
      - 9.4732502116473463e-03
      - -8.5724903210155501e-01
      - 8.8668244316246741e-03
      - -9.5291181042870421e-01
      - 9.1869197907217467e-03
      - -9.8783666079515442e-01
      - 9.2831868808653743e-03
      - -9.5950470067363058e-01
      - 9.2637499382914913e-03
      - -9.4992607057501699e-01
      - 9.6050449455157023e-03
      - -9.3157767314588924e-01
      - 9.6089645418038598e-03
      - -9.1256722237287780e-01
      - 9.1416949176787651e-03
      - -8.6215073516971086e-01
      - 9.6408489157876510e-03
      - -8.3483025437058878e-01
      - 1.1237512429565376e-02
      - -6.9988557856779365e-01
      - 1.4422565116018506e-02
      - -4.1615046237509634e-01
      - 1.9205492803151238e-02
      - -3.0769392063906997e-01
      - 5.8395269997219126e-02
      - -1.3432146671664780e-01
      - 3.5113910442137700e-02
      - -2.0719434258775121e-01
      - 2.9034411344285593e-02
      - -2.8976096987463029e-01
      - 2.3575304365605280e-02
      - -4.1266751056031481e-01
      - 1.9398561209248981e-02
      - -5.0403449738196615e-01
      - 1.6897727879404675e-02
      - -5.4603239275425108e-01
      - 1.6410306523436113e-02
      - -5.7441276946145881e-01
      - 1.4789879588679434e-02
      - -6.0307062923226262e-01
      - 1.3782223692211578e-02
      - -6.0289215732674373e-01
      - 1.3315606491853879e-02
      - -5.7479503879634786e-01
      - 1.3600185145784319e-02
      - -5.3382883174763573e-01
      - 1.5441281019940257e-02
      - -4.5773767826869410e-01
      - 2.0853516418360765e-02
      - -3.6125520831299812e-01
      - 2.9203492503193686e-02
      - -2.5996047607758355e-01
      - 4.5420804250742262e-02
      - -1.4917805370724757e-01
   output_scale:
      - 5.2631578947368418e-01
      - 4.9999999999999994e-01
      - 5.2631578947368418e-01
      - 4.9999999999999994e-01
      - 5.2631578947368418e-01
      - 4.9999999999999994e-01
      - 5.2631578947368418e-01
      - 4.9999999999999994e-01
      - 5.2631578947368418e-01
      - 4.9999999999999994e-01
      - 5.2631578947368418e-01
      - 4.9999999999999994e-01
      - 5.2631578947368418e-01
      - 4.9999999999999994e-01
      - 5.2631578947368418e-01
      - 4.9999999999999994e-01
      - 5.2631578947368418e-01
      - 4.9999999999999994e-01
   inv_output_scale:
      - 1.8999999999999999e+00
      - -9.4999999999999996e-01
      - 1.8999999999999999e+00
      - -9.4999999999999996e-01
      - 1.8999999999999999e+00
      - -9.4999999999999996e-01
      - 1.8999999999999999e+00
      - -9.4999999999999996e-01
      - 1.8999999999999999e+00
      - -9.4999999999999996e-01
      - 1.8999999999999999e+00
      - -9.4999999999999996e-01
      - 1.8999999999999999e+00
      - -9.4999999999999996e-01
      - 1.8999999999999999e+00
      - -9.4999999999999996e-01
      - 1.8999999999999999e+00
      - -9.4999999999999996e-01
   weights:
      -
         - -1.4276152531364201e-02
         - -4.2949512475541317e-03
         - 1.6597327241181985e-03
         - -1.4924335055563844e-02
         - 2.3437739420125499e-02
         - -1.3637435745799766e-03
         - 6.0396236482110725e-03
         - -1.7825456878763021e-02
         - -2.6172432973479128e-03
         - 4.2800697805055882e-03
         - -8.5078264044293646e-03
         - 4.1777208758622474e-04
         - 8.1068323132023785e-03
         - 2.2455402864514653e-03
         - 1.9401739526373812e-03
         - -2.0828532094599658e-02
         - 5.7728712222702228e-03
         - -4.7083031349142695e-03
         - 6.6156930575423448e-03
         - 3.6924306323290681e-04
         - 8.9634664965217888e-03
         - -5.5125218461002361e-03
         - -1.8769473761405036e-03
         - -8.1886889425617018e-03
         - -4.7452118427582712e-03
         - 7.9338537220762309e-04
         - 8.2854527806901571e-03
         - -4.8425064523861978e-03
         - -2.4425003724272171e-02
         - -4.2795305988334300e-03
         - -1.6432092412111774e-02
         - -1.7025888997811382e-02
         - -6.5836799158056156e-04
         - -1.4305990023901805e-02
         - -9.1928763423690784e-03
         - -3.4048963083046688e-03
         - -7.4105110038692286e-03
         - -5.9413175548851246e-03
         - -1.7452857478048690e-02
         - -6.4277851074993637e-03
         - 2.3941638670604529e-03
         - -5.9900562551714982e-03
         - 9.7342803737932738e-03
         - -7.0641344115266033e-03
         - -6.4545461244786551e-03
         - -8.5535357032470553e-03
         - 6.3391121989255289e-03
         - 4.1859996243730551e-03
         - 2.6540555240033891e-03
         - -2.7451747669590451e-02
         - 4.9763472079072490e-04
         - 7.1816847000550441e-03
         - 3.5364194706744832e-03
         - 1.1925088266253880e-02
         - -4.6844860219384639e-03
         - 6.9783524372818550e-03
         - 8.7104490124949117e-03
         - 4.1174445695938587e-03
         - -6.5241874489132034e-03
         - -1.3436189365107188e-03
         - 1.3674865459562972e-02
         - -8.5416775955059650e-03
         - 1.0990277781989079e-02
         - 3.8480182922246385e-03
         - -3.1462734195162479e-03
         - -7.3587711471773338e-03
         - -1.2364036914964700e-02
         - -8.3386695527337146e-03
         - -1.7065948494019462e-03
         - -1.2676898419824573e-02
         - 3.9864857409089866e-03
         - -7.1163328458346874e-03
         - -1.4523060286290924e-02
         - 4.8908230429639040e-03
         - -7.4402095948262383e-03
         - 1.4146802549756471e-02
         - 4.8430491928006680e-04
         - 1.1642331336565012e-03
         - -2.6663711016942700e-03
         - -5.3110823009112403e-03
         - 4.8279938941861332e-03
         - 1.2187908500723755e-02
         - 2.2908618255586839e-02
         - 1.6210336211810991e-02
         - 2.5089604163308830e-02
         - 5.4391469244347555e-04
         - 1.2724820511170670e-04
         - 1.0889494220029406e-02
         - 1.8625352232042995e-03
         - 1.0043707568421956e-02
         - 1.5429531867839051e-03
         - 4.3832875548367144e-03
         - -1.1216696548912995e-02
         - 6.8985219980271734e-03
         - 8.6080624683096338e-03
         - 1.9970527456440613e-02
         - 1.2564426847251731e-02
         - -6.9923353670483844e-03
         - -2.0391450199859031e-02
         - 3.6651245930733922e-04
         - 4.8625496211560882e-03
         - 4.9953798982287825e-03
         - -4.5744902125314018e-03
         - 1.3000896646798680e-02
         - -9.7344839868153069e-03
         - -2.5750801366770819e-02
         - -1.0827650461556398e-02
         - 1.7801400653102324e-02
         - 8.2247016051755235e-03
         - -3.1963627439330826e-03
         - -3.8572693861621835e-02
         - -1.4547782481433293e-03
         - 1.4643620694130744e-02
         - -2.7230872423791380e-02
         - 3.8957954721452581e-02
         - 2.2931837347368389e-03
         - -2.7204660905685830e-02
         - -9.5858541618462200e-03
         - 5.3226070398693804e-03
         - 5.3381511948241457e-03
         - -1.6396318987637791e-02
         - -2.3271911156396558e-02
         - 8.8349622159682249e-04
         - -3.4612678076407354e-02
         - 6.1232015379977913e-03
         - 8.0029960532987006e-03
         - -1.9910821335376510e-02
         - -7.7669857634829328e-03
         - -3.2155810600134143e-03
         - -6.4244360318550686e-02
         - 6.4836234106007199e-04
         - -2.1757794253591825e-02
         - 1.2270076007514773e-02
         - -5.2268191705545503e-03
         - -1.7039535701961324e-02
         - 1.0045970516444984e-02
         - -1.6787966996965335e-02
         - 1.8559372174469142e-02
         - 7.9848996380441593e-03
         - 1.8093158533146567e-02
         - 1.7454615725316662e-03
         - 2.1182594779167118e-03
         - -3.1321988778431438e-03
         - 2.9698298334807061e-03
         - -1.0044434144999640e-02
         - -6.6134556816093868e-04
         - -4.6782489316188024e-03
         - 1.7176114659039022e-03
         - -2.8199471284381498e-02
         - -1.7312030314562972e-02
         - -3.7592798066177643e-02
         - -3.0845842915048749e-03
         - 2.5012528183466051e-02
         - 2.5743567581816024e-02
         - -9.9350160067666997e-03
         - -1.3612525759314088e-02
         - 2.9902210913235111e-02
         - 1.1882935291985145e-02
         - 2.3822322707808970e-03
         - 1.4149484903816184e-03
         - 3.3515496976664907e-03
         - -3.0865955908554885e-02
         - 2.0916157113788341e-02
         - -3.3905444555886463e-03
         - 2.0971242366740082e-03
         - -6.8122589204011657e-03
         - -1.4077628628563790e-02
         - -2.5536865364974112e-02
         - -1.6168974817270542e-03
         - 9.7838658555906427e-03
         - -4.2383446210896136e-03
         - -1.7408492472398271e-02
         - 2.7097751116876116e-02
         - -2.1401093103647944e-02
         - -1.7356744373283637e-02
         - 4.3010218528776525e-02
         - -2.4959871409846124e-02
         - 9.1924236113500504e-03
         - 1.3922559534784095e-02
         - 7.9506772254687112e-03
         - -3.1545769373270667e-03
         - 1.3253215012261109e-02
         - 5.5006037716688043e-02
         - 4.7883527375689522e-03
         - 6.2227104059749540e-04
         - 1.6651699039585851e-02
         - -4.6213079930006798e-03
         - -8.5911785438630190e-04
         - -2.8739293243297007e-02
         - -1.8169971356582507e-02
         - -1.8135628211941826e-02
         - -8.3699738768846406e-03
         - -7.8746020933319477e-03
         - 6.5517416444682060e-03
         - 7.2680492550192067e-03
         - -1.4191023799531244e-02
         - -7.2015678571499594e-03
         - -2.4856397495122872e-02
         - 2.6238493307836362e-02
         - -1.2510310942276587e-02
         - -1.9843357651353120e-04
         - -1.3540914222848170e-02
         - -5.1780355901893402e-03
         - 7.6120735314710022e-03
         - 1.9112431797085536e-02
         - -3.9391574168857199e-03
         - -1.1251700963641505e-02
         - -1.5957644277549469e-03
         - -5.2949477622074095e-03
         - 5.4497112195037636e-03
         - -1.4276414046172581e-02
         - 3.2327489310642358e-03
         - 7.8111832218438083e-03
         - 3.6856246991313251e-04
         - 9.0568142919082700e-03
         - 4.3017995723200579e-03
         - 4.2966186520071751e-03
         - 5.4512337068865048e-03
         - 1.4771879048359221e-02
         - 3.0152881332772062e-03
         - 1.6807294627950491e-02
         - 4.7731215898349057e-03
         - -3.7710278323060944e-03
         - -2.1700775929692009e-02
         - 6.3008544964336171e-03
         - 3.9028091041524433e-03
         - 4.5281851832613719e-03
         - -4.5380455082433000e-03
         - -1.2274048228635714e-02
         - -3.6086477105811044e-03
         - 2.9661286267384883e-04
         - -2.2458380113915537e-02
         - 2.0016367773658887e-02
         - -3.7334637729336019e-03
         - 2.4232205246784528e-03
         - 4.1634740068844048e-03
         - 1.1103741295539170e-02
         - -7.6578488899572911e-03
         - -9.2273679313547904e-03
         - -8.5719810888073619e-03
         - -3.1752659386246394e-03
         - -5.3027531420259989e-04
         - 1.1545057372413223e-02
         - -5.5744528905417295e-03
         - -4.0502150102678025e-03
         - -1.3055468119854599e-03
         - 9.3943866584264449e-04
         - 6.7629853178427487e-03
         - 1.0939395342779750e-02
         - -3.4516572084941417e-02
         - 2.6751082811972264e-03
         - 4.7542891782158207e-03
         - 2.2982692850738958e-03
         - 1.6637172037890741e-02
         - -4.4659469354833923e-03
         - 1.0722805716205016e-02
         - 2.7023201657218002e-02
         - 6.6658050263441416e-03
         - 1.3614470619668967e-03
         - 1.9495336366681538e-02
         - -8.0352258131595613e-05
         - 1.3231796643736553e-03
         - 6.2908693140606526e-03
         - 9.1827909162122932e-03
         - 2.5782129971505916e-03
         - -4.6187138435742521e-04
         - 1.8752626245750123e-02
         - 4.0057191178919866e-03
         - 1.3440604856651014e-02
         - -8.6093551869290304e-03
         - 1.0585584112394264e-03
         - 8.6330541680701960e-03
         - 6.6370412792586663e-03
         - 5.8073071548904226e-04
         - 6.3383707073553768e-03
         - -9.6663910192909628e-03
         - -9.7454865033170367e-03
         - -9.0717154637330495e-03
         - 6.1898946126890215e-03
         - -9.5861582000789074e-03
         - -3.4976317497528663e-03
         - -5.4149430422507821e-03
         - 3.3459923487497788e-02
         - 1.2552876769245842e-03
         - -7.2062865552753618e-04
         - -1.1211039654386582e-02
         - 6.4616941138095369e-03
         - -8.8768806607411790e-03
         - 3.6454409084052263e-03
         - 1.6158683108251738e-02
         - -3.4473496051909019e-03
         - -3.3045663990316894e-04
         - -2.6433024176043224e-03
         - -1.3122839663047519e-02
         - 7.8993204709288788e-03
         - -2.7712422549554552e-02
         - -8.6394281967797151e-03
         - -1.7474326358303770e-02
         - -4.0200456254515706e-03
         - -2.3685714177908188e-02
         - -1.1732164998936598e-02
         - -1.0763998289319060e-02
         - 7.3721723305229291e-03
         - 6.8247030012894595e-03
         - 9.6504888836587786e-03
         - -1.6483143598126149e-03
         - 1.3723642107638036e-03
         - 5.3344832260968939e-03
         - -4.8020127683904663e-03
         - 2.4651278875180540e-03
         - 8.8394012655383016e-03
         - -1.4710661954352097e-02
         - 1.8359557331570420e-03
         - -6.3899331371537931e-03
         - 7.1551239473239834e-03
         - -2.5303098920534321e-03
         - -3.0464179745011868e-03
         - -4.4198124955767640e-03
         - -1.9580771148332211e-02
         - 2.7032678598509930e-03
         - 9.0277736650983560e-03
         - 2.7859433812886850e-03
         - 7.6326504301216930e-03
         - -2.5998602723175642e-03
         - -1.6722160519078530e-02
         - -1.2048141653994425e-02
         - -4.7130542074956296e-03
         - 5.7814244477253501e-03
         - -1.0937432220567296e-02
         - -1.8716859270117573e-02
         - -9.8109216178615070e-03
         - 1.0580958937170346e-02
         - -7.0800232954769324e-03
         - 1.3243444107052915e-03
         - 1.0043720380142430e-02
         - 3.8848648823144108e-02
         - 6.1367639853361095e-03
         - -2.4932691691383117e-02
         - 1.3583314122326584e-02
         - 1.0085134481006827e-02
         - -3.6035554840676406e-03
         - -3.8554053285661527e-03
         - 5.1246392558853453e-03
         - 1.2894972034904034e-02
         - -1.1687915982107220e-03
         - -8.1893829573096467e-03
         - -7.0823457738808902e-03
         - 7.9919269066630431e-03
         - -5.7597389188814461e-03
         - -3.0676941932563873e-02
         - 2.0897901389749758e-03
         - 4.1433793966311385e-03
         - -4.1245471388152615e-03
         - 2.8216501308795751e-02
         - 4.5547825697829121e-03
         - -2.3775038084780753e-03
         - 1.8030497289365718e-02
         - 3.0065419853427216e-03
         - -3.4032895662721567e-03
         - -1.6273876908723943e-02
         - -5.8481381784893452e-04
         - -1.8002710053742491e-02
         - 1.5423185044658927e-02
         - 3.8314505015665913e-03
         - 2.0184958756802072e-02
         - -4.4625731203332651e-03
         - 1.2855955447239361e-02
         - 6.6497922760653605e-03
         - -8.6790036980308079e-03
         - 1.6724662706078156e-02
         - 6.6385967841956211e-04
         - 1.1473218523996957e-02
         - -3.3071212746646652e-03
         - -1.5553466085870551e-03
         - -1.5471108200224126e-02
         - 1.8980657447134362e-02
         - -7.8936217575930959e-03
         - 5.7696117280089587e-03
         - -4.2772916728255591e-03
         - -3.0308877546958617e-03
         - -1.0461865948390969e-02
         - -1.2329171365574427e-03
         - -2.3219702823083617e-02
         - -1.2609226746571653e-02
         - -1.7178765604757840e-02
         - 2.7164254082437573e-02
         - -8.1838783098874268e-03
         - -1.0217245087812516e-02
         - 6.5422899455982991e-03
         - -1.8740662171306762e-02
         - -6.8321605437266959e-03
         - 7.3688172902245282e-03
         - -3.6080664499192876e-03
         - 3.6520503226973471e-03
         - -1.2196932411154228e-03
         - 1.1158611719500139e-02
         - 8.3629149886112683e-03
         - 9.7690714858545344e-03
         - -7.4591983185733918e-03
         - 1.3148527721532140e-03
         - -5.9889025970445613e-03
         - -5.6241596176833924e-03
         - 1.0314144986575556e-02
         - -5.2737841852366499e-03
         - 5.8061025726958799e-03
         - 4.6772458643113980e-04
         - -7.2960708212508902e-03
         - 4.1363856286625268e-03
         - -7.0146889754382404e-03
         - 1.2952558359779090e-02
         - 1.5331333191423218e-02
         - 2.8687861968395944e-03
         - -8.5212135754132880e-05
         - 4.2586386991410700e-03
         - 1.9945822981225665e-02
         - -5.4982338707514986e-03
         - -5.3138147717100034e-04
         - 1.3473295573377758e-04
         - -2.6446470777898121e-02
         - 8.6093067092539513e-03
         - 1.6521817989059124e-02
         - -1.5313732003817441e-02
         - 3.7202827187340823e-03
         - -2.0587333415665741e-02
         - -5.3425915719542017e-03
         - -8.5044514520005582e-03
         - -4.4483551260650761e-03
         - 9.5523541375594680e-03
         - 1.2708915265388239e-03
         - -1.6075267496608490e-03
         - -2.2857737335577211e-03
         - 2.9190140947011892e-02
         - 3.2335819478241756e-03
         - -3.4083589086542215e-03
         - 4.2360733535289482e-03
         - 1.9852960736679210e-02
         - -9.3034432560885612e-04
         - 6.9860107668846295e-04
         - 5.5646733625647551e-03
         - -8.7097660967294926e-04
         - -3.1868936987423098e-03
         - 3.3969105170737076e-03
         - -8.6015891064810529e-03
         - 3.0370335913315317e-03
         - 8.5692298343439856e-03
         - 7.3449098965853712e-03
         - -6.5407670191970201e-04
         - 1.2048879214171285e-03
         - 1.0843675214077799e-02
         - -5.4576446237189276e-02
         - 3.0564539953744584e-03
         - 5.9607547786261830e-03
         - -1.0732848006162227e-02
         - 2.0125248869454104e-02
         - -8.1025274191761035e-03
         - -6.9948335550502443e-03
         - 8.1363204831255351e-03
         - 1.2068725783527029e-02
         - 3.2749915209865444e-03
         - -2.0462630380856946e-02
         - 5.1932304465155874e-04
         - -1.1551284875917816e-02
         - 7.3972789507819048e-03
         - -1.0224583167998621e-02
         - 9.7742907309330516e-03
         - -6.1071066439985404e-03
         - -6.3876298157007870e-03
         - 7.6962100072740904e-03
         - 2.5317371323463236e-03
         - -4.9451777238748479e-04
         - -1.1345172898319128e-02
         - -1.8238175236039290e-03
         - -1.1016439540773755e-02
         - 8.4683149962424785e-03
         - -5.1602744672306806e-03
         - 4.1149302847111012e-02
         - 5.9637701991624957e-03
         - -1.0670706425754659e-02
         - -1.0783167242495466e-02
         - 5.6031319700168688e-03
         - 5.5390403432762133e-03
         - -6.4693417560477188e-04
         - 4.4463508038906328e-03
         - -1.0789717297923665e-03
         - -2.0818219891822697e-03
         - 1.3755669783459192e-03
         - -9.4057186275564950e-03
         - 6.2704090733078227e-03
         - 7.2513456163661137e-03
         - -9.2950519509835648e-03
         - 2.4967182756948426e-03
         - 7.9660475563522321e-03
         - 7.1252828561632004e-03
         - 5.8273725302201681e-03
         - -7.0088630053188501e-03
         - 3.1942145043438487e-02
         - 2.6869637748545773e-03
         - -9.7873720147838555e-04
         - -1.3308753399338220e-02
         - 2.8063428716264835e-03
         - -4.0076128709705920e-04
         - -5.4378165833168964e-03
         - 3.0217167567034037e-03
         - -2.6964691701973598e-04
         - 1.2156819155596224e-02
         - 5.7354492304306486e-03
         - -1.5151173693055788e-03
         - 1.2831009370335851e-02
         - 4.5608471977259986e-03
         - 1.1259613049062044e-02
         - 5.6209027749837548e-03
         - -2.4250047043710109e-03
         - -1.3484159555256590e-03
         - -1.1019734597073120e-02
         - 2.2687184747264308e-03
         - 9.4505670132087830e-03
         - 4.3020107632420077e-04
         - 7.4405139417537791e-04
         - -5.0605526871373074e-03
         - 3.1108336262668804e-04
         - 9.0864662481545608e-03
         - 1.0444901869691801e-02
         - 4.2008191998091013e-03
         - -1.3537507796599426e-02
         - 6.3439299725418234e-04
         - -3.0174198372075137e-03
         - -1.0952823798935681e-03
         - -8.8026909461859960e-03
         - -1.5888260197063045e-03
         - -3.2123726415946380e-02
         - -1.4295356948769711e-03
         - -2.5144478465530419e-04
         - 5.5664556490665979e-04
         - -4.2241554070831665e-04
         - 1.4899186028940241e-02
         - 2.9598740126432974e-02
         - -8.0452717928649348e-03
         - -4.0895328733470968e-03
         - 1.7145605049284547e-03
         - 3.9357376090828908e-03
         - 2.7536586431884851e-03
         - 1.3431554473156363e-03
         - 1.1291493426060449e-02
         - 5.9965531227550205e-03
         - -2.3981740492574444e-03
         - -1.3454824224729187e-03
         - 1.3009474939027273e-03
         - 8.1918072028241418e-03
         - -2.5616897679539737e-03
         - -3.3770570803222627e-02
         - 7.4307663895833492e-03
         - 1.6970263658238104e-03
         - -9.8719509333601331e-03
         - 5.4423190869154960e-02
         - -6.9746564373393549e-03
         - -1.5084018743391804e-03
         - -2.2752912514253615e-03
         - 8.9594087609846332e-03
         - -8.1456255132606923e-04
         - -2.8233115235512137e-02
         - -5.8453235186213251e-03
         - -3.8742954216308273e-03
         - 4.9988910207463041e-03
         - -4.7121828243406180e-03
         - 7.7212034444632980e-04
         - 1.5939516017200537e-03
         - 3.0592923361776061e-03
         - -4.0102782654492563e-03
         - 2.3129096401005443e-03
         - 4.5132094718895073e-03
         - -2.4468818100213236e-03
         - 3.6802261304540907e-03
         - 1.6864239598486982e-03
         - 7.3719464398776351e-03
         - -9.7036477516182311e-04
         - 5.2082396965346694e-02
         - -4.7338305465703646e-04
         - 1.1709442441067057e-03
         - 7.3869369128037521e-03
         - -3.0377446456105852e-03
         - 4.3774822041848351e-03
         - 1.0461949241531758e-02
         - 1.9975634737277967e-02
         - -6.9781073105918872e-03
         - -1.3994339587966182e-02
         - 1.3924493258978181e-03
         - 1.1028640985478199e-03
         - -3.6249334496182501e-03
         - -3.8470499645013399e-03
         - -4.9636972544158300e-03
         - -1.1696143309170019e-02
         - 5.7645870328532148e-03
         - -3.7449845020888282e-03
         - 9.3675822018984226e-03
         - 7.4131160332728896e-03
         - -6.9094026210302518e-03
         - 2.7355709833479388e-03
         - -1.1761799970842155e-02
         - 4.3876797177146354e-03
         - -3.5852325762226397e-03
         - 1.6070006333722454e-02
         - 7.1709928475981845e-03
         - -1.3739379510480043e-02
         - -7.7350096401939857e-03
         - 1.2236327012333025e-02
         - -8.9074072685160384e-03
         - -1.3595531876743341e-03
         - -6.1495490586660076e-03
         - 1.3776457988739445e-03
         - 8.1161206698058784e-03
         - -6.0898709253077539e-03
         - 2.9308555070683821e-03
         - -9.4545840445042046e-04
         - 2.9798312559017855e-03
         - 3.0484231355116000e-02
         - 6.7521932128988922e-03
         - -7.3251355866071673e-03
         - 1.0503987246338620e-04
         - -1.1801849492350950e-02
         - -1.3906924827210296e-02
         - -1.3095975900212793e-04
         - -1.0519087539062472e-03
         - 3.7830110284126951e-04
         - -2.0350408394617842e-02
         - 2.3466847438969366e-03
         - 2.6497584183556386e-03
         - 7.2747030879384191e-03
         - 2.4484793253584979e-03
         - -1.2918367993403955e-02
         - -3.8039076965448698e-02
         - 7.3775958651949528e-03
         - 2.7674493773648212e-03
         - 3.2923624200125764e-03
         - 2.8752062592536445e-03
         - 1.7135611747389846e-02
         - 1.1213552008118435e-02
         - -2.6223686940281954e-04
         - -2.8657829628625481e-02
         - 5.5832796712032822e-03
         - -1.3095254397787312e-03
         - 1.4053203454827324e-02
         - 3.2711069880113730e-03
         - -1.0871698045605217e-02
         - -1.1868651518976273e-02
         - 5.3738723056446938e-04
         - 1.5101170203931742e-02
         - -3.6136285343577050e-03
         - 3.7631904187040333e-03
         - 3.8417893916679324e-03
         - -2.3151177144358288e-02
         - -6.9655631537127614e-03
         - -1.1421749390893902e-02
         - 9.4361526615808510e-05
         - 5.6509785751633637e-02
         - 9.3991703717692943e-03
         - -5.2269174944000853e-03
         - 6.5237807187945940e-03
         - -3.3567406898045845e-03
         - -6.6570927837845250e-03
         - -2.8081705945305718e-02
         - 1.1345515718967173e-02
         - 1.5725156412204535e-02
         - 7.9728570236789753e-03
         - -9.8861861192664456e-03
         - -6.5683310797529544e-03
         - 2.8103997527908859e-03
         - -5.9360380424799616e-03
         - -1.2131465305263728e-02
         - 1.2522377106116816e-02
         - 2.7839807849690643e-03
         - -2.8225480197103638e-03
         - 1.3829478617134494e-02
         - 2.8482282145397924e-02
         - -1.5749613067919457e-03
         - -2.3748550626703211e-03
         - 1.1974672411093240e-02
         - -1.4329794999917440e-03
         - -6.8933466950254199e-03
         - 1.2387879027337600e-02
         - -5.8778043030873689e-03
         - 1.8153288004615645e-02
         - 9.0585635936631873e-04
         - 5.4739109597029122e-02
         - -9.0600774305760693e-03
         - 1.8399229606864674e-04
         - -1.4077614390342911e-02
         - -4.0222708101835597e-03
         - 6.8664371204036302e-03
         - -1.5411198834494655e-02
         - 5.3372485348918497e-03
         - -2.6992814235325728e-02
         - -4.8902131435850623e-03
         - -3.2279361821992737e-03
         - -5.3129706164791717e-03
         - -1.0553964250739388e-02
         - 1.0244131988189692e-02
         - -1.1833882617916314e-02
         - -1.3071087941933362e-02
         - 1.4839130988268962e-02
         - 3.3314801685942075e-03
         - -3.9396470424839375e-03
         - -3.4535595706524569e-03
         - -2.1150437583726062e-02
         - -4.7799600782768674e-03
         - 3.7039912014885434e-02
         - 1.6722279971015823e-02
         - -6.5696636305679040e-04
         - -2.1186051509058230e-03
         - -5.2567396573601965e-03
         - 9.4445840672744315e-03
         - 6.3746727707300523e-03
         - -2.9775636329520206e-03
         - 6.5686765300173135e-04
         - 5.6804930624048539e-03
         - 1.6125877401798036e-02
         - 3.8408039192930126e-04
         - 8.8943565367021835e-03
         - -5.9212480780072439e-04
         - 5.0090602793530980e-03
         - 2.7621038981105596e-03
         - 9.5556078100433473e-03
         - 1.5514928749698538e-02
         - -3.1401429597919489e-03
         - -1.1391561290730521e-02
         - 1.1555339764388561e-02
         - 6.8082446608589897e-03
         - 1.8010917615974311e-02
         - -8.2616991163104204e-03
         - -1.5369097272524893e-02
         - -1.9994258409831329e-02
         - 5.7215964573339865e-03
         - 6.1535431263092175e-03
         - 6.1594656952807586e-03
         - 2.3583750311916216e-03
         - 2.4135969659490854e-02
         - 2.4286709230861105e-02
         - 2.3296345319610179e-05
         - 7.5351185774298586e-03
         - -6.7065448459081986e-03
         - -2.4020599694483367e-02
         - 2.2269617076854393e-03
         - -1.5994080195355464e-03
         - 2.0700678206731604e-02
         - -1.0386390791334766e-02
         - 1.0551320580094576e-02
         - 5.4831125406403867e-03
         - 1.6546844805629363e-02
         - -3.9515524164794496e-03
         - 1.3375870556429680e-02
         - -4.9843636418306490e-02
         - 1.4925019708479167e-02
         - -4.9022032797266099e-03
         - -2.6373604127672358e-03
         - 5.0363628477622602e-02
         - 7.9680283209942644e-03
         - 1.4704664362521122e-02
         - 1.6935859322686507e-02
         - -1.5806163849219212e-04
         - 4.5360787946873461e-03
         - -3.6036361009585327e-03
         - -4.2025367370681329e-03
         - 1.8661014863339057e-02
         - -5.3466739382395725e-03
         - 1.3797134035288922e-02
         - -1.2525975096427600e-02
         - 1.9326168993342132e-02
         - 1.1220048315279904e-02
         - -2.7692383549112521e-03
         - 1.3791740180319954e-02
         - -1.8779571922052509e-02
         - 1.6524318343415247e-02
         - 1.5708147863268202e-02
         - 5.9085633826035759e-03
         - 1.3515206745562849e-02
         - 2.6209816773637491e-02
         - -3.0926878459175987e-02
         - -1.3148626030456143e-02
         - -8.7039677873292452e-03
         - 3.9119029006542553e-03
         - 1.0713292299666055e-02
         - 3.1310541813269113e-03
         - -6.5104377570159274e-03
         - 1.5133241112193269e-02
         - -7.0142159696405014e-03
         - 1.1852388504918165e-02
         - -1.3520435602854423e-02
         - 1.5362228283533600e-02
         - -5.3983543600727348e-03
         - 1.0196540616933831e-02
         - 5.8486082228866761e-03
         - -1.8248980360799950e-02
         - -3.5121699499250560e-03
         - 1.2096880800632809e-03
         - 1.1132672451441946e-02
         - 9.7711434020966628e-03
         - -4.9782377652070426e-03
         - -1.6774532080157147e-02
         - -1.3153180388500109e-02
         - 3.9384022381346948e-03
         - -1.1353732649390637e-02
         - -1.4761438591969385e-02
         - -2.8000089960955265e-03
         - -4.7899226285197652e-03
         - 3.7681555119821838e-04
         - 1.9715280477336550e-02
         - -1.1801409404107591e-03
         - -5.4451243513817128e-03
         - 3.3766373514137042e-03
         - 9.8391473267347793e-03
         - 6.6238013396311933e-03
         - -7.6292125411044302e-03
         - 1.3567729285998524e-03
         - -7.2404327721819640e-03
         - 9.5229509991591674e-03
         - 1.3210009237959237e-02
         - -2.4159740648345739e-03
         - -4.0240439842401956e-04
         - -4.8565327442152669e-03
         - -1.1522078420119335e-02
         - -2.7701767566186120e-03
         - 3.2006295862163814e-03
         - 1.1456560700772082e-03
         - -1.1694590815852939e-02
         - -1.5040349271211248e-02
         - 8.8512450147882459e-03
         - 3.0396855757031157e-03
         - 5.8858261025765612e-03
         - 4.6859623089779675e-03
         - -5.4705607575335625e-04
         - -3.4090625511728624e-02
         - 1.8298254123399933e-03
         - -2.4618250752214486e-02
         - -2.8160821885335062e-03
         - -1.8702918944857184e-03
         - 6.3208757325211662e-03
         - 8.5457232292563152e-03
         - 7.0186408880857582e-03
         - -8.4464881035775270e-03
         - 3.6159597322574628e-03
         - -1.0014218906998244e-02
         - 3.1624805931226383e-03
         - 7.0925337705783865e-03
         - -1.0213999672658122e-02
         - -3.9449994884301721e-04
         - 5.0224718209840244e-03
         - 4.5399120782704770e-03
         - -2.7059077108856455e-03
         - 4.3447167078899370e-03
         - 5.6793223323367671e-03
         - -3.0178153153913846e-02
         - 7.5869911129970487e-03
         - 1.6603148102805581e-03
         - 6.1184441239429729e-03
         - 1.5290316921402565e-02
         - 1.3637396456314152e-03
         - -1.1991391199651218e-02
         - 2.4275662295876951e-02
         - -9.6511412093535625e-03
         - 1.4411483033094174e-02
         - -8.0095219784256737e-04
         - -2.0464727376926410e-03
         - 1.1129978633516901e-02
         - -4.7041958755882048e-03
         - 1.5774673312809384e-03
         - -2.2031073844808566e-03
         - 3.2901525256655707e-04
         - -1.0251082412549857e-03
         - 1.5653874686586090e-03
         - 7.1814129068132979e-03
         - -5.8891205860029782e-03
         - 6.7313879492408970e-03
         - 1.7465702565614839e-02
         - 7.3684092799244753e-04
         - -4.0898414363071877e-03
         - 5.4144918699207678e-03
         - 1.0751366183617423e-02
         - -9.0264426541442999e-04
         - -2.9983338673130939e-03
         - 8.1068948324590114e-03
         - -3.9380239377606799e-05
         - 1.0545111310743279e-02
         - -4.5848482683894807e-03
         - 1.4845395225469447e-04
         - -2.5522878683836072e-04
         - 4.5332638596538898e-03
         - 7.8678578128401882e-03
         - 4.4564802207248651e-03
         - -6.5478976428272216e-03
         - 1.6676471522137831e-02
         - -4.1849961530263467e-03
         - -1.6201170902046719e-02
         - 1.4732093803461561e-02
         - -2.9557370234415364e-03
         - 2.9731766226577315e-03
         - 2.1546169470535158e-04
         - -1.0477315043828357e-02
         - -8.8068304399281684e-03
         - 5.4928815545174370e-03
         - 4.7399677412999195e-04
         - 7.3040412937760068e-04
         - 6.2205110331034399e-03
         - 2.4673918521727661e-03
         - 1.0670962896958913e-02
         - -6.1158540233653552e-03
         - 1.9016436806876494e-02
         - -1.3500875704839647e-02
         - -1.0139092458956394e-02
         - -3.1668414148474638e-03
         - 6.7481329655135576e-03
         - 4.0280206525709836e-03
         - -9.4362106002799373e-03
         - 1.1132564017835077e-03
         - -1.1976271073933663e-03
         - 1.2915319563467016e-02
         - 1.1507351370929838e-02
         - -8.1708414636512405e-03
         - 3.6592125453571130e-03
         - 2.4429530509024336e-03
         - -1.3941970893365763e-02
         - -1.3404641989755099e-02
         - 9.1114158252277797e-03
         - -8.1405115282677087e-03
         - -3.7048186594748002e-03
         - -4.3113334387515981e-03
         - 5.5464042945170642e-04
         - 1.2143662866386294e-02
         - -7.5281141584910994e-03
         - 9.4386145045256154e-03
         - 7.7919732651929854e-03
         - -1.1587048180375736e-02
         - 8.9785424269626349e-04
         - 1.9950489142705353e-03
         - -8.7895410297944814e-04
         - 4.7888927464356142e-03
         - 5.0667529682012196e-03
         - 7.9701336476077078e-03
         - 1.6405578675746428e-02
         - 4.8124913730475697e-03
         - 4.1531100990564512e-03
         - 1.4528289118769560e-02
         - 7.8969683083277287e-03
         - -1.7941134203987275e-03
         - -9.9949193626117389e-03
         - -5.3765575065582620e-03
         - -5.6618440646552812e-03
         - 3.3956938369609085e-03
         - -1.1015397453972755e-02
         - 1.2160480380103939e-02
         - -4.0298666077117316e-04
         - -2.6696491545431585e-02
         - 3.6358715148719254e-04
         - 9.0589757319319546e-03
         - -1.0597847861731421e-02
         - 4.3716139729679492e-02
         - -1.3191264353849849e-03
         - -2.5965576004685308e-02
         - -5.8540375086720876e-04
         - 3.5790046537918178e-03
         - -2.0305410419724401e-03
         - -2.4384950867887664e-02
         - 5.4801187935176734e-03
         - -9.4360284492546360e-03
         - 8.9460963744458152e-03
         - -3.5546884953268562e-03
         - 1.1462963720650443e-02
         - -4.3247777860243075e-04
         - 1.8590212850443764e-04
         - 9.1327248984360877e-03
         - -6.8370652020280261e-03
         - 1.1343250708309384e-02
         - -1.3291954688648203e-02
         - -2.1223108699037776e-03
         - 6.5277529244957269e-03
         - -3.1684756197856438e-03
         - -1.9003927770314583e-02
         - 2.8123794228909853e-02
         - 7.3140540951624009e-03
         - -1.1331282392513627e-02
         - -3.7280756501921024e-03
         - -1.2827861245439104e-02
         - 1.2870766584037817e-02
         - 5.8325308695033268e-03
         - -2.8084433832299339e-02
         - 2.0148123566006699e-03
         - 3.9452447978204326e-03
         - 1.9062222116126716e-02
         - -3.2273987321357850e-03
         - 4.9543747682901573e-03
         - 4.1713134644059619e-03
         - -1.7511211689523243e-02
         - 8.4517542216668744e-04
         - 1.8917409717122000e-02
         - 9.1402176539250794e-04
         - 5.9162608786780401e-04
         - -1.1588635588052969e-02
         - 4.0744446076109685e-03
         - 1.0866996298514802e-02
         - 1.3461080686048937e-02
         - -9.9946971997218821e-04
         - 1.2602057755553037e-02
         - 4.2996665631584640e-03
         - -3.2089358287059359e-03
         - 3.7761320405050500e-03
         - -8.0272104429235033e-03
         - 2.4579493697524763e-04
         - -1.5793999014938501e-02
         - 3.2194480291232474e-03
         - -6.3118548572595461e-04
         - 6.4761660077792688e-03
         - 5.8295679107000882e-03
         - 1.8827005399136476e-03
         - 1.7828693276284615e-03
         - -2.1455409511690767e-03
         - 2.0036328435097195e-03
         - -6.4646532496859298e-03
         - -1.1281185462534211e-02
         - 1.5588606478665918e-04
         - -4.1838427007804945e-03
         - 3.9065338985372800e-04
         - -1.1912125381148322e-02
         - -9.0575178613924463e-03
         - -5.0334306006108625e-03
         - 5.6452447283191929e-04
         - 1.5340070953949988e-02
         - -1.0668977886246878e-02
         - -7.0608431467226807e-03
         - -1.1295823886859138e-03
         - -1.3916727100306591e-02
         - -1.8640431229717293e-02
         - 1.6153614907495860e-03
         - -1.6393924264325184e-03
         - 1.1525168430001244e-02
         - -8.9553667932425630e-03
         - -2.8408522049466591e-03
         - 1.9309286437018115e-02
         - 6.1875788539453528e-03
         - 1.1391212605885305e-02
         - 1.3344460745747062e-02
         - -5.5219702841985407e-03
         - 2.2888921426854514e-03
         - 1.1138508435552799e-02
         - -2.7820855595197206e-03
         - 7.6357206696010111e-04
         - 4.3777239551205253e-04
         - -1.1646643908746965e-03
         - -3.1058249905716734e-03
         - 6.5959735436033678e-03
         - 1.0240602655651881e-02
         - -1.3643651653105367e-03
         - 1.7006566472602702e-03
         - 1.1249246980892484e-02
         - 2.2337207152473468e-04
         - -5.2350239128138134e-03
         - 1.1456305644143780e-02
         - 1.6539229740577174e-04
         - 8.0396629438204935e-03
         - 1.2755908295558867e-02
         - -6.6994770405348755e-03
         - -8.4305317656316377e-03
         - -2.4572927918802518e-02
         - -3.9611713369749040e-03
         - -5.4419202408866930e-04
         - 4.7463825972712302e-03
         - -2.1476016640313740e-03
         - -2.6871174875095628e-03
         - -3.4802715131732323e-03
         - 2.1677386601462651e-03
         - -9.4633846931858612e-03
         - -8.1431098467626434e-03
         - -7.7499394169043721e-03
         - 6.0110516278986132e-03
         - -6.3419372825891255e-03
         - -2.2603328274851892e-03
         - 2.1217910480139917e-03
         - -5.0259244411364912e-03
         - -1.8133584950141311e-02
         - 4.5541541278594916e-03
         - -9.7012371295884803e-03
         - -9.6915156612349673e-03
         - -1.3277965683824099e-02
         - 1.5586223432594555e-03
         - 1.1809110631723971e-02
         - 8.9170455215688612e-03
         - -1.0182536135985755e-02
         - -7.2037667573279134e-03
         - 1.3531706064888856e-02
         - -1.5427733121685295e-02
         - -2.5861633165861187e-03
         - 1.2170291131693435e-02
         - 1.2839909562106540e-02
         - -1.1835939533650298e-02
         - 4.2110413983735863e-03
         - -1.7020038335301556e-03
         - -2.7135968648674606e-03
         - -3.2202451402387000e-03
         - 4.8277378590379201e-03
         - 1.1185996893532243e-02
         - -1.1575499833846824e-03
         - -1.0858199679094393e-02
         - -2.2990564414955557e-03
         - -1.8369176333782777e-02
         - -1.1331144832090086e-02
         - 1.1037153059217878e-02
         - -7.9045036227857659e-03
         - 9.8758829397757701e-03
         - -1.0803051028573816e-02
         - 6.7196392969623431e-03
         - 3.2004920110891657e-03
         - -8.3087824253253850e-04
         - -9.3923092276685556e-03
         - -1.5154033680408949e-03
         - -3.3933360501585191e-03
         - 3.9903105749212785e-03
         - 1.7313887941590982e-02
         - -2.2680608628892571e-02
         - -1.8866490842525292e-02
         - -8.9938864216207069e-04
         - -4.2341163739812613e-03
         - -1.4631476307102048e-02
         - -4.1455291771981383e-03
         - 5.6773670936771754e-03
         - -7.4837878232953273e-03
         - -3.1341267950216216e-03
         - 8.4750598001228760e-03
         - -2.6964662667663224e-03
         - 1.4715328327850360e-03
         - 1.7012367281526769e-03
         - 5.8704079867029626e-03
         - -3.1423714436523318e-04
         - -6.7070736530974360e-04
         - -1.6969614003897091e-03
         - 2.1261330797434593e-03
         - -1.1539468203729196e-02
         - -8.6547702838844689e-03
         - 1.7175906717682182e-02
         - 4.4254944790326411e-03
         - 6.1369206677122550e-03
         - -1.4404145784615562e-02
         - 5.2065522520163936e-03
         - -1.1759431007807063e-02
         - -1.1877348789421278e-03
         - 3.7992997055729155e-03
         - -3.9580648802604602e-04
         - 1.0358683685779963e-02
         - 1.9772201216665280e-03
         - -4.6870420916959102e-03
         - 1.6605905214065719e-04
         - -1.5058471819667909e-03
         - -8.6407225545607376e-03
         - -1.2026036264697348e-02
         - 1.3119231139841892e-02
         - 9.1483499461705049e-03
         - 6.6735805749889472e-03
         - 6.0560236182488634e-03
         - 8.0423364593926669e-03
         - 4.1725646971192930e-03
         - 6.9517792805697202e-03
         - -1.0403294768147634e-02
         - -4.1448103615660823e-03
         - -1.4938078136088856e-02
         - -4.3932250381066192e-03
         - 3.7426663684662871e-04
         - 4.8584859865085346e-03
         - -1.0099871963373542e-02
         - 1.0898130539589370e-02
         - -4.0591072508468270e-03
         - -5.4388697091966220e-04
         - 1.0831395694894217e-02
         - -1.6402094968770854e-02
         - 7.3566808129628264e-03
         - -5.2779512438054250e-03
         - 3.1243825946226699e-03
         - -1.9261148404091478e-02
         - 4.4514482068789776e-04
         - -3.9458960020894362e-03
         - -5.7963394297410001e-02
         - 9.6003048087363024e-03
         - -1.1559503005349987e-02
         - -5.7875701778776385e-03
         - -8.0798539313215855e-03
         - -2.3932911180445933e-03
         - -7.2423223131537994e-05
         - 6.2176609015654527e-02
         - -7.9886307139005689e-03
         - -9.9855398731952556e-03
         - 7.0925175823058125e-03
         - -8.7218013097600214e-04
         - -2.4041897155560226e-03
         - 1.4524831840182941e-02
         - 8.3667934433483242e-03
         - -2.7444817188586653e-03
         - 1.0840271758082250e-02
         - 3.9696540062883591e-03
         - 1.0153377391366401e-02
         - 5.6411253399143079e-03
         - 9.3452358094653441e-03
         - 5.3715033115322398e-03
         - 1.7463757629705690e-02
         - -1.7307644163603773e-02
         - 5.3241130857841568e-03
         - -2.8346793394856970e-03
         - -1.0247685480461958e-03
         - -4.1221731758766707e-03
         - -3.9672138349682341e-03
         - -6.6875330268101434e-03
         - 8.3937104024995463e-03
         - 7.7745855348876356e-03
         - 8.0134307726003797e-03
         - -8.5631731742311801e-03
         - -4.4843938270151228e-03
         - 1.0316447674003989e-02
         - -4.3962556054725757e-03
         - -5.8161670078726892e-03
         - -5.0809877897470788e-03
         - -3.6958632561222625e-03
         - 1.0075952499704814e-03
         - -9.2824420736451804e-03
         - 2.1958661863882311e-03
         - 7.2026737744319115e-03
         - -1.8549659460788323e-03
         - -4.9692438528528195e-03
         - 4.0803154792330915e-04
         - -5.4787401927220451e-03
         - 7.9530600842771682e-03
         - 6.8544079232532012e-03
         - 3.8708886165627803e-03
         - -2.8923663319165727e-03
         - -2.7281399918360359e-04
         - 5.0107780446193191e-03
         - -6.7051517934897100e-03
         - -3.7099290325634713e-03
         - 1.5184814250834962e-02
         - -4.9844298279115018e-03
         - -3.1742167147119525e-03
         - 1.4840423493615753e-02
         - 4.5445645423001979e-03
         - 4.3410583923006668e-03
         - -2.0857196932383488e-02
         - -1.9807643142211052e-03
         - 3.7976620060107746e-03
         - -8.7807920131796387e-03
         - -2.9146230724111351e-03
         - 7.9212581832737265e-03
         - 2.3979621084725105e-03
         - -6.6326688119612790e-03
         - -6.4182255075721055e-03
         - 2.1980335635011102e-03
         - 4.0294684607702089e-03
         - -3.8131920615965191e-03
         - 4.6418215890382209e-03
         - 5.0536162728354621e-05
         - -6.6916408106333473e-03
         - 1.0555017455683935e-02
         - 3.4643907702615093e-02
         - 1.0880761911947364e-02
         - 8.6585160403081728e-04
         - 7.0518060547315384e-04
         - -7.4523681743582848e-03
         - 8.9118584050014021e-03
         - -5.3827751103355456e-03
         - -3.3651450373728131e-03
         - 9.9091314328314042e-03
         - 3.2173197461743629e-03
         - -6.9920880202919535e-03
         - 3.0331574809049260e-03
         - 1.1652753904467192e-02
         - 1.8247919478541162e-03
         - -1.3812639856776020e-03
         - -7.3966974551771276e-03
         - -6.3473141508159445e-03
         - 2.4739596935416347e-03
         - 4.6377160798200621e-03
         - 2.8599404941523490e-04
         - -4.6662798776183068e-03
         - 7.3297812815974915e-03
         - -2.2935479134147045e-03
         - 4.5465609731492182e-03
         - 7.3147212894084856e-03
         - 4.1528349321960853e-03
         - 1.8432564672444143e-03
         - 3.6616323489611275e-03
         - 4.9193628927044009e-03
         - 1.0074883766501268e-02
         - -3.1749302381430026e-03
         - -1.6169997264843469e-02
         - -2.8873333752567794e-03
         - 3.7885026779899910e-03
         - -9.9748037743074662e-03
         - 7.1965481316505729e-03
         - 1.2279317168349239e-02
         - -1.8016519399234435e-02
         - 2.1473988958838129e-03
         - -6.8088236100204429e-04
         - 2.3014461159785404e-02
         - -1.9492520608733349e-03
         - 6.2867243762129129e-03
         - -3.8317880685109816e-03
         - -8.4913226522495035e-03
         - 3.7520840362522609e-03
         - 2.2503214632727964e-03
         - -5.2047725939639335e-03
         - 4.0261491001210205e-03
         - 7.2858535315648678e-03
         - -6.3302150637780160e-03
         - 3.5631641013689854e-03
         - 1.4732433319650426e-03
         - 1.9385543920949998e-03
         - 4.7351822837371086e-03
         - 3.0314461963202267e-03
         - -5.1518084818036446e-03
         - 1.4290320376811882e-02
         - 7.0747675075709003e-03
         - 4.2569779679372480e-03
         - 1.0194872690877793e-02
         - -2.4964203495795079e-02
         - 3.2431522143933265e-03
         - 6.9050507215168697e-04
         - 8.2439411513519755e-03
         - -3.9624063534095273e-03
         - -5.6869449519322034e-03
         - -1.5311296807613982e-04
         - 3.0576755194276434e-03
         - 2.5077056566874577e-04
         - 7.4684950352365881e-04
         - 5.6959848380065507e-03
         - 1.8028101060617117e-03
         - -4.5031951541837974e-03
         - -7.1466926901918521e-03
         - -4.4358931306823536e-03
         - 4.4775607254147979e-03
         - -4.2533736568012457e-03
         - 1.4899512055864123e-02
         - 4.6450391710830645e-03
         - -1.3656118614735669e-02
         - -4.3491122247608786e-04
         - -5.5625707975433727e-03
         - -5.2236466800792570e-03
         - -2.1185127198924108e-02
         - 6.8962475826356317e-04
         - 3.2487295478802430e-03
         - -8.2867453324939593e-03
         - 4.1488748296579598e-03
         - 4.5524187746112943e-03
         - 4.3676682205520756e-03
         - -5.8212179939385834e-03
         - 4.5060911990257537e-04
         - 9.3683334822593639e-03
         - 4.2082122901792457e-04
         - -4.1334802738506567e-03
         - 2.6705753852381011e-03
         - -4.1732466134865006e-03
         - 3.9152951518974790e-03
         - 3.6906124060273548e-03
         - -2.5381784605553417e-02
         - 3.8270053852272603e-03
         - 3.0770205241403494e-03
         - -2.8060923438443940e-03
         - -7.0244039165971977e-03
         - 7.7411892992044979e-03
         - -4.6714911128746305e-03
         - -4.4077474425606809e-03
         - 8.4943246536391178e-03
         - -7.0754138031427745e-03
         - 7.1005178500733327e-03
         - -1.5284836964012251e-03
         - -1.2337160193671032e-02
         - -8.3446618638579537e-03
         - -4.6716904993588721e-04
         - -8.5598731483778629e-03
         - -5.4044240069233531e-03
         - 1.0112586294888098e-02
         - -7.3934301697441071e-03
         - -5.2447771913861890e-03
         - -2.9909953646985448e-04
         - -4.4385705975365240e-05
         - -3.3468411158673265e-02
         - 1.8701209325181437e-03
         - -3.8027136962405020e-03
         - 4.8055121142517934e-03
         - 6.6244222020069672e-04
         - -1.9550259010956486e-03
         - -5.8624420898669011e-03
         - 5.4254206129398061e-02
         - 5.4660192019723435e-04
         - 8.2305669632168983e-04
         - 5.6732662484636936e-04
         - 4.1978178853374848e-04
         - 3.2357639532092221e-03
         - 2.9058336137722475e-03
         - 8.3413493704620652e-03
         - 1.2729928665511073e-02
         - -3.2285523290177826e-03
         - 2.8376918911806040e-03
         - 2.9724193298180521e-02
         - -9.4838734705980001e-03
         - 1.0700388596187037e-02
         - 5.6668498994026390e-03
         - 3.7978849577041394e-06
         - -3.5822540118702066e-03
         - -7.0342742023191190e-03
         - -3.2513214215424105e-03
         - -4.9628698734169923e-03
         - -1.3985905544674579e-04
         - 4.4102673261964568e-03
         - -1.9183219559272189e-03
         - -2.2509501387811309e-03
         - -5.8630691692864645e-03
         - -6.9781902157591341e-03
         - 5.2576305346982632e-03
         - -2.3240667780896566e-03
         - -1.9963503296437510e-02
         - 8.3721598392803593e-03
         - 1.3620408555490269e-02
         - -1.8662376372885396e-03
         - 1.0115472956360519e-03
         - -4.2520333534800019e-03
         - -2.9763510288261861e-03
         - 3.2090377990885853e-03
         - 6.7171127326107289e-03
         - 1.1679004434861496e-02
         - 8.6536185926888685e-03
         - -5.0873404702926088e-03
         - -9.2499554334175699e-03
         - -1.9147826869010003e-04
         - 7.8537388468593698e-03
         - -1.1800142282784949e-03
         - 6.2184780646556701e-03
         - -3.8751070203876972e-03
         - 1.3196008735532651e-02
         - -1.0534797528339553e-02
         - -2.6482540994447901e-03
         - -1.7542888640034921e-03
         - -5.8577336365047373e-03
         - -7.1445702588976336e-03
         - -1.0334093987204246e-02
         - -2.9205260653339303e-02
         - 2.7380701779353401e-03
         - -2.4927162455628239e-02
         - 1.7208609507881338e-03
         - -5.0946960855766102e-03
         - -9.5029046474001319e-04
         - -1.7643348479441906e-03
         - -8.4644131180800601e-03
         - 2.0977969969893035e-03
         - 6.0771216140058306e-04
         - 5.2831044671643856e-03
         - -9.0148508215649285e-03
         - -1.6548171663093966e-04
         - -2.1784218903803908e-03
         - 6.6068557790538475e-03
         - -9.6892817994296884e-03
         - 8.3515308140801950e-03
         - 6.4325762005604265e-03
         - 9.8148032588428339e-04
         - -2.8784007918241142e-03
         - 3.6241348203521807e-04
         - 6.6158155594442923e-04
         - 6.4386143998108013e-04
         - -2.9039195374082409e-04
         - 2.1128754853616052e-03
         - -5.8953849649668970e-04
         - 4.3764597187327114e-03
         - -3.3258219368177675e-03
         - 3.6769354500296699e-03
         - 6.5666012728539365e-03
         - 5.0946106351612815e-03
         - 9.1746681179369143e-04
         - 1.3360988298091649e-04
         - 6.4233133126003047e-04
         - 5.8887863299638419e-03
         - -6.9447531497605405e-03
         - -9.8952492681067174e-03
         - 9.0185056983954053e-03
         - -1.4266125792447844e-02
         - -1.0318095379258249e-02
         - -2.4966420166896777e-02
         - -8.8484906320061840e-03
         - 2.3383121563192523e-04
         - 4.5093822077067469e-03
         - -1.3544585012537991e-03
         - -4.3227047194942091e-03
         - -4.9738097337647409e-03
         - -2.0404252730298993e-03
         - -1.6075773926893474e-03
         - 5.5431760488281450e-03
         - -7.6820956982976590e-04
         - 6.4972427041671719e-03
         - -8.3493794290196103e-03
         - -6.5862624990689102e-04
         - 1.2932896969596276e-03
         - -3.2378605137975262e-03
         - -1.0800056500169665e-02
         - 9.0696690717451522e-03
         - 2.3980440161548686e-02
         - -2.9317219013843339e-03
         - -2.2651005081747742e-02
         - 2.6326147647377091e-03
         - -6.9140924054789880e-04
         - -6.0382857333281569e-03
         - 1.1934142131911126e-03
         - -4.2330022437374456e-03
         - 2.8645649721658322e-03
         - 6.9199940138068346e-03
         - -1.6823361500299932e-02
         - 7.9208572574483334e-03
         - -3.7669326961702674e-03
         - 2.0581503192574017e-02
         - -1.0082648762698704e-02
         - 6.7676345855197141e-03
         - 1.2195867667968593e-02
         - 5.2711244259504228e-03
         - 3.2383397353735158e-03
         - 9.0760635547869112e-04
         - 2.9028040479837314e-02
         - 3.2769740171710764e-03
         - -8.5156558502741449e-03
         - 4.2247154295562183e-03
         - 1.1147293080419670e-03
         - -3.3398384055494308e-04
         - -1.4418027242649309e-02
         - 6.4032177626760500e-03
         - -4.4287923366487124e-03
         - -7.4831308123302111e-03
         - 1.5852879941775561e-02
         - -8.2390570618800559e-03
         - 1.5388869690112134e-03
         - -3.3083068521929555e-03
         - 3.6085252482161521e-03
         - -1.0009417447097036e-02
         - 1.8480980157253152e-02
         - 1.3245571183895537e-02
         - 1.2687715498315811e-02
         - -1.4161205883332070e-02
         - 2.1686516183180588e-03
         - 8.8128003965321552e-04
         - -1.1499971145987655e-02
         - 9.9371383965407567e-03
         - -3.3469144911495226e-02
         - -1.0364606978518898e-02
         - -1.2110015482011190e-02
         - -1.9430788660736674e-03
         - -2.1126949146464380e-03
         - -5.7161281914575946e-03
         - -3.1028982792860151e-03
         - -4.1759703725153747e-03
         - -1.0412369045219544e-03
         - -1.0056501654551258e-03
         - 1.5252852471871210e-02
         - 1.5005090661181844e-02
         - 3.5888565691761264e-03
         - 8.0063125684747272e-03
         - 1.3191495034017869e-02
         - -1.3375158087404415e-02
         - 7.2659296202272202e-03
         - 3.1611692072751247e-03
         - -1.5792833049192209e-02
         - 1.1026056743489007e-03
         - -4.6199772354960315e-03
         - -1.8723122759220637e-03
         - -2.3684694931113189e-02
         - 2.7076612741777212e-05
         - -7.9556614176989893e-03
         - 6.8822496383796946e-03
         - -1.5414598797140919e-02
         - 6.7816606307675911e-03
         - 4.0066901593158255e-03
         - 4.9540832143581985e-03
         - -4.5804318368225169e-03
         - -1.1881757317644324e-02
         - -1.0262979101229853e-02
         - -2.9616553722803035e-03
         - -1.6951424820273703e-02
         - -1.9160199778510044e-02
         - 1.0769549641787998e-02
         - -9.9676033569195740e-03
         - 2.2423282162703839e-02
         - 2.7629850442300267e-02
         - -1.1714087162412923e-02
         - -1.9927039795058291e-02
         - -4.1412379687779570e-03
         - 6.2129841005453051e-03
         - 1.7138952204012549e-02
         - 8.5649854502716852e-03
         - -3.0115484786821189e-03
         - 2.9575710027079779e-03
         - 6.4082763893181455e-03
         - -1.4628227640857363e-02
         - 9.1049531324793459e-03
         - 6.7516854698901228e-03
         - 1.1630545922413766e-02
         - 3.4147988048397393e-04
         - 1.7574715458471286e-02
         - -1.1858785293893835e-03
         - -3.0615886539315639e-03
         - 8.9359365829169580e-03
         - -1.1628131319477106e-02
         - 1.9632186091315014e-02
         - 1.3797369373806850e-02
         - -7.2903566554747470e-03
         - 2.6773098740231000e-02
         - -1.8154380079872274e-03
         - 1.4154577441660068e-03
         - -5.7006870755573367e-03
         - 2.5006233361851322e-03
         - 1.6584248810945907e-02
         - 2.6109639037524780e-04
         - -4.8581571863117153e-03
         - -1.0669290719745593e-02
         - 1.8467925571817171e-03
         - 1.0797444501780365e-02
         - 1.3866855703916828e-02
         - -3.5941463790242550e-03
         - -2.6958243268107493e-03
         - 3.0689595156817378e-03
         - 4.9006460707831032e-03
         - 1.6112100371224181e-03
         - 8.8159056576495969e-03
         - -6.8540003517704679e-04
         - -1.3997786770355599e-02
         - -4.7314742033179183e-03
         - 2.3347088161756002e-03
         - 5.4297282599237249e-03
         - -1.6635867593941438e-03
         - -3.3876041108263748e-03
         - -2.4485437156741841e-03
         - -1.1806849622783198e-02
         - 1.2175686072309559e-03
         - -8.5414073147871260e-03
         - -1.3199052297965155e-02
         - -2.6606549123200967e-02
         - 5.2417606690844552e-03
         - -1.6831638196026387e-03
         - 3.5688885638404440e-03
         - -6.3500403340857782e-05
         - 1.4620633449845957e-02
         - 3.5456042731992675e-02
         - -3.8440349328744765e-03
         - -3.7273871528800354e-03
         - -1.9889553274990536e-03
         - -4.8965519851989709e-03
         - -1.2433102581166984e-02
         - -1.0775897028423041e-02
         - 9.9815548343225105e-03
         - -1.2080622838936783e-03
         - 1.0413456732688900e-03
         - 1.4283779055905272e-02
         - 7.6192661762951629e-03
         - 2.7776233552690177e-03
         - 1.0480035955666090e-02
         - -2.3080126311575858e-02
         - 7.3731920567097053e-03
         - 4.7670872314868520e-03
         - -8.9481272114850154e-03
         - 2.3767232808420836e-02
         - 9.2450721759759612e-03
         - -1.4655601152943669e-02
         - -8.0931078835734110e-03
         - 1.3773081016838582e-03
         - -8.8624404813510155e-03
         - -1.6990878508472716e-02
         - -3.2661781584201128e-03
         - 2.3267118190186571e-03
         - 6.5465331962711376e-03
         - -9.5523939765748949e-03
         - 1.6155296794924316e-03
         - 1.4857312498808358e-02
         - -4.6938137376250667e-03
         - -2.6538318281046848e-03
         - 6.7271452565509796e-03
         - -1.5597743033616839e-02
         - -2.4091752059517222e-03
         - -3.9327661775573671e-03
         - 4.8882126716156028e-03
         - 3.4513108061725618e-03
         - 2.9919574872816442e-03
         - 1.1164973673118680e-02
         - -3.3092849742795715e-03
         - -2.5428471334942269e-03
         - -1.4975408750116646e-03
         - -3.2396814462236378e-03
         - 3.3504522804984906e-03
         - -2.1391230117456324e-03
         - -3.1558247322022052e-02
         - -5.3706928222599709e-03
         - -4.5493311329153248e-03
         - -1.7101537591739917e-03
         - -9.7483766276343382e-03
         - 6.0245635977991714e-03
         - 9.3686918393379743e-03
         - -1.2672807221794006e-02
         - 2.8966972260542948e-03
         - -3.8638184807404325e-03
         - -6.3131863900527639e-04
         - 4.7401472855360810e-03
         - 7.7603491737746784e-03
         - -1.3483712308135267e-02
         - 6.4610683337564170e-03
         - -1.7927965920901338e-03
         - -1.3073240807737006e-03
         - 1.4010056164397456e-02
         - 3.9081937869340556e-04
         - -3.0453308827308205e-03
         - -6.1998281883914918e-03
         - -4.9958628885333131e-03
         - 3.8299393583620936e-03
         - 2.9331828436864661e-03
         - -9.8416678409548840e-03
         - 1.6448628088187784e-03
         - -3.0239345409556737e-03
         - -2.9104037193542338e-04
         - -9.7605125705801012e-03
         - -8.6475735774789670e-04
         - -1.8686548130859538e-03
         - 1.2617513593096603e-02
         - -4.3143990991505064e-03
         - 1.0785470838925548e-03
         - -1.3156353797135615e-02
         - -5.0712494066099791e-03
         - 2.9890444607933286e-03
         - -8.0569339576600819e-03
         - -6.9437172902467072e-03
         - -4.5126675740032917e-03
         - -5.7184434970365778e-03
         - 3.2975849143704766e-03
         - -1.6084973889088836e-03
         - 3.8094382903219046e-04
         - 8.7347138823932833e-03
         - -4.8634673845817621e-03
         - -1.7608638137008036e-02
         - -1.3151901345956190e-02
         - 1.1242602807760528e-02
         - -1.6142292301556085e-02
         - -8.5175758365647891e-03
         - 1.1481004723413103e-02
         - 1.6160705269203123e-02
         - 1.9885928732725659e-02
         - 1.4531058372369992e-02
         - 4.3259523611028722e-04
         - -1.4011048200711808e-02
         - -1.4751395670907901e-02
         - 1.0594033002124293e-03
         - -8.5457253051770300e-03
         - 1.5861819882406758e-02
         - 5.5846181075967544e-04
         - -4.9017937522235072e-03
         - -7.1125440151569123e-03
         - 6.7898815453028370e-03
         - 4.6419823068054858e-03
         - 4.5733736622327551e-03
         - 2.7911931937636881e-04
         - 1.1926624905964252e-02
         - 3.3609133504295573e-05
         - 7.3201025314531456e-03
         - 4.3278149701773294e-02
         - 1.0279279940760265e-02
         - -1.4550241639315547e-02
         - -1.6191644325961527e-02
         - -1.9233302473920231e-03
         - -8.1375344198769694e-04
         - -4.0660267993807573e-03
         - -2.0067836434341170e-03
         - 5.9768994844369384e-03
         - 6.1038710962093949e-03
         - -3.9573582211384388e-04
         - -1.5232247667649821e-03
         - 6.6061376938707211e-03
         - 1.4021451804439965e-02
         - 8.9570309689854718e-05
         - -1.9132837499136472e-03
         - -6.9756059793795529e-04
         - 6.6339762491721566e-03
         - 6.5128929613375020e-03
         - 1.2665983034214129e-02
         - -7.6658375794186459e-03
         - -3.0680505268114561e-03
         - 2.7675649292288419e-02
         - 2.6021255314249625e-03
         - 3.8283269931623350e-04
         - -6.1626826671038037e-03
         - -1.0279749512684618e-02
         - 1.0470337835876193e-02
         - 5.1866338423554844e-03
         - 3.1685611614392623e-02
         - -5.3777482693601764e-03
         - -1.2825013736418092e-03
         - 1.3451246099037922e-02
         - -2.1540917065108593e-03
         - -3.6355684490628564e-03
         - 6.1167377397475129e-03
         - 1.8884248063850122e-02
         - -1.5242624613477656e-02
         - 1.0460506059137665e-02
         - 4.4949472176370716e-03
         - -8.5461194687729784e-03
         - -1.8020280928626299e-03
         - -8.8092446510571847e-03
         - -9.6671516020466989e-04
         - -9.5625809764087865e-03
         - 7.5998714399793128e-03
         - 5.5626985881874272e-03
         - -8.5740471367491092e-04
         - -4.4520782713401595e-03
         - 1.8937395085621947e-03
         - -1.2366776015385512e-03
         - -7.1493281492259336e-03
         - -1.8572495381589747e-02
         - -1.4330851273156635e-02
         - -2.6672544079855520e-03
         - 6.3125995384970346e-03
         - -3.5754688495328612e-03
         - 8.5755462595572332e-03
         - -9.1189342279186496e-03
         - -7.5877881852752524e-03
         - -6.0713810618880830e-03
         - -1.3362433219501325e-02
         - 4.5615126293342637e-03
         - 3.5789174696403171e-03
         - -4.0264384670962309e-03
         - -3.3621484669699997e-03
         - 1.3177810542851548e-03
         - -1.0446700346322130e-02
         - -1.1557838949314857e-02
         - -5.2095877871366492e-03
         - 3.2806802958315370e-03
         - -1.3629053955215636e-02
         - -9.1039062961461286e-03
         - -9.1122599312244024e-03
         - 5.4795073617750099e-03
         - -1.6814836510792713e-02
         - -1.6183061279451839e-02
         - 7.8441479720388462e-03
         - 1.3604130149152405e-02
         - 1.6440130634802567e-04
         - 2.7909705541944896e-03
         - 1.3518689638936586e-02
         - 2.7302130881098521e-02
         - 4.6558182300653469e-03
         - 1.8405030772489901e-02
         - 2.1086410277456223e-03
         - 3.0457347476017327e-03
         - -9.7886816311446960e-03
         - -9.7434734403303268e-03
         - -1.9812020876768012e-03
         - 1.8976317223882099e-03
         - -8.8235487303242530e-03
         - -6.6025918404912986e-03
         - 7.1145423677203340e-03
         - 6.4902484381564908e-03
         - 3.8130358790717162e-03
         - 4.6029720185806122e-03
         - 7.2460955281119779e-03
         - -2.1748786571519486e-03
         - -3.4659453834646049e-03
         - 8.1905086482106995e-03
         - -2.3062640601597215e-03
         - -2.5422675265259240e-03
         - 1.5304976177395995e-03
         - -3.0449685068767956e-03
         - 5.0731964423426090e-03
         - -1.1938868779640567e-02
         - 1.5845515382477103e-03
         - -1.4542614572795940e-02
         - 1.7332160656204694e-02
         - -1.5100351212229163e-02
         - 2.8662679152430585e-03
         - 2.2815850873858052e-03
         - 8.2505282444383533e-03
         - -1.7323262125095060e-03
         - 4.7396598542907175e-04
         - -1.0991465251509507e-02
         - -1.5756821444526479e-03
         - -8.9618016562261864e-03
         - -6.0256995647787505e-06
         - 8.2133582488594301e-03
         - -3.7289465600705502e-03
         - 1.6498573341579927e-03
         - 5.6928333000805771e-03
         - 8.1505377810422151e-04
         - 1.4799562587117093e-03
         - 4.9504169662620149e-03
         - 6.1878843556825497e-03
         - 9.8914303975684362e-03
         - 2.2551972134479698e-02
         - -1.4694687361771916e-02
         - -1.5240547143778293e-02
         - 1.2856357316212836e-02
         - -1.4863537773421661e-02
         - -3.8575919735814475e-04
         - 3.1673431426796446e-03
         - 6.5049595089210627e-03
         - 4.6155922819186299e-03
         - -5.9654857285183066e-04
         - 8.0814529400862877e-03
         - 6.9662861095634758e-03
         - 4.1424128831798026e-03
         - -1.2072307333687485e-02
         - 1.3744950899280189e-03
         - 6.9536054490356434e-04
         - 4.2213759958513106e-03
         - 3.3509988586524824e-03
         - -1.4999046578945100e-02
         - 2.5242270222941648e-03
         - 1.8910446475769459e-02
         - -6.2200821888917215e-04
         - 2.3939856807759133e-02
         - -3.3579905507814260e-03
         - 9.5842776449942234e-03
         - 7.0409840619873980e-03
         - -6.0015060424541394e-03
         - 4.5488502295938727e-03
         - 1.0674390091580072e-02
         - -3.1259557568603220e-03
         - 2.9860710274687806e-03
         - -5.2479283825935738e-03
         - -2.1796845410030258e-02
         - -1.4308751324489787e-02
         - -2.9575986757107492e-03
         - -1.0993217284375764e-03
         - -6.1642627322931682e-03
         - 1.2547921781491065e-02
         - -7.9014645563767506e-03
         - -9.9938473700883967e-04
         - 2.1818061819388001e-04
         - -2.8759227021986733e-03
         - -1.6596572418104933e-02
         - -1.2983799678649047e-02
         - -5.3342798129786644e-03
         - 5.0250009112364916e-03
         - -5.1934356586109242e-03
         - -1.4064911577925149e-04
         - -2.7155909786432775e-03
         - 9.1408527511845916e-03
         - -8.3399669163991691e-03
         - -8.2897843067484926e-03
         - -7.9826148538353920e-03
         - -1.3298172186340648e-02
         - -2.5143968715123305e-03
         - -6.5511569883155844e-04
         - -5.7105069865057850e-04
         - 7.1270742840794828e-03
         - -1.4230670407366881e-02
         - -1.4411799812089900e-03
         - 3.2702700849670499e-04
         - 4.5024068455937465e-03
         - 1.1547268721012823e-03
         - 4.5205914126429642e-04
         - 5.5644443307674438e-03
         - 1.0135597533939547e-03
         - -5.7497658906797179e-03
         - -4.7016523064095303e-02
         - 8.7632831107403841e-03
         - 4.2244446749096290e-03
         - 4.3317391721264080e-03
         - 1.2535757581305944e-02
         - 2.7160437543744783e-03
         - 1.2433932881111404e-02
         - 2.2687485549442350e-02
         - -9.4509823147004967e-03
         - -6.1166716545925232e-03
         - -6.0557250909993657e-03
         - -3.4791130517550445e-03
         - -1.2978620998979010e-02
         - -2.3748108862590937e-03
         - 6.2012773135800281e-03
         - 1.2985210034295465e-02
         - -1.5292882379704227e-02
         - -1.0263207391145242e-03
         - 7.3514068539123683e-04
         - -2.3241758258957100e-02
         - 7.0165126585921000e-03
         - 3.5267483341787777e-03
         - -7.4987173860829150e-03
         - -1.1533753302954391e-02
         - -1.3355396117974247e-03
         - 1.3150779257466761e-03
         - 8.0332789050133625e-03
         - -1.3979982000199360e-04
         - 6.5804313268298595e-03
         - -2.8802181664929075e-03
         - 1.2503375924313774e-02
         - -4.1075532979671509e-03
         - 7.3250837599080120e-03
         - -9.1687755550157440e-03
         - 6.1607905556206157e-03
         - -9.1356771422749419e-03
         - 1.8409896643103236e-02
         - -5.4725388086480564e-03
         - 2.9265301253335574e-03
         - 6.0079199454226469e-03
         - -1.1281028298505630e-02
         - -9.8136064482954363e-04
         - 3.3821558782011832e-03
         - 3.3762825903516911e-03
         - 3.0319060234509660e-02
         - 1.1731607953940403e-03
         - 8.5699328724429293e-03
         - 1.6647732650644277e-03
         - 4.7268188914417484e-03
         - 3.5138407087359166e-04
         - 1.9313525796698164e-03
         - 2.6749542263235712e-03
         - 2.2881787750288762e-03
         - 8.2518986177348135e-03
         - 1.2617215031113096e-02
         - -4.5490954731981573e-03
         - -1.8617154374687271e-02
         - -7.8064070929324937e-03
         - 7.7741844658951965e-03
         - 6.5882527420428371e-03
         - -1.1723154066711577e-02
         - -8.7272481546240548e-03
         - -6.2164586988435718e-03
         - 1.5017712709779500e-02
         - -2.1239354239059909e-02
         - 5.1970742432120697e-03
         - -7.7382883715316443e-03
         - -7.2298108862785693e-03
         - -7.8887029515986411e-03
         - -2.1752231429408690e-02
         - 9.6264277939886733e-03
         - -6.7795059185451444e-03
         - -1.7980204348798497e-02
         - 1.4165488054783784e-02
         - -7.3433815641505912e-03
         - -5.9361010582854173e-04
         - 7.6320840228272908e-04
         - -2.3412919883659112e-02
         - 3.7540046959966306e-03
         - 2.1381881586665354e-02
         - -2.7026889777684707e-02
         - -4.7027430088675739e-03
         - -7.3539301170838717e-04
         - -4.0535574169996511e-03
         - 3.7032858602565628e-03
         - -1.1475456850257653e-02
         - -5.4973342883695171e-03
         - -1.3020376974679556e-02
         - 4.9149289764059221e-03
         - 1.6587736344953096e-02
         - 1.9299283753213922e-02
         - -1.4407157780994913e-02
         - 7.8278006423867369e-03
         - -2.1395781001748878e-02
         - 1.2712949983758225e-02
         - 4.1636132020313006e-03
         - 1.8510898721054891e-02
         - -1.2833516742972150e-02
         - 7.4398354652252929e-03
         - -2.1325008323166094e-02
         - -4.6427259379593196e-02
         - -1.2263764755003449e-02
         - 7.0268771712745023e-03
         - 9.2973494023556938e-03
         - 4.1118774557595550e-03
         - -7.3132816533682046e-03
         - -1.0837158119765431e-02
         - -1.9940567820605820e-04
         - 9.2816275096518422e-03
         - -2.2174128753433462e-03
         - 1.2449397034204927e-03
         - 7.0358960419077557e-03
         - -1.6241948460666802e-02
         - 1.0637778652699402e-03
         - -1.4208558080967730e-02
         - 1.7564631161414261e-02
         - -9.3206845731699326e-03
         - -9.9070281217458825e-03
         - -9.8631552898438574e-03
         - 4.0777848703150371e-03
         - 2.4069645371669127e-02
         - -2.0218031434617909e-02
         - -3.6556392120361205e-03
         - -4.8498734614385438e-03
         - -5.2519672523998299e-03
         - -1.3227825763558453e-02
         - -3.1114555729498599e-02
         - -4.6087827628709674e-03
         - 3.7459841782954278e-03
         - 2.2236108513712599e-03
         - 2.8463655121604542e-03
         - 1.1826453952260787e-02
         - -9.6998088846382980e-04
         - -1.0974858862833172e-02
         - -3.2772559411829746e-03
         - 2.3564832654364080e-03
         - 4.4703471047658622e-03
         - 3.3435751288228691e-03
         - 8.9903020189811955e-03
         - -9.2054677464445678e-03
         - -2.6211303803513934e-02
         - 1.0743631460464550e-02
         - 2.5496143499861780e-03
         - -8.3931795529158283e-03
         - 2.5757773734901929e-02
         - -6.3057554276147194e-03
         - 2.5565427454266338e-02
         - 1.0531352074621679e-02
         - 1.9079997112740868e-03
         - 1.0184442011885779e-02
         - 1.3258421221468886e-02
         - -4.9257261709307948e-03
         - -2.9371253444258668e-03
         - 1.7439448950818136e-02
         - 1.2590445431812736e-03
         - -7.7416683968052260e-03
         - -5.2464400643072980e-03
         - 6.6336170991924230e-03
         - 1.4887590031259855e-02
         - 4.6779474440154407e-03
         - -1.1353042206955747e-02
         - -6.5319928510934487e-03
         - -5.4995376904837766e-03
         - -1.1442147002322651e-04
         - -1.8343558563897388e-03
         - -8.3686530542328985e-04
         - -4.6863787170232252e-03
         - -1.4284614342101251e-03
         - -5.6527253188663222e-03
         - -4.1134334339092181e-03
         - 3.7755160068517861e-03
         - -7.7220753000292351e-03
         - -7.9134023498922002e-03
         - 1.9413075425067452e-03
         - 1.1246307595203711e-02
         - -4.9285606856384456e-03
         - -1.1421275281339080e-02
         - -1.5209586283324458e-02
         - 1.0900452031041017e-02
         - 1.2020084269536600e-03
         - -5.4334502240849037e-03
         - 1.6625618956781354e-02
         - -2.8001624872281811e-03
         - -7.1911394762913805e-03
         - 6.7352194975068124e-03
         - -6.5377568258584721e-04
         - 1.0593510695197650e-02
         - 1.4532862947671810e-02
         - -1.9749056426700249e-02
         - 9.1966278393406547e-04
         - -2.6750883122874411e-03
         - -1.0981261814781680e-02
         - -4.3297963517505873e-03
         - 5.0550279343412425e-03
         - 1.3031100790967472e-02
         - -2.2401886003071037e-03
         - -8.9411818675413958e-03
         - 1.4158276967682179e-03
         - 7.1107369771973426e-05
         - 2.2262283349823919e-03
         - -2.9301830922143640e-02
         - -7.4591121509032833e-03
         - -5.5090260347295467e-03
         - 6.2071157798965009e-04
         - -3.1261824457168214e-02
         - -6.1474388147730787e-03
         - -7.1294420481708290e-03
         - -9.6101291738300064e-04
         - 3.7497677624165047e-03
         - 7.7082282587208140e-03
         - 2.9395474446083595e-03
         - -8.5704739564543848e-03
         - -1.4008099085483226e-02
         - 5.4323976805294091e-03
         - -8.3627523517013688e-03
         - 9.7498393303980316e-03
         - 5.9919688866864216e-03
         - 1.2280753841889883e-02
         - 1.1522327330018229e-02
         - -1.1156464119346898e-02
         - 2.0896290760745735e-02
         - -3.2151041242634484e-03
         - 5.0358490689610663e-03
         - -1.0151879809103356e-02
         - -3.8053837675248964e-03
         - -8.3163428034182755e-03
         - 1.4968893608447146e-02
         - 1.1666547061554471e-02
         - 1.0667096560174210e-02
         - -1.2788374074835480e-02
         - 1.3444349554161608e-02
         - -1.6141915924996848e-04
         - 2.5984383415855693e-02
         - 7.4842222979119698e-03
         - -1.1172325744694254e-02
         - -1.2386007286962970e-02
         - 2.0787006737118835e-02
         - -1.0436416046085636e-02
         - -5.7390469570473123e-03
         - -6.4341161725999700e-03
         - -6.5742927469932769e-03
         - 9.0356052064214896e-03
         - 1.0762727199151957e-02
         - 3.2334726473436633e-03
         - 1.6629332148944413e-02
         - -6.3702300465247363e-04
         - -3.3688714797543616e-02
         - 1.3227277689104830e-02
         - 2.4793469613918423e-03
         - 8.9217332542465243e-03
         - 8.4525089718668830e-04
         - 2.5063740574416370e-04
         - -1.6894298382238639e-02
         - 1.9989319300547537e-02
         - 5.0429112819428612e-03
         - 8.2910021876034488e-03
         - -1.9359739412560584e-02
         - -1.4428414425033741e-02
         - -5.0988923349188702e-03
         - 8.6555454074469605e-03
         - 6.0501421921122850e-03
         - -1.3175423456214910e-02
         - 7.5570699075003878e-03
         - -2.3888128374725697e-03
         - 9.7103499792665065e-03
         - 1.6824073038895691e-02
         - 1.0161356328116348e-02
         - -7.0762688575064150e-03
         - -4.0340474092141537e-03
         - 8.0861170089673272e-03
         - -7.2056333538597379e-03
         - 1.1196534098958795e-02
         - -1.6821869774418990e-02
         - -3.3014736304197395e-05
         - 4.6047314705870699e-04
         - -2.4014416775303108e-03
         - -6.3506850334966796e-04
         - -2.2300032691948554e-04
         - 5.0358862950764310e-03
         - -2.8198844903777691e-03
         - 1.9865214673404550e-02
         - 4.1514538941970058e-03
         - -1.6649958420524844e-03
         - -6.6865498977704179e-03
         - 4.5334799943538544e-03
         - -2.6967532796819209e-03
         - -1.7079702177247500e-02
         - 1.0208208136849741e-02
         - 8.8653940423733483e-03
         - -1.3338659131163300e-02
         - 4.2060125813064234e-04
         - 1.1821557995586260e-03
         - 1.3387905785857963e-04
         - -6.5626659734598324e-03
         - 1.1624820264349559e-02
         - -5.2872079969484573e-03
         - -3.3427779676301929e-03
         - -1.0237690344057509e-02
         - 8.1532853636036903e-03
         - 2.9416307117281562e-03
         - -3.3292615057329597e-02
         - 2.3283874965638043e-03
         - 1.0221008669336574e-02
         - -6.5364001969162632e-03
         - 1.8164072065808335e-03
         - -5.2600323815746803e-03
         - -7.0803901237808543e-03
         - -2.7520622133056678e-03
         - 1.8126981548128002e-02
         - 2.4205576532618507e-03
         - -2.7053787042439058e-03
         - 1.1961411373701093e-02
         - -8.8861789522267625e-03
         - 2.0982493093052064e-02
         - -2.4298898177818533e-03
         - 2.0081836267369486e-02
         - 6.6807464016369021e-03
         - 2.0333044801779474e-03
         - -4.5131584191138532e-04
         - 1.0425175321908378e-03
         - 1.7975739881134521e-02
         - -4.1727477499247838e-03
         - 9.9640575032727743e-04
         - -8.2119358267161262e-03
         - -1.5402067365383779e-03
         - -1.2404707885125116e-02
         - 3.3254162126950440e-02
         - 1.9437282525788278e-02
         - -5.9956860809540552e-03
         - -1.6559863029799129e-02
         - -5.6086744142381448e-03
         - 2.4681360807754156e-03
         - 1.0757768796173317e-02
         - 9.6606873314702291e-03
         - 7.1373371644192574e-03
         - 4.5919083707205250e-03
         - 1.8615140136939448e-02
         - -2.9221146839886187e-03
         - -3.8139307554309831e-03
         - 4.5864627683236412e-03
         - 6.4795957960642756e-03
         - -3.3297438456030286e-04
         - 4.8594102029794160e-03
         - 1.1432123496435614e-02
         - -1.5067597901749488e-02
         - 5.6876393452774720e-03
         - -2.7530903132761450e-02
         - 9.8150016989986162e-03
         - 5.4023813731083493e-03
         - -5.9592631772144881e-03
         - -1.7633243326832179e-03
         - -9.9293489980378812e-04
         - -1.2532225989704033e-04
         - 1.7985885686861346e-02
         - -4.5545493028098698e-03
         - 4.0808091932968971e-02
         - 9.6400308737076123e-03
         - 2.0302208628340595e-03
         - -8.6717287753487575e-03
         - -1.5702133418467477e-03
         - 1.5603604894618121e-02
         - 1.4017729778484795e-02
         - -5.5863333396496458e-03
         - -5.9099240728014380e-03
         - -1.6072991360709713e-03
         - 6.9776953826569815e-03
         - 6.7823954883387333e-03
         - 1.4055089619746301e-02
         - -4.9492876649410086e-03
         - -1.5006749791714811e-03
         - 1.5709629583039494e-02
         - 1.2481426479899853e-02
         - 6.3712819465633229e-03
         - -2.7715078195099342e-03
         - -2.7218910620395439e-02
         - -1.4204409278595078e-03
         - 5.5407946714269253e-03
         - 6.8622023150535904e-03
         - -8.3027420012070832e-03
         - -1.5111985202559318e-02
         - 3.2877170251536364e-03
         - -9.6501972474080100e-03
         - 2.9206709804905837e-02
         - 3.6115408634929895e-04
         - -1.8577648951186923e-02
         - -1.1489602074729663e-02
         - -3.0114461615343723e-04
         - -1.8877006380645781e-02
         - 5.6197686344800414e-02
         - -1.6872773137857944e-02
         - -2.5940384128257817e-03
         - -2.5018412655501009e-03
         - -9.9707218511166612e-04
         - 5.5835803204567552e-03
         - -4.2006643116123061e-03
         - 1.5091026194374529e-02
         - -4.3090225367565576e-03
         - 8.3256268135046118e-03
