%YAML:1.0
opencv_ml_ann_mlp:
   format: 3
   layer_sizes: [ 275, 100, 100, 9 ]
   activation_function: SIGMOID_SYM
   f_param1: 6.6666666666666663e-01
   f_param2: 1.7159000000000000e+00
   min_val: -9.4999999999999996e-01
   max_val: 9.4999999999999996e-01
   min_val1: -9.7999999999999998e-01
   max_val1: 9.7999999999999998e-01
   training_params:
      train_method: BACKPROP
      dw_scale: 1.0000000000000000e-03
      moment_scale: 0.
      term_criteria:
         iterations: 300
   input_scale:
      - 5.9976022593633758e+00
      - -3.4916016587833392e+00
      - 5.1678500907017435e+00
      - -3.5278359696259565e+00
      - 5.5368798056686366e+00
      - -3.8834563062342777e+00
      - 6.2408563259253809e+00
      - -4.5892626310457674e+00
      - 7.0173800477688184e+00
      - -5.3425289923296395e+00
      - 7.2950016233244348e+00
      - -5.8172837742731049e+00
      - 8.0608333409532893e+00
      - -6.5550495707293903e+00
      - 9.0268463746751095e+00
      - -7.5373078990280167e+00
      - 1.1089564559133255e+01
      - -9.6376258329433178e+00
      - 9.9383825783962614e+00
      - -8.7448230554129207e+00
      - 1.0409361391405445e+01
      - -8.9699457163458849e+00
      - 1.0486938170618322e+01
      - -8.9902474027252843e+00
      - 1.0154573874627435e+01
      - -8.4039061586418899e+00
      - 9.5432778828568576e+00
      - -8.2360138097425910e+00
      - 1.0248897545420206e+01
      - -8.9997687342341717e+00
      - 9.1639423121917414e+00
      - -7.9331671142528810e+00
      - 8.8541402282503228e+00
      - -7.6271690090293705e+00
      - 8.8544163916438343e+00
      - -7.5518009742166301e+00
      - 7.6996769148106488e+00
      - -6.2672409965741460e+00
      - 8.7279991307414768e+00
      - -7.0463477662028460e+00
      - 7.3376008040846834e+00
      - -5.8120002244639588e+00
      - 5.9223799050708603e+00
      - -4.3212438960569788e+00
      - 5.1513210278920925e+00
      - -3.8509533762950214e+00
      - 4.8409879462379548e+00
      - -3.2618439214419199e+00
      - 4.1984743750798286e+00
      - -1.2820791048596669e+00
      - 4.9059800829994691e+00
      - -2.3321112509570070e+00
      - 4.3717113005781467e+00
      - -2.5175468070458078e+00
      - 4.6213965918493631e+00
      - -3.0413437664929885e+00
      - 5.1443021098980246e+00
      - -3.8108001850709288e+00
      - 6.3608672512945645e+00
      - -4.9828811807448679e+00
      - 6.5219953814538902e+00
      - -4.8434835578676010e+00
      - 7.2786713187138004e+00
      - -5.4355339224373678e+00
      - 6.9567105245470007e+00
      - -5.4031708462015375e+00
      - 8.6249345315123858e+00
      - -7.1351009928954969e+00
      - 8.7927907876702385e+00
      - -7.1957824462815791e+00
      - 7.9484346453445855e+00
      - -6.4788789811035148e+00
      - 8.2344338758383540e+00
      - -6.3416807921317995e+00
      - 7.4999657426217645e+00
      - -5.5495730327493806e+00
      - 7.5619790855130278e+00
      - -6.1081874786991586e+00
      - 7.2445520266187664e+00
      - -5.8513793648614421e+00
      - 6.9654003247861871e+00
      - -5.5890327115177323e+00
      - 7.6661883401796294e+00
      - -6.1358478004924271e+00
      - 6.8599996459204826e+00
      - -5.3363498339061817e+00
      - 6.2989654187370254e+00
      - -4.9458894000160640e+00
      - 6.4447775166157237e+00
      - -5.1504183454224330e+00
      - 6.0160201805422719e+00
      - -4.7613658781889905e+00
      - 5.2929820177934950e+00
      - -3.8868439170467664e+00
      - 4.9531567390534423e+00
      - -3.1649599086917095e+00
      - 3.8225594098766864e+00
      - -2.1077703404005064e+00
      - 3.0425769737867712e+00
      - -6.2508337636773448e-01
      - 1.0035284332246162e-01
      - -2.0780134223338012e-01
      - 6.3584405172800132e-02
      - -3.4104362774501890e-01
      - 3.0688444745960646e-02
      - -3.4191267227065247e-01
      - 2.6473412196358508e-02
      - -4.7785846055447129e-01
      - 1.7816465115016604e-02
      - -5.9352224191237135e-01
      - 1.2939618437323625e-02
      - -6.1051472445190558e-01
      - 1.1040589348333452e-02
      - -6.4146939324862651e-01
      - 1.1602359977209797e-02
      - -6.6906942535243163e-01
      - 1.1862849644011512e-02
      - -7.1392786039414735e-01
      - 1.0872201816868843e-02
      - -6.9878606222966100e-01
      - 1.1809892071607328e-02
      - -6.2592427979518839e-01
      - 1.4828896037122653e-02
      - -4.9040207702565219e-01
      - 1.8305652836916902e-02
      - -3.2894703431187039e-01
      - 3.3454450389417321e-02
      - -2.3891208510422268e-01
      - 1.2588554819823256e-01
      - -1.7293368237332957e-01
      - 2.4383658066367137e-02
      - -3.5023799768054614e-01
      - 1.3956275107601107e-02
      - -4.5773762903414950e-01
      - 1.2057063863984216e-02
      - -6.2562764716451424e-01
      - 1.0672450600104105e-02
      - -8.2544398227269833e-01
      - 9.5859412558603318e-03
      - -8.6467126681649265e-01
      - 1.0217831888351821e-02
      - -8.1216281948929780e-01
      - 1.0376277043420869e-02
      - -8.0400425454627766e-01
      - 1.0230537437547810e-02
      - -8.1875301128981115e-01
      - 1.0181331534178656e-02
      - -7.8807619743849533e-01
      - 1.0653378486407910e-02
      - -8.2310800042963739e-01
      - 1.0725409389241387e-02
      - -8.7645012079760432e-01
      - 1.1392832626334401e-02
      - -8.8173619780781998e-01
      - 1.4442663341395004e-02
      - -6.8128523034661281e-01
      - 1.7389823330938477e-02
      - -3.7028027860220514e-01
      - 2.7059573380926450e-02
      - -2.5064271505363189e-01
      - 1.3532865607410316e-02
      - -5.2299741226214003e-01
      - 1.1767801534555783e-02
      - -7.0036249132931994e-01
      - 1.2800006701714885e-02
      - -1.0388692307906982e+00
      - 1.1640490284618927e-02
      - -1.2618761791366699e+00
      - 1.1841851280523690e-02
      - -1.0609820288711629e+00
      - 1.4081934544795022e-02
      - -1.4070555203748722e+00
      - 1.4241036433401728e-02
      - -1.7451742829295935e+00
      - 1.2637876807497462e-02
      - -1.6392219806573223e+00
      - 1.2911981151490204e-02
      - -1.6572984292119801e+00
      - 1.3419761129317510e-02
      - -1.5333771504529259e+00
      - 1.2014947640255689e-02
      - -1.4231037982791737e+00
      - 1.3216634998392904e-02
      - -1.8429863247758995e+00
      - 1.2738039240111165e-02
      - -1.3623268633767376e+00
      - 1.3242445734936017e-02
      - -7.0011071693591032e-01
      - 1.4347560293405484e-02
      - -4.4520914364991565e-01
      - 1.2002735304097911e-02
      - -6.3311397735352815e-01
      - 1.1313212700020277e-02
      - -8.5203347365001192e-01
      - 1.2670385688920774e-02
      - -1.1408466467781795e+00
      - 1.3595087198966769e-02
      - -1.1268816722699122e+00
      - 1.3202995600754851e-02
      - -8.1671863695982538e-01
      - 1.2783431179147464e-02
      - -1.2448995959410172e+00
      - 1.3665464418021561e-02
      - -1.3122986891124342e+00
      - 1.4439230548972656e-02
      - -9.8347203628002655e-01
      - 1.5276007277397785e-02
      - -1.0862938508371758e+00
      - 1.3913855701408306e-02
      - -1.1604717830962463e+00
      - 1.3234654521842304e-02
      - -9.9821379105653008e-01
      - 1.3811080186240568e-02
      - -1.3536253641120428e+00
      - 1.3116965999098600e-02
      - -1.2817528189422209e+00
      - 1.0080014378209408e-02
      - -9.4059770531210618e-01
      - 1.2438093865745308e-02
      - -6.4904235263070964e-01
      - 1.1405137439045044e-02
      - -7.3165684722601088e-01
      - 9.4343686075396803e-03
      - -9.4429453062738078e-01
      - 1.0897784165220328e-02
      - -1.1423960006732985e+00
      - 1.0772944091211024e-02
      - -9.8926095690100424e-01
      - 1.0142939947752642e-02
      - -8.5006033077276433e-01
      - 1.0642950114579105e-02
      - -1.3925063922640721e+00
      - 1.0083837147875212e-02
      - -1.0159211284132057e+00
      - 9.4625261305519327e-03
      - -9.4348076196644581e-01
      - 1.0497110212703185e-02
      - -1.2782087233751200e+00
      - 1.0928831243010050e-02
      - -1.4512163183900011e+00
      - 1.0334417494485573e-02
      - -9.9701031807910812e-01
      - 1.3319738611611027e-02
      - -9.9144599827233992e-01
      - 1.3459574171332110e-02
      - -8.8778807412927963e-01
      - 9.4860443388576476e-03
      - -9.5521591933405958e-01
      - 1.0890062202034929e-02
      - -7.2446413800608123e-01
      - 1.2435334748771489e-02
      - -6.7753732964518598e-01
      - 1.0439798402088337e-02
      - -1.0035915292189364e+00
      - 1.2941345639610779e-02
      - -1.2117805462544640e+00
      - 1.3651842873986684e-02
      - -1.3367774224285547e+00
      - 1.1728411812807394e-02
      - -1.3781476224079638e+00
      - 1.3423167743814621e-02
      - -1.8536174366231282e+00
      - 1.2213048104864052e-02
      - -1.5960850139467788e+00
      - 1.1535463062532220e-02
      - -1.8036104317670327e+00
      - 1.2428968393721465e-02
      - -2.0750099960750341e+00
      - 1.3653051728697449e-02
      - -2.1144301929736291e+00
      - 1.1146262309401729e-02
      - -1.2642563583057780e+00
      - 1.2390258318363953e-02
      - -1.1047354563252385e+00
      - 1.3599939384118753e-02
      - -9.5117151813776002e-01
      - 1.0339708047938396e-02
      - -7.7192709275063320e-01
      - 1.1180638771950805e-02
      - -7.1296335926591348e-01
      - 1.2331146343501574e-02
      - -6.4159328096340007e-01
      - 1.0240189958824013e-02
      - -8.2821415151822098e-01
      - 1.2861090509768466e-02
      - -8.6338189422142653e-01
      - 1.4689748956689624e-02
      - -9.5898835865742460e-01
      - 1.1433469884276988e-02
      - -9.8143057653117016e-01
      - 1.2400581465851948e-02
      - -1.1915831463095918e+00
      - 1.3263222076729310e-02
      - -1.6004287972586702e+00
      - 1.1431716257348975e-02
      - -1.5648749365615486e+00
      - 1.2740128740862106e-02
      - -1.4209747631979734e+00
      - 1.2828370897025893e-02
      - -1.3297448701543406e+00
      - 1.1667599606654236e-02
      - -1.1838488691802203e+00
      - 1.2552619187477156e-02
      - -1.5235583046133889e+00
      - 1.1846294690599382e-02
      - -1.4293332331233295e+00
      - 1.0714133243622850e-02
      - -1.0512837406924482e+00
      - 1.2724606313730458e-02
      - -6.9908215899373694e-01
      - 1.0566381925603361e-02
      - -6.7624844323861510e-01
      - 1.0581146735828224e-02
      - -7.0070705050595805e-01
      - 1.1590425118807901e-02
      - -6.6159083178165101e-01
      - 1.1710024800247151e-02
      - -7.7842094151945962e-01
      - 1.0930387426219053e-02
      - -7.9195625260878044e-01
      - 1.1005202070600349e-02
      - -1.1303120672107509e+00
      - 9.6323893030661276e-03
      - -1.1872163058183121e+00
      - 9.7501207519418900e-03
      - -1.0758618090324565e+00
      - 1.0398050166627603e-02
      - -9.9611219980097154e-01
      - 1.1715638333856164e-02
      - -8.3192866148493771e-01
      - 1.0663865783029259e-02
      - -8.8876319773509505e-01
      - 1.0479209496053349e-02
      - -1.2062734486568079e+00
      - 1.0226326669056563e-02
      - -1.2695106541687391e+00
      - 9.4157702419546043e-03
      - -1.0458162583892205e+00
      - 1.1601374804104635e-02
      - -7.0030116999322523e-01
      - 1.0105899556989784e-02
      - -7.5130728019641213e-01
      - 1.1278806628066107e-02
      - -7.9817494178011250e-01
      - 1.2265449559553972e-02
      - -8.5337794511320975e-01
      - 1.4025422176431374e-02
      - -1.1591515580561769e+00
      - 1.1331860191940749e-02
      - -1.3057965764612129e+00
      - 1.1678021655600780e-02
      - -1.7327117181729281e+00
      - 1.2804973564844358e-02
      - -1.5231451383798702e+00
      - 1.2976639306358511e-02
      - -1.1861172634670523e+00
      - 1.2905039371532740e-02
      - -1.3988280555143215e+00
      - 1.3600329764911809e-02
      - -1.6860287596440668e+00
      - 1.1261471923690935e-02
      - -1.2028162032435146e+00
      - 1.2660122515669840e-02
      - -1.2244512433084720e+00
      - 1.2124325592708020e-02
      - -1.0566533455947960e+00
      - 1.0518924970623450e-02
      - -9.0452129570623674e-01
      - 1.0336156899832322e-02
      - -9.8381420673858566e-01
      - 1.0074147379556801e-02
      - -8.1305492487534192e-01
      - 1.3800577128124854e-02
      - -8.4615659765371587e-01
      - 1.3886065959460301e-02
      - -9.2685983697084517e-01
      - 1.3356219727428616e-02
      - -1.2344384899593115e+00
      - 1.2092568389112095e-02
      - -1.6630335213915268e+00
      - 1.3004883946475795e-02
      - -1.8549693556382292e+00
      - 1.3467951848443590e-02
      - -1.2557844799291191e+00
      - 1.1311563140921566e-02
      - -9.7245165547862067e-01
      - 1.1715614215734943e-02
      - -1.4295416133947283e+00
      - 1.2908408678719176e-02
      - -1.9760296315756476e+00
      - 1.1461789913638065e-02
      - -1.3761094435707277e+00
      - 1.3111703905239504e-02
      - -1.0019195963953216e+00
      - 1.4095694753051915e-02
      - -8.9116114605405994e-01
      - 1.2343468765832765e-02
      - -8.2776049632690640e-01
      - 9.1475551124790694e-03
      - -1.0794115032725302e+00
      - 1.0247845523177663e-02
      - -7.7956085489950488e-01
      - 9.9160381802028390e-03
      - -8.5848851760119738e-01
      - 1.0935089451525855e-02
      - -1.0041504869072884e+00
      - 1.1144160762413225e-02
      - -9.0211418535332910e-01
      - 9.8906679087443251e-03
      - -1.1036586705848339e+00
      - 1.1244813538428829e-02
      - -1.3291596770373146e+00
      - 1.0114917517365346e-02
      - -9.6745610072659061e-01
      - 1.0108546734604134e-02
      - -9.1456821314999215e-01
      - 1.0833203307488401e-02
      - -1.1325621639646966e+00
      - 1.0143287478827567e-02
      - -1.2413744554896444e+00
      - 1.0125205899149161e-02
      - -1.0354301466968294e+00
      - 1.3947348919712358e-02
      - -7.3991390430635662e-01
      - 1.1944045773767672e-02
      - -7.1519498330196718e-01
      - 1.1249060341785208e-02
      - -8.6651852693387876e-01
      - 9.0707172036180693e-03
      - -9.2722886970318052e-01
      - 1.1560008595333474e-02
      - -7.2968175466907959e-01
      - 1.0854594345348563e-02
      - -9.3360475606710114e-01
      - 1.2597781199309082e-02
      - -1.3913549457903587e+00
      - 1.2660879916905048e-02
      - -1.1532910615217145e+00
      - 1.2256178957965843e-02
      - -1.0683921657297499e+00
      - 1.1937837606965615e-02
      - -1.3644104295233932e+00
      - 1.3192857854137052e-02
      - -1.2894352787538397e+00
      - 1.1478204474375243e-02
      - -1.1817912950233016e+00
      - 1.2518625628154477e-02
      - -1.4845319684296319e+00
      - 1.3530754123619034e-02
      - -1.4872895593254780e+00
      - 1.2334811774346347e-02
      - -9.9737543690547981e-01
      - 1.2013461029307537e-02
      - -9.8000718457260272e-01
      - 1.2219349587978656e-02
      - -1.2826614234169111e+00
      - 1.0662584051726908e-02
      - -1.0727205773252526e+00
      - 1.2839866246897376e-02
      - -7.9101357818007167e-01
      - 1.4256397414592517e-02
      - -5.4707125028320180e-01
      - 1.1510110963107476e-02
      - -7.3350798046712185e-01
      - 1.1504453859612527e-02
      - -1.2557285697674037e+00
      - 1.2548457811585706e-02
      - -1.2294953613371853e+00
      - 1.2126504506303110e-02
      - -1.0164215595283153e+00
      - 1.3604730225324022e-02
      - -1.3402720594705575e+00
      - 1.2255468973325840e-02
      - -1.3167820552451208e+00
      - 1.1404326955204835e-02
      - -1.3263577834568532e+00
      - 1.3222465306603577e-02
      - -1.6005861033771440e+00
      - 1.3377708776806224e-02
      - -1.3307442023635121e+00
      - 1.2225973139562248e-02
      - -1.1217021618852920e+00
      - 1.2399098593477124e-02
      - -1.2451700829934300e+00
      - 1.1090938825884992e-02
      - -1.1348607101637875e+00
      - 1.0930482827671374e-02
      - -8.3259364649969536e-01
      - 1.5900806976210418e-02
      - -5.3227549817334674e-01
      - 1.8040077986401202e-02
      - -3.6772603410664267e-01
      - 1.5442329497393771e-02
      - -4.4252412913238515e-01
      - 1.2752920363758854e-02
      - -7.4379153717518809e-01
      - 1.0435850810912986e-02
      - -9.3437759179730007e-01
      - 1.0355448099096623e-02
      - -9.3837095855551322e-01
      - 1.0183286526486890e-02
      - -7.9810222382840179e-01
      - 1.0439991818362807e-02
      - -7.7667211860850582e-01
      - 1.0388930793844458e-02
      - -7.9554024594075601e-01
      - 1.0618866815277800e-02
      - -7.6820529425272321e-01
      - 1.0717486339298681e-02
      - -7.0746235583148365e-01
      - 1.0140912969234453e-02
      - -7.9826398756812222e-01
      - 1.0539510348151657e-02
      - -7.3638174826429303e-01
      - 1.3909864341282377e-02
      - -5.8154473240977533e-01
      - 1.4922862554530908e-02
      - -4.3457184590618797e-01
      - 2.1790653178075371e-02
      - -3.5129174214351810e-01
      - 2.9401210149556319e-02
      - -2.1828171171640295e-01
      - 2.7207116093645019e-02
      - -3.1246960604519580e-01
      - 1.7108925720371579e-02
      - -4.0128207598689702e-01
      - 1.4801339435970749e-02
      - -5.2462525334162990e-01
      - 1.2287638827906774e-02
      - -6.5459603210485184e-01
      - 1.2504118523006280e-02
      - -6.9088412445297331e-01
      - 1.2287139692255852e-02
      - -6.8435644710200771e-01
      - 1.2039173156316835e-02
      - -6.7261279522816586e-01
      - 1.2093319187667274e-02
      - -6.8284499251575814e-01
      - 1.2236657160126717e-02
      - -6.5286892040191236e-01
      - 1.3090730355064816e-02
      - -5.8842171798018617e-01
      - 1.3580307220549794e-02
      - -5.1138773048696595e-01
      - 1.4774161931520735e-02
      - -4.0934874927435733e-01
      - 1.8434290341581710e-02
      - -3.2660348746600321e-01
      - 2.8155655142084700e-02
      - -2.1472242052801968e-01
   output_scale:
      - 5.2631578947368418e-01
      - 4.9999999999999994e-01
      - 5.2631578947368418e-01
      - 4.9999999999999994e-01
      - 5.2631578947368418e-01
      - 4.9999999999999994e-01
      - 5.2631578947368418e-01
      - 4.9999999999999994e-01
      - 5.2631578947368418e-01
      - 4.9999999999999994e-01
      - 5.2631578947368418e-01
      - 4.9999999999999994e-01
      - 5.2631578947368418e-01
      - 4.9999999999999994e-01
      - 5.2631578947368418e-01
      - 4.9999999999999994e-01
      - 5.2631578947368418e-01
      - 4.9999999999999994e-01
   inv_output_scale:
      - 1.8999999999999999e+00
      - -9.4999999999999996e-01
      - 1.8999999999999999e+00
      - -9.4999999999999996e-01
      - 1.8999999999999999e+00
      - -9.4999999999999996e-01
      - 1.8999999999999999e+00
      - -9.4999999999999996e-01
      - 1.8999999999999999e+00
      - -9.4999999999999996e-01
      - 1.8999999999999999e+00
      - -9.4999999999999996e-01
      - 1.8999999999999999e+00
      - -9.4999999999999996e-01
      - 1.8999999999999999e+00
      - -9.4999999999999996e-01
      - 1.8999999999999999e+00
      - -9.4999999999999996e-01
   weights:
      -
         - -1.4409412722661238e-02
         - 6.0511712377469776e-03
         - -8.6168645998372165e-03
         - -4.8184539337518470e-03
         - 1.5447489404746981e-02
         - 9.8866317196951298e-03
         - 2.5721144911495476e-03
         - -1.0869633837631310e-02
         - 9.9836563066155572e-04
         - -9.1254981203182516e-04
         - -4.4236556415014000e-03
         - -1.5666545639086479e-03
         - 4.0807514298501256e-03
         - -1.6805216287314054e-03
         - -6.8958055174427766e-03
         - -6.2872248377550486e-03
         - 7.4070873379617451e-03
         - -2.8235477906129280e-03
         - -8.0592154953651515e-03
         - 2.4620500716264755e-03
         - 1.0285072758176540e-02
         - -1.0545431607758087e-03
         - 8.5454212423238408e-03
         - -1.1987910104488233e-02
         - 5.2043135330631244e-03
         - 5.9087006349863404e-04
         - 4.3198344162049624e-04
         - 6.1305283939209389e-03
         - -6.2494608091569369e-03
         - -7.6916899520498641e-03
         - -1.1256858038741718e-02
         - -4.7477111215306770e-03
         - 5.0956963796223147e-03
         - -7.5481247432487002e-03
         - -6.0307284157148696e-03
         - 1.5933124990377488e-02
         - -7.2707123472185988e-03
         - 5.1450905047577961e-03
         - 5.8781431118160622e-03
         - -5.5525539023195945e-05
         - -3.8524185668131102e-03
         - 4.6665386654213913e-04
         - 3.0622836382940299e-03
         - -4.8682664008587173e-03
         - 1.9084653091763648e-05
         - -6.4802845450342243e-05
         - -9.9830033192368226e-04
         - -4.6065847985312398e-03
         - -3.5696904736202549e-04
         - -7.9156117200695833e-03
         - 8.3189853619663641e-03
         - -4.4491488937954622e-04
         - 4.5140161767944342e-03
         - 6.3561447837523471e-03
         - 6.2001111530312833e-04
         - 7.1376774978147792e-03
         - 7.8710786231108755e-03
         - 2.3611038457911791e-03
         - 2.8139003416982832e-03
         - 4.6726500214607000e-03
         - 8.5255315598712997e-03
         - -9.3571055227966088e-04
         - -2.7811828335205934e-03
         - 1.0670113561256927e-02
         - -2.7501786157561750e-03
         - -1.0524238422419506e-02
         - -7.9884318672929864e-03
         - 5.9663656833570111e-03
         - -1.5964554712150610e-03
         - -1.1439592930362383e-02
         - 3.2195868200030685e-03
         - 8.8584435514809535e-03
         - -8.5731725523231321e-03
         - 7.1273517995478035e-03
         - -5.0832305353178814e-04
         - -7.1446272261581623e-03
         - -1.2259322792237104e-02
         - 8.7596958969935988e-03
         - 3.5091735136727597e-03
         - -3.7154607614087402e-03
         - 2.2465718116710309e-03
         - -1.1374114786508502e-02
         - -9.2889668871749351e-03
         - 1.2620761757728251e-03
         - 1.1712037180589684e-02
         - 8.4657310996476482e-04
         - -4.2818359337753732e-04
         - 3.6728518559567456e-03
         - 4.5470710252374516e-03
         - -6.4701858992466778e-03
         - 8.0619780767838857e-03
         - 4.2695168181904400e-03
         - -7.0036045254455040e-03
         - 1.3446522968423920e-02
         - 2.2563634722184973e-03
         - 1.3188434781542061e-02
         - 1.4742026825935348e-03
         - -3.9199585271844787e-03
         - -8.5206414872499563e-03
         - -7.0798440987398549e-03
         - 2.0947302753946254e-02
         - 1.2317052605314854e-02
         - 2.0274390586976490e-03
         - 5.3694845166736853e-04
         - -9.0595415360080356e-03
         - -8.3213550539277901e-03
         - 1.6914665442065680e-03
         - 2.1288562378374036e-03
         - 6.1618164599410207e-03
         - 7.4579446869068120e-03
         - 1.0969651149489532e-02
         - -3.3725616913383547e-03
         - -1.0727919246061346e-02
         - 8.0225481660828289e-03
         - 1.5806128395186015e-02
         - 1.8236519536193867e-02
         - -1.1211055373564207e-02
         - -1.2762020860203111e-02
         - -5.1913364823823237e-03
         - -1.6226139563584659e-02
         - -2.0319744762097719e-02
         - 2.9576773090367759e-03
         - 1.0021552824385717e-02
         - 1.2672368812300241e-02
         - -4.1650276284632415e-03
         - -3.6392174790286754e-03
         - -1.5512722453742264e-02
         - -6.9705770659460233e-03
         - -7.3110284272763244e-03
         - 7.0833524731393586e-03
         - 1.4799014861798953e-02
         - 2.1142667811285817e-02
         - 2.3176546087533274e-03
         - 1.4476074629921593e-02
         - 1.0047330018403232e-02
         - -7.9294006307391003e-04
         - -7.6809055853964987e-03
         - -9.1627275578060330e-03
         - -2.1393186472820746e-03
         - 5.2453348981364263e-03
         - -1.0385876933369854e-02
         - -1.9436532102397479e-02
         - 5.8131944311413195e-03
         - -1.9299586111623739e-02
         - -6.3220929257017111e-03
         - 8.9168813395020721e-03
         - 9.8963240659020353e-03
         - 1.1911663893641728e-02
         - 4.4369160445218167e-03
         - 1.3227005542791340e-02
         - -1.1473628462190520e-02
         - -5.4624471212990546e-03
         - -1.6941613035295840e-02
         - 8.8056582853630666e-04
         - 3.6200687026686114e-03
         - -5.3722036681201398e-03
         - -1.8458449711641542e-03
         - -3.5115036880243246e-03
         - -6.0149661889768178e-03
         - -3.2258297134608080e-02
         - -6.6299132503670529e-03
         - -9.0344240952074247e-04
         - 1.8363052446062490e-02
         - -1.7251419919794706e-02
         - 2.9972931016563438e-04
         - 1.9966655328388535e-02
         - -5.2505612571825252e-03
         - -1.0979877020987542e-02
         - -5.8641927173753812e-03
         - -3.1854082170468347e-03
         - 2.5835320421375586e-03
         - -2.3411611314706024e-02
         - 1.2809381325310580e-02
         - 3.4892848690046222e-03
         - 4.8228195907907686e-03
         - 7.0743443855327210e-03
         - 1.4272068059769593e-02
         - -8.9479472875893130e-03
         - -1.5224148109569985e-02
         - 5.6005431082357861e-03
         - -7.2912446139530341e-04
         - 2.0864806922266776e-02
         - -2.1502876101793947e-03
         - -5.2677093871308202e-03
         - -5.2466673890773788e-03
         - -1.0915327868440811e-04
         - -6.8944761032462658e-03
         - 1.6626769482375452e-02
         - -6.8662154959460257e-03
         - -2.2578443410639648e-04
         - 6.9658972245115513e-03
         - -1.4827158225295364e-02
         - -1.3029622205795848e-02
         - -2.2665674562408027e-03
         - 1.4504194399587290e-02
         - 1.3933698845428191e-02
         - -3.5762775178883868e-03
         - -7.2629920077338754e-03
         - 1.4633987188861025e-02
         - 8.8523172746354309e-03
         - -4.8955024413452584e-03
         - 1.7063941371831153e-03
         - -9.9233729464993387e-03
         - 3.5468409203139157e-03
         - 2.4644830718396401e-03
         - -2.9342640502803734e-03
         - 1.2262756609693745e-03
         - 6.5076871779389863e-03
         - 5.0475611916468634e-04
         - -8.3397802798397692e-03
         - -5.8790978546725218e-03
         - 4.7886729494566920e-03
         - 7.2592992480396933e-03
         - 1.9017829579728728e-03
         - -6.6362192410710495e-04
         - 1.4012905886900458e-03
         - -4.4116056207986519e-03
         - 8.9129410373656043e-03
         - 3.5185611704963474e-03
         - 3.4571474577530295e-04
         - 1.3375750973989645e-03
         - -5.8570866412682573e-03
         - 6.9411520881718152e-03
         - -1.4801465324649706e-02
         - 8.8863566518100831e-03
         - 1.1541999588919542e-03
         - -2.8407539827080847e-03
         - -4.3801994177940394e-03
         - -9.9462503491719711e-03
         - -3.5448634648759638e-03
         - 4.0831068422123662e-03
         - -1.3061684735361974e-03
         - 9.7264928341117170e-03
         - -1.0625482191827615e-03
         - 4.9194921555694698e-03
         - 9.2181496970650239e-03
         - 9.1518996301762408e-03
         - -8.7321536702070213e-04
         - 8.1318892091766289e-03
         - -2.3498331525727799e-03
         - -4.1458635376279600e-03
         - 1.0395155152275529e-02
         - -2.6245502783672041e-03
         - -1.2196770127219769e-03
         - -4.8115741136941139e-03
         - 1.0291541339041539e-02
         - -7.4452842465064428e-03
         - 3.5992634593873052e-03
         - -3.0806697622064016e-03
         - 3.5293677464043583e-03
         - -5.6377893899679102e-03
         - 1.3286373545019813e-03
         - 1.0077223520093251e-02
         - 6.7392568095355227e-03
         - 5.6767823619517759e-03
         - -1.2627607647543255e-04
         - 4.8830310235102869e-03
         - 9.4523814300193532e-04
         - 3.2404132436965362e-03
         - 1.5766094647476279e-02
         - -1.7789354303795952e-03
         - 7.0087754068442910e-03
         - -6.3729094952783222e-03
         - 3.5712088135077661e-03
         - -3.4795908666429375e-04
         - -4.0340904208703097e-03
         - 1.0772668494863698e-02
         - 8.0035301183328175e-03
         - 5.2791567300887561e-03
         - 2.8713584129594094e-03
         - -3.4325173543320748e-04
         - 6.3499750164068489e-03
         - 1.1146751274141544e-02
         - 2.3906631501474040e-03
         - 4.5626177422223137e-03
         - -9.9715281579416271e-03
         - -7.5951589930143325e-03
         - 1.6378599771557751e-04
         - 9.7737822909371372e-03
         - -2.3223408208375663e-03
         - -3.6187355202923731e-03
         - -7.4006269378550267e-03
         - 8.2544591156030137e-03
         - -5.3944891057863481e-03
         - -1.1440498517421816e-02
         - -9.2858187237439480e-03
         - -7.1654416025733626e-03
         - -7.8221203093186264e-03
         - 9.1988484468938326e-04
         - 5.5306620086337157e-03
         - -4.6014067450332119e-03
         - 3.9813617960153397e-03
         - -4.3838550622941905e-03
         - 2.3199977760332406e-03
         - 3.4761293896740045e-03
         - -1.5523283088641593e-02
         - -1.4026725762458935e-02
         - -7.8456244104317795e-03
         - 1.3290344219508214e-02
         - -1.2249780528447463e-02
         - -2.0945913493401647e-03
         - 9.1707717165345759e-03
         - -1.8778653555271932e-02
         - -2.8721573330330835e-03
         - -1.9337883235255149e-02
         - 5.7512542548426521e-03
         - -2.3190116620281204e-03
         - -1.3881196225631286e-02
         - -5.8989909186128644e-03
         - -3.0609770783342756e-03
         - -6.0837972044745017e-03
         - -7.1919266678197578e-04
         - 5.6161103864779223e-03
         - 3.3539443767960013e-03
         - 1.2302179645482397e-02
         - 3.6836927345976593e-03
         - -9.2264722376964731e-03
         - -7.2308344659288107e-04
         - -8.4136915094986473e-03
         - -1.7919489198798527e-02
         - 5.5357001619598650e-03
         - 7.6343764508360196e-03
         - 6.4687709029631578e-03
         - -3.0451445404585660e-03
         - 1.6777485946015060e-03
         - -2.6032156821611716e-03
         - 1.9948175557578985e-02
         - -8.7854291203249037e-03
         - -1.1875990108786295e-02
         - -1.5751346168741392e-02
         - -2.1398625476610300e-03
         - 3.9908153311457115e-03
         - -8.8169415823817539e-03
         - 1.0393791953229746e-02
         - 1.4418138070694005e-02
         - 4.6702545235610916e-03
         - 1.4331962015255807e-02
         - -2.5888136299648600e-02
         - -2.1170225819138215e-03
         - -1.1024741050917140e-02
         - 2.7317007959701829e-02
         - 2.6293332891487069e-03
         - 5.2101930373488125e-03
         - -8.3471695944830407e-03
         - 4.6015863825236113e-03
         - 1.0560315520967594e-02
         - -4.3320621592953714e-03
         - 1.3610878328652645e-02
         - 8.2215667899954003e-03
         - 1.0390545388524752e-02
         - -2.2700167564262672e-03
         - -8.5094049232755931e-03
         - -6.1040779694795334e-03
         - 1.0157311654200680e-03
         - 1.7646366027210498e-02
         - 1.9038505413379537e-03
         - -8.2384974696057198e-03
         - -1.1081951143441715e-02
         - -6.6270800329283923e-04
         - -8.3537005944902523e-04
         - 1.6144446642589173e-04
         - 2.1336018392930225e-02
         - 1.3588983346838829e-02
         - 7.4825908573453136e-03
         - -1.2314579371039067e-02
         - 9.2308941076625906e-03
         - 1.1392544241971784e-02
         - 5.2988922065020034e-04
         - 1.7610283574697294e-02
         - 4.0051124148291137e-03
         - 1.1075413730859416e-02
         - 5.8235209836725761e-03
         - 1.8928709284855863e-02
         - -5.5990098111192901e-03
         - 2.0158794488142956e-03
         - -2.1593145401983725e-02
         - -3.1964904796808751e-03
         - -9.6135497869346363e-03
         - 1.5139026237112674e-03
         - -7.3206983888506822e-03
         - 8.5747413503693536e-03
         - -9.6504584057463955e-03
         - 8.9737680668923406e-03
         - -6.7169123597788077e-03
         - 5.8585450137658580e-03
         - -1.7395981534791157e-02
         - 1.1983493887363791e-02
         - -1.0173742183173391e-02
         - 8.9618906466641893e-03
         - 1.6101163863348041e-02
         - -4.1433870687039047e-03
         - -1.4653541224234640e-02
         - -1.8459483310167828e-02
         - -2.3645305461448524e-02
         - 9.8573536492272719e-03
         - -4.5330305796974875e-03
         - -7.8300709364191780e-03
         - 2.8294907055439258e-03
         - 6.1668033881839349e-03
         - 1.5251676459092868e-02
         - 1.7969023117062364e-02
         - 1.7550405990638961e-02
         - 1.5492290518077829e-02
         - -2.6568469985202917e-02
         - 2.2504221348438943e-04
         - -5.1421360494704792e-03
         - 2.3590381358810183e-02
         - 8.6702491402392938e-03
         - 2.9664447466560815e-03
         - 9.3056444648496207e-03
         - 3.1937045843586843e-02
         - -5.8992006440778807e-03
         - -2.8368790116449848e-02
         - 1.3651156692196808e-02
         - 7.6885629942882693e-03
         - 1.4174497397768861e-02
         - 1.0790046880731188e-03
         - 5.7090514105015405e-03
         - -1.3708986203502192e-02
         - -4.2866605436839627e-03
         - -1.7435863523025674e-02
         - -1.2728223389165863e-02
         - 1.9177890496275125e-02
         - 8.8462289726971670e-03
         - -1.9438845468200065e-02
         - -1.9021105290207726e-02
         - -1.0946981656631121e-02
         - -1.1357622467856621e-02
         - -1.0812983334676427e-02
         - 3.3211651014246855e-02
         - 2.2175506145012909e-02
         - 4.1223054588737519e-02
         - 4.2696576231744009e-04
         - -1.6890750626965642e-02
         - 1.2784280563246717e-02
         - 4.8728147318357094e-04
         - -1.6477619485070701e-02
         - 9.6954992764854261e-04
         - 1.0158267037845567e-02
         - 4.3530847048124759e-03
         - -6.0468152638862519e-03
         - -9.6784830046660331e-03
         - -3.7868703263973648e-03
         - -2.4586939345799256e-02
         - 2.7741559592371563e-04
         - -1.0450291090113972e-03
         - 1.9510572437511618e-02
         - -5.3728063989154557e-04
         - 1.5147361725236288e-02
         - 1.4496425357969264e-02
         - -1.0757046680957004e-02
         - -1.1644513985880130e-02
         - -1.9904410575338538e-02
         - 1.7223855591215597e-02
         - 4.2855017672589991e-03
         - -8.7476349793505302e-03
         - 1.3014452314922613e-02
         - -8.3568338883342110e-03
         - -4.2450074263402273e-03
         - -3.8415953609516065e-02
         - -1.0276343561301270e-02
         - -6.2482662548561897e-03
         - 1.0875733508231044e-02
         - -2.7241182423632281e-02
         - 5.7381533630227756e-04
         - 8.5904712994948826e-03
         - -1.5005066461974966e-02
         - -2.2692769551659396e-03
         - -3.4364864696613817e-03
         - -1.3134199069844497e-02
         - 1.9049327376742856e-03
         - -2.9812638415431511e-02
         - -1.0541453338906272e-02
         - 2.4881205237444005e-02
         - -7.2667969434339142e-04
         - 4.0425118142678663e-02
         - 2.5392960614281722e-02
         - -1.8404637974564382e-02
         - -2.7079944961910782e-02
         - 2.1640620995122921e-02
         - 1.8256174673716831e-03
         - 3.0049987681239038e-02
         - -6.8512079818983584e-03
         - 6.1628578428363995e-03
         - 9.7131550403156807e-03
         - -2.8366559367392478e-03
         - -2.3003965025597085e-02
         - 2.7513227057778363e-02
         - -1.4880516569142029e-02
         - 3.1631363050162991e-03
         - -7.3187248885799843e-03
         - -7.6005473759658097e-03
         - -1.1379096475277481e-03
         - 1.1391018259222330e-02
         - 6.2818432246439921e-04
         - 3.4416652895756850e-02
         - 4.1648944844195336e-04
         - 5.4940866925292450e-05
         - 5.0876616861603051e-03
         - 1.8475062938465354e-02
         - -3.9088007209284598e-03
         - 6.0876097758105182e-03
         - 2.8187184571371857e-03
         - -1.6664693671024303e-03
         - 7.0286783143100448e-04
         - 1.0748052811950451e-02
         - 5.8327038341855902e-03
         - 7.8206082947172278e-03
         - 5.6900620482342682e-03
         - 7.6831939111378800e-03
         - 2.3709562891558169e-03
         - 1.0302953543722259e-03
         - -4.3699015954115636e-03
         - -3.4650328172625886e-03
         - -2.6844376496766007e-03
         - 1.2189207440201182e-02
         - 6.9849596853801777e-03
         - 4.7931501944774076e-03
         - -1.4639989743337602e-02
         - -5.5022603746029668e-03
         - 1.2491486377312764e-02
         - 1.1696991170067752e-02
         - 1.1583386773799085e-02
         - -1.2635923990363307e-02
         - 9.1560351217019192e-03
         - 4.0245830534084003e-05
         - 3.1233530422755760e-03
         - -2.2116124090568877e-03
         - 8.8944333041751488e-03
         - -1.8392580541936591e-02
         - 1.5029195294204508e-03
         - -1.0593964898538246e-03
         - 4.9845999230804204e-03
         - 3.4771031863196108e-03
         - 6.2535928123017628e-03
         - 1.6161460256809628e-02
         - -6.0042070665013349e-03
         - 2.2780684556901612e-03
         - 1.0320088367298301e-02
         - -2.9262832129739680e-04
         - 2.7705056320186140e-03
         - 9.3129005660628709e-03
         - -1.6368703059940022e-03
         - 5.3857735389763826e-03
         - 7.3112624086207820e-03
         - 9.3327408244674465e-03
         - -1.0988451985579233e-03
         - 4.9232036896305655e-03
         - -9.8897459527391880e-04
         - -1.9139339410276391e-02
         - 1.3550175769951331e-02
         - 7.8599215726796070e-04
         - -9.6158439594163127e-03
         - 5.5817972369600665e-03
         - 2.1740381654263841e-03
         - -8.9919148551126597e-03
         - -6.6347591637583138e-03
         - 1.3075359264338934e-03
         - 2.4172741524850082e-03
         - -2.0336923009082954e-03
         - -5.6645992562133311e-03
         - 1.0656178083616821e-02
         - -1.2342615723695532e-02
         - 1.7567383423543084e-03
         - -6.9868605809362263e-03
         - -1.2928483434693375e-03
         - -1.2070431277037895e-03
         - 5.1536916449039525e-03
         - 1.0439162933291240e-03
         - 4.8751525959348325e-03
         - -1.9573024241457695e-03
         - 1.4198703232861086e-02
         - -3.7398577599388697e-03
         - 1.2079399063055007e-02
         - 6.8966210248770695e-03
         - -9.2239116883329163e-03
         - 1.3964277744467932e-03
         - -6.3894552089714348e-04
         - 1.1816902580741584e-02
         - -6.2583598091199098e-03
         - 9.5818127204405339e-03
         - -1.8357901833427226e-03
         - 6.7592712471936768e-03
         - -1.0470162619848608e-02
         - -1.0877490301880146e-02
         - -7.9945144236420688e-03
         - 9.9327073814904068e-04
         - -7.0991774357390645e-03
         - 5.5159576813058799e-03
         - -8.7750483548090161e-03
         - -1.4694120187395789e-03
         - 4.0139873187981581e-03
         - -4.3874484204051841e-03
         - 6.7378768439796503e-03
         - 8.4568172154663454e-04
         - 3.3543508529364978e-04
         - -3.0623869348060015e-03
         - -1.8231216660254918e-04
         - 6.9630996405773233e-03
         - -2.3278961902406846e-03
         - 9.2412235190684425e-03
         - -7.5653147608908729e-03
         - 4.2279346573616521e-03
         - -2.8266677880281151e-03
         - 2.5228754172358912e-03
         - 1.5653361244147230e-03
         - 1.2809550453542271e-02
         - -7.0638971625139142e-03
         - -4.9700617660180836e-03
         - 6.6659997679769196e-03
         - 1.9151436124445701e-02
         - -8.1466651736396192e-03
         - -1.4888538184162563e-02
         - 1.8894278572389341e-02
         - -8.5062853291345501e-03
         - 1.9028221330515967e-02
         - 1.0065123107469104e-02
         - -2.9246582848590718e-05
         - -1.3741119589776252e-02
         - -9.1403484450613779e-03
         - -3.9961803575383472e-03
         - 9.9579643500977682e-03
         - 7.3655198523354662e-03
         - 2.2124534902155206e-02
         - -1.8458799725222807e-02
         - -1.6402497954890218e-02
         - -5.5009268561060937e-03
         - 1.1407309361733439e-02
         - -8.5753101531292376e-03
         - 2.0259914016057812e-02
         - 8.1193538276884015e-03
         - 7.5478423610737680e-03
         - -4.0838713115778488e-03
         - 1.3975713381509828e-02
         - 1.5399676651779317e-02
         - 1.9159616920868400e-02
         - 4.6177246918716426e-03
         - -1.6254927037652255e-02
         - 9.6206245887826090e-03
         - -7.7109701919002138e-03
         - -1.5439258617699443e-02
         - -1.0067113308772935e-02
         - -5.8940828967504979e-05
         - -4.3607536650029149e-03
         - -1.2484084199561761e-03
         - 8.1393597578728466e-03
         - -3.2684602733690021e-04
         - -1.4609544926735176e-03
         - 8.7153924740910171e-03
         - -4.8351272892889078e-03
         - 1.6830222056633200e-02
         - -3.2497930338993629e-03
         - -2.4590200689678470e-02
         - -1.1915516291651359e-02
         - 7.8107307961142198e-03
         - 6.3994261483991868e-03
         - -8.9582168003390760e-03
         - -2.6342696420554731e-04
         - -8.8324989542974772e-03
         - -2.1030030979072575e-02
         - -2.1165504859248747e-04
         - 6.8050851875476924e-03
         - 1.2240673972564065e-03
         - -8.1613697020193020e-03
         - 1.6225087662487932e-02
         - 8.5676674891017671e-03
         - 9.2539759106948522e-03
         - 1.5211312288277979e-03
         - -9.4524326154231727e-03
         - 1.1773704223312302e-03
         - -4.6828374954219687e-03
         - 1.2120300821805378e-02
         - -1.5264356006041810e-03
         - 1.2476332895556748e-02
         - 1.7475665450617968e-03
         - 5.6291106340781646e-03
         - 1.6701014037015720e-02
         - 1.0206012687137913e-03
         - -1.6482664372963252e-02
         - -1.1054679295962877e-03
         - 3.7989645846211702e-03
         - 3.6352206310159983e-03
         - -1.0107046681559338e-02
         - -2.3972420565976177e-02
         - -1.5001445303859539e-02
         - 2.5829194411061267e-04
         - -1.4166747889590232e-02
         - 1.1530722992442006e-02
         - 1.1934317618513216e-02
         - 6.9102110298237098e-03
         - 5.6335362621865214e-03
         - 6.8198915259632589e-03
         - 2.3790060519451998e-03
         - 5.8281811940259966e-03
         - -6.1019860442329127e-03
         - 1.4104751148541015e-02
         - 5.7675847394561440e-03
         - -2.6564977647289848e-03
         - -7.6014518393970601e-03
         - 1.2022968636005832e-03
         - 1.2247886993825076e-02
         - 9.9703865311314352e-03
         - -1.2419384502907613e-02
         - -9.5658351150589298e-04
         - 9.8820746758764722e-03
         - 7.2899151920310943e-03
         - 5.7412342740286088e-04
         - -1.0897478072672835e-02
         - -4.5073797178353464e-03
         - 1.0309927186970179e-02
         - 8.1786898810113865e-03
         - -6.4366419837210906e-03
         - -6.9208941516879497e-04
         - -6.8105452271190615e-04
         - 1.5202138257614817e-02
         - 1.3514943269973517e-02
         - 6.6996132220938772e-03
         - -5.6207409520660169e-04
         - -1.2266704035375749e-02
         - 2.4385838641649352e-03
         - 2.6394260556320296e-03
         - 6.9250284071039779e-03
         - 9.3338549716215705e-03
         - -1.3517793654667335e-03
         - 1.2247185635833144e-02
         - 5.1621238618482466e-03
         - 4.1635998485856952e-03
         - -4.5681245148420846e-03
         - 1.4838133925206606e-04
         - 1.9674735264087304e-03
         - 1.0783090756328240e-02
         - 2.0447977336992620e-02
         - 8.2763449305648801e-03
         - 1.1643497992084740e-02
         - 1.3237583090746628e-02
         - 9.6961469812061694e-03
         - -6.3114721336621511e-03
         - 5.7652144834469806e-03
         - -3.3248890589641857e-03
         - -5.0843569109950831e-03
         - -2.6890848845378592e-03
         - -5.4718694719398083e-03
         - 1.3219368651946910e-02
         - -1.4025277417594155e-02
         - 1.4206251576066668e-02
         - 1.6820104196197276e-02
         - 1.1224222673092069e-02
         - 2.0815549552694206e-03
         - 1.3761730461589137e-02
         - -1.8477710132826178e-02
         - 8.3507629881380881e-03
         - -1.4959424492711315e-03
         - -2.0021444643373250e-02
         - 3.4795707773169209e-03
         - 6.6960655108894724e-03
         - 8.8420608284671947e-03
         - 4.1771335354913561e-04
         - 3.5716152497732613e-03
         - 1.6018802515408875e-03
         - -6.4647404194135318e-03
         - 1.4152526575680246e-03
         - 1.2390248403358672e-02
         - -5.7472757350560651e-03
         - 3.8264719660544163e-03
         - -1.3325312219987904e-02
         - 1.8605482131138225e-02
         - 4.1474821695939284e-03
         - -2.0560547929912797e-03
         - 1.6418357551806446e-02
         - -6.8483483951211612e-03
         - 1.0743931074494771e-02
         - 5.1869899521639696e-03
         - 5.8369478054217305e-03
         - 1.9492417420615134e-02
         - 2.0587504965661578e-02
         - -2.2477707480366840e-02
         - -4.3245538366488232e-03
         - -1.3968433705800150e-02
         - 9.8683327290106405e-04
         - 4.9415421223147878e-03
         - 1.1184497580117058e-02
         - -6.0085616344072645e-03
         - 1.4234200625926187e-02
         - -5.9919249093185233e-03
         - 1.4989402659867299e-02
         - -1.7421414941421111e-02
         - 1.5074724201833511e-02
         - 3.1188166029190276e-03
         - -1.7129426250825533e-03
         - -2.0640186398505813e-03
         - 5.4773837442735488e-03
         - -1.4905730570928047e-02
         - -2.0580606028419704e-03
         - 7.1226424434225914e-03
         - 9.6159030521642888e-03
         - 9.6163092361948969e-03
         - -1.6894216341552509e-02
         - -1.4712403165841614e-02
         - 8.1715323684175053e-03
         - -1.6118612616287241e-03
         - -1.1445492436287407e-02
         - -8.7915594566523303e-04
         - 1.2099203838634867e-03
         - 3.4128656046472292e-03
         - 7.5456301131678330e-03
         - -7.7468375498031686e-03
         - 1.5652576725107933e-02
         - 2.2459692439307902e-02
         - 9.5664197351057294e-03
         - -1.5113729939595837e-03
         - 5.8265991623752764e-03
         - -9.0878158686480293e-03
         - -1.0744357498437065e-02
         - 2.4585000759452282e-03
         - -9.9256288717717942e-03
         - 1.4821303460272958e-04
         - -3.1906454396785759e-03
         - -5.9383902796163734e-03
         - -2.0381835383247639e-02
         - 2.8822934882624458e-03
         - -8.9737143300811749e-03
         - -1.9648595462869308e-03
         - 1.7902926684902087e-03
         - -8.2775832177926327e-03
         - 3.8394046956185595e-03
         - -2.9746776907568144e-03
         - -9.1206700819659071e-03
         - 3.1538575597654227e-03
         - 2.3426018882335572e-03
         - -1.4723453290015804e-02
         - 4.4803411391127141e-03
         - -5.9759812935069150e-03
         - -3.1657301498520833e-03
         - -4.2439866871881275e-03
         - -4.5554598601842055e-03
         - 1.6541808859041114e-02
         - -7.0205018808177418e-03
         - -6.5774914321443780e-03
         - 1.7738974686531718e-02
         - 3.9657660327905957e-03
         - -1.1590799026233143e-02
         - 8.6577016361587527e-03
         - -1.5924778214723295e-02
         - 6.0666986546859354e-03
         - 2.4611096823437496e-03
         - 2.5834860575955475e-03
         - -9.0047600492798915e-03
         - -4.6804049323328871e-03
         - -4.5700081104696529e-03
         - -1.1253434383215803e-02
         - 7.8924742344388388e-04
         - -2.4131480305387850e-03
         - 1.1501017968345685e-02
         - 6.2849669303977193e-03
         - 5.8857158252353450e-03
         - -1.8944690291910333e-02
         - 8.8120316925447868e-03
         - -8.4098853942383266e-03
         - 5.8791653169392262e-03
         - 1.6208951018701363e-03
         - -8.2422296909647075e-03
         - -2.7103887654063076e-03
         - -9.8740945058494560e-03
         - -4.2530014216608748e-03
         - 7.7871682973952149e-03
         - 1.7064898082922763e-03
         - -9.2767462340812030e-03
         - -2.0874276585018702e-04
         - -9.5864931646404625e-03
         - 6.1033327690968621e-03
         - 3.7193672372566431e-03
         - 1.6142738911841089e-02
         - -7.0166278988776341e-04
         - 4.9057405150126714e-04
         - 3.3078760042449451e-03
         - 1.9372003710068527e-02
         - 3.4502455085455325e-05
         - 1.1494229212095341e-02
         - 1.0570048557628274e-02
         - 9.5057867675336829e-03
         - 3.5453792212961298e-03
         - 5.2003223306843011e-05
         - -2.6960336775993725e-03
         - -9.9120523323405138e-03
         - -1.1176151567143397e-02
         - 2.0485107162058248e-02
         - -1.4667714709136331e-02
         - -8.2837476478355015e-03
         - 3.8745708091786550e-03
         - -2.2107994491718318e-02
         - -7.6000743143276603e-03
         - 1.5501190612551244e-02
         - -3.0074741661101087e-03
         - 2.3752517079935306e-02
         - -8.1069980835093806e-03
         - 4.6114118757865034e-03
         - -4.2448913542267892e-03
         - 7.9467751420514311e-03
         - 1.2518091539633128e-02
         - -4.0155473563447660e-04
         - 1.7503476920030448e-02
         - 1.6485157213814904e-02
         - 6.4925125630382852e-04
         - -1.6329188347847832e-02
         - -4.8793893446216850e-03
         - -9.7117254056107855e-03
         - 1.6149767530697495e-02
         - 7.0577246558986119e-03
         - 7.8386665041104142e-03
         - -7.3545531165699982e-03
         - -3.0741699685376585e-04
         - -8.3616604166817775e-03
         - -1.1131701139340500e-02
         - 1.0946361230385225e-02
         - 1.1360442306543726e-02
         - -3.5437347766122608e-03
         - -9.8962718764912050e-04
         - 1.0997737851871531e-04
         - -1.1282062012567259e-02
         - -1.7462822628595279e-02
         - -7.5358276948168127e-03
         - -7.6801949280160499e-03
         - 8.4883814944527666e-03
         - -2.0199385041033031e-03
         - 3.2894576222832162e-03
         - 6.5408244824824574e-03
         - -3.8234471310357753e-03
         - -7.7941415082539208e-03
         - 2.2680851387457358e-03
         - -8.7917086567883395e-03
         - 1.2146262914020307e-02
         - 1.1898423595481529e-02
         - 3.4137971169953421e-04
         - -2.9403150173525237e-03
         - 6.1273142364769726e-03
         - -2.3251740558807971e-03
         - 9.6276503338456028e-04
         - -7.8770273875493537e-03
         - 1.1814325078631517e-02
         - 1.1632176394370515e-02
         - 1.1393021417165253e-02
         - 1.4471918267440544e-04
         - -1.0287513123769234e-02
         - -1.8258404294029730e-02
         - -6.4601555934486622e-03
         - 5.5455513003876541e-03
         - -5.8214004084532105e-03
         - 3.1006998709163553e-03
         - -1.7301372100273090e-03
         - 7.0149853200236166e-03
         - -1.5945839495101890e-02
         - -9.1264077970413752e-03
         - -8.5772172128861894e-03
         - 1.2610749031052963e-02
         - 9.1456010049517384e-03
         - -2.1290544049243583e-02
         - -5.2218056928730518e-03
         - -1.0643690462205114e-02
         - -6.5223149766722817e-03
         - -1.5805351967428622e-02
         - -1.8601082768778087e-03
         - 3.6079823529047928e-04
         - 8.4998787818175818e-03
         - -6.7779600647282301e-03
         - -2.7783566292565467e-03
         - 1.0281460562181868e-02
         - -7.2731286760467232e-03
         - 2.9180513384837034e-04
         - -3.3095831748111309e-03
         - -1.0436322121212542e-03
         - -2.7735837317035186e-03
         - -1.6855609464558552e-02
         - 1.0000354008647010e-02
         - 4.7186158880229484e-03
         - -4.3164858817841259e-03
         - 1.7351889872783535e-02
         - 3.6867636632597739e-03
         - -1.2884030315906776e-02
         - -3.4810871976107974e-03
         - 2.2936799997413898e-03
         - 7.3587205239064929e-03
         - 2.0663219063299310e-02
         - 1.1887050461233367e-03
         - 4.0306511323486803e-03
         - 7.5259948944856082e-03
         - 5.9175493235912903e-03
         - -4.7066451870002154e-03
         - 1.0186153856270887e-02
         - -9.1237499377317312e-03
         - -1.2271718928813668e-02
         - -1.2004367804934802e-03
         - -3.1957102826418152e-04
         - -1.1821877590726285e-02
         - -6.0374910125471932e-03
         - -6.0718814720572712e-03
         - 8.9081900605553314e-03
         - 2.0809641445070871e-03
         - 9.6892311892603257e-03
         - 1.6615341157883788e-02
         - 1.8778141610561253e-02
         - 2.1863534870647666e-02
         - 1.7344381179309299e-02
         - 1.7130064586298908e-03
         - -7.4938869439799115e-03
         - -1.0119310764815070e-02
         - -1.0071444885293641e-02
         - 4.4606197555470189e-03
         - 7.8118664694874253e-04
         - 1.1935189544096324e-02
         - 6.3808349703965385e-03
         - 2.5763110220973925e-03
         - 2.3104155561290353e-03
         - -1.0305647220929836e-02
         - -1.1542535346454215e-03
         - 9.2646190666960306e-03
         - 1.9235361921547244e-02
         - 2.3020487788394063e-03
         - -2.5826036226258373e-03
         - -8.2685833556143170e-03
         - -1.5901728792016859e-02
         - -3.7223825540124026e-03
         - -3.7681323315152298e-03
         - 1.5577748857050735e-02
         - 2.1469620066419180e-03
         - 1.2102597776351648e-03
         - -7.3534251736332244e-03
         - -4.9181930527070353e-03
         - -9.6808211124302396e-03
         - -5.2918434181305329e-03
         - -5.2330322698460460e-03
         - 1.1617081738206398e-02
         - 1.1289967404647034e-02
         - 7.3292044188690312e-03
         - 1.6128451841019547e-03
         - 1.4005362735165174e-02
         - 3.2962958295477351e-03
         - 6.4512578909286470e-03
         - -2.8709713693404726e-03
         - 5.6005266953064597e-03
         - 6.1415273262769993e-03
         - 6.9886935299280440e-03
         - -4.6198457339682395e-03
         - -7.6961258736122050e-03
         - -1.2992227398568463e-02
         - 1.0876634220123469e-02
         - 1.0806005085860266e-02
         - 7.5421536921621212e-03
         - 9.5519281722325558e-03
         - 5.2972403942086995e-03
         - -3.1713767548351979e-03
         - 1.6707895028420417e-04
         - -1.0306368787811063e-02
         - -1.2531177040525197e-02
         - 9.9591605836128281e-03
         - 3.3123170060721406e-03
         - -4.6747841091631832e-03
         - 3.7836807698939604e-03
         - -9.0057924588264598e-03
         - -1.0123753979230910e-03
         - -6.9150755088028346e-03
         - -8.4201226726374531e-03
         - 1.1007955648698621e-02
         - -4.7543300797366524e-03
         - -2.5590117796494660e-03
         - -1.5670769353349701e-02
         - 5.3664745290064727e-03
         - -1.1941016425958857e-03
         - -3.3481526528973881e-03
         - 6.3256094554159439e-03
         - -4.5882008976723711e-03
         - 1.0708953419592203e-02
         - -4.1069904127064120e-03
         - 9.8073318995662694e-03
         - 1.0802072512676092e-02
         - 5.2241876513427783e-03
         - -1.7237888649069903e-05
         - 2.7762084089140967e-03
         - -1.3752661564174732e-02
         - -4.7869639523780141e-03
         - -2.0254786249266784e-03
         - 4.5119421276165993e-03
         - 2.8359836484861734e-03
         - 1.7699867662193100e-02
         - -9.6761609913429223e-03
         - 5.0721531356735638e-03
         - -8.9551907026307973e-03
         - -6.3725467240830806e-03
         - -8.8773340342256015e-04
         - -6.3940837580109882e-03
         - 3.0423493564744998e-03
         - -1.1179915925848927e-02
         - -2.0849120400579881e-02
         - -6.6243112527284353e-03
         - -1.6773477673080791e-03
         - -2.8397682590470051e-03
         - 5.4018227513990009e-03
         - -1.5045662513230166e-03
         - -6.3546248602992872e-03
         - 6.3813777068326468e-03
         - 7.3934359317957832e-04
         - -4.4026334237685467e-03
         - -6.8441799487735161e-03
         - 1.0225298673000746e-02
         - -1.0515538072749153e-03
         - 5.6306426472957239e-03
         - -1.5195138785524028e-02
         - -1.1642255154453687e-02
         - 1.0440097875217146e-02
         - 1.1556594661131753e-02
         - -6.3427596011093167e-03
         - -2.4392768424832071e-02
         - 1.2953647263390907e-03
         - 1.2586756029896574e-02
         - -9.2774231091621254e-03
         - 1.0497262464797090e-03
         - -1.2494337468936821e-02
         - -4.1509471115577252e-03
         - -4.7419311920189307e-03
         - -5.0138734994395083e-04
         - 6.7449300201177292e-03
         - 1.5143629539257200e-02
         - -1.4955069372112847e-02
         - -7.0341931500992917e-03
         - -1.9141225686607418e-02
         - 1.6604929383490917e-02
         - 1.8069910098139897e-02
         - 3.2783957955584476e-03
         - 8.1903792941792411e-03
         - 1.8895815201149701e-02
         - -8.1985524008601571e-03
         - 1.4251447670453222e-03
         - -6.0525561905467266e-03
         - 1.2146743632408008e-02
         - -1.9083968909752919e-02
         - -1.6079167800932225e-02
         - -1.4143138874886264e-02
         - -6.0389527035950635e-03
         - 1.4098529911820834e-02
         - 9.5171512639712595e-03
         - 9.7285073909010296e-04
         - 5.3141213182349139e-03
         - 1.1287211763111331e-02
         - -1.0240349245910364e-02
         - 1.3728707522336471e-02
         - 5.5875163833179805e-03
         - -1.1855393616826436e-02
         - -3.5662514486276050e-03
         - -5.8291526938057409e-03
         - -1.7151980921984500e-02
         - -1.4144931314207722e-02
         - -1.4557800049350738e-02
         - 4.4763120862368602e-03
         - 2.1834864101888299e-02
         - 7.6273801822252432e-03
         - -9.4495105171561802e-03
         - -1.6272769058638847e-02
         - 1.0777623926258152e-02
         - 4.2563168930474538e-04
         - 3.0451828870801537e-03
         - 1.7466186846923849e-02
         - -2.1811371673514965e-03
         - -9.2947947935940606e-03
         - -1.7196667476265478e-03
         - -2.0611914252316806e-03
         - 9.9954322131988243e-04
         - -1.8102243975168297e-02
         - -1.3346511389098549e-02
         - 3.5901724731207487e-03
         - 5.5026075901550078e-05
         - 1.6304810670435658e-02
         - -7.0322966518044094e-03
         - 1.1957919867231889e-03
         - -5.3466609065078016e-03
         - -1.3873098400327549e-02
         - -9.5298715121821115e-03
         - 1.2564395209157472e-03
         - -1.0602151367131328e-02
         - -1.1689224505551533e-02
         - 1.8163788164677789e-02
         - -1.4094934174544913e-03
         - -5.7839655422623395e-03
         - -1.3530794156656889e-02
         - 1.5295917063821725e-02
         - 1.1471625134967394e-02
         - 2.7382833656106158e-03
         - 4.1842227713019915e-03
         - 6.8643356119464233e-03
         - -6.5091277937974271e-03
         - -1.7326251962888013e-02
         - -1.1175592251320952e-02
         - -1.2750683491907113e-02
         - -4.3914251548393592e-03
         - 5.5898405321609702e-03
         - 2.8269013749424848e-03
         - -3.3026072688505368e-03
         - -1.2160621670074192e-02
         - -3.5001144847926114e-03
         - 1.0921668743104873e-02
         - -9.3157353640525090e-03
         - -6.3643730326933181e-03
         - 2.1687833280830685e-02
         - 1.2795409891989292e-02
         - 1.1178046841443978e-02
         - -3.2445235845769819e-03
         - -1.8232765312172904e-02
         - -6.1509333251481306e-03
         - 2.6657708462484047e-03
         - 1.4581682624107674e-02
         - -5.8819646775026824e-04
         - 2.0827446911875639e-04
         - 9.6751360311909604e-03
         - -9.6944189747697647e-03
         - -8.9960467526624538e-03
         - -1.8205441271809574e-02
         - 1.7596894196365009e-02
         - 2.1432270839346828e-02
         - -1.5674977199956183e-02
         - -3.9582453640008746e-03
         - 6.9754976504996149e-03
         - -3.1809522495893990e-03
         - -1.3408979676175993e-02
         - -1.1625786781400796e-02
         - 4.0365716227844508e-03
         - 5.8622691620278918e-03
         - 8.9650399764491517e-03
         - 2.4002300006065805e-03
         - -1.8995574269000445e-02
         - -5.4806501354402017e-03
         - 1.1211775738574497e-02
         - -2.5982704908453342e-03
         - 1.0046081248884196e-02
         - 1.8899619148878884e-02
         - 7.6652211045761505e-03
         - -5.4843647915045371e-04
         - -4.7408433723744901e-04
         - -1.4024991929391864e-02
         - -6.1957786713609277e-03
         - 5.6373756390298304e-04
         - -1.2130365537809191e-03
         - 1.9769809950004553e-02
         - -1.3427744487488343e-02
         - -8.9764907218948496e-03
         - 6.0911439124995310e-03
         - -5.2629637397485331e-03
         - -7.6990566497803616e-03
         - -5.1109052678699179e-03
         - 4.4731872476152955e-03
         - 5.8157231060697425e-03
         - 1.6801550640870564e-03
         - 1.0422014634388948e-02
         - -2.7147285619790504e-02
         - -1.6209345786132558e-02
         - -3.5767881704768197e-03
         - 2.3007707228482485e-02
         - -1.7798133345580198e-03
         - -7.8473496571940336e-03
         - -4.8328553734739380e-03
         - 1.3584759881846301e-03
         - 4.8558426947596005e-03
         - -1.4408926142907891e-02
         - -2.1043276994414158e-03
         - -4.0681125552562954e-03
         - 1.1829810607063259e-02
         - -2.2586619132357180e-02
         - -3.9152799542888474e-03
         - 2.6894984999924671e-02
         - -7.3255724728978049e-03
         - -1.0195570923079621e-02
         - 1.1962074385175464e-03
         - 7.3422568579440649e-03
         - 3.6244456029096992e-03
         - -1.5951155293262197e-02
         - 1.0354625559923248e-02
         - -2.3290652593387345e-03
         - 5.4676544331574073e-03
         - 7.4810450293348527e-03
         - 1.1848328888560328e-02
         - 4.0255419619294255e-03
         - 9.5383136739465631e-03
         - 1.5016803880551278e-02
         - 1.7219049661188144e-04
         - 1.6981612382069119e-02
         - 2.1793546204331254e-02
         - 6.9588902268841952e-03
         - -1.0148368640415200e-02
         - -3.7521344136714802e-03
         - 1.9309577077578929e-03
         - -2.6088531849957847e-03
         - -2.6260664459262936e-02
         - -2.6000795467255493e-03
         - -9.4904494448528921e-03
         - -1.4497730882197645e-02
         - -7.0702293836287346e-03
         - 9.0688399161976720e-03
         - -1.2399234065630412e-03
         - 1.0915936799889212e-03
         - -4.5699777594047251e-03
         - -1.4426388896267805e-02
         - 1.3487563328974784e-02
         - 6.4856581390529099e-03
         - 3.5966829627369066e-03
         - -1.8406284122844661e-03
         - 9.3161663856314372e-03
         - 5.9888210245176189e-03
         - 4.6670467846174849e-03
         - 4.8977475720416164e-03
         - -1.9246190320782539e-02
         - -5.8673294540745663e-03
         - -6.5240136223279292e-03
         - 5.5650658336944461e-03
         - 1.0516333047542681e-02
         - 5.0186945566217268e-03
         - 1.0764576545476223e-02
         - 2.9396751896481675e-03
         - 3.3190541535907756e-03
         - 1.6949660909783400e-02
         - 2.1207545158613578e-03
         - 5.8963826573782728e-03
         - -4.7994953449499072e-04
         - 5.6487851213977676e-03
         - 1.2894339891656500e-02
         - 9.0497006723664047e-03
         - 9.1685304233140533e-04
         - 2.6934856960000868e-03
         - 6.6459764127482059e-03
         - 1.0448566060531701e-03
         - -7.5991458142444157e-03
         - -3.1814743017196724e-03
         - 4.1747561714533884e-04
         - -2.4992795999528843e-03
         - -9.5915970431710556e-03
         - 5.6946379534397159e-03
         - 1.4691834052289906e-02
         - 2.2207723973760566e-04
         - -6.2115966102637326e-03
         - -5.8685141149280263e-03
         - -6.0879888825554895e-03
         - 6.5353560669892110e-03
         - -1.1275407706547017e-02
         - 8.8382194397992383e-03
         - -1.0711928089287925e-02
         - -5.9298710222429243e-03
         - 1.5314441879372101e-02
         - 5.3701024773976638e-03
         - -1.0419941062126203e-05
         - 4.9995493806070396e-03
         - 6.8255150017987728e-03
         - 3.0281712194972984e-03
         - 4.3886295550160355e-03
         - -1.4021676625069141e-02
         - -4.1585515495971299e-03
         - 1.3089103892913493e-02
         - -6.4559715998605636e-03
         - -4.9097911352771282e-03
         - -8.1688401354570572e-03
         - 1.4867118573216306e-02
         - 1.5671540763921065e-03
         - 6.7395944449243680e-03
         - 4.9546390056228306e-03
         - -7.7556686943560803e-04
         - 1.3022329546070190e-03
         - 8.9370119600387186e-03
         - -2.4618084903913194e-03
         - 4.6984603457879172e-03
         - -1.5836915461104023e-03
         - -2.0104979836361014e-03
         - -5.3086831663581554e-03
         - -1.9077503745033289e-04
         - 1.3885069387562805e-03
         - -1.0686864339112240e-04
         - 6.1875643583389935e-03
         - 1.2857834718487749e-03
         - -4.2748430642806992e-03
         - 2.9494855075472902e-03
         - 8.7827109609115266e-03
         - -2.3638361929400737e-02
         - -1.6389562670106185e-03
         - -6.3419818292204840e-03
         - 4.6909839617326268e-03
         - -4.2813901091420369e-03
         - -2.6389473295237212e-03
         - -9.0502626998569344e-03
         - 1.0285801932982001e-02
         - 6.6147368522765119e-04
         - 6.4521457683449860e-03
         - -1.4251629032377033e-02
         - 1.1731329607247756e-02
         - 1.5271959154984438e-03
         - -4.9970128318236676e-03
         - 6.5502598709961824e-03
         - 1.6297311364620454e-02
         - -1.5022893108276172e-02
         - 5.4552155175958787e-03
         - 4.2320443459805740e-03
         - -8.1633124457394898e-04
         - -1.2909199338400510e-03
         - 4.3671442488212361e-03
         - -1.2575876681501457e-02
         - -8.7032364773703373e-03
         - -1.4366121698214104e-02
         - 8.3041433286882068e-03
         - -3.5614343128643634e-03
         - 1.4578706067246322e-02
         - -2.0765366278102547e-03
         - 1.9751068812751873e-03
         - -5.0305415565471967e-03
         - 7.5593234742242655e-03
         - 9.1393719737991944e-03
         - 1.0303533432775163e-02
         - -4.4190797796030377e-03
         - -1.2581134062446141e-03
         - 6.5540119303469039e-03
         - -7.6848033948781012e-03
         - 9.5821065632014802e-03
         - -1.8752042447968669e-02
         - 4.2985468241378312e-03
         - -5.9843696656320753e-03
         - 9.0028879937806162e-03
         - 2.6269641331952056e-02
         - 6.4231863560120454e-03
         - -9.8489712495051802e-03
         - 8.7488276939255913e-03
         - -7.7058169392265827e-03
         - 2.0388731911857406e-02
         - -3.3407481943518967e-03
         - -1.4920237655943877e-02
         - 1.0523207251154684e-03
         - -9.9667604860912123e-03
         - -1.8873255567767078e-02
         - 2.3557242424747386e-02
         - 7.1875929787729087e-03
         - 1.2588608607597598e-03
         - -1.2127295573812631e-02
         - -2.4521204579931134e-03
         - 8.4828372285964924e-03
         - 2.0361383770483572e-03
         - 5.7572363566815643e-03
         - -1.9159277689305067e-02
         - -5.0470918800061592e-03
         - -1.0881836809654355e-02
         - -8.0844504986605017e-03
         - -1.7756436289119909e-02
         - 1.4906463312985665e-02
         - -6.8258109429452452e-03
         - -1.1584378432070679e-02
         - -1.3098060231569470e-02
         - 8.4146764674431444e-03
         - -7.3641360391753169e-03
         - 2.8294702172912503e-03
         - 3.0494572180069089e-02
         - -3.0726738441828969e-03
         - -3.0218715091296392e-03
         - -1.7550887673877698e-03
         - 6.8653596577959598e-03
         - 1.0337393688609663e-02
         - 1.6354052918673079e-02
         - 2.7398807998578571e-03
         - -5.0466294494731674e-03
         - 1.2611590068436639e-03
         - -1.7787579527730164e-04
         - -1.9453693586179432e-02
         - -3.8509516603565171e-04
         - 4.4572027683101130e-03
         - -1.9567702187738145e-04
         - 7.7230594735221078e-03
         - 1.4615472195591389e-02
         - 2.2069972440800740e-02
         - 5.1125946173006722e-03
         - -1.1251757199820776e-02
         - 1.1800539433456854e-02
         - 5.6135943257855699e-03
         - -1.6589643842680617e-02
         - 9.5177388206466162e-03
         - -3.7720698371785078e-03
         - -1.0693620979225910e-02
         - 2.8925059378480224e-03
         - 4.0828796661011258e-03
         - 1.7731940656548290e-02
         - -7.9820811977204219e-03
         - 1.3836195541473894e-02
         - -1.9852128304469908e-02
         - 2.7096842183297071e-02
         - 1.7656380956262699e-03
         - -1.6491239809279520e-02
         - -8.7670165988623146e-03
         - 1.2931656834490076e-02
         - -1.0809927167150530e-02
         - -1.2998923665946304e-02
         - -4.0300238520960333e-03
         - 1.3017685069112587e-02
         - -2.3050198939769430e-02
         - -3.4195046406945854e-03
         - 1.4597034122990271e-02
         - 1.2450473927122991e-02
         - 4.4967175032113969e-03
         - -2.7350726139480051e-02
         - -3.9791527433111051e-03
         - -3.1806798338747163e-03
         - 6.3555606847395313e-03
         - -8.2669692458583084e-03
         - -1.0068791702448600e-02
         - -2.6604296737184390e-04
         - -1.7207793409979699e-03
         - -1.1854952380247290e-02
         - -1.6778162880005328e-02
         - -5.9087177778164380e-03
         - 1.4540250765629798e-02
         - 1.4847096033141830e-02
         - 1.0373077659253112e-02
         - -6.0318750945771516e-03
         - -1.4870606574896259e-02
         - 5.8364900508928860e-03
         - 3.1310774775380515e-03
         - 1.3396168187710325e-02
         - -1.5345634911973501e-02
         - -1.3230377299274430e-02
         - -1.0882762798530671e-02
         - -1.9039796142764037e-03
         - 1.7186642890160177e-02
         - -1.3166615878688365e-02
         - -5.5523758679712105e-03
         - -2.3414003511648207e-03
         - -1.5703972336078550e-02
         - 7.7621038882048042e-03
         - 2.3621628635885146e-03
         - 5.6944978882538218e-03
         - 5.6537769926322777e-03
         - 1.0242773619093181e-03
         - -9.0647328909972662e-03
         - 2.3914638705776511e-03
         - 8.9934391416156521e-03
         - -8.9961348088897879e-03
         - -1.6189767127084136e-02
         - 6.7113749588233675e-04
         - 8.5031094562869531e-04
         - -1.0524392581477695e-02
         - 9.7185852273216165e-03
         - -2.1885453045941659e-02
         - -5.0168473069589015e-04
         - -1.0078884371692033e-02
         - 1.1457590764753788e-02
         - 7.3739812073916472e-03
         - -5.2739026013119018e-03
         - 2.1417278917661093e-03
         - -1.0627023200892309e-02
         - -1.1849927157992402e-02
         - -8.2804739297970265e-04
         - 3.7812286452355657e-03
         - -4.1468050798821147e-03
         - 2.1593514316959272e-02
         - -1.6091411761774263e-03
         - -7.1720007048951383e-03
         - 1.4802276505798585e-02
         - 3.2278297435277053e-03
         - -2.7391369856241900e-03
         - -8.2891782861355817e-03
         - 7.8593193973263021e-03
         - -7.1908326804164856e-03
         - 5.9126659434755174e-03
         - 2.4485862681903996e-03
         - -6.9364153048470951e-03
         - -4.6945705887066654e-03
         - 1.5062442930855196e-02
         - 4.4151936695663073e-03
         - 4.9804075618646256e-04
         - -1.0458291279913741e-02
         - 1.7756592888507765e-02
         - -3.9844459168612159e-03
         - -7.9299684254834565e-03
         - 1.2674365184708301e-02
         - -1.9680122341545468e-03
         - -1.1897769724026524e-02
         - -5.2442343618569877e-04
         - -5.5444409532149656e-03
         - -1.4204890736755160e-02
         - 1.0055401787433527e-02
         - 8.2657121197747263e-03
         - 1.0232537648530561e-03
         - -7.2313668761930334e-03
         - 1.3848294766107764e-03
         - -1.2867255255595274e-03
         - 1.3593004268521166e-02
         - 1.0847991313034842e-02
         - -1.1075179938899542e-02
         - -8.9834021347493537e-03
         - 8.2025214401709456e-03
         - -9.7328914840042278e-03
         - -1.1997040633076576e-02
         - 2.3400343739687856e-03
         - 1.9364815762564779e-02
         - -2.5305281657388750e-02
         - 1.8709823921101622e-02
         - 1.2385160120446837e-03
         - -1.0336082331163328e-02
         - 4.5905492841443237e-03
         - -2.5911614475463918e-02
         - 4.4773146211523531e-03
         - 1.0158093088274438e-02
         - 1.3085071317260404e-02
         - 7.6045234351130924e-03
         - 6.1982121144512541e-04
         - 1.3012877429039100e-02
         - -3.7023060383555169e-03
         - -6.8833831852801045e-03
         - -3.2720102704887049e-03
         - -1.2865308055834839e-02
         - 6.5571025375906963e-03
         - 3.1018433375202166e-03
         - 1.7301751416392747e-02
         - -1.1783430037004376e-03
         - -5.3668974419665127e-03
         - 6.4111409543470017e-03
         - -2.8200848878307122e-03
         - -5.4542167076929108e-03
         - -6.5595660291521262e-04
         - -1.1642356577080076e-02
         - 1.7318796777413819e-03
         - 5.2108891508216779e-03
         - 3.1927165415023919e-03
         - -8.3120918662849801e-03
         - -3.5337360880586489e-03
         - -7.5078365523559192e-03
         - -6.9545989247362505e-03
         - -1.2110081853583110e-02
         - 1.1388298039381550e-02
         - -3.5587302478678655e-03
         - 9.0907000001353745e-03
         - -1.1757317703041692e-02
         - -1.2099306554846456e-02
         - -6.8657151262628644e-03
         - 1.3639468464635453e-02
         - 4.0521081888456193e-03
         - 8.6575973130510204e-03
         - -1.8007695412116647e-02
         - 3.4409084010562324e-03
         - -2.2531856738432724e-03
         - -1.7560503531687409e-03
         - 1.2134585047793016e-02
         - 2.6204283377791039e-03
         - -4.7223935074146087e-03
         - 7.5469067660907854e-03
         - 2.3503774188802967e-04
         - -5.9660410198383981e-04
         - -4.1477394095604828e-04
         - -3.6007813080086953e-03
         - 4.4941108392045218e-03
         - 1.0720654095628342e-02
         - -2.3229871957658669e-03
         - -3.9253719932674236e-03
         - 3.2655895185789456e-03
         - -1.2082553563339220e-02
         - -6.3041890675625770e-03
         - 1.0596180966669489e-02
         - 1.9050984061433462e-02
         - 6.8578547194515166e-03
         - -1.1031981022531325e-02
         - 3.9526021045432182e-03
         - -5.2494863816834039e-03
         - 6.7890959387347594e-03
         - 2.2993945722823435e-04
         - -8.8317828852259028e-03
         - 8.6307305228206736e-03
         - -1.8885938723618378e-04
         - -2.5376751715227761e-03
         - -1.0227989467009769e-02
         - -6.4765225826130361e-03
         - -3.9302021714973188e-03
         - -3.1246490557518573e-03
         - 1.3087205387577013e-02
         - -3.0638308293290026e-03
         - 2.4623701782058955e-03
         - -1.1219781508449617e-02
         - 7.4187926761012726e-03
         - -7.9847409748125681e-03
         - -3.8791345465421807e-03
         - 7.1155846684140354e-03
         - -5.4003011016641456e-03
         - -4.8488887975204282e-03
         - 6.8634050919553109e-03
         - 1.6482234213547713e-03
         - 2.9700453652029488e-03
         - 2.6029277872575982e-03
         - 6.8877509313863966e-03
         - 7.6532510977446863e-03
         - 4.7565694063738872e-03
         - -3.6497088199486695e-03
         - -7.9854468622290505e-03
         - 1.7067707941396610e-03
         - -8.9414201681199124e-03
         - -5.4548571090949566e-03
         - -2.4019310923972189e-02
         - -7.4887429932092133e-03
         - 4.1718615617114879e-03
         - 7.0546688800171807e-03
         - 1.3899262973934108e-03
         - -1.4051101508971589e-02
         - -2.8793191536246776e-03
         - 2.8429746881483324e-03
         - 1.2734168213120695e-02
         - 5.2830706034369965e-03
         - 1.5502101250037602e-03
         - -1.2710508746339836e-02
         - 4.8987410767698143e-03
         - 1.5821732546731974e-02
         - 1.1271437928703641e-02
         - 1.2616290095027544e-02
         - -1.6940036101775770e-02
         - -9.7450066764624386e-03
         - -1.2684850245702910e-02
         - 1.0627993682549601e-02
         - 4.2431622562318456e-03
         - -1.2726873730725268e-02
         - 5.1918737962681439e-03
         - -3.3514407245457210e-03
         - 3.8279339857207029e-03
         - 1.6784725633116077e-02
         - -1.5344879842836790e-03
         - -1.3035794505207024e-02
         - -1.2686246125212523e-02
         - 1.7716494464352736e-02
         - 9.8295355212913247e-03
         - 4.1993061397225537e-03
         - 7.2125405357164761e-04
         - 7.9869887195375133e-03
         - -1.7640116237427315e-03
         - -4.5576986537438366e-03
         - -7.8296781197951994e-03
         - 1.0226350519649388e-02
         - 1.4218348367502583e-02
         - 4.5360949088260713e-04
         - -4.1307082854133695e-03
         - 2.9520062120309189e-03
         - 4.0755202546105887e-03
         - 2.2321896506695298e-02
         - -1.0222197873758977e-02
         - 7.4466024959059154e-03
         - 3.4106306663037175e-03
         - 9.6168312861546392e-03
         - -5.7516933567539402e-03
         - 1.2740464806014278e-02
         - -2.1602537974693411e-02
         - -1.0823305286431318e-02
         - 1.2979365758096200e-02
         - 1.3638627796852432e-02
         - 7.9010456170281549e-03
         - -3.1370271672067507e-03
         - -3.0344661016568747e-03
         - -1.1491078466182676e-03
         - 4.9306424689303805e-03
         - -2.3414024478070967e-02
         - 1.4799060624856374e-02
         - 1.5744050018573607e-02
         - -1.1623113884258157e-02
         - -4.7239052491999788e-03
         - -5.0407259079289354e-03
         - 5.0768980066780729e-03
         - -1.0925912480495830e-02
         - 1.3174548410728657e-02
         - -6.7966720691160117e-03
         - -1.0065706160485270e-02
         - 8.3888898131411257e-03
         - -3.9744139966213347e-04
         - -7.5371940692994443e-03
         - 1.7677982688454890e-03
         - 8.4422973869839810e-03
         - 4.0574037585068765e-03
         - 2.7494231303226055e-03
         - 1.6500601518765826e-03
         - -6.5203342714027701e-03
         - 1.4248137724233122e-02
         - -5.8627019699837154e-03
         - 1.7450165795493792e-02
         - 1.1124950524822052e-03
         - -1.5985200964192463e-03
         - 2.9899546200439905e-03
         - -1.5513949304944562e-02
         - 1.5409215292270966e-03
         - 7.8140514130071951e-03
         - -1.3853580235702076e-03
         - -7.2197216407374840e-03
         - 1.5650088655810028e-03
         - -1.1834131959324567e-02
         - -1.4434944849666995e-02
         - -3.1187428382542831e-03
         - 4.6193815245318143e-04
         - 6.4313899194322057e-03
         - 3.0493401994088334e-03
         - -2.1961902551226793e-03
         - 6.3574984332597393e-03
         - -1.1137110800040758e-02
         - 2.7654494923138744e-02
         - -3.6904081594847535e-04
         - 4.0042041780890564e-03
         - 1.1321031128741889e-02
         - -8.9437307239240392e-03
         - 6.8725905663296573e-03
         - 6.7494237238839702e-03
         - -1.4941231899422534e-02
         - -5.7101324822245742e-03
         - -3.0621399276191388e-03
         - -1.1969997522569083e-02
         - -3.7448266786484666e-03
         - 5.0733208379116395e-03
         - 7.3029554035994862e-03
         - 2.7464319831854836e-02
         - 1.8335020478275686e-03
         - -1.1214411767787740e-02
         - -1.9550904997238650e-02
         - 6.6111672783091954e-03
         - 3.6260739146499578e-03
         - -7.1135181289999194e-03
         - 4.1969229994270668e-03
         - -5.0060980166026104e-03
         - -3.1587456367851045e-04
         - -7.7145278450707830e-03
         - 7.5930020770282602e-03
         - 2.6001883501767419e-02
         - 9.0809648839182168e-03
         - -1.0200447734649875e-02
         - 1.2215599255662554e-02
         - 2.5531202211699831e-02
         - 1.2276547605794188e-02
         - -8.8760176001082183e-03
         - -1.7871952067767382e-02
         - 6.7923494797586812e-03
         - 1.7660742467578026e-03
         - 4.2903042588466438e-03
         - 2.3019740666868575e-02
         - -6.0727890084766759e-05
         - 1.8045412306883690e-03
         - -1.9044842313863546e-03
         - -1.1038704604785437e-02
         - 2.3730183320971401e-02
         - 5.9645169201369191e-04
         - -4.2203557321790434e-03
         - 1.3345809438491210e-02
         - 1.0006481122094412e-02
         - 1.6522659592399919e-02
         - 3.8994766961427093e-03
         - -5.5132078082062623e-03
         - -1.4361827965036912e-02
         - -2.7749431123770137e-03
         - -1.0691429316265823e-02
         - 7.7088878532787265e-03
         - 1.4169779717082940e-02
         - -5.4288688677346340e-03
         - 5.6234225712968157e-03
         - 1.2219257494221400e-03
         - 3.8419443316384185e-03
         - -3.6901235531005071e-02
         - 2.7147054268022490e-02
         - 1.0909301607014492e-02
         - -3.7596424871787792e-03
         - -7.8389276432036525e-03
         - -1.4858232442881249e-03
         - 1.2332267909711696e-02
         - 2.8613020562704892e-03
         - -8.1528395128896024e-04
         - 2.3830592202655626e-02
         - 3.8230808282946588e-02
         - 1.3691224439647805e-03
         - 1.7177673881350955e-02
         - -2.2301663350364154e-02
         - 1.4368407180879408e-02
         - -4.5441091756656705e-03
         - -2.5737541474067510e-02
         - 1.0006340327078920e-02
         - 1.6585321752121789e-02
         - 6.6637244911558965e-03
         - 3.5219415175412371e-03
         - -7.0478472800460633e-05
         - 2.7942498433003914e-02
         - -1.5966369607435478e-02
         - 1.0240240531957202e-02
         - 7.2347873723918304e-03
         - -2.9274170563006543e-02
         - -4.7969902235626355e-03
         - 2.3112543667787419e-03
         - 6.0032324953638704e-03
         - -3.6495597915462519e-03
         - 8.0481566681893258e-03
         - -2.3321382947185415e-02
         - -4.6437861866038795e-03
         - -1.0452517647241517e-02
         - 3.1883987009574256e-03
         - -6.5352166094480987e-03
         - 5.5326163573382776e-03
         - -1.0748070769433342e-02
         - 2.1313718188913245e-02
         - -2.1279096510933076e-03
         - 8.3310299767281725e-03
         - -4.4599434065767506e-03
         - 1.7347058764082473e-02
         - 2.0496676553494755e-02
         - -3.6759629498108837e-03
         - -8.3800760783464042e-03
         - -4.7639496862045411e-03
         - 6.3350774606491540e-03
         - -1.6025749375372836e-02
         - -1.9379822551032731e-02
         - -2.6356436754495314e-03
         - -3.5800426474666804e-03
         - 2.5943696972259133e-02
         - 2.1661560472087120e-03
         - 1.8607626748585515e-02
         - -8.7758627512266527e-03
         - 9.1723476244583921e-03
         - 1.8795445018867610e-02
         - -7.6145788754953473e-04
         - 5.7471506976290989e-03
         - 6.6975179995784019e-03
         - 4.2109943261446434e-03
         - -1.6243004902906908e-03
         - -4.7738703833721590e-03
         - -2.9889213445416604e-02
         - 3.1298411712106827e-03
         - 4.7972765284126016e-04
         - 7.3942698844252294e-03
         - 2.1036249424944340e-02
         - 1.8988725866739959e-02
         - -1.0047565950553342e-02
         - -2.4963964467479831e-04
         - -8.8153758881992191e-04
         - 1.8549574872761251e-02
         - -2.4449034611431025e-02
         - -2.1192671146218187e-02
         - -1.9160491273876312e-02
         - 5.4167767868472105e-03
         - -1.8815213429370505e-02
         - 2.3189350333085144e-02
         - 1.2795907931618875e-03
         - 8.3080359309494443e-03
         - -9.8802770078134381e-04
         - -9.6456470374311366e-03
         - -1.2070133596349966e-02
         - 2.2136463646717768e-03
         - -8.2492799675146201e-04
         - 4.2974856872938279e-03
         - -2.2242432518267841e-03
         - 5.9458813520947345e-03
         - -2.7525686120084703e-02
         - -1.5728036126140689e-02
         - 1.3381637466773753e-02
         - 1.0293869240785285e-02
         - -8.5818138258561202e-03
         - -1.5224696428714457e-02
         - 1.7075059374078449e-02
         - -6.3189735277905590e-03
         - -7.2495258677573171e-03
         - 1.4271157796315310e-02
         - 3.8511628386437126e-03
         - 3.6683931378626092e-03
         - 5.7651619853274268e-03
         - 5.6459167929996997e-03
         - -7.5618952725288614e-03
         - 2.0637811242728774e-02
         - 1.8890758701476495e-02
         - 2.2966848505288399e-03
         - 1.4291593670928554e-03
         - -2.6433668897513029e-03
         - -1.1996125055222871e-02
         - -1.9555462211978285e-02
         - -4.6611269744055231e-03
         - 2.5633246569337440e-03
         - 2.2371213118312999e-02
         - -1.0932393510040564e-02
         - 8.1567209342583574e-03
         - -2.2030327699253953e-03
         - -2.6119287102135236e-02
         - -1.3548587539718449e-05
         - 4.4944464740818034e-03
         - -1.2442634779491497e-02
         - -1.0413106555927589e-02
         - -4.6896459693561567e-04
         - -5.3123480523587759e-03
         - 2.0736073139492640e-02
         - 5.2651266617316178e-05
         - 2.1822206702817652e-02
         - -1.4086868340090299e-02
         - 2.7442243470503152e-02
         - -1.8771836070322005e-02
         - 1.8008612385987791e-02
         - -1.5674784239575967e-02
         - 3.4144302181600707e-03
         - -1.2989800064292553e-02
         - 2.3363987928723604e-02
         - -8.9611988475769722e-03
         - 1.2373009195748214e-04
         - -8.6100483795699193e-03
         - 7.3826572368160877e-04
         - -1.1825760747681689e-02
         - 3.4252941377034842e-03
         - 2.0018773958764849e-02
         - 3.8053440618820586e-02
         - 5.3723957766825762e-03
         - -9.1829966191239940e-03
         - 8.9578065170733932e-03
         - -5.9445957055399203e-03
         - 3.5755845327848580e-03
         - -1.6064663727533832e-02
         - 1.1369682126357144e-02
         - -9.0841936084048776e-03
         - 1.9857520569096260e-02
         - 1.6952606955532457e-02
         - 1.3762821696051152e-02
         - -1.2836947570273677e-02
         - 1.3807750240363607e-04
         - 1.8374026807520701e-02
         - 1.1449959379191105e-02
         - -3.3516114731325080e-03
         - 1.6210799115557650e-03
         - -6.7105270712271431e-03
         - 6.3651480744937117e-03
         - -2.0203375958537450e-02
         - -1.3425546024068345e-02
         - -1.2270574474217526e-03
         - 4.2979446780577347e-03
         - -3.4739025599650410e-03
         - 6.2984362678842184e-03
         - 1.4769615601473416e-02
         - -2.3289602252809546e-03
         - -6.1907137523510407e-04
         - 5.5078917623628413e-03
         - 5.2604645444358977e-03
         - 2.8666406147333343e-03
         - -4.6746574163910003e-03
         - -1.9881587723700442e-02
         - 6.1961213383371621e-04
         - 3.3633026320880805e-03
         - 3.5506364973269078e-03
         - -2.6174112322623379e-03
         - 1.0422320316530939e-02
         - 1.2787804836924313e-02
         - 1.0914212552301990e-04
         - -1.1487211857925006e-02
         - -7.8956727144594951e-04
         - -1.1810902236098132e-02
         - 1.7704033899549370e-02
         - 6.9831208506335686e-03
         - 7.2649048707118238e-03
         - -2.7740415368571698e-02
         - -5.4768095355598847e-03
         - 7.5758998329904746e-04
         - 1.7941004561197519e-02
         - -1.4236239553379417e-03
         - -8.4127145924758236e-03
         - 2.8835144078721304e-03
         - -5.1408071361928190e-03
         - -1.5543784689986470e-02
         - -1.5610196370548842e-03
         - -3.7025554184234267e-03
         - 6.4906762571342288e-03
         - 7.5545231045341032e-03
         - 1.4705733226087470e-02
         - -1.1093933893577539e-02
         - 9.0018249377851484e-03
         - 9.9515396766414795e-03
         - 1.5007267510303027e-02
         - 8.2499161470326928e-03
         - -3.0211355168975017e-03
         - -8.0979764764963994e-03
         - -1.4497588168648625e-02
         - -1.0930165755332467e-02
         - -9.1858082399879359e-03
         - 1.7382944758665312e-02
         - -5.7349093682433627e-03
         - 3.1562672463579062e-03
         - -6.0529122615005674e-03
         - -1.6825460703616287e-03
         - 1.5117871556071532e-02
         - -7.3545087007278621e-03
         - -9.2219959715063706e-04
         - -1.2877791749084338e-02
         - -1.1576189201061441e-03
         - -4.2676741523681831e-03
         - 9.9474216206022117e-03
         - -3.7018512707669444e-03
         - 1.7074555447243314e-02
         - -3.8727899821912223e-04
         - 1.5972120341380285e-02
         - -1.1814307967672416e-02
         - 1.1320312386421751e-02
         - -3.3709626108227938e-04
         - -1.9416255382096288e-03
         - -7.8383793506484178e-03
         - 1.0535167155134357e-02
         - 3.1230971669617125e-04
         - 2.5560407732511691e-03
         - -1.2823750716222456e-02
         - -1.6514313226100884e-02
         - -3.4832175134886486e-03
         - 5.6815020946790777e-03
         - 4.0235504478076918e-03
         - 3.7768858133514029e-02
         - -7.3858481589695289e-03
         - -6.6278379855478787e-03
         - 7.6745356787187233e-03
         - -3.2185762423304730e-04
         - -5.1057836584004548e-03
         - -1.4847862112964587e-02
         - 3.9738069222508372e-03
         - 1.1888071541481301e-02
         - 9.0490214508234558e-03
         - 1.8398464104882177e-03
         - -3.2833583376034627e-03
         - -4.2920080710726087e-03
         - -6.6756964992463275e-03
         - 5.0469836534266944e-03
         - 7.4837156534309206e-03
         - -1.8842189737739623e-03
         - -2.1698342478457391e-02
         - 2.7651411142327492e-03
         - 1.9376844993143441e-03
         - -2.7147092534296120e-03
         - 2.1075659410668173e-02
         - 6.8869685922512362e-03
         - 2.2265202317386370e-03
         - -6.6359861542259141e-03
         - -1.0941814593335682e-02
         - -1.0342098195144962e-02
         - 1.4507577138993517e-02
         - 7.0581627678830729e-04
         - -2.5225835544423085e-05
         - -9.0160259542266148e-03
         - 1.8954880814250327e-02
         - 7.3311777775206472e-03
         - 2.8732445827669411e-03
         - 1.3888497630005398e-02
         - 1.1543995603419864e-02
         - -1.3786553871953910e-02
         - 1.9391501156001731e-02
         - -7.2182003732622155e-03
         - 7.5591712295863091e-03
         - 1.2841631290689482e-02
         - -4.3141480487608602e-03
         - 1.0635476479401167e-04
         - 1.9795981029720650e-02
         - -1.0821051012638146e-02
         - 5.3436508810904412e-04
         - -8.0731114811324039e-03
         - 5.1616347204576666e-03
         - 9.1892089485399932e-04
         - -1.0418263741285081e-02
         - 2.4892624207663262e-03
         - 1.6273103187209547e-02
         - 4.2167182420994893e-03
         - -3.0169307207572335e-03
         - 1.0532416963699836e-02
         - 1.1211316322705040e-02
         - -1.6021012071207943e-02
         - -3.9710085760616158e-03
         - -5.9891391100370187e-03
         - 1.6628166691095424e-03
         - 1.1180975254823441e-02
         - -2.8742552099397163e-03
         - -1.8546062865114326e-02
         - -7.3854338591498436e-03
         - 6.1407200811092535e-04
         - 1.1459605400002976e-02
         - 1.6452352502420366e-02
         - -2.4436540645792941e-03
         - 1.0736585572021149e-02
         - -5.3478030918597498e-03
         - 1.7179142044538107e-03
         - -1.1479321295143903e-02
         - 2.4355063486889679e-03
         - 6.9033173458233352e-03
         - 1.8729905395613554e-02
         - 9.3891743485064877e-03
         - 2.8977563692309301e-02
         - -3.7865326709299674e-03
         - 2.0939084629914853e-02
         - 4.9361705909594395e-03
         - -6.3537104760890304e-03
         - 1.4723094208415519e-03
         - -9.2752262649677102e-03
         - 5.0301127788120823e-03
         - -5.5942964845440606e-03
         - 2.7523377133468717e-03
         - -4.7478329458426909e-04
         - 1.8325181251278980e-02
         - -2.9612157085833310e-03
         - 2.2763889586653284e-02
         - -6.7835418823351404e-03
         - -2.9681398816227495e-03
         - -9.9981126156764143e-03
         - 5.1662570033560095e-03
         - -1.3294396641325996e-02
         - -5.7174316120655010e-03
         - -4.6931281359549968e-03
         - -2.3490317907191695e-03
         - -6.5821556157219215e-03
         - -4.4674461481106322e-03
         - -1.0673794810727052e-02
         - -1.0837896062620084e-02
         - -2.0075017305926673e-02
         - -1.6937222872448678e-03
         - 7.4112296835079413e-03
         - 3.5504686794519558e-03
         - 2.0146624577868669e-05
         - -3.5549222582249014e-03
         - -2.4106018915985520e-03
         - 1.3467138734153188e-03
         - -1.0033793305688011e-02
         - 1.9194566147836007e-02
         - 3.4296972518218860e-03
         - -7.8076620004641618e-04
         - -2.7061451718850205e-02
         - 5.1060752444299440e-03
         - 9.8246579754932405e-03
         - 1.1580413694894506e-02
         - 7.1540627272941096e-03
         - -1.7580392602082013e-02
         - 2.2852840313133765e-02
         - 2.0012784088478727e-03
         - 3.7093137441682089e-03
         - 6.4293196755186004e-03
         - 5.2683173653762117e-03
         - 6.3903576970508530e-03
         - 2.3799946902738583e-03
         - 8.2236070630870208e-03
         - 1.4427590165623286e-03
         - 2.6362346549443183e-03
         - -2.7258939084837171e-03
         - -3.2110324058727334e-03
         - -1.7645697120551480e-03
         - 2.0550104836388181e-02
         - -8.3052461770705740e-03
         - -1.3343566880042937e-02
         - 2.6223484052626908e-02
         - -8.0257210725993248e-04
         - 4.6011062992472899e-03
         - -7.8080442324755528e-03
         - -8.7581789275844417e-03
         - 4.7552462205766180e-03
         - -1.2517510408286367e-02
         - -4.5483672406334535e-03
         - 4.8835983332459450e-03
         - -1.9515051689868685e-02
         - -1.2507346235463452e-02
         - 1.1586579557569169e-02
         - -1.5949351284091448e-04
         - -3.6264503891223604e-03
         - -9.0114120222625493e-03
         - 7.4870178606552288e-03
         - -7.0364332241198274e-04
         - 6.1050531925079627e-03
         - 4.9952609667691758e-04
         - 7.8224998323142125e-03
         - -1.1596528978488081e-02
         - 8.3380700356439023e-03
         - 9.3443609532866019e-03
         - -1.4211807018186584e-02
         - -4.4815450108090585e-03
         - 8.6706610017074619e-03
         - 1.8312094359178070e-02
         - 2.4944074806797592e-03
         - -1.0645612874261152e-02
         - -2.3837969812406921e-03
         - -2.7517063830328190e-03
         - 6.6614918133465380e-03
         - 1.9384771299929660e-02
         - -1.0706080985337003e-03
         - 4.3493630217661247e-03
         - -3.7213077881433397e-03
         - -4.8346382405300417e-03
         - -7.6633388991257873e-03
         - -3.8484323344592890e-03
         - 7.4391536985780335e-03
         - -1.9919452472504779e-02
         - 1.2941301250686486e-02
         - -7.1608628310142249e-03
         - -1.6869693155484790e-02
         - 1.4992931699598911e-02
         - 7.1865613137209261e-03
         - -2.9032505910733986e-03
         - 1.2156403720836761e-02
         - -1.1876013504985695e-02
         - -1.9603788589203718e-02
         - 7.4820411652475432e-05
         - -3.1217515058542286e-04
         - 1.6501073807712063e-03
         - 1.3041937929061766e-03
         - 2.1698037572042167e-02
         - 3.0891337482149023e-02
         - -8.4843954632483464e-03
         - 1.0462581745790074e-02
         - 1.2544539905760824e-02
         - 1.2722157656392438e-02
         - 1.9458818691079623e-02
         - 4.3511610718936083e-03
         - -1.2317662698962548e-02
         - -2.4373575390583832e-03
         - -2.4522767362056348e-03
         - 1.4191854573098914e-02
         - 5.0065620292186579e-03
         - -3.9413942626283826e-03
         - 4.4742416947091204e-03
         - -8.1904433570178983e-03
         - 7.0899240091838291e-03
         - -2.7845467128883327e-03
         - -8.3162058469354108e-03
         - 1.7569670101299954e-02
         - 3.2619023247125573e-03
         - 9.8036345011117826e-03
         - -7.0318620315084077e-03
         - 9.0816342512820246e-03
         - 1.6605918006191704e-02
         - 6.3742473867861417e-03
         - -2.7801365790403407e-03
         - 4.6512688651104763e-04
         - -3.3924916787224091e-03
         - -6.6848886613854550e-03
         - -8.1781780087254244e-03
         - -1.7786884888170863e-02
         - -3.6886313247061395e-03
         - 2.8387369418490490e-03
         - -3.7705997990642262e-03
         - 9.6639145548772960e-03
         - 1.0686287789921790e-02
         - -5.6480140447816209e-03
         - 3.6646734000408840e-04
         - -3.8735746596882839e-03
         - 8.1504986681910415e-03
         - -6.0639138065015910e-03
         - -2.7307748491075365e-03
         - -9.6074087801255575e-03
         - 2.9041683819413171e-03
         - -8.8445647286045127e-03
         - 5.2146605910872923e-03
         - -1.1255672463744714e-03
         - 1.1053245823380792e-02
         - -7.7730201757936950e-03
         - -7.8867585855278838e-03
         - 1.8825340880025269e-03
         - -6.2518567125195137e-04
         - -5.7041545157058941e-03
         - 1.9485427709023872e-03
         - -7.0900114624234724e-04
         - -7.0988794202180290e-05
         - -9.5232221923765813e-03
         - -1.7418265033123735e-03
         - 1.0524302806724417e-02
         - 1.3566355460564550e-02
         - -4.5071250109622830e-03
         - -1.1067542387334034e-02
         - 6.4219174310410840e-03
         - -5.1525347220275379e-03
