%YAML:1.0
opencv_ml_ann_mlp:
   format: 3
   layer_sizes: [ 275, 100, 100, 9 ]
   activation_function: SIGMOID_SYM
   f_param1: 6.6666666666666663e-01
   f_param2: 1.7159000000000000e+00
   min_val: -9.4999999999999996e-01
   max_val: 9.4999999999999996e-01
   min_val1: -9.7999999999999998e-01
   max_val1: 9.7999999999999998e-01
   training_params:
      train_method: BACKPROP
      dw_scale: 1.0000000000000000e-03
      moment_scale: 0.
      term_criteria:
         iterations: 300
   input_scale:
      - 5.1880512437366120e+00
      - -3.2824146287276901e+00
      - 5.0480539587203825e+00
      - -3.7773031269125048e+00
      - 5.3154585747680958e+00
      - -4.0111149285028311e+00
      - 6.5643758579419051e+00
      - -4.8067656265200114e+00
      - 6.9448756589477245e+00
      - -5.0698823649564053e+00
      - 6.9366586718213288e+00
      - -5.1009908479661208e+00
      - 6.6325832967753158e+00
      - -5.1295728338259519e+00
      - 7.3381095323323953e+00
      - -6.0042198138772811e+00
      - 8.0321212280161909e+00
      - -6.7780917024268685e+00
      - 8.9585385275661586e+00
      - -7.7867562739310907e+00
      - 9.1954617212744161e+00
      - -7.8991186965102891e+00
      - 9.4315105839591116e+00
      - -8.0548687278470350e+00
      - 9.3478462720783320e+00
      - -7.7916635667055063e+00
      - 9.5830858878398928e+00
      - -8.1675371166026700e+00
      - 9.7787401484715186e+00
      - -8.4815835249263110e+00
      - 7.9450712882422145e+00
      - -6.6924753707627049e+00
      - 8.0811370010341417e+00
      - -6.8747913330859873e+00
      - 7.7354563962972849e+00
      - -6.4872583036179048e+00
      - 7.9085628394784928e+00
      - -6.3071902978346648e+00
      - 7.4095814338047079e+00
      - -5.7093213117762938e+00
      - 7.2642265321199684e+00
      - -5.4961706554215768e+00
      - 6.7851634607662490e+00
      - -5.1060744644248821e+00
      - 5.4336014967521917e+00
      - -4.2716723443719760e+00
      - 4.9757754541137587e+00
      - -3.6952662668867737e+00
      - 4.0262117563185456e+00
      - -1.5955024863153273e+00
      - 4.9497990114066290e+00
      - -2.2411186334609434e+00
      - 4.0899817256445328e+00
      - -2.3682812629885013e+00
      - 4.3124867088184153e+00
      - -3.0535309243657842e+00
      - 4.9470190860665255e+00
      - -3.7516656154668979e+00
      - 6.0905686254537690e+00
      - -4.8002070338276965e+00
      - 6.2462307679715980e+00
      - -4.9381407418125631e+00
      - 6.0338633097843815e+00
      - -4.5316859417995872e+00
      - 5.8613970637271979e+00
      - -4.4036720680414891e+00
      - 7.3631461233965165e+00
      - -5.8758943006829893e+00
      - 7.5350994956207122e+00
      - -6.1729222251721776e+00
      - 7.4302020725391928e+00
      - -6.0874132639263179e+00
      - 7.2826981815585556e+00
      - -5.5039692668156155e+00
      - 7.0598174095094990e+00
      - -5.0262408730305781e+00
      - 6.7651113101603286e+00
      - -5.3085833767605903e+00
      - 6.6578134740989219e+00
      - -5.3456879648883513e+00
      - 6.2202575743339352e+00
      - -4.8434262443662295e+00
      - 7.0980696649278112e+00
      - -5.5178468195638635e+00
      - 6.8927275104694283e+00
      - -5.3476049426790997e+00
      - 6.1416154461147974e+00
      - -4.7427867734355234e+00
      - 6.2638131393202690e+00
      - -4.9229597910901024e+00
      - 6.3245244007269106e+00
      - -4.9628358752482322e+00
      - 5.0797554886969003e+00
      - -3.7247693643080284e+00
      - 4.7344533142071059e+00
      - -3.2691167729706772e+00
      - 4.2481122818856427e+00
      - -2.4207201619665781e+00
      - 3.4475302415723399e+00
      - -5.4876153483805445e-01
      - 7.4812156107782302e-02
      - -2.5613169476595699e-01
      - 2.5871358637487803e-02
      - -3.3010668673710580e-01
      - 2.0038997747118495e-02
      - -3.9512008534967230e-01
      - 1.8183320209480148e-02
      - -4.7859609223120264e-01
      - 1.4451545439609753e-02
      - -5.7585547476918242e-01
      - 1.2460008961658138e-02
      - -6.2756594754977402e-01
      - 1.1610039940975770e-02
      - -6.6877375110384096e-01
      - 1.1086148463876499e-02
      - -6.8708732349781143e-01
      - 1.1365793663016859e-02
      - -7.0758572686056487e-01
      - 1.1439767014616865e-02
      - -6.9437639249409167e-01
      - 1.1916122991872032e-02
      - -6.4779137318028002e-01
      - 1.4022186628658291e-02
      - -5.1903498444552709e-01
      - 1.7957701870736625e-02
      - -4.1261589794593317e-01
      - 2.2658802308771358e-02
      - -2.9586168968819393e-01
      - 4.5433121913753607e-02
      - -1.8346657627767679e-01
      - 1.9905467382703754e-02
      - -3.9043586595310908e-01
      - 1.2322952198737224e-02
      - -5.9512333652909200e-01
      - 1.1087536887062726e-02
      - -7.7612758209439081e-01
      - 1.0301810311149099e-02
      - -9.3211723372557453e-01
      - 9.5356347416316548e-03
      - -1.0081568028366292e+00
      - 9.9034937849892726e-03
      - -1.0028610443112611e+00
      - 1.0122071831841068e-02
      - -9.4262759780568783e-01
      - 9.9423685058212079e-03
      - -9.3450674360440100e-01
      - 9.9806064650110795e-03
      - -9.6053813746280303e-01
      - 1.0101166301135700e-02
      - -9.9149501437521670e-01
      - 9.7562096336167598e-03
      - -1.0363924676443574e+00
      - 1.0665617768764147e-02
      - -9.6971633919744549e-01
      - 1.1591484772265959e-02
      - -7.4924349090963371e-01
      - 1.3351713964938623e-02
      - -5.2688309421183377e-01
      - 1.9652758599531871e-02
      - -3.1991990620993677e-01
      - 1.3279511793083064e-02
      - -7.0447303210710488e-01
      - 1.0824578802998757e-02
      - -1.0650641868797899e+00
      - 1.1487500529777895e-02
      - -1.2480599335119380e+00
      - 1.1958645484179993e-02
      - -1.2656537428657522e+00
      - 1.2509547491866835e-02
      - -1.1159757768221510e+00
      - 1.3702360284273525e-02
      - -1.2197192616405617e+00
      - 1.3829777043183104e-02
      - -1.3620218971192888e+00
      - 1.2757266640919843e-02
      - -1.3696045651747837e+00
      - 1.3193456486642580e-02
      - -1.3471425493536731e+00
      - 1.3779579204536005e-02
      - -1.3557107372340633e+00
      - 1.2255831950733331e-02
      - -1.2920547111114709e+00
      - 1.2755157796398223e-02
      - -1.5617765729330344e+00
      - 1.2330709819011406e-02
      - -1.4064068760363277e+00
      - 1.1096402116288848e-02
      - -9.3531658143558360e-01
      - 1.4065855143173019e-02
      - -5.7025768446864045e-01
      - 1.0782632725142261e-02
      - -9.1092668984083502e-01
      - 1.0742688714128489e-02
      - -1.2016230360925553e+00
      - 1.2616350398410737e-02
      - -1.1061938982911887e+00
      - 1.3122556063335448e-02
      - -8.5126321699408114e-01
      - 1.2593503911943183e-02
      - -8.6395282180636168e-01
      - 1.2362494832034211e-02
      - -1.2989112890696097e+00
      - 1.2293747682558238e-02
      - -1.3845950634233912e+00
      - 1.1908221739038972e-02
      - -1.2167293738705087e+00
      - 1.2660385920697877e-02
      - -1.2561325649180968e+00
      - 1.2829581425463544e-02
      - -1.2749274121884306e+00
      - 1.2489174000620586e-02
      - -9.2958542819122925e-01
      - 1.3625960295787568e-02
      - -1.0475347033502029e+00
      - 1.3058135850342576e-02
      - -1.2876219072274828e+00
      - 1.0477899927990279e-02
      - -1.2841826129301368e+00
      - 1.1529751671229028e-02
      - -8.1619200094001820e-01
      - 1.0020621006553444e-02
      - -9.8026151296933117e-01
      - 1.0283502798575650e-02
      - -1.0634005393962218e+00
      - 1.1867575749534016e-02
      - -7.6545863584494411e-01
      - 1.2839025698196789e-02
      - -7.2329778360833819e-01
      - 9.5085287781649375e-03
      - -9.5912747537917153e-01
      - 9.8687098896661721e-03
      - -1.3521262553791855e+00
      - 1.1075331811114078e-02
      - -9.9411671069454099e-01
      - 1.0628260802509623e-02
      - -7.8815450050366209e-01
      - 1.0806688971776932e-02
      - -9.8505857261059804e-01
      - 1.0063272210278241e-02
      - -1.2644770398266030e+00
      - 1.0021573890310978e-02
      - -9.7480843738387513e-01
      - 1.4257968717434762e-02
      - -7.8250126789310859e-01
      - 1.3091275853339589e-02
      - -7.4365442185211106e-01
      - 9.9768974138511081e-03
      - -1.0955928072286651e+00
      - 1.0523820111647675e-02
      - -9.0464685707835479e-01
      - 1.0785221842519432e-02
      - -9.0188330285403917e-01
      - 1.0208820248495639e-02
      - -1.0811608222710247e+00
      - 1.2862967292921232e-02
      - -9.2009492380395730e-01
      - 1.2663769677138141e-02
      - -1.0745353576048016e+00
      - 1.1039428012711577e-02
      - -1.4258980281609637e+00
      - 1.2148396846340568e-02
      - -1.7564634386878897e+00
      - 1.1379876901660179e-02
      - -1.4436807193029810e+00
      - 1.0890303280131500e-02
      - -1.5000353617304791e+00
      - 1.1904736293800797e-02
      - -1.8248779352352200e+00
      - 1.2948606637383692e-02
      - -2.0351058172297161e+00
      - 1.0291383272640869e-02
      - -1.3363871820678919e+00
      - 1.2540148856776635e-02
      - -1.0045042139586688e+00
      - 1.2521089378684059e-02
      - -8.7934368155643772e-01
      - 1.0925377465904903e-02
      - -1.0379525591749579e+00
      - 1.0618618687449831e-02
      - -8.4527447078417439e-01
      - 1.1044732775533694e-02
      - -7.3548646081960434e-01
      - 1.0716359256735654e-02
      - -9.3686339227301585e-01
      - 1.2758724634991864e-02
      - -8.5171791551911336e-01
      - 1.3715253864604164e-02
      - -9.5326249188718271e-01
      - 1.1765897969867151e-02
      - -9.6085172886747161e-01
      - 1.2441474875887919e-02
      - -1.2520777406585373e+00
      - 1.3407785472604022e-02
      - -1.6729026988527691e+00
      - 1.1615509635727720e-02
      - -1.6589341796156321e+00
      - 1.2534578704939608e-02
      - -1.4864957822182387e+00
      - 1.3448351991416049e-02
      - -1.2849335702332745e+00
      - 1.1570592085945816e-02
      - -1.0051841468252394e+00
      - 1.1893388866631644e-02
      - -1.2467630733665578e+00
      - 1.1290321139336963e-02
      - -1.3084275601285809e+00
      - 1.0647079565178836e-02
      - -1.2423353793400085e+00
      - 1.1796413074263268e-02
      - -7.8801840315173932e-01
      - 1.1098312125408185e-02
      - -7.1109681545506565e-01
      - 9.4445297564620546e-03
      - -8.0822825064746451e-01
      - 1.0787913171652919e-02
      - -6.4797476939809917e-01
      - 1.3066040479824797e-02
      - -6.3644583436459568e-01
      - 1.1384909105640880e-02
      - -6.8322490789309753e-01
      - 1.0109633069880586e-02
      - -1.0034003753785294e+00
      - 9.9979753178812136e-03
      - -1.1644588428440659e+00
      - 9.3953894677280235e-03
      - -9.6317086150269837e-01
      - 1.0897329475790970e-02
      - -8.2773951869357287e-01
      - 1.2649289254822648e-02
      - -6.7079856834544227e-01
      - 1.1436872586285196e-02
      - -6.6971182907934157e-01
      - 1.0946163934597030e-02
      - -9.7466816194738215e-01
      - 9.9979384836407208e-03
      - -1.1879611562374783e+00
      - 8.9113766132106111e-03
      - -1.2146342375357411e+00
      - 1.1133342107027988e-02
      - -8.3321592379620146e-01
      - 1.0478560663166898e-02
      - -8.0364961055601380e-01
      - 1.0894523721693429e-02
      - -9.1917346132837108e-01
      - 1.0952685383335771e-02
      - -8.5155038648301407e-01
      - 1.1707043405078362e-02
      - -9.3111210104970576e-01
      - 1.1518503361117753e-02
      - -1.3412461852709177e+00
      - 1.2578084070984548e-02
      - -1.8667893095428783e+00
      - 1.2779513330017200e-02
      - -1.5773919144252910e+00
      - 1.2174638945207686e-02
      - -1.2206701925635906e+00
      - 1.2327436898586619e-02
      - -1.3502307506822144e+00
      - 1.2647300984926538e-02
      - -1.4979810845963371e+00
      - 1.0877603833472202e-02
      - -1.1208083705664715e+00
      - 1.3336307460595840e-02
      - -1.0328512010799626e+00
      - 1.2547416403179608e-02
      - -8.6150944151449615e-01
      - 1.1098950956319659e-02
      - -1.0026758404012595e+00
      - 9.7494541612056021e-03
      - -1.1888752328105259e+00
      - 9.8748811858676826e-03
      - -1.0398777554125549e+00
      - 1.1184569280108303e-02
      - -9.3497876478218345e-01
      - 1.2808674601998058e-02
      - -8.8140303205886650e-01
      - 1.1979742858883270e-02
      - -1.1304853528359922e+00
      - 1.0801384729176798e-02
      - -1.5815371029796961e+00
      - 1.2416116738481052e-02
      - -1.7128554328078593e+00
      - 1.2682418022603247e-02
      - -1.1059358952763985e+00
      - 1.1079937949983966e-02
      - -9.1815470546603783e-01
      - 1.1457163487970167e-02
      - -1.3137693231644569e+00
      - 1.1932742695877718e-02
      - -1.7177228655535426e+00
      - 1.0828516736606668e-02
      - -1.3543911964068720e+00
      - 1.3554918301240176e-02
      - -9.0559270971338945e-01
      - 1.6107002858063619e-02
      - -6.4317352633992964e-01
      - 1.2296296716978442e-02
      - -8.2342948816559824e-01
      - 9.4035717393805788e-03
      - -1.3168948499603543e+00
      - 9.4747537322915805e-03
      - -1.0558564302355622e+00
      - 1.0756158655096144e-02
      - -8.6381806970182429e-01
      - 1.1582455291377788e-02
      - -7.2721904405788018e-01
      - 1.0989573511480213e-02
      - -8.1490623733220457e-01
      - 9.7212348764250580e-03
      - -1.0882217469109561e+00
      - 9.8090424236719834e-03
      - -1.2037791643065849e+00
      - 1.0538489349754493e-02
      - -9.8921018541416883e-01
      - 1.0683107848332972e-02
      - -8.6121343841465925e-01
      - 1.0731614234594017e-02
      - -9.8575201591503658e-01
      - 9.8889821983085286e-03
      - -1.1784496267007210e+00
      - 9.2744038197434958e-03
      - -1.0273703132076926e+00
      - 1.3246747330186227e-02
      - -7.4176729038611500e-01
      - 1.2822570344007031e-02
      - -6.3016570896730739e-01
      - 1.0801711918942610e-02
      - -9.3047265762830444e-01
      - 9.2370705700214363e-03
      - -1.1893962318711573e+00
      - 1.0490957131446630e-02
      - -9.1387448324811615e-01
      - 1.0976357029130048e-02
      - -1.0950382443793940e+00
      - 1.2500353386524488e-02
      - -1.1143921910269179e+00
      - 1.2934550948024565e-02
      - -8.5649436792854272e-01
      - 1.2781446426498404e-02
      - -9.2611824030780798e-01
      - 1.1694743797557876e-02
      - -1.1614398229483052e+00
      - 1.1884121383511663e-02
      - -1.1254081513217857e+00
      - 1.0641962291085575e-02
      - -1.1767491966986268e+00
      - 1.2045509866747805e-02
      - -1.3932792996633292e+00
      - 1.3148226866235580e-02
      - -1.3856825962996062e+00
      - 1.2397268514330042e-02
      - -1.0193204516629686e+00
      - 1.3106271409628464e-02
      - -9.7466638223359159e-01
      - 1.1931174887510134e-02
      - -1.1490814348723024e+00
      - 1.0888426122396617e-02
      - -1.2366259835802815e+00
      - 1.0546937051279074e-02
      - -9.4451444287847675e-01
      - 1.3924009113212388e-02
      - -6.5921148488658954e-01
      - 1.0693602763254284e-02
      - -9.2181304735915282e-01
      - 1.1760882052070022e-02
      - -1.2889388062715215e+00
      - 1.2904607006543025e-02
      - -1.2481513211939190e+00
      - 1.2577052185865507e-02
      - -1.0876749939974835e+00
      - 1.3892918550702659e-02
      - -1.2604376868328329e+00
      - 1.3495017659242461e-02
      - -1.3155581909721821e+00
      - 1.2916818325638835e-02
      - -1.4239066674851177e+00
      - 1.3968131273688929e-02
      - -1.5997775386625332e+00
      - 1.3338283395879981e-02
      - -1.2763006287584393e+00
      - 1.2758522707661960e-02
      - -1.1167116134813133e+00
      - 1.2640763730441915e-02
      - -1.2886824398477235e+00
      - 1.1980575865946091e-02
      - -1.2817844354898278e+00
      - 1.0827007159411487e-02
      - -9.3785850184291497e-01
      - 1.2887607835421496e-02
      - -6.3478846990883364e-01
      - 2.1315384346644324e-02
      - -3.3494441738601027e-01
      - 1.4669384170360343e-02
      - -4.8929674910221010e-01
      - 1.1804035101119855e-02
      - -8.0371061896517970e-01
      - 1.0122156716950045e-02
      - -9.5441892952493845e-01
      - 9.7239406542861759e-03
      - -1.0133311132976164e+00
      - 1.0123712652405598e-02
      - -9.5522252091648396e-01
      - 1.0462772029302353e-02
      - -9.1693018536187532e-01
      - 1.0283558247380026e-02
      - -9.0656238488449026e-01
      - 1.0886521543593078e-02
      - -9.0711317487855148e-01
      - 1.0723029905770211e-02
      - -8.7118478845123926e-01
      - 9.8356726542647953e-03
      - -8.8115613946909643e-01
      - 9.9872614602258668e-03
      - -8.3565170126363142e-01
      - 1.1848634471770599e-02
      - -7.4451934850671508e-01
      - 1.4185586850675202e-02
      - -5.3380038458323209e-01
      - 1.6340603708909808e-02
      - -3.5631247705725849e-01
      - 4.3902345094704948e-02
      - -2.0778209128791655e-01
      - 2.3089425897727979e-02
      - -2.6332520832981376e-01
      - 1.7433343144920555e-02
      - -3.6829600880585983e-01
      - 1.5103270124633946e-02
      - -4.8705163848485572e-01
      - 1.3436392550908463e-02
      - -6.1268924353321907e-01
      - 1.2147536386407828e-02
      - -6.8295118691521872e-01
      - 1.1459830135668751e-02
      - -6.9030167634016881e-01
      - 1.1293751865138367e-02
      - -7.1749809082148130e-01
      - 1.0974399020856736e-02
      - -7.2154579211174863e-01
      - 1.1048072559399257e-02
      - -6.8510700333038066e-01
      - 1.1562037596233452e-02
      - -6.3463230027264605e-01
      - 1.2758904241584214e-02
      - -5.4687975050759818e-01
      - 1.4208411742898811e-02
      - -4.2793350024127674e-01
      - 1.7485233719684072e-02
      - -3.2047363481649971e-01
      - 3.1132333624831886e-02
      - -2.4157264984459245e-01
   output_scale:
      - 5.2631578947368418e-01
      - 4.9999999999999994e-01
      - 5.2631578947368418e-01
      - 4.9999999999999994e-01
      - 5.2631578947368418e-01
      - 4.9999999999999994e-01
      - 5.2631578947368418e-01
      - 4.9999999999999994e-01
      - 5.2631578947368418e-01
      - 4.9999999999999994e-01
      - 5.2631578947368418e-01
      - 4.9999999999999994e-01
      - 5.2631578947368418e-01
      - 4.9999999999999994e-01
      - 5.2631578947368418e-01
      - 4.9999999999999994e-01
      - 5.2631578947368418e-01
      - 4.9999999999999994e-01
   inv_output_scale:
      - 1.8999999999999999e+00
      - -9.4999999999999996e-01
      - 1.8999999999999999e+00
      - -9.4999999999999996e-01
      - 1.8999999999999999e+00
      - -9.4999999999999996e-01
      - 1.8999999999999999e+00
      - -9.4999999999999996e-01
      - 1.8999999999999999e+00
      - -9.4999999999999996e-01
      - 1.8999999999999999e+00
      - -9.4999999999999996e-01
      - 1.8999999999999999e+00
      - -9.4999999999999996e-01
      - 1.8999999999999999e+00
      - -9.4999999999999996e-01
      - 1.8999999999999999e+00
      - -9.4999999999999996e-01
   weights:
      -
         - -7.9349174105605418e-03
         - -8.5761395949034303e-03
         - 1.6525743010240377e-02
         - -1.2056893380014559e-02
         - 1.7390425249079636e-02
         - -9.7846369415076177e-03
         - -8.2202013289053594e-03
         - -1.8176082265129685e-02
         - 8.2610097689130180e-03
         - 8.0463399366943085e-03
         - 3.2430181662930400e-03
         - 5.4093070675594751e-04
         - 6.1949541801079196e-04
         - 4.8199918089241699e-03
         - -1.1076127573982414e-03
         - -1.1325449038269359e-02
         - 8.8856599335753253e-03
         - -9.2019598602229042e-03
         - -1.8164324334389496e-03
         - -6.6096673476580218e-03
         - 7.8778203855332327e-03
         - -9.2971458473595763e-03
         - -1.8421862295717212e-03
         - 1.6028039652964149e-02
         - -8.2595310584409522e-03
         - 2.2404701833114628e-03
         - -5.8014310291395312e-03
         - 1.4556119274153309e-02
         - 3.0648318600822117e-04
         - 2.8980488056880881e-02
         - -6.8700162229957517e-03
         - 5.1333751727263123e-03
         - -4.6984965560349628e-03
         - -7.6342272420330754e-03
         - -1.7773856603704393e-02
         - -1.5409229885734493e-02
         - 1.1399026362744883e-03
         - -2.1112473894563054e-03
         - -9.6433727856879425e-03
         - 3.0774914962849059e-03
         - -7.9744152414394035e-03
         - -1.3314706312478605e-02
         - 3.0545216391082456e-03
         - -5.2269198224087852e-03
         - -1.1493838269622105e-02
         - -1.2554908546625292e-02
         - 4.4731916379483387e-03
         - 1.3407986281084854e-02
         - 5.7404055642409964e-03
         - 2.3758232743309369e-03
         - 9.5335353493120976e-03
         - 8.1994097388631056e-03
         - -1.4927152667069015e-02
         - -1.9061646892006862e-02
         - -1.2813057305794811e-02
         - -1.3643464086495610e-02
         - 2.6067616858960912e-03
         - 1.0199267990119712e-02
         - -4.3015868292945823e-03
         - -1.2566325188985620e-02
         - 1.6092982947204921e-02
         - -1.7030560557796913e-02
         - 1.2701492517975886e-02
         - -1.4356562391293912e-03
         - 1.4428932389430235e-02
         - -1.0430592732135318e-02
         - -6.3834178167816230e-03
         - -3.5612597536785630e-04
         - -1.1729341740191175e-02
         - -2.5509330912233405e-03
         - -7.7097063018928833e-03
         - -1.1581067423796564e-02
         - -2.1068319403678818e-02
         - 3.5439707964179503e-03
         - -1.9515115992169318e-02
         - 1.5230825464425913e-02
         - 1.9987456163287176e-02
         - -6.9945196199196714e-03
         - -1.7800928022410192e-02
         - -1.1655919275382318e-02
         - 5.2671043278560399e-03
         - 1.7026941440790833e-03
         - -1.3844733909551463e-02
         - 1.6443339240038286e-02
         - 1.9075316470300058e-02
         - 1.3372338087061592e-02
         - -6.7986759980868958e-03
         - 2.2065405724170681e-02
         - 5.0311529280038037e-03
         - -2.4713439065687844e-03
         - 1.9763286444796215e-02
         - 1.0459705709796046e-02
         - -4.3003772956095396e-03
         - -6.6038954052012825e-03
         - -9.5700974524067363e-04
         - 1.5529017470570290e-02
         - 2.5700090313420014e-02
         - 7.5273574966198365e-03
         - -2.4769415904475445e-02
         - 9.8148936558869471e-03
         - 1.4851554554472311e-02
         - -4.3935094491737885e-04
         - -7.6802648983947674e-03
         - 2.4535550857179383e-02
         - -3.3143570118514674e-02
         - -2.2475465136112076e-02
         - -3.8323899896487046e-02
         - 1.2733222226106492e-02
         - 5.9261459821581906e-03
         - 3.1498396864902238e-03
         - -3.8058039498355956e-02
         - 9.7733488889055285e-03
         - 2.1480459002113872e-02
         - -2.4825626689265086e-02
         - 4.5216910145340419e-02
         - 9.7745321383154605e-03
         - -2.9183422846569104e-02
         - -1.9218093902353545e-02
         - -8.1143525204474994e-03
         - -1.2048558945831973e-02
         - -4.7231969676494005e-03
         - -1.4942640451322325e-02
         - 1.8026430765364431e-04
         - -1.4998287429384938e-02
         - 1.8631025502117673e-02
         - 1.6062389172079913e-02
         - -1.7508186938699540e-02
         - 1.1028935092322218e-02
         - 2.6806181949636437e-02
         - -3.8193930283752557e-02
         - 5.5589286328252624e-06
         - -7.0125565882392790e-03
         - 1.4445377752421131e-02
         - 2.5488314405353752e-02
         - -1.0988458448709326e-02
         - -2.1613509506691067e-02
         - -2.7115548650677012e-03
         - 9.7517371790116730e-04
         - 5.0240553274879859e-03
         - 2.7651518142053383e-02
         - 1.3122218855418128e-03
         - -3.6031051690646209e-03
         - -1.5274627959393718e-02
         - 3.6281141958984082e-03
         - -3.1675092209727846e-03
         - 1.7420078830739920e-02
         - -1.3374235202734406e-02
         - 1.6960731520619499e-02
         - -1.3208584999152229e-02
         - -5.3939445401532263e-03
         - -2.5069474640392470e-02
         - -2.8564410096339082e-03
         - 5.2311195188333524e-03
         - -1.2207342752094815e-02
         - -1.7210032968274176e-02
         - -2.7694963827830980e-02
         - -1.2752021353267889e-02
         - 2.1653368286675641e-02
         - 5.9923660763119462e-03
         - 3.4702826106563578e-03
         - 1.1985296422514891e-02
         - -1.7227156879582678e-02
         - 2.5930273790566956e-02
         - -9.1558889211153325e-03
         - 5.2574463644729464e-03
         - 3.6066969326099063e-03
         - -6.8579227971752857e-03
         - -1.5206091619516268e-02
         - 1.3429554959603556e-02
         - 3.6337037751752087e-02
         - -1.8874314954379846e-02
         - 1.6466819690486073e-03
         - 3.8381461087934075e-02
         - -2.4137628315255125e-02
         - -1.3751498787015226e-02
         - 1.5715553754197973e-03
         - -7.7780733310307722e-03
         - -1.2927038688768667e-02
         - 5.7998737110750917e-03
         - -1.9793407265655798e-02
         - 1.4827828900274859e-02
         - -1.0025958444369277e-02
         - 2.3671675119844061e-02
         - -2.4992397990612125e-03
         - -1.4345974057095333e-02
         - 3.8864206260766942e-03
         - 4.1395313125433967e-03
         - -6.3981417247780900e-04
         - -2.3741548577829751e-02
         - -1.6949529791211643e-02
         - 1.3552675167992547e-02
         - -1.2948343828023795e-02
         - 5.7075621407068683e-03
         - -1.9714977712300383e-02
         - -3.1687162698131135e-03
         - -1.6664868856122617e-02
         - -4.0510674272064909e-03
         - -8.8103734831885775e-03
         - 1.8511611093036721e-02
         - -6.0189408226773529e-03
         - 2.0248507023223731e-02
         - 5.9017067344050633e-03
         - -6.4067669256661812e-03
         - 6.6533602172184850e-03
         - -4.6051928121013958e-03
         - -1.5749305760136535e-02
         - -2.2277202900296677e-02
         - -4.6952592626296080e-04
         - 8.9647873578840756e-04
         - 2.7174744540540965e-03
         - -1.1118888929360351e-02
         - 1.0802740079412176e-02
         - 1.3751385071471275e-02
         - -4.0811433236937226e-03
         - 2.0399461602468971e-02
         - 1.3717851271635320e-02
         - -4.3837192181978915e-03
         - 4.4918438070579540e-03
         - 7.5611262609359305e-03
         - -8.8051350380847423e-03
         - 1.3087906817817721e-02
         - -7.7877892231730276e-03
         - 1.7558377796718070e-03
         - -1.8409144903127388e-02
         - 1.5042370553001070e-02
         - 1.1567330436064602e-02
         - 1.2096495553277636e-04
         - -3.0443825392437729e-03
         - 3.2569087624370308e-03
         - 1.7446487254269190e-03
         - 9.6434439707551028e-03
         - 5.5126901510982708e-03
         - 2.2969301722572458e-02
         - 3.7429496093979689e-03
         - -2.3082481325978729e-03
         - -1.2892789259751722e-02
         - 9.4576047950838699e-03
         - 5.0533598984644384e-04
         - -4.6545791965242750e-03
         - 3.7136663617895341e-03
         - 2.2168017815973160e-03
         - 2.9313403153348213e-03
         - -3.0204933863515865e-03
         - -1.3131532143176552e-02
         - -1.8337572780678362e-03
         - 1.4587169561321315e-02
         - -4.0359603983677024e-03
         - 1.3215550626715537e-02
         - 1.4806300460071172e-02
         - -3.3766691917106323e-03
         - -1.2576815886760639e-02
         - 1.2484070382874003e-04
         - -1.2616650019678258e-03
         - 8.0193562859730751e-03
         - -5.5990732080228390e-03
         - -9.5196761175273866e-03
         - 2.9417107773339274e-03
         - 9.8327746968788540e-03
         - 2.9441340824879615e-03
         - 1.6122182870894709e-02
         - 3.7417787732634497e-03
         - 9.8498455438809380e-03
         - 6.8324882963264662e-03
         - -1.9234817611662413e-03
         - -8.2538868364314660e-03
         - 3.9254625681605298e-04
         - 1.1119402639861609e-02
         - -3.6958866763557721e-04
         - 2.5716500522147571e-02
         - 1.5550210091116505e-02
         - -5.4929550765211157e-03
         - 7.1405686563062384e-04
         - 2.3263016117742018e-02
         - -3.0244860271133032e-03
         - 6.2714172634259864e-03
         - -1.7235019350581565e-02
         - 1.6728939763259310e-04
         - -1.7719664548085406e-02
         - 1.2597938513730721e-02
         - -1.1451116470617124e-02
         - 9.1151891015213617e-03
         - -9.8209019265048172e-03
         - 4.0729887677937386e-02
         - 6.6603435193235937e-03
         - 2.6087432414350375e-03
         - -2.7854516339599886e-02
         - 5.7447994550009632e-03
         - -1.2430111619432169e-03
         - -1.5379098416283968e-02
         - 1.2975234355840378e-02
         - 3.1996061440433296e-03
         - -1.6240264807017020e-02
         - -4.5555589316080185e-03
         - -8.0580467328373474e-03
         - 2.2639446175049464e-03
         - -2.0268957891579901e-02
         - -1.3291424984753488e-02
         - -1.6120994005153388e-02
         - 1.2674213730145630e-02
         - -1.0282247766565226e-02
         - -2.6359756573815934e-02
         - -1.2278536808849456e-02
         - -2.0153744639278322e-03
         - -1.1893538778683741e-02
         - 9.3372756589628503e-03
         - 1.9288713098354903e-02
         - 2.1456889566686937e-02
         - -1.8481773941718023e-02
         - -1.1391777679472029e-02
         - 1.3353697515371356e-03
         - 3.5752929165635820e-02
         - -1.7792591443876953e-02
         - -9.8153394205968102e-03
         - 2.5274133426984733e-02
         - -9.8459411316759709e-03
         - -5.5468295834373129e-03
         - 7.4512328182495561e-03
         - -3.4376547577616443e-03
         - -3.0987199251869050e-02
         - -2.9619183618255973e-03
         - -1.6554352974202935e-03
         - 1.2813899864600195e-02
         - 1.1748702344846332e-02
         - 2.7613308305886632e-02
         - -3.2758546388141796e-02
         - -1.9955500313208158e-02
         - 5.2378496707487605e-03
         - 1.3310631242107018e-03
         - -1.1520344673666744e-02
         - 1.0716966818953318e-02
         - -1.2707199658662228e-02
         - 1.6445244948978845e-02
         - -3.2504970646901235e-02
         - 3.4021503183324516e-03
         - 1.5501697095218748e-02
         - 2.9735219458042386e-02
         - 7.2475479077165209e-03
         - -1.7894594184972783e-02
         - 8.0836166422203776e-03
         - -5.5837705675491102e-03
         - -2.6442947901823273e-03
         - -4.5475945980891982e-03
         - 2.9228685699138448e-03
         - 3.0755818839214746e-03
         - -1.0742023764055066e-03
         - -3.2768569400385241e-04
         - -1.6791791651425692e-03
         - 1.4330555687868538e-02
         - -8.0726865890254351e-04
         - 4.0361581486260140e-03
         - 1.6347210261860395e-02
         - 1.3907883664078666e-02
         - -2.1071111109803985e-02
         - -3.2908840358558573e-02
         - 2.1634060466165676e-02
         - -6.4439620085615171e-03
         - -1.2182955495319923e-02
         - -1.9828526340206411e-02
         - -2.2633123454543290e-02
         - -3.2348843582928666e-02
         - 4.1282295806589365e-03
         - 3.6363456552595216e-03
         - 4.5641611138224538e-03
         - -4.1013755852095587e-03
         - 1.7244019093813807e-02
         - 4.1265735955153832e-03
         - 1.5723922825375278e-03
         - 8.8858315758293203e-03
         - -2.5828512814166420e-02
         - -1.9384461694599026e-02
         - 3.5403296224923637e-03
         - 3.6885611029121444e-03
         - -1.8024867120791776e-02
         - 1.3973942320850816e-02
         - -4.7085172614430891e-03
         - 1.5022972976352853e-02
         - 1.3048798926422368e-02
         - -1.3121512268641855e-03
         - -2.3623461994636663e-02
         - -6.7398196365637941e-03
         - -7.0788982381080794e-03
         - -4.9026343666318901e-03
         - -5.4714391197740832e-02
         - -9.0452690943530010e-03
         - -3.7187046255842860e-03
         - 1.3694663240903246e-02
         - -1.2794291947979970e-02
         - 1.1670681136065885e-02
         - 3.3981671987923949e-02
         - -7.1380648076106957e-03
         - 2.2297273644353719e-02
         - 1.4519308618469048e-02
         - -1.8660596918680411e-02
         - -7.3072396071843567e-03
         - 5.9959706083839402e-03
         - 4.7623797052838569e-02
         - 1.6699183790217093e-02
         - 2.6297559018406986e-02
         - -1.8453062207810914e-02
         - 3.4109312776261877e-02
         - 3.5790437364043953e-04
         - 1.0538466632728765e-02
         - 1.2597084715411922e-02
         - -8.2002371897684119e-03
         - -1.5308373133654902e-02
         - -8.3007113755351782e-03
         - 2.3208747918049100e-02
         - 2.6480141677264573e-02
         - 7.5495908275785761e-03
         - -2.4946991847214447e-03
         - -1.4763947255309782e-03
         - 3.4568598177329300e-03
         - -1.6249319705545079e-02
         - 3.9794235082436947e-03
         - -1.5899426925507208e-03
         - -8.7899603199727782e-04
         - -3.9488102864985563e-03
         - 5.4450100786298189e-03
         - -1.5156633462097764e-02
         - -1.2382191541173027e-02
         - -4.4680207465476410e-03
         - -1.6554162858630685e-02
         - 1.3571113050473455e-02
         - -5.9191187600126302e-03
         - 3.9341934313192268e-03
         - -7.7373378730520885e-03
         - -8.4172346593020340e-03
         - 8.7507314399948577e-03
         - -3.4191997072293210e-03
         - 6.7727712257347975e-03
         - 2.1525027309551487e-02
         - 4.3768577269074843e-03
         - 6.8439142105107213e-03
         - -3.6840315482059406e-03
         - 1.9276589886177194e-02
         - 1.7734905308413547e-02
         - 7.5687098464641920e-03
         - -2.0120564444370926e-02
         - 2.8248433998704685e-02
         - -8.4851122865971414e-03
         - -5.2350374176260523e-03
         - 9.1485051154976561e-03
         - -1.0712920492213202e-02
         - 1.4424531817140204e-03
         - 1.5582599098002425e-03
         - 1.5737464022418080e-03
         - 6.0397416030511105e-04
         - -7.0788998648469064e-03
         - 4.1633974603153389e-03
         - 2.6656416081018252e-03
         - 6.2254205977633464e-03
         - -1.9974412622006839e-02
         - 4.7872093061729522e-03
         - 1.9857546478268998e-02
         - 9.4957913434133515e-03
         - -2.0662352257858382e-02
         - 5.2015137995472301e-03
         - 3.0196257993141720e-04
         - 2.0858971992626558e-02
         - 3.8750118184879773e-03
         - -1.7820193247921525e-02
         - -3.5211771868837714e-03
         - 1.0669930973406351e-03
         - -4.9530374005491498e-03
         - 3.3385866200958954e-03
         - -7.0067282521243520e-03
         - 7.1262583037586327e-03
         - 1.7677374106228688e-02
         - -3.2230975234474580e-03
         - 2.4117997488994743e-02
         - 1.6328159493622877e-03
         - 6.6475577908735005e-03
         - -1.1248325495664374e-03
         - 5.1534219934469723e-03
         - -3.5358713976008228e-03
         - 3.0916189465769447e-02
         - 1.1365518165052940e-02
         - -2.2283837601388390e-03
         - -7.8249382576287673e-03
         - 1.4169894417825644e-02
         - 6.5899361094922211e-03
         - 1.6940991248876408e-02
         - 4.1357915415593614e-03
         - -2.1583291965831905e-02
         - -2.3760954696857885e-02
         - 8.5144754014158386e-03
         - -3.0473824130018659e-02
         - -4.0582549323532500e-03
         - 4.8816561347648771e-03
         - -5.8070707965396269e-03
         - -2.1064012736625670e-02
         - 1.0563509368129881e-02
         - 1.1528875777599762e-02
         - 1.4210268949016185e-02
         - -1.0011290053034203e-02
         - -3.6668672220569933e-03
         - -9.6028508505831209e-03
         - 5.4517492508425460e-03
         - 1.5846289174006788e-02
         - -6.2019137366394429e-03
         - 1.6367056101132670e-02
         - 2.3727593325252767e-02
         - 1.4638816788576758e-02
         - -8.8062450413479154e-03
         - -1.1948933287464337e-02
         - -2.0541129362850626e-02
         - 1.6183225280919789e-03
         - 2.8192415750366951e-02
         - 2.9187700548060701e-02
         - 1.9192173209049296e-03
         - -2.9028568820218006e-02
         - 1.1497871994998528e-02
         - 3.0215963788741283e-03
         - -3.0279400940331835e-02
         - 6.3865019183165853e-03
         - -3.9156838457804133e-03
         - -9.1606906428193437e-03
         - 1.0002722860759056e-02
         - 1.4854514774435119e-02
         - -4.4202625805680800e-03
         - -2.9087754207453697e-03
         - -2.3000947491982036e-02
         - 4.3760615231170572e-03
         - -3.5281066017185871e-02
         - 1.5994325328270814e-02
         - 1.0508602471430137e-02
         - -1.9634461546019282e-03
         - -1.5404024525295839e-02
         - 4.3761790178864337e-03
         - -2.4353810710243475e-02
         - 1.4792075832364924e-02
         - 3.8562048727981089e-04
         - 1.5489969747477631e-02
         - -2.3312679000907856e-02
         - -1.3758786208740522e-02
         - -6.6829070235858165e-03
         - -1.7147244986931338e-02
         - 2.2831266255388692e-02
         - 1.0583685045432674e-02
         - 1.0869040433921858e-02
         - 1.7177007523701885e-02
         - 1.8957673961736688e-02
         - -8.7505467355345652e-03
         - 3.8158589516844037e-03
         - -6.1002231203484761e-03
         - -1.7806754174908039e-03
         - 4.9469664983066240e-03
         - 2.6174672824331585e-03
         - -1.6172975506123396e-02
         - 9.0124591643546154e-03
         - -2.8940213949694198e-02
         - -1.6079141558804005e-02
         - 2.1309459098489341e-02
         - 4.5536256023614309e-02
         - -1.4422480517953772e-02
         - -2.5175403861517433e-02
         - 2.4846400847689753e-02
         - 1.0787598411805224e-02
         - 1.5072846435152106e-02
         - 1.0854472174117316e-02
         - -8.2348166151394037e-03
         - -9.6189560893308844e-03
         - -8.5881450439257573e-03
         - -4.7709255723639267e-03
         - -1.7209039447416800e-02
         - -1.9247864558496273e-02
         - -1.1568216205083616e-02
         - -1.6754410224615369e-02
         - 1.3312821211396106e-02
         - 1.7492385740397853e-02
         - 3.8834301540975586e-04
         - -1.1658843375053320e-02
         - 1.2369048215181071e-02
         - -7.1360152733483985e-03
         - -1.2780857425954001e-02
         - 2.1040682317068678e-02
         - -5.3100085203781544e-03
         - -1.4583376631348110e-03
         - 2.8378365620762964e-02
         - 1.1643618981465079e-02
         - 7.7804396799582894e-03
         - 2.1693466816237416e-02
         - 4.5824661805663101e-02
         - 1.4893031134207133e-02
         - 1.3591061447958395e-03
         - -1.4397225024216358e-03
         - -9.3643257120754227e-03
         - -3.7951742425977185e-03
         - -4.2854962355225137e-02
         - -9.8633207020318511e-03
         - -4.1374462384910472e-02
         - -1.0702475162048452e-02
         - -4.6338720807413306e-04
         - 1.8813232275285346e-02
         - -4.0003728283279586e-03
         - -2.9241521694870914e-02
         - -1.0016806218610877e-02
         - -1.1540916039900467e-02
         - 3.4233579135025803e-02
         - -9.6772658723945637e-03
         - 2.1399324034022379e-02
         - 5.1214633803205534e-03
         - 2.5150805070392847e-04
         - -1.0926047491360679e-02
         - 6.5060099791445459e-03
         - -7.9537780815853477e-03
         - -2.4222464732401406e-02
         - -2.3265349175399939e-02
         - 8.3793873093663022e-04
         - 1.7204656897197159e-02
         - 7.1758621759361539e-05
         - 2.9831180719001710e-03
         - 1.0814072236107834e-02
         - 1.1381757812213439e-03
         - 3.0666691593821502e-02
         - 1.5094741430589314e-02
         - -1.5982064568693601e-03
         - -3.0340449791713375e-04
         - -7.8444601348229663e-03
         - -5.1413022532051660e-04
         - 9.4500463929430342e-03
         - -1.4683070351603791e-02
         - -2.5233279683622523e-04
         - -1.2184106826414437e-02
         - -5.3487302652987330e-03
         - -2.2593242919720254e-05
         - 1.3514179549757243e-03
         - 2.6129694478711665e-03
         - 7.6103154763069785e-03
         - -4.6598099638940566e-03
         - 3.0261635810261314e-03
         - 2.3681573593277213e-02
         - 5.9977825771132739e-03
         - -2.4164829047562866e-03
         - -2.1767801191535548e-02
         - -1.9112235116967781e-02
         - -1.4808388619916204e-02
         - 3.1581681900285812e-02
         - -5.1397695878509248e-03
         - 1.1570543145985733e-02
         - 9.9893475027534994e-03
         - -1.6220267144444374e-04
         - -2.0576205141706879e-02
         - -1.4906497810821453e-02
         - 4.9608146941457591e-03
         - 2.0443075817660233e-02
         - 6.1795316396521952e-04
         - 7.9246799594517910e-03
         - 9.1806834936268462e-03
         - -2.3921239766195063e-02
         - -2.6784511926531758e-02
         - 6.9942578339046817e-03
         - -1.4996366253875704e-02
         - 5.3612684693095077e-04
         - -1.4442823435115087e-02
         - -1.6807625726192908e-02
         - -5.5488824429698468e-04
         - 1.0603960766170144e-02
         - -1.8659749741040940e-02
         - -2.1918130732370904e-02
         - 2.2252704545562295e-02
         - 4.2341430433572827e-04
         - 2.6991841702321321e-03
         - -2.1439675572164776e-02
         - -2.9533284625654259e-03
         - 3.0889141191072869e-03
         - -2.5082567707877305e-02
         - -2.2459456571652749e-02
         - 1.3783182895029934e-02
         - -9.6123735605985697e-03
         - -1.3762038541424295e-02
         - -9.0978199384757191e-03
         - 6.6249721748080021e-03
         - 1.2278644200512071e-03
         - -5.5487159604855609e-03
         - 1.1391623492258472e-02
         - 3.9563324799196395e-03
         - -1.8805598442263864e-02
         - 2.1743853169834686e-03
         - -2.2994794247470159e-03
         - 1.5655788562617682e-02
         - -1.0936018825677454e-02
         - 2.1145477909964155e-02
         - 1.8098368031591500e-02
         - 2.8096893524581126e-02
         - -2.3047047256129469e-02
         - 2.3872210844384208e-03
         - 2.6972681609037263e-02
         - -3.1806349379503128e-02
         - -5.4178597904268599e-03
         - 5.4042487369791344e-03
         - -2.0994817949655461e-02
         - -8.8294078061948236e-03
         - -1.4170651963699634e-03
         - -1.1175531239694010e-02
         - 2.7668672142383742e-02
         - 2.5215967525007068e-03
         - -1.1000861510229429e-02
         - -6.7568091740702069e-03
         - 1.5774200137766370e-02
         - 1.0050791599047685e-02
         - 1.3082701011797395e-02
         - -2.7529593029358378e-02
         - -2.8879998099774506e-03
         - -3.1913222214399800e-03
         - 9.1137307728816879e-03
         - 2.4517671888994825e-03
         - -1.1528507097272637e-03
         - -8.6432743484539162e-03
         - 7.3579771767825781e-03
         - 6.2935402592682755e-03
         - -7.3200012444352780e-03
         - 5.6175734075381732e-03
         - 6.0330248101730681e-03
         - 2.8985892494990739e-02
         - 1.2414050963797800e-02
         - -3.3740231114997763e-03
         - -1.0803164256631305e-02
         - -3.6861121256889798e-02
         - -1.1209749930652619e-02
         - 3.0826214778021852e-03
         - 1.3251954125426272e-03
         - 1.4457878980202545e-02
         - -5.0631999052136297e-03
         - 1.3157541585548539e-02
         - 1.0223608806812768e-02
         - 4.1101139870168392e-03
         - -1.1951075222319653e-03
         - 1.1010100197312984e-02
         - -2.2499787631853493e-02
         - 8.3665482740766413e-03
         - 2.6934233389284024e-02
         - -6.1379700493698992e-03
         - 1.9071682123774126e-02
         - 2.1969012489197484e-02
         - 1.4404890220927920e-02
         - -8.8939951489013305e-03
         - -4.4717323805741780e-03
         - 1.0415400709121806e-02
         - 4.3487239481357276e-03
         - 7.0628201997853940e-03
         - 2.7588322676219690e-03
         - -6.1986077869627286e-03
         - -1.9064563466880811e-02
         - 1.7925905858960919e-02
         - 3.6728303072251021e-02
         - 1.7948894802513511e-03
         - 1.0086861049771462e-02
         - 1.3508910022679307e-02
         - -2.5964474285720594e-02
         - 6.2033306177670406e-03
         - -3.9820180121377009e-03
         - -1.3279927767963745e-02
         - -1.9811979415238633e-03
         - 1.6451124378213479e-02
         - -1.7994655929010693e-02
         - -1.3877118298093358e-02
         - -3.9664082266887852e-03
         - -1.3903659139095900e-02
         - -1.9925263848662778e-02
         - 1.0312634275547386e-02
         - 1.1379606500135262e-02
         - 5.3480695102989416e-03
         - -5.2672492379595044e-03
         - -1.3949400104205199e-02
         - 2.7196735903400594e-02
         - -5.3500180263126862e-03
         - 7.9528027203446807e-04
         - 1.2895052183992284e-02
         - -1.1364588668520037e-03
         - -1.2623819140449041e-04
         - 1.5655190385531297e-02
         - 2.0121087542664767e-02
         - 1.4745013433201266e-02
         - 1.7020940557661471e-02
         - -1.1119724403682215e-02
         - -6.4772371024210268e-03
         - -1.8694593491729524e-02
         - 8.8888297150373635e-03
         - -7.4259518645966045e-03
         - 2.4544315252576495e-02
         - -1.8008264436570089e-02
         - 1.5339809344490253e-02
         - -1.7969112665866784e-02
         - 2.2373347699580271e-03
         - -1.8252994234370438e-02
         - 6.4146214496801218e-03
         - 2.0113732833642291e-03
         - -1.2493425516806138e-03
         - -1.7372277242286873e-02
         - 1.2137427429955661e-02
         - -1.0823155830649347e-02
         - -9.8554836020709868e-03
         - -1.4179391561304886e-02
         - -1.2066908853974444e-03
         - 3.4097716606654886e-02
         - -1.8427034968295723e-02
         - -3.1066191166014842e-03
         - 1.8461737958218229e-02
         - 1.5143749529850203e-02
         - -2.4529537942052284e-02
         - -8.9996422328284253e-03
         - -1.3462567833758932e-02
         - 2.7130051486408406e-03
         - 1.2330281184878835e-02
         - 9.4575579653661396e-03
         - -2.3403249254985007e-03
         - 3.5067015580548468e-03
         - 2.3938723784921907e-03
         - -1.2634563451797561e-03
         - -7.9704439550768932e-03
         - 2.1566307646982770e-03
         - -1.3660731909601106e-03
         - 4.6841258995910612e-04
         - -1.6516770133754719e-02
         - -1.6055151314639728e-02
         - 7.9733855138568004e-04
         - -1.5638158319431052e-03
         - -1.6368809341694312e-04
         - 1.4871809454395932e-02
         - 1.5389311559678045e-03
         - 8.5199746575330190e-03
         - -1.8140375525621224e-02
         - -2.0390531887632110e-02
         - 1.0736486858147475e-02
         - 4.7467985845839524e-03
         - 1.8205121275231821e-02
         - -1.8736536028958952e-03
         - 2.3306378627273075e-03
         - -1.6688215676547793e-02
         - -1.6137770638039999e-02
         - -3.1734252237046803e-02
         - -3.8748519670757033e-03
         - -6.9795908993392358e-03
         - -8.7581974599146312e-03
         - 8.8164264471167538e-03
         - -2.1939790607226153e-03
         - 1.9410020699582636e-03
         - -2.0969854587677612e-03
         - -8.8015955264030450e-03
         - 9.2588172155186697e-03
         - 1.5417183164511508e-02
         - -7.7989078196817625e-03
         - 6.9371905434322490e-03
         - 5.7033258852473238e-03
         - -2.8936267189192087e-03
         - -4.7576491679459220e-03
         - -8.1304996598295983e-03
         - -6.9273114740461671e-03
         - -2.2135102970963265e-02
         - 6.0078185232053747e-03
         - 2.3479820408386851e-03
         - 1.7949349842665375e-02
         - 4.7422985121142492e-05
         - -2.5555090702292231e-03
         - 1.1370362891287107e-02
         - 1.5410907252762914e-02
         - -1.4030827035572440e-02
         - 1.2696407269408900e-02
         - 2.4890202209457080e-02
         - -2.5449549043124521e-03
         - 1.4356674423710756e-02
         - -1.2472352062256647e-02
         - 1.5483996751003315e-02
         - -6.1267839390984720e-03
         - -1.5528147036702630e-02
         - -7.4566056187042376e-04
         - -2.5084588342243115e-03
         - 7.2892389184618768e-03
         - -1.4809368270040689e-02
         - 1.0630708279683453e-02
         - 1.9928085071381229e-02
         - -3.7209475517257762e-03
         - -7.7227313399965674e-03
         - 9.5095158041634195e-03
         - -8.6789754817193313e-03
         - -1.8434808196624651e-02
         - 8.2559417605034494e-03
         - 1.8341744180697589e-02
         - -1.8213812382609031e-03
         - 1.6715590053097053e-03
         - -1.1328918750140582e-02
         - 8.4983557997862162e-04
         - 4.1735392803308596e-03
         - 2.9449343648061191e-03
         - 4.4210528885972860e-03
         - 1.3504105678597415e-02
         - -1.5744316619438235e-02
         - 1.6670628688933840e-02
         - 8.1962598375878747e-04
         - -6.8268146548611883e-03
         - 1.6014619214196526e-02
         - -5.6085183585097391e-03
         - 2.8486465204308493e-03
         - 5.4178845538459209e-04
         - -1.2116396775914900e-02
         - -1.2306184692471562e-02
         - 2.6673745725161097e-03
         - -9.3528764013308483e-03
         - -1.1076511090454743e-02
         - -7.2839702362846757e-03
         - 7.9567605551968297e-03
         - -2.3448384689308460e-02
         - -6.7956239778372840e-03
         - -9.2760633905231340e-03
         - 7.8919470040840593e-03
         - 1.5722416400916723e-02
         - 1.0133141519192356e-02
         - -2.1042185881116602e-03
         - -2.0347883556440953e-02
         - -2.3428088120267965e-02
         - -1.0635730802439039e-03
         - 8.1850011607924225e-04
         - 5.2144435312627578e-03
         - -1.3904192937316578e-02
         - -2.2053693302776397e-02
         - -3.4922744572045542e-03
         - 1.1075625062735789e-02
         - 9.6173062832907736e-03
         - 3.5651861955408973e-04
         - -4.2394886663803324e-03
         - 3.2100626716869609e-03
         - -5.9327158515343238e-03
         - -2.0377388603497061e-02
         - 1.1571459035825444e-02
         - 6.9410769585020416e-03
         - 1.4339111492238129e-02
         - -1.6172286383985067e-02
         - -1.3764122809845550e-02
         - -2.6076022478727968e-02
         - -9.9004492782813463e-03
         - -2.5919905496345888e-02
         - 2.2978207910160237e-04
         - -4.0989397664235871e-03
         - 1.2103586268450060e-02
         - 2.0879218990852752e-02
         - 7.1967415754623275e-03
         - -3.0827412630338759e-03
         - 9.1836279336834307e-03
         - -8.3940029061486642e-03
         - 2.7559240379878648e-02
         - 1.6198812802502054e-02
         - 1.9957637380730465e-03
         - -1.4874883683994745e-03
         - -7.3139461077403869e-03
         - 3.8885948001824767e-04
         - -8.7927938624483681e-03
         - -1.7261395260026853e-02
         - -1.9166033439783643e-02
         - 1.2556813210798217e-02
         - -7.8439308490603921e-03
         - -1.0195128331911782e-02
         - 2.0774758531650162e-02
         - 2.5123859546742670e-02
         - 1.5123146606011077e-02
         - 1.8777227388884290e-02
         - 5.8484255686269476e-03
         - -1.4237317877350518e-02
         - 7.8254027016970689e-03
         - 2.0773363222169883e-02
         - -7.5559588934824406e-03
         - 1.4003366160856809e-02
         - -6.0486255709374355e-03
         - 1.8973185773743080e-02
         - -1.6091429943633904e-02
         - -4.7737687959220473e-03
         - 7.9302361150984518e-03
         - 1.3310647385130470e-03
         - 4.4879257560948389e-03
         - -1.3288487925574402e-02
         - 7.3085543932441500e-03
         - 4.0966730000079020e-03
         - 1.5236626439212564e-02
         - -6.7919600731984652e-03
         - 7.9899249703652662e-03
         - -1.0014264063106888e-02
         - -3.0556542054611606e-02
         - 1.1607850110247984e-02
         - 1.7127896132774569e-02
         - 4.0737232261633047e-03
         - -3.4634793806737969e-03
         - 1.1239823276301398e-02
         - -9.7665374530757527e-04
         - -7.6823941128523580e-03
         - 2.9107824517831396e-04
         - -2.6229804091057154e-04
         - 8.4964231347497438e-03
         - -1.6696846305378300e-02
         - 5.1427776800131875e-03
         - 5.8062507981001031e-03
         - -1.7920461912733669e-02
         - 1.1481489195988121e-02
         - -5.0781168639056568e-03
         - -8.8474275278866994e-03
         - 3.1963227925979984e-06
         - -1.8934305223378980e-02
         - -1.4866009460869793e-02
         - -3.7629157586094213e-03
         - 1.4845593112319552e-02
         - -1.2304939138855484e-02
         - 1.5156810535827155e-02
         - 1.1198743540167713e-03
         - -1.8747349738958360e-02
         - -9.7544161590884283e-03
         - -3.0447773800131351e-02
         - -1.1812294209667045e-02
         - -4.3196250944506787e-03
         - -3.7154204564557188e-03
         - 2.8953292251599743e-03
         - -1.8467092435656349e-03
         - -8.4172393749229399e-03
         - 7.7535905605861074e-03
         - 6.4010258211324967e-04
         - 4.8996697458024525e-03
         - -3.6665819392255506e-03
         - 5.4445760623360066e-03
         - -7.4756710513243238e-03
         - -3.9237080816297721e-03
         - 1.1663350404043040e-02
         - -2.1288161377026944e-02
         - -9.4903513924832865e-03
         - 1.3695245690936628e-03
         - -4.1903184674836249e-03
         - 1.6701273080373842e-02
         - -5.2620024771166882e-03
         - -6.0319548107984769e-03
         - 1.1885035395130271e-02
         - -2.3436702763155893e-02
         - -2.2683800988778691e-02
         - 2.2192052551974151e-04
         - 6.5233433544666900e-04
         - -2.3496952976069413e-04
         - -1.1954611775968446e-02
         - 9.5753512303121801e-03
         - 2.2935900590373624e-02
         - -3.5568818203706446e-04
         - 1.5918817836981666e-02
         - -1.9244175836550304e-02
         - -1.5928589173398507e-02
         - -1.4533603675435349e-02
         - 2.9160073178985123e-02
         - -4.1567250180884223e-03
         - 9.0952742692804404e-03
         - -7.8947351005523182e-03
         - -3.9731714390634412e-03
         - 5.3284687433914433e-03
         - 9.5690045176689744e-03
         - 1.0385143490881526e-02
         - 3.9542628489319179e-03
         - 2.3360008749230166e-02
         - 6.4696378503065026e-03
         - -1.0344595670592538e-02
         - -4.9148753095467250e-03
         - 1.1769996169799680e-03
         - 8.4953964022563919e-03
         - 1.0957402677301567e-02
         - -2.8284035277118371e-04
         - -1.2260170253984669e-02
         - -7.0816313879581965e-03
         - -6.5328341775118086e-03
         - -5.1031018121171483e-03
         - 1.6524259168642509e-02
         - 1.0192304264382668e-02
         - -6.7412793414843152e-04
         - -1.9370468262295076e-02
         - 9.9922134783822104e-03
         - 9.8514635669625199e-03
         - -1.5185200480084619e-02
         - 1.1835786080448751e-02
         - -1.4151427019174524e-02
         - 1.0427517258749739e-02
         - -1.1039472399038356e-02
         - 2.0224708816237044e-02
         - -2.6216456873041317e-03
         - 7.5731407851194650e-03
         - -1.0005382155323391e-02
         - 3.8677911196966164e-04
         - -9.7220818386706681e-03
         - -4.9065049158919091e-03
         - -1.1117645965863447e-02
         - 4.7729141242197851e-03
         - 4.8917849297360405e-03
         - 1.9118139860081370e-02
         - -1.3054982107914878e-02
         - 1.1461439224678253e-03
         - -1.2084025955336980e-02
         - 4.0468670176188116e-04
         - -7.5626505185017578e-03
         - 7.0835610992676700e-03
         - 3.8941302014712867e-02
         - -1.4344763420421940e-02
         - -9.0580058998125691e-03
         - -6.6274176341215921e-03
         - -4.0765189676227644e-02
         - 6.3857698761997693e-03
         - -1.0803739600964675e-02
         - 9.9599164697091402e-04
         - -1.2322192182108021e-02
         - 3.4405228939111973e-03
         - 5.8851985121163820e-04
         - 2.5050044016492962e-03
         - 1.7060530083960834e-03
         - 9.9712511509987278e-03
         - -1.1106168238013407e-02
         - 1.3807247110134816e-02
         - -6.0184857203444461e-03
         - 3.5761358580573182e-03
         - -8.9629983396084193e-04
         - 4.1531340868450660e-03
         - -1.2768499475394131e-03
         - 6.4870124525365520e-03
         - -3.2904996525571074e-03
         - -5.1962285944307423e-03
         - 1.6481086935438850e-02
         - -8.1906172004466340e-03
         - 2.6848750138655083e-03
         - 4.6683990396724174e-03
         - -8.6386517370384093e-04
         - -9.0710965816099033e-03
         - -4.4391353312347951e-03
         - 1.0653617350598166e-02
         - 2.5253287060628751e-03
         - 2.6848444560583756e-03
         - -9.4671705950107455e-04
         - 4.2531997214823904e-03
         - 4.8966750664552567e-03
         - 5.1986729056103164e-03
         - 2.5862122308720628e-03
         - -7.6608423720051150e-04
         - 1.2540530100979096e-02
         - 7.1030556102515780e-03
         - 1.1691711807926471e-02
         - 4.0421037852790120e-03
         - -1.2101286059128608e-02
         - 5.1097580959462976e-03
         - 6.4764251010214361e-03
         - -1.4531503701572461e-03
         - -1.8765463386121184e-03
         - 5.4297049481341697e-03
         - -1.2356493597771197e-02
         - -2.4748675834782101e-03
         - -3.9038719272844184e-04
         - 1.8976221688876344e-03
         - -3.6080392823664136e-03
         - 8.8395850460353288e-03
         - -7.4705624902619682e-03
         - 6.2050453025229877e-03
         - -4.1347235226666963e-03
         - 1.8991541207189447e-03
         - -5.5293324823125871e-03
         - 4.9182970632304082e-03
         - 4.2250578435209015e-03
         - -1.1518819205010959e-03
         - 7.5980023560091644e-03
         - 9.2325227143926943e-03
         - -2.4600391783503313e-03
         - 4.0759146337503152e-03
         - -1.1881522602802929e-02
         - -4.2104008642519777e-03
         - -4.7909892464742350e-03
         - -9.6453261846458672e-03
         - 6.8419200590367733e-03
         - -1.4881444667009074e-03
         - -6.3328330137506304e-03
         - 4.2533494841859738e-04
         - -1.8114761922070511e-03
         - -4.5198558151529188e-03
         - 8.3816249306060808e-03
         - -7.6243154016754980e-03
         - 4.9104138476750887e-04
         - 2.2145373271901655e-03
         - -8.9285470354135538e-04
         - -1.2618875564975193e-02
         - 4.1023431482359544e-03
         - 2.6639288472188444e-03
         - -4.3700244472145260e-03
         - 3.2974228742232410e-03
         - -1.1680869202059433e-02
         - 2.6522048546617368e-03
         - 3.1423942352991523e-03
         - -3.4841104603094575e-03
         - -2.3762282492229506e-03
         - 3.8966130236395636e-03
         - -2.4415630586953362e-03
         - 3.2233920816655071e-03
         - -3.1278503548745834e-03
         - 2.8216920126818128e-03
         - 1.9838335227627939e-03
         - 8.6914783598592829e-04
         - -5.7488175637484932e-04
         - -6.5332336749592624e-03
         - -8.6878841629297824e-03
         - -4.0472518549824251e-03
         - 4.3468897060669909e-03
         - 6.1892097630691220e-03
         - 1.0754745841773716e-02
         - -3.8776607976577222e-03
         - 9.1883740615020821e-03
         - -8.7992541434660180e-03
         - 2.7427863922673264e-03
         - 2.4779625909736504e-03
         - 4.0428246948184168e-03
         - 4.9705615760290813e-03
         - -8.0240873004209148e-03
         - -1.3653836408900322e-02
         - -3.6547083802027968e-03
         - 2.8539102352258192e-03
         - 3.0101029758308299e-03
         - -4.7563370784753714e-03
         - 1.8267956580572562e-03
         - 1.2926739887233595e-02
         - -6.6467854671204089e-03
         - -7.9735255948524264e-03
         - -3.4276722041673754e-03
         - 1.6092342162090822e-02
         - 1.3158054585605801e-02
         - -1.2634951615386721e-02
         - -2.8201415948997692e-03
         - -1.1738458973120406e-02
         - -8.5300934242621314e-03
         - -9.0135028974208924e-03
         - -1.1134797624348249e-02
         - 2.2842714651858170e-03
         - 1.2828659176369828e-02
         - -8.1153968485657316e-04
         - 3.3165875893934283e-03
         - -1.6920221642896222e-02
         - 2.5996269835901718e-03
         - 1.3519147866933886e-02
         - -7.3641217494073170e-03
         - 8.0919228816620826e-04
         - 1.3704759066027328e-02
         - -1.0285522773222455e-02
         - 1.4081404683382521e-03
         - 4.0543126771714118e-03
         - -7.9109468937060539e-03
         - -3.2968605596712208e-03
         - -5.6912991909552650e-03
         - 9.1231819988600560e-04
         - 2.0322132007809419e-02
         - -1.1833053800863677e-02
         - -5.0463162633153438e-03
         - -4.8334772697069088e-03
         - -3.5692318419432074e-03
         - -5.0222086927505074e-03
         - 2.7055183346984760e-03
         - -4.7316982568466930e-04
         - 1.4689776706137013e-02
         - -1.9942928112654783e-03
         - 3.0278958980943250e-04
         - -1.1827734810164178e-02
         - -4.3681485702315274e-03
         - -7.0410656464300891e-03
         - -4.5651393527201337e-03
         - 6.4029275694693867e-03
         - -2.5015121206861064e-02
         - -1.4767848195645528e-02
         - -4.9652965370315738e-03
         - -4.1138572897883793e-03
         - -1.8686134829497773e-02
         - 7.1153801553953148e-03
         - -6.1068804982305647e-03
         - 1.0713514278852391e-02
         - -2.2153870825377873e-02
         - 8.2583371358416306e-03
         - 1.6603180501410672e-02
         - -1.1188228618035621e-02
         - -5.9647434980319792e-03
         - -1.2115055234572021e-02
         - 4.5386612250737229e-03
         - -5.5547070716095341e-03
         - -5.5447836597282496e-03
         - 1.7506335977591468e-03
         - -2.7468535311133890e-03
         - -4.8286154924940070e-03
         - 1.6817102406443164e-02
         - 1.2671996324258420e-02
         - -2.0487463699483954e-03
         - -1.9188324216330354e-03
         - -2.5977092847215173e-03
         - 1.0862238451864221e-02
         - 4.3710222464813349e-03
         - -1.5035524643559452e-03
         - 4.0236817726254318e-03
         - -9.7482239595939029e-03
         - 5.3600101170370200e-03
         - -5.8880216546178194e-03
         - 4.9599396087961966e-03
         - -7.2254392523222032e-03
         - -8.8184981786809599e-03
         - 4.4871449835626916e-03
         - 5.1560607503011173e-04
         - -4.8997114464399928e-03
         - -1.3389034716809588e-02
         - -7.5233259364609071e-03
         - 1.7320008236668280e-02
         - 5.1187791815001001e-03
         - -2.4731349395562568e-04
         - 5.2508553173672198e-03
         - 2.4118152969510115e-02
         - 1.3780843183728294e-02
         - -2.8887575719325478e-03
         - 2.2944292635794367e-03
         - 1.3486759242785605e-02
         - -1.1834953542484060e-02
         - 2.7572815659414533e-03
         - -1.1821763319173428e-02
         - 1.2796471793048351e-02
         - -1.0370274081635565e-02
         - -3.4689878952541804e-03
         - 1.6307346870027620e-02
         - -3.7547433733756005e-03
         - 8.8037135012335142e-03
         - -7.2615126537100476e-04
         - 3.4800612375689138e-03
         - 3.2593766515806387e-02
         - -7.4134417230620579e-03
         - 6.6063805819329053e-04
         - -3.6377078024259213e-03
         - -1.0415790128819379e-03
         - 1.6631350842465031e-03
         - 1.4596968127437349e-02
         - 1.1866918570910540e-02
         - 1.3343728305878906e-02
         - 4.3098835890061386e-03
         - -9.6028361014317970e-03
         - -1.7725737580799150e-02
         - -6.7971786373049901e-03
         - -4.9125269717038662e-03
         - -4.8194268470475206e-03
         - -2.2229913184064753e-03
         - 1.7167238498657159e-02
         - 1.4594783104104357e-02
         - 1.1377613843385479e-02
         - 5.9875395583973189e-03
         - 6.6474652072269552e-03
         - -6.2394496939160750e-03
         - -9.5256605006114412e-03
         - -1.0485081666432136e-03
         - 1.0844610574220991e-02
         - -1.9404683989685236e-02
         - -1.2275510844654247e-02
         - 2.0752059649923629e-02
         - 6.1357513905718041e-03
         - -4.5144351673370199e-03
         - 7.3495592614822303e-03
         - 3.2582096229651263e-03
         - 4.0460486175736206e-04
         - 9.0696086586055605e-03
         - 4.6767222689412526e-04
         - -4.6552074939478060e-03
         - -8.5021113254010532e-04
         - -1.1040992310205671e-02
         - 3.4227290509716468e-03
         - -3.2924647856363972e-03
         - 1.1334889554607815e-02
         - -6.2561957337906446e-03
         - 1.1132843836516148e-02
         - 4.4004029703057284e-03
         - -8.1331536341250794e-03
         - -7.2357553173038802e-03
         - 5.4006149929155091e-03
         - 1.1426074423021857e-02
         - -2.6076932717799151e-04
         - 4.8885129640600898e-03
         - 1.7373821039927212e-02
         - 4.8246122321109067e-03
         - -2.3539492618125895e-03
         - 1.9032552459577971e-03
         - 1.1354457263334890e-02
         - 6.5948083920325563e-03
         - 2.4302422878630573e-04
         - 9.1120458465472638e-03
         - 6.6872798843557830e-03
         - 1.4184070333688573e-02
         - -2.1767598856050559e-02
         - -2.1077791508522751e-05
         - 3.7713169894409014e-03
         - 1.7491395387939166e-03
         - 3.8920623716099164e-03
         - -5.6782577184164027e-03
         - -5.8905667025818144e-04
         - 1.8165085796966511e-02
         - -2.0345310736131290e-02
         - -1.7205063400604976e-02
         - -1.2611150834851415e-02
         - 5.9486160961499408e-03
         - -8.5023916898554885e-03
         - -7.4253220090046345e-03
         - 7.9480886091007740e-03
         - 1.0465212360417583e-02
         - -2.1907657851071034e-02
         - 5.9277133178760209e-03
         - 3.8779089701279947e-03
         - 3.3595466730872679e-03
         - -6.9506938180148017e-03
         - 4.3740429696799178e-03
         - -2.0943370243267350e-02
         - 6.9173021181581388e-03
         - -1.9887240333213655e-02
         - 4.8584736405523632e-03
         - -6.6770289208993800e-03
         - 8.0863535078439346e-03
         - -5.6872657313179458e-03
         - 2.3649429962383597e-03
         - -4.2732483234511369e-03
         - -2.5897771427302811e-02
         - -2.3323012464940052e-02
         - 6.0184955599662309e-03
         - 1.4953549057277204e-02
         - -2.1319378784003962e-03
         - 1.0054930127076391e-02
         - 1.0741595374250649e-02
         - 1.3501596348745306e-02
         - 2.8366988677043448e-02
         - 4.6220580900989067e-03
         - -2.0307881042913719e-03
         - -5.1500554112497666e-03
         - -8.5239944880077731e-03
         - -4.6328197203737561e-03
         - 1.7024119888295504e-02
         - -2.1272471893464882e-03
         - -1.2136961129271675e-02
         - 1.1395206850100892e-02
         - 3.5341283842305901e-03
         - 4.9411467574829882e-03
         - 1.0423052332145175e-02
         - 3.2072633259257262e-03
         - 2.1476616869881081e-02
         - 3.3408852664460150e-03
         - -1.9052927788259211e-03
         - 8.6480666686591153e-03
         - -1.2237353983830603e-02
         - 1.8003230470149711e-03
         - -1.3428966063207844e-02
         - -2.9932388884571112e-02
         - 3.0657649790318568e-03
         - 2.9871286554553388e-03
         - -1.3282970537533145e-02
         - 6.2211003183189331e-03
         - 8.1256265885064748e-03
         - -1.1914839561781958e-02
         - -1.5204322586537269e-02
         - -1.4684249349977635e-02
         - 3.9885260211501719e-03
         - 1.1671310726280961e-02
         - -4.3769293126826835e-03
         - 2.2503984770921266e-02
         - 1.5264785016244876e-02
         - -1.1683694011328155e-02
         - -3.2370423585275326e-03
         - 2.0174721615250732e-02
         - -2.0682261585637660e-02
         - -3.2709520710541597e-02
         - -1.0782684302871365e-03
         - -3.4935536553818723e-02
         - -2.2388593752761764e-02
         - -2.5210571578159705e-04
         - -1.9132885233283665e-02
         - -1.5232399065105526e-02
         - 1.5023448608667953e-02
         - 1.9543573176011618e-03
         - 1.2766874801923738e-02
         - -1.1182000147081858e-02
         - 8.9826338146637274e-03
         - 1.3549029864872374e-02
         - -7.2762951358846719e-03
         - -1.3064487170739360e-03
         - -2.0853220660980855e-03
         - 7.2876249029502739e-03
         - -1.6303042775595758e-02
         - -1.3026866355889394e-02
         - 5.4097326658783251e-03
         - -9.5239409611046679e-03
         - -1.7230832586857859e-02
         - 9.7424143325582011e-03
         - 1.0902177298677840e-02
         - -2.3371031326143207e-02
         - -7.2017757015245777e-03
         - -2.2641041463477809e-02
         - 1.2274976496014516e-02
         - -1.0249657736276898e-02
         - 4.2979183106555035e-03
         - 9.0344156843975756e-03
         - 2.0154663600733744e-02
         - -1.7617786304857867e-03
         - 2.2807802391554719e-03
         - 1.2242864160625274e-02
         - -4.7291089887960876e-03
         - -8.9548585621829040e-03
         - 2.0049872741027604e-02
         - -1.2757695690610710e-02
         - 1.8618847933381145e-03
         - -3.5217386796102798e-02
         - -1.0053458371986646e-02
         - 1.3639685084168050e-02
         - 1.1083482317591800e-02
         - 1.2673344855003042e-02
         - -1.9918651483181182e-02
         - 3.0151749105199979e-02
         - -1.0019428989166404e-03
         - -1.1779845416841307e-03
         - -1.3738429655310031e-03
         - -2.5943330730493698e-03
         - -9.5508536769551341e-03
         - 3.1306183228808245e-03
         - 1.0420209397579991e-02
         - 4.0014475309031313e-03
         - 4.5680922605045859e-03
         - 4.2001620550502416e-03
         - 4.9261964451154105e-03
         - -1.2991680703799814e-03
         - -4.1902636486839924e-03
         - 1.9347023163054297e-02
         - -1.1811269095467028e-02
         - 6.1729307723362948e-03
         - 1.1606317954607284e-03
         - -2.6043356751090218e-03
         - 2.1911900411825604e-03
         - -1.5169793432502148e-02
         - 6.9925966850060625e-03
         - 1.5122189381280937e-02
         - -8.8037758569700295e-03
         - 1.5500325554439625e-02
         - 5.5418712173631512e-03
         - 2.5628101752222148e-03
         - 5.6710148147304769e-03
         - 6.4943755890690636e-03
         - -3.3669100473277570e-03
         - 1.6705949355622158e-02
         - 1.4085892538526410e-02
         - 1.3743735917296318e-03
         - -3.9386908495681544e-03
         - 1.4615244085736738e-02
         - 1.1744756479533739e-02
         - 5.8599580916867738e-03
         - 1.5057281774386514e-02
         - -2.6196475388996967e-02
         - -1.4956629415845428e-03
         - -1.3891557704001686e-02
         - -2.3341227087298332e-03
         - -3.9702604981191785e-03
         - 4.2354883319330530e-03
         - -2.0744409102782337e-03
         - -2.8642966953926850e-03
         - -8.1866345000907378e-03
         - -1.4160740435167419e-03
         - 5.9360776306480387e-03
         - 1.4420741366694946e-02
         - 4.9824768469638346e-03
         - 1.9870102227577499e-02
         - -3.2821563797561654e-03
         - -1.2140393227745591e-02
         - -3.6389451982439163e-03
         - 6.1709821080856396e-03
         - 2.4119908606286900e-03
         - -5.8814505592596367e-03
         - -6.9893810296831026e-03
         - 7.6384996145429174e-03
         - -5.6798741456994001e-03
         - -1.0026865223928504e-02
         - 8.5692085977080393e-03
         - 1.1258946774251856e-02
         - 3.7774124054751512e-03
         - -7.5008505654002640e-04
         - 6.0162946080227319e-04
         - 2.5180218809329902e-02
         - 3.2601835339472001e-03
         - -4.7114504758821339e-03
         - 8.9087328711294281e-03
         - 1.1452059617831543e-03
         - 1.6418500373182620e-03
         - -6.8640614504147622e-03
         - 7.1636735734213180e-03
         - 2.1309677243213244e-03
         - -1.1720705750569852e-02
         - 1.5663880333470132e-02
         - -1.1809369550586609e-03
         - -1.1786725647033366e-02
         - -4.3784598846627930e-03
         - 2.3810656784552394e-03
         - 6.3812342371112078e-03
         - 9.1566925549788729e-03
         - -2.3743128350020827e-02
         - -1.4259471069507198e-02
         - -3.8026308250131567e-03
         - -2.9253150855972324e-03
         - -1.1449992422637839e-02
         - 1.1645122572299832e-02
         - 1.9024534020157125e-02
         - -4.0737311445022276e-03
         - 8.3962550243076566e-03
         - 4.9464181109841357e-04
         - -5.1300610688452810e-03
         - 8.6017675881746320e-03
         - -1.1096703629929344e-02
         - 4.9397365488484382e-03
         - 5.8159281670225327e-03
         - 4.8449936631808329e-03
         - 2.7337911044835811e-04
         - -1.6544581517272137e-02
         - -2.4878633223006159e-02
         - 8.1964814657434180e-03
         - 2.0421508831738398e-02
         - 5.8452875639888142e-03
         - -7.2473385136464308e-03
         - -2.6582526757082385e-02
         - -5.4495637089063314e-03
         - 2.8587672118719071e-03
         - 6.6928106598235105e-03
         - 9.3491447829661765e-03
         - -1.0814903562869658e-02
         - 9.7339090640395400e-03
         - -2.3134895511746346e-02
         - 5.0695013907962926e-03
         - -5.3276654353048300e-03
         - 5.5611289112949547e-03
         - -1.0233665535125003e-02
         - -7.8696011937032136e-03
         - 1.5573953990559525e-02
         - -3.4733192919780410e-03
         - -5.0664862356828572e-03
         - -8.6844030040850850e-03
         - 1.3686599622734120e-02
         - -6.7200461865015966e-03
         - -1.3697571502510619e-02
         - -1.3029853077384848e-02
         - 9.1799547068553890e-03
         - 1.5135632700209367e-02
         - -3.0539375398617621e-03
         - -1.2446810346373249e-02
         - 4.0938685963997929e-03
         - 1.2858679126955524e-03
         - -1.3292531984095723e-03
         - -1.6608530900224773e-02
         - 3.4379273317569148e-03
         - -5.5880938727811535e-03
         - 2.7754547760215388e-02
         - -6.7924669416709587e-04
         - 2.4032937166329302e-02
         - -2.4034592269443850e-02
         - -9.7420900080934601e-03
         - 4.3923351903287769e-03
         - 2.9363015123715190e-02
         - -6.7354129467501874e-03
         - -7.3364185562151173e-03
         - -2.9921973937675865e-03
         - -6.2518831529127781e-06
         - -1.2765797481920003e-02
         - -1.4684283814559553e-02
         - 8.7928152522359605e-04
         - 1.3393920406720449e-02
         - -8.7379830663770856e-03
         - -2.5847047858553067e-02
         - -2.1116667187070417e-02
         - -8.0384690934904961e-03
         - -1.4281985397513389e-02
         - 2.0550643678881132e-02
         - -8.2205653165624646e-03
         - -1.3710973181903549e-02
         - 1.1095809123984226e-02
         - -2.4116060767145914e-02
         - 9.9116425747045166e-03
         - -4.5278715808717285e-03
         - 2.6900763621705626e-02
         - -8.8171595020139250e-03
         - -6.5746271636205333e-03
         - -9.2389251772367498e-03
         - -1.0380556791964065e-02
         - 9.6271911624256808e-03
         - -2.0225087419885941e-02
         - -6.2357589606035083e-03
         - -7.6359978041383369e-03
         - -6.0325239260912702e-03
         - -1.8576220459303773e-02
         - 6.3980095805502447e-03
         - 1.2414830608048024e-03
         - 3.8675647786676113e-03
         - -7.3894575564493904e-03
         - -1.1214107693820132e-02
         - -8.0052064276299392e-03
         - -1.3985167201518602e-02
         - -3.2445055808601887e-02
         - 7.9077996959499575e-03
         - -1.1460489367960036e-02
         - 2.5774346067115293e-02
         - -8.9753751005180633e-03
         - 4.5965051900448981e-03
         - 7.5921520488373589e-04
         - -2.9312915340055101e-02
         - 2.0280802242546501e-02
         - 8.5525821267047816e-03
         - 1.2820688491726871e-02
         - 4.8549048518492840e-03
         - -3.4617498949657335e-03
         - 2.0167634029827522e-03
         - 2.5383084883188578e-02
         - 2.6532376726585271e-03
         - -1.7059731702294970e-02
         - 2.5975943992410486e-03
         - 2.7995010289149226e-02
         - 3.8508051029616619e-03
         - 1.8620467405384988e-02
         - -1.3162657065828247e-02
         - 2.0073512842974841e-02
         - -8.0043243740576357e-03
         - -1.8220932575348930e-02
         - -2.6768000737608200e-02
         - -5.2627354288246170e-04
         - 2.6483612571217983e-02
         - 2.9727397908903150e-02
         - -7.7645082954081951e-03
         - -3.7853508811584824e-03
         - 2.0530747372356464e-02
         - 2.2928211042928654e-02
         - 2.9239241683245279e-02
         - -3.3411360907778715e-03
         - -1.1553998744663342e-02
         - -1.7365785370446186e-02
         - 4.0593077250754723e-04
         - 8.3842194793328668e-03
         - -1.1224248635812756e-02
         - 5.3472523730832130e-03
         - 2.2968059930424892e-02
         - -1.6898601302128655e-02
         - -4.7803701069900712e-03
         - -1.1446286020733359e-02
         - -7.2174706693523916e-04
         - 3.3424336042092708e-03
         - 3.5286859696580762e-02
         - 1.6366501442021033e-02
         - 5.3803673665257214e-02
         - -8.4602860748290848e-03
         - 9.3718107298546970e-03
         - -1.8231836988925179e-02
         - -1.8916150265665205e-02
         - -4.2110988378609550e-03
         - 1.8990593324674777e-02
         - -2.3471318204873103e-02
         - 1.1843912735011760e-02
         - -1.5221735493916129e-02
         - -2.7886349733644192e-02
         - 4.3135496213536585e-03
         - -1.7173591519074549e-02
         - 5.4801020255396127e-03
         - 6.4591093225630633e-03
         - 1.5766061108949517e-02
         - 2.3648184911762533e-02
         - 2.8974184234937611e-02
         - -1.2128068724313270e-02
         - -6.0138913761305863e-03
         - 2.2965211932331656e-02
         - -4.0588602132607288e-02
         - -5.8384502113053623e-03
         - -2.6338382228892534e-03
         - -2.1316133571394606e-02
         - -1.0979258138330979e-02
         - 8.4376605514493545e-03
         - -2.6698078899105294e-02
         - -5.3194643537867015e-02
         - 1.5096045393846279e-02
         - -4.4800939262792279e-03
         - 6.0346639026070794e-03
         - -3.1115663452328975e-02
         - 5.5614646168420248e-03
         - 2.0094555316911150e-02
         - -1.8676345314685532e-02
         - -1.1926279779382040e-02
         - -7.7895844338153756e-03
         - -3.3749527393417320e-03
         - -7.7913513241262963e-03
         - -2.3573603355361294e-02
         - -7.3042219848458581e-03
         - 9.4979369469297328e-03
         - -9.0517546399075752e-03
         - 1.2033895907256878e-02
         - 3.4937419649655813e-02
         - -1.8858030057245498e-02
         - -2.6840162262840351e-02
         - -1.2722800179560609e-03
         - 1.4750664613436168e-02
         - 6.1540938655060421e-03
         - -7.6350738273408669e-03
         - 2.0807861643282174e-02
         - 3.5477798440103750e-02
         - -7.9530703899155369e-03
         - -6.0450764837883860e-03
         - 3.4125984208886656e-02
         - -1.7518373752504830e-02
         - -7.6941584349938513e-03
         - 2.6103081299356328e-02
         - -2.2224198442892792e-02
         - -1.0623125809783623e-02
         - -3.7148052461161707e-03
         - -5.1289689228667954e-03
         - 4.3533658627395957e-02
         - 2.3086195087017140e-02
         - -8.6412388151655851e-03
         - -2.8161513800944692e-03
         - 3.5867125328454222e-02
         - 6.7889518606327158e-03
         - 1.0237728699930828e-02
         - 1.8656873800313729e-02
         - -4.9215654256078130e-03
         - 1.9178099300057583e-02
         - -1.0098926550783134e-02
         - 1.2795188098228882e-02
         - 8.6102321835607230e-04
         - 1.5326798426196293e-02
         - -2.7182642560161650e-03
         - 1.4511618204479722e-02
         - -7.7518860803061076e-03
         - -2.0293157826516427e-02
         - 6.7851479047310545e-04
         - -1.4514054467782270e-02
         - 1.6341542712927971e-02
         - 2.0342654378102173e-02
         - 4.6987675611902960e-03
         - -4.0081415642113736e-03
         - 2.9603265629169475e-03
         - -9.3007220965992483e-04
         - 7.3318916644869172e-04
         - 3.8708627435087998e-03
         - -4.8730474012560667e-04
         - -7.0517953632381466e-03
         - -1.2769438711808453e-02
         - -1.3272146708038805e-02
         - 1.0455491270482675e-02
         - -1.5497224144273243e-02
         - 1.8614759488532324e-02
         - 1.9057499865261712e-02
         - 1.6443390948465236e-02
         - 1.7493456289651019e-02
         - -8.4760867751056922e-03
         - 6.6813117985627338e-03
         - 1.8969267334267230e-02
         - 2.6287246778574527e-03
         - 6.6771846908374732e-03
         - 1.1512436587913876e-02
         - -5.3304395302420258e-03
         - -2.3914183524340712e-02
         - -9.3990574504057914e-03
         - -1.5286713329250863e-03
         - -1.6181892939000047e-04
         - 2.0170494938160722e-03
         - -1.0381040857924725e-02
         - 1.5534046654803896e-02
         - -5.5168467701647069e-03
         - 8.5225315255817412e-03
         - -4.9479451175232243e-03
         - 9.5961359635426124e-03
         - -7.4585851714172730e-03
         - -4.5480403294439640e-03
         - 2.0330483111913721e-02
         - 5.5766646957505283e-05
         - 6.1521904161963578e-03
         - 1.2705039409422771e-02
         - -4.8573166803773955e-03
         - 1.9443227808956257e-02
         - 9.1926329985349154e-03
         - -1.4171676288673196e-02
         - 3.6759140838552506e-03
         - -9.9204995299998280e-03
         - -2.9973646094240136e-03
         - -3.1360487070640260e-03
         - -6.4783167657435307e-03
         - 8.7344349136226820e-03
         - 1.0546851029057995e-02
         - -1.5557886118224363e-03
         - 5.8315875323200076e-03
         - 1.0109854025068548e-02
         - -2.0989856301103635e-03
         - -1.6404420224371517e-02
         - 1.8753757233129126e-02
         - 9.6118881287240651e-03
         - -1.8888350662783385e-03
         - 1.2998318079328079e-02
         - 6.9829579559169850e-03
         - -7.5816617033950715e-05
         - 2.7859755663759079e-02
         - -5.2181056181083282e-03
         - 1.4091769471347585e-02
         - 1.1622384502959452e-04
         - -1.4284038133443613e-02
         - -8.9279949325101922e-03
         - 3.0761441924583694e-03
         - -1.4369614697150252e-02
         - -2.8266782659706878e-03
         - 6.6312158365159791e-03
         - -4.6970483002511075e-03
         - -1.3671367080534813e-02
         - -1.0620325857892873e-02
         - 7.8602146812648925e-03
         - 3.6989115892795119e-02
         - 4.0905947151193035e-03
         - 1.9392282780367023e-03
         - -4.7703641592015764e-03
         - 3.0898161303167422e-03
         - 5.9146458526592822e-03
         - -1.2258943929587532e-02
         - -1.9535566531292659e-03
         - -3.5729886838501983e-03
         - 1.8876344704173261e-02
         - 6.4625042267197029e-03
         - 5.4147987644351542e-03
         - -9.3445595280913386e-03
         - -9.1065499751469606e-04
         - 8.9460184000786855e-03
         - -2.8915862567160115e-03
         - 9.4351643616274270e-03
         - 5.8025010803443820e-03
         - -1.2784579399395667e-03
         - 7.6784382835385419e-04
         - -5.0039992072938751e-03
         - -2.1652715254977576e-03
         - 9.2478648737994943e-03
         - -6.0864645915448788e-03
         - -5.6133455332475378e-03
         - -4.7937316370874452e-03
         - -4.0660227294700077e-05
         - -5.6238742840239156e-03
         - 1.6194191085586208e-03
         - 2.7743434493020100e-03
         - 1.7543735921826571e-02
         - -1.3978349080564105e-02
         - -1.0607093236873080e-02
         - -1.3452351420992841e-02
         - 1.2600423704698833e-02
         - -1.4461980483015256e-03
         - 5.2538601995785229e-03
         - 5.1762095923326285e-03
         - 6.0625711877517752e-03
         - -4.9718837941900495e-03
         - 6.4492376898853945e-03
         - -4.1743998579074149e-03
         - -4.6910431584997877e-03
         - 5.9799361672812999e-03
         - -9.6300223187244828e-03
         - 3.6105216781793750e-04
         - 1.0925554663951590e-02
         - -1.9120636461707977e-02
         - -1.2096783599481376e-02
         - 2.2058501834721364e-03
         - 4.7994599993512700e-03
         - -5.2884309613701228e-04
         - 3.5255398122947996e-04
         - 4.0471070657735692e-03
         - 1.1128632528364688e-02
         - 2.2788585914902569e-03
         - -3.4012624336054263e-03
         - 1.4030363852203862e-02
         - 8.8620068137680336e-04
         - -6.5009264291476122e-03
         - -1.0515826311565913e-02
         - 9.8748346557985065e-04
         - -6.3838717294298188e-03
         - -4.5047492203522214e-03
         - -1.2325960305562074e-03
         - -4.5451677024184534e-03
         - -7.6485491627044724e-03
         - -1.6739805425317741e-03
         - -1.5930232387495989e-02
         - 9.1971720781255390e-03
         - 1.8809582015454885e-03
         - 2.0213293720652510e-02
         - -4.6313951921386582e-03
         - 3.6500463660681316e-03
         - 2.3041618795726511e-03
         - -2.1429182802419115e-02
         - 1.4168038825644323e-02
         - -1.6201633596310233e-03
         - -3.2344292185654557e-03
         - -2.1384652460530525e-03
         - -2.4295993216575493e-03
         - -4.9436928314069385e-03
         - 1.3861998114790927e-02
         - 7.3893847640173682e-03
         - 7.0626951400026773e-04
         - -1.1589604246540876e-02
         - 5.7514733160622840e-03
         - 8.9104477403100337e-04
         - 3.4886841852949306e-03
         - -8.7153429148824624e-03
         - -2.8818802980555042e-03
         - -1.6118853602438865e-02
         - 1.6618323387882401e-02
         - -8.7377434126181680e-03
         - 3.0036359881713643e-03
         - 1.3625089369089852e-03
         - -1.0001543438818917e-02
         - 6.3568095034513862e-03
         - -2.7634776527413115e-04
         - 7.8532846167232804e-03
         - 6.8541978756269150e-03
         - 6.3660811369772223e-04
         - 2.0839447146726287e-03
         - 8.4946867078248174e-03
         - 2.9026486185406773e-03
         - 3.5612752205132908e-03
         - 3.2614930670262767e-03
         - 8.3270812364243524e-03
         - 3.0909946549207974e-03
         - 2.6667878080857441e-02
         - 1.3087815691813505e-03
         - 1.0512826789299743e-02
         - -2.4085990637007150e-02
         - 6.0701536394220318e-03
         - 7.9798167512569376e-03
         - 1.9644997013916907e-02
         - -1.3103619488832519e-04
         - 3.6834888603206025e-03
         - -2.2330729477520904e-03
         - -1.1864833960574480e-03
         - -6.5480276125133895e-03
         - 4.5897774076077320e-03
         - -6.8406366983345184e-03
         - 5.8007824287540392e-03
         - -3.4481826408447672e-03
         - -1.5105054433137054e-02
         - -5.7590332684793692e-03
         - -4.4511072879907998e-03
         - -1.6165003326835924e-02
         - 1.2235977646277154e-02
         - 7.5439239641101538e-03
         - -2.5339967756748860e-03
         - 1.1927653298296312e-03
         - -2.0071407581480242e-02
         - 7.4719320230694705e-03
         - 7.3722776748605771e-03
         - 6.1437876695083146e-03
         - 9.0135201702065664e-03
         - 1.8403410592854160e-02
         - 4.2101911421304317e-04
         - -8.3312592060473013e-03
         - -8.7548865870567556e-03
         - -1.4447676825275483e-02
         - -8.7842439237532013e-03
         - 1.1991734482494198e-02
         - 1.2416693383223343e-02
         - 7.9937417991903202e-03
         - -2.0332415522402444e-02
         - -6.0778374419887926e-04
         - -1.9391094918883047e-02
         - 5.6747234820589678e-03
         - 4.2726073802861753e-03
         - 5.1136063209444122e-03
         - 6.6498699548779593e-04
         - 1.1326242155447714e-02
         - -1.2007360469714267e-02
         - -5.3696058966824145e-03
         - -4.4691976619194874e-03
         - 6.5012004727024487e-03
         - 1.2875040246193151e-03
         - 3.3216246069011205e-03
         - -5.3310373575151454e-03
         - -2.9223075729503171e-02
         - 2.4058492031267093e-03
         - 4.8485533440302594e-03
         - 2.3151151238670498e-03
         - -1.4941940195503912e-02
         - -1.0864421812258741e-03
         - -1.6296411776193575e-02
         - -7.9975940078558377e-03
         - -1.7014923562457662e-02
         - 2.0450655137784591e-02
         - -1.2655497647327454e-02
         - -8.8997153820554072e-03
         - -3.7081387784623078e-03
         - -6.9252483499095650e-03
         - 1.7424817901922442e-02
         - -1.1601321666704991e-02
         - -7.2233977264496291e-03
         - -1.7288253150955678e-02
         - 1.4042850593594016e-03
         - -1.7102588413804139e-02
         - 3.6003673178826905e-02
         - 1.4231945108415332e-02
         - -5.5243137113595003e-03
         - -1.2716712003699246e-02
         - 5.6646129593239929e-03
         - 7.8065751289816366e-03
         - 1.2274295281916753e-02
         - -1.0365960133205386e-03
         - 5.9465595701894917e-03
         - 5.3189246179802677e-03
         - 1.3918519151894775e-02
         - -1.2597702483628761e-02
         - 2.0620755798838621e-02
         - -9.0256839614088948e-03
         - -2.5570066025582736e-02
         - 6.1063454031427854e-04
         - 7.1921476366920336e-03
         - -4.2209589540135100e-03
         - 1.6133050773565819e-02
         - -1.1856304348547959e-02
         - 9.9618404127729421e-03
         - 1.4272730589985225e-02
         - 1.6914312781812192e-02
         - -6.5349249386578744e-04
         - 1.6175406958507429e-02
         - -6.8202587768411479e-04
         - -3.6216885218353224e-03
         - 1.1057924577447573e-02
         - 1.5883359355831048e-02
         - 8.6026789186340567e-03
         - 1.2990869223562412e-02
         - -5.4943904735757542e-03
         - 8.6486394369714118e-03
         - -7.4447038077994588e-03
         - -4.4301043249553833e-04
         - 4.4618334461937401e-03
         - -1.1975397288865604e-02
         - -2.7445198756303555e-03
         - -6.5831654255057472e-03
         - 3.2330752429034727e-03
         - 2.2459681681745364e-02
         - 1.0658887518282034e-02
         - -9.0391762535163758e-03
         - -1.3213995573975831e-02
         - 1.4261198969830002e-02
         - 9.9697190280592842e-03
         - 1.7529748513519509e-02
         - 9.2775605427611683e-03
         - 6.1444858455746805e-03
         - 4.4951796861254769e-03
         - -1.2345565477365142e-02
         - -1.1985740354359778e-02
         - 1.5542149430576616e-02
         - 9.6481426492132996e-03
         - -3.6631634934074183e-03
         - 5.7900964194484558e-03
         - 2.1460458939223490e-03
         - 9.5249809066999102e-03
         - 1.9786595115984469e-02
         - -1.6245685549936219e-03
         - 2.3052708493199896e-02
         - 9.5439554192253417e-03
         - 1.6171885125283647e-03
         - 4.0752104592860980e-03
         - -6.2621876443048151e-05
         - -2.2461417926020102e-02
         - -9.6399246567814012e-03
         - 8.3930331621456071e-03
         - 1.3083307609902466e-02
         - 1.6707439996782664e-02
         - -3.6060408700460235e-03
         - 4.3443971549679734e-04
         - -6.0667335131794698e-03
         - 1.2510556911453556e-02
         - -2.2193488508152080e-02
         - 5.0044148115530821e-03
         - -2.6970883862053835e-03
         - -9.0326183325373025e-03
         - 5.5987088572956711e-03
         - -8.8551682319380817e-03
         - 1.2337280479622381e-02
         - -7.0951475807207766e-03
         - 3.7856677932262169e-03
         - 5.7022601827552179e-03
         - 7.3962590087772763e-03
         - -8.6792847416934816e-03
         - 2.7272591793881013e-03
         - -6.0552838503309305e-03
         - 3.5443211964165939e-03
         - 3.0243294856535288e-03
         - 7.7409496420999136e-03
         - 1.1986439991667101e-02
         - 1.9889895644901262e-02
         - -1.3938889190829550e-03
         - 2.1092620812590935e-02
         - 2.7668270675574561e-04
         - 2.4406225803619393e-02
         - -6.0637405505058022e-03
         - 7.7611966504356053e-03
         - 1.0544193195334266e-02
         - -1.7964521334453563e-02
         - -7.3907429342494769e-04
         - 1.5288213633932221e-02
         - -5.0074258911561543e-03
         - 1.1626906229673554e-02
         - -2.8272870878693229e-03
         - -1.1657776619213923e-03
         - -2.5914425045243986e-03
         - -1.4389055581894485e-02
         - -1.8095256916542325e-02
         - -1.8787985673537971e-03
         - 5.9272421124602730e-03
         - -1.6054439359788935e-02
         - 2.9817373062488322e-03
         - -1.0903320586317164e-02
         - 1.1372783857286510e-02
         - -6.7221383006287171e-03
         - 1.4676319163318874e-03
         - 2.0050110737564960e-02
         - -3.4562245328656708e-03
         - -3.3429532595739483e-03
         - 2.6194482894775131e-03
         - -1.4776243754597784e-03
         - -3.9146518334484768e-03
         - -1.6122393535005251e-02
         - -2.3657143775805394e-02
         - -4.8694249533742552e-03
         - 1.0005641939846543e-02
         - -5.2444230264654850e-03
         - 1.6144878212439005e-02
         - 5.0996403158796218e-03
         - 3.6662856471941563e-02
         - 1.2728862958565429e-02
         - 1.3208386877277357e-02
         - -1.3306989823924857e-02
         - 4.1744823025935570e-04
         - 1.8670192811395072e-03
         - -2.8253283365184543e-02
         - 1.6148197598501161e-02
         - -3.4047741463127258e-02
         - -1.4686948642946797e-02
         - 5.7807319552281413e-03
         - 1.1137528234838491e-02
         - 1.4900561961177488e-02
         - 6.6236551506756629e-03
         - -7.5715244160435820e-03
         - -8.3776272732944627e-04
         - 6.7947629244612768e-03
         - -7.5131953495998017e-03
         - 1.3236274647100818e-03
         - -9.2036298815899569e-03
         - 1.2196474363170321e-02
         - -4.6390447930193231e-03
         - -2.6702678470690744e-02
         - 2.1216444653112593e-02
         - 3.5046572316927275e-03
         - -2.5558305336147041e-02
         - -4.8051030661286388e-03
         - -1.6629868724218726e-02
         - 1.8917342829204618e-02
         - 2.1549037294782171e-02
         - 5.1258537585376308e-03
         - -1.1287757172737136e-02
         - 9.8817799570650230e-03
         - -2.5564628462208944e-02
         - -3.2475719452734119e-03
         - 1.6948385723835422e-02
         - 1.1041746629086263e-03
         - 1.6689575200091636e-02
         - -2.6509515012582852e-03
         - -1.8052447912836809e-02
         - -1.2785441703778485e-03
         - -2.4205356267068132e-02
         - -1.6363612442934956e-02
         - 3.2274302531905626e-03
         - 1.6881721745367766e-02
         - -9.1138309972926164e-03
         - 1.9819925378998168e-02
         - 2.2001879720214536e-02
         - 2.0077612293346609e-02
         - 2.9384311288045500e-02
         - 1.8162071137392093e-02
         - -1.6198535567150264e-02
         - 1.9539610941316350e-02
         - 2.7995707860728723e-02
         - -1.7620264416498697e-02
         - 1.2997039239305659e-02
         - -1.8357294752615671e-02
         - 2.3758467087465370e-02
         - 2.8873712464050124e-03
         - -1.6871924992119036e-02
         - 1.1527488037832653e-02
         - 1.2023217276471824e-02
         - -1.1220179542350535e-02
         - -3.5630712779000876e-03
         - 2.5485259235309074e-02
         - 8.4863369871910101e-03
         - -2.2645646116083207e-02
         - 1.0141378662553603e-02
         - 9.9982866097156203e-03
         - 1.3009959069571992e-02
         - 7.8849346662943998e-04
         - 2.1721978264727167e-02
         - -3.0222358182025030e-03
         - 2.2348615159530259e-02
         - -2.1927277603100412e-02
         - 1.8028631191662540e-02
         - -9.5983179466535094e-03
         - -8.4624726754217606e-03
         - -1.2272432044333691e-02
         - 2.0019419233988801e-02
         - -1.1915671063685979e-02
         - -1.7668448236646751e-02
         - 2.7630801320814431e-02
         - 5.7751999227299575e-03
         - -2.7557884963342230e-02
         - 1.4905882508793739e-02
         - 7.2223848394130262e-03
         - 3.7457493227858789e-02
         - 8.2666691991461656e-03
         - -1.9941459274891327e-02
         - -1.3566952620330794e-02
         - 1.2648950232471361e-02
         - 7.5664620083266184e-03
         - -2.5250320648902026e-02
         - -1.7694181821232217e-02
         - 4.3839094918822078e-03
         - -2.1467664106174485e-03
         - 4.3532683806864845e-03
         - 6.4575950794406763e-03
         - 1.0684526714400700e-02
         - 2.2752184586301849e-02
         - 1.9860451715754544e-02
         - 2.1663396217504989e-03
         - -1.4032187300408498e-02
         - -1.5558198945539654e-02
         - 4.6814871217356821e-04
         - -8.5783319599166373e-03
         - -7.1271722154679596e-03
         - -2.4263707054276790e-02
         - -1.5007994158763841e-02
         - 6.1831725614320838e-03
         - 3.3222115689865756e-03
         - 6.0710952907267008e-03
         - 8.3710301001962487e-03
         - -8.1277130507269215e-04
         - 8.8342418083812678e-03
         - -4.5504467092591077e-03
         - -2.3033103667008465e-02
         - 1.4314517194121010e-02
         - 7.0225376186740292e-03
         - 1.2485506444746233e-02
         - -1.8445548610381069e-03
         - -1.3377062360293091e-02
         - -1.8850046863332102e-02
         - -5.7718208289125267e-03
         - -1.9252963232667546e-02
         - 1.3300090897451855e-03
         - -1.4030811054427900e-02
         - 1.5543582597972935e-02
         - 1.5508345013167219e-02
         - -1.0687676983410636e-04
         - -1.5651897836665614e-03
         - 9.5939650609719700e-03
         - -1.9504259998151165e-02
         - 7.5078743108476457e-03
         - 1.8416263133943497e-02
         - 7.9444229221740312e-03
         - 1.3051678925480356e-02
         - 6.7892541922624956e-03
         - -5.9043305382801663e-03
         - -1.1326265468487970e-03
